{"learner":{"attributes":{"best_iteration":"99","best_ntree_limit":"100","scikit_learn":"{\"use_label_encoder\": false, \"n_estimators\": 100, \"objective\": \"binary:logistic\", \"max_depth\": null, \"max_leaves\": null, \"max_bin\": null, \"grow_policy\": null, \"learning_rate\": null, \"verbosity\": null, \"booster\": null, \"tree_method\": null, \"gamma\": null, \"min_child_weight\": null, \"max_delta_step\": null, \"subsample\": null, \"sampling_method\": null, \"colsample_bytree\": null, \"colsample_bylevel\": null, \"colsample_bynode\": null, \"reg_alpha\": null, \"reg_lambda\": null, \"scale_pos_weight\": null, \"base_score\": null, \"missing\": NaN, \"num_parallel_tree\": null, \"random_state\": null, \"n_jobs\": -6, \"monotone_constraints\": null, \"interaction_constraints\": null, \"importance_type\": null, \"gpu_id\": null, \"validate_parameters\": null, \"predictor\": null, \"enable_categorical\": false, \"max_cat_to_onehot\": null, \"eval_metric\": null, \"early_stopping_rounds\": null, \"callbacks\": null, \"kwargs\": {\"seed\": 15}, \"classes_\": [0, 1], \"n_classes_\": 2, \"_estimator_type\": \"classifier\"}"},"feature_names":[],"feature_types":[],"gradient_booster":{"model":{"gbtree_model_param":{"num_parallel_tree":"1","num_trees":"100","size_leaf_vector":"0"},"tree_info":[0,0,0,0,0,0,0,0,0,0,0,0,0,0,0,0,0,0,0,0,0,0,0,0,0,0,0,0,0,0,0,0,0,0,0,0,0,0,0,0,0,0,0,0,0,0,0,0,0,0,0,0,0,0,0,0,0,0,0,0,0,0,0,0,0,0,0,0,0,0,0,0,0,0,0,0,0,0,0,0,0,0,0,0,0,0,0,0,0,0,0,0,0,0,0,0,0,0,0,0],"trees":[{"base_weights":[-0E0,8.47202E-1,-9.7528505E-1,-2.7356124E-1,1.2914782E0,-1.2180383E0,3.4841105E-1,9.4727606E-1,-8.4054625E-1,1.4274782E0,-7.9016216E-2,2.0750827E-1,-1.5578088E0,9.0972954E-1,-6.918183E-1,2.9182187E-1,1.6405325E0,-1.3508838E0,-3.1290647E-1,3.4870625E-1,1.5219731E0,-1.5017973E0,5.018573E-1,-1.7361881E-1,1.9591799E0,-1.7412523E0,-7.740762E-1,1.227156E0,-7.543496E-1,-4.7955424E-1,-1.563119E0,1.8165728E0,-2.3240753E-1,1.8089654E0,-1.3928752E0,1.0460435E0,-1.4980781E0,-6.409193E-1,5.4181427E-1,7.9953074E-1,-1.2972283E0,1.5979726E0,2.6650268E-1,-1.640386E0,1.580766E0,1.3762956E0,3.9876875E-2,1.0326755E0,-5.659106E-1,-5.962791E-1,1.9826716E0,-1.131737E0,-1.824077E0,-1.5434942E0,6.6021465E-2,-8.345874E-2,1.4272377E0,4.400525E-2,-1.3556454E0,-8.10549E-1,5.927785E-2,-1.855478E0,-5.5962586E-1,5.880284E-1,-5.9870344E-1,1.4588691E-1,-1.6057149E-1,5.58475E-1,-1.9095986E-1,1.5428573E-1,-5.2289504E-1,-5.994848E-1,5.276549E-1,4.9524775E-1,-4.709399E-1,2.4782714E-1,-2.3245862E-1,2.8629205E-1,-4.575036E-1,-1.428482E-1,4.2348906E-1,2.6034716E-1,-4.5536396E-1,-3.9339684E-2,4.944744E-1,-1.5581378E-1,2.1200378E-1,-3.1230459E-2,-5.270022E-1,5.946206E-1,-5.9322035E-1,-5.0895005E-1,4.663012E-1,-3.3337182E-1,1.7568518E-1,3.953902E-1,-4.8340732E-1,-3.3085826E-1,1.4299451E-1,5.954655E-1,-5.625E-1,4.2201477E-1,-4.3950424E-1,-5.559606E-1,-3.257793E-1,3.687306E-3,-4.927839E-1,9.040439E-2,-5.323319E-1,2.5974357E-1,-3.4486082E-1,-1.3239619E-1,4.617679E-1,1.9640239E-1,-3.6508164E-1,-5.0725216E-1,-8.433146E-2,-1.1202214E-1,-4.2324296E-1,-4.4802782E-1,8.721021E-2,8.145985E-2,-5.7107955E-1,-3.67175E-1,3.911939E-1],"categories":[],"categories_nodes":[],"categories_segments":[],"categories_sizes":[],"default_left":[0,0,0,0,0,0,0,0,0,0,0,0,0,0,0,0,0,0,0,0,0,0,0,0,0,0,0,0,0,0,0,0,0,0,0,0,0,0,0,0,0,0,0,0,0,0,0,0,0,0,0,0,0,0,0,0,0,0,0,0,0,0,0,0,0,0,0,0,0,0,0,0,0,0,0,0,0,0,0,0,0,0,0,0,0,0,0,0,0,0,0,0,0,0,0,0,0,0,0,0,0,0,0,0,0,0,0,0,0,0,0,0,0,0,0,0,0,0,0,0,0,0,0,0,0],"id":0,"left_children":[1,3,5,7,9,11,13,15,17,19,21,23,25,27,29,31,33,35,37,39,41,43,45,47,49,51,53,55,57,59,61,63,65,67,69,71,73,75,77,79,81,83,85,87,89,91,93,95,97,-1,99,101,103,105,107,109,111,113,115,117,119,121,123,-1,-1,-1,-1,-1,-1,-1,-1,-1,-1,-1,-1,-1,-1,-1,-1,-1,-1,-1,-1,-1,-1,-1,-1,-1,-1,-1,-1,-1,-1,-1,-1,-1,-1,-1,-1,-1,-1,-1,-1,-1,-1,-1,-1,-1,-1,-1,-1,-1,-1,-1,-1,-1,-1,-1,-1,-1,-1,-1,-1,-1,-1],"loss_changes":[1.6614795E6,5.358098E5,3.0036738E5,2.1144794E5,1.4363125E5,3.8259425E5,8.458467E4,4.4020336E4,5.616928E4,7.146225E4,5.7495633E4,1.0149868E5,9.1705125E4,4.970115E4,9.389322E3,3.9804523E4,2.4057297E4,3.741272E4,2.875429E4,4.1898145E4,6.1502E4,8.618742E3,1.9956432E4,5.908935E4,2.5228672E3,2.6091625E4,7.820348E4,2.0720812E4,7.2359336E3,7.281657E3,2.9167754E3,6.9748945E3,8.065643E3,5.74075E3,1.6549878E3,1.3317635E4,2.256489E4,1.4564428E4,2.4251611E4,3.4610676E4,5.8011016E3,5.2835625E4,1.2728139E4,3.4480117E3,1.2436948E3,9.345217E3,2.0307244E4,2.311622E4,5.2747477E4,0E0,2.3430469E2,5.2316883E4,9.780875E3,9.738109E3,2.505038E4,1.0592796E4,1.4345672E4,4.98783E3,3.0962676E3,6.6359414E3,5.5833613E3,7.887617E2,2.7811616E3,0E0,0E0,0E0,0E0,0E0,0E0,0E0,0E0,0E0,0E0,0E0,0E0,0E0,0E0,0E0,0E0,0E0,0E0,0E0,0E0,0E0,0E0,0E0,0E0,0E0,0E0,0E0,0E0,0E0,0E0,0E0,0E0,0E0,0E0,0E0,0E0,0E0,0E0,0E0,0E0,0E0,0E0,0E0,0E0,0E0,0E0,0E0,0E0,0E0,0E0,0E0,0E0,0E0,0E0,0E0,0E0,0E0,0E0,0E0,0E0,0E0,0E0],"parents":[2147483647,0,0,1,1,2,2,3,3,4,4,5,5,6,6,7,7,8,8,9,9,10,10,11,11,12,12,13,13,14,14,15,15,16,16,17,17,18,18,19,19,20,20,21,21,22,22,23,23,24,24,25,25,26,26,27,27,28,28,29,29,30,30,31,31,32,32,33,33,34,34,35,35,36,36,37,37,38,38,39,39,40,40,41,41,42,42,43,43,44,44,45,45,46,46,47,47,48,48,50,50,51,51,52,52,53,53,54,54,55,55,56,56,57,57,58,58,59,59,60,60,61,61,62,62],"right_children":[2,4,6,8,10,12,14,16,18,20,22,24,26,28,30,32,34,36,38,40,42,44,46,48,50,52,54,56,58,60,62,64,66,68,70,72,74,76,78,80,82,84,86,88,90,92,94,96,98,-1,100,102,104,106,108,110,112,114,116,118,120,122,124,-1,-1,-1,-1,-1,-1,-1,-1,-1,-1,-1,-1,-1,-1,-1,-1,-1,-1,-1,-1,-1,-1,-1,-1,-1,-1,-1,-1,-1,-1,-1,-1,-1,-1,-1,-1,-1,-1,-1,-1,-1,-1,-1,-1,-1,-1,-1,-1,-1,-1,-1,-1,-1,-1,-1,-1,-1,-1,-1,-1,-1,-1],"split_conditions":[1.6083118E0,1.126999E5,7.486126E6,1.0667408E-1,2.5312896E-3,4.030084E-1,1.7082658E-1,1.0511537E7,4.362994E5,8.519283E0,1.3492616E-1,1.5299228E-1,4.634638E6,8.4252216E-2,2.476686E-1,1.1039712E-2,1.9233528E-1,1.5170786E-1,8.191689E-2,7.746414E-4,5.4074414E-2,4.033922E1,1.0952806E-1,8.867978E-2,5.028604E-2,5.660659E-4,1.2346713E1,4.0806454E-2,7.13947E-2,3.6738786E-1,6.114775E5,2.2187917E-2,8.695352E0,2.276626E-1,-1.3781248E0,3.4995105E0,1.0933544E-2,3.0715207E-2,2.580869E1,1.3817498E1,4.962365E-2,3.309338E-2,1.5369488E-1,8.269418E-2,-1.6051536E0,1.2236715E-2,2.6126473E0,7.599209E0,3.2052918E6,-5.962791E-1,1.0962311E1,1.1320523E-1,1.7574491E6,1.3212787E-2,7.0131734E-2,1.1533723E-1,7.763877E0,8.842E1,1.1045875E1,1.1531803E-1,6.160093E-1,-2.5439367E0,1.0150975E0,5.880284E-1,-5.9870344E-1,1.4588691E-1,-1.6057149E-1,5.58475E-1,-1.9095986E-1,1.5428573E-1,-5.2289504E-1,-5.994848E-1,5.276549E-1,4.9524775E-1,-4.709399E-1,2.4782714E-1,-2.3245862E-1,2.8629205E-1,-4.575036E-1,-1.428482E-1,4.2348906E-1,2.6034716E-1,-4.5536396E-1,-3.9339684E-2,4.944744E-1,-1.5581378E-1,2.1200378E-1,-3.1230459E-2,-5.270022E-1,5.946206E-1,-5.9322035E-1,-5.0895005E-1,4.663012E-1,-3.3337182E-1,1.7568518E-1,3.953902E-1,-4.8340732E-1,-3.3085826E-1,1.4299451E-1,5.954655E-1,-5.625E-1,4.2201477E-1,-4.3950424E-1,-5.559606E-1,-3.257793E-1,3.687306E-3,-4.927839E-1,9.040439E-2,-5.323319E-1,2.5974357E-1,-3.4486082E-1,-1.3239619E-1,4.617679E-1,1.9640239E-1,-3.6508164E-1,-5.0725216E-1,-8.433146E-2,-1.1202214E-1,-4.2324296E-1,-4.4802782E-1,8.721021E-2,8.145985E-2,-5.7107955E-1,-3.67175E-1,3.911939E-1],"split_indices":[6,84,81,42,52,4,25,81,79,2,39,12,79,20,18,32,19,18,20,52,55,3,22,33,21,52,10,32,39,40,79,61,47,18,162,2,32,4,7,10,48,48,22,38,118,13,0,46,79,0,47,17,81,49,27,23,7,6,7,39,9,141,132,0,0,0,0,0,0,0,0,0,0,0,0,0,0,0,0,0,0,0,0,0,0,0,0,0,0,0,0,0,0,0,0,0,0,0,0,0,0,0,0,0,0,0,0,0,0,0,0,0,0,0,0,0,0,0,0,0,0,0,0,0,0],"split_type":[0,0,0,0,0,0,0,0,0,0,0,0,0,0,0,0,0,0,0,0,0,0,0,0,0,0,0,0,0,0,0,0,0,0,0,0,0,0,0,0,0,0,0,0,0,0,0,0,0,0,0,0,0,0,0,0,0,0,0,0,0,0,0,0,0,0,0,0,0,0,0,0,0,0,0,0,0,0,0,0,0,0,0,0,0,0,0,0,0,0,0,0,0,0,0,0,0,0,0,0,0,0,0,0,0,0,0,0,0,0,0,0,0,0,0,0,0,0,0,0,0,0,0,0,0],"sum_hessian":[2.010833E6,1.0760765E6,9.347565E5,3.0547175E5,7.7060475E5,7.89897E5,1.448595E5,9.687625E4,2.085955E5,7.0103775E5,6.9567E4,1.520315E5,6.378655E5,9.40885E4,5.0771E4,4.97965E4,4.707975E4,1.060355E5,1.0256E5,5.6462E4,6.4457575E5,2.01675E4,4.93995E4,1.248645E5,2.7167E4,5.16881E5,1.209845E5,7.901625E4,1.507225E4,4.08265E4,9.9445E3,1.273975E4,3.705675E4,4.46035E4,2.47625E3,6.1345E3,9.9901E4,7.411675E4,2.844325E4,4.43225E4,1.21395E4,6.077835E5,3.679225E4,1.930025E4,8.6725E2,1.7076E4,3.23235E4,3.064125E4,9.422325E4,1.6025E2,2.700675E4,6.183625E4,4.5504475E5,6.314825E4,5.783625E4,1.046525E4,6.8551E4,6.4755E3,8.59675E3,2.52905E4,1.5536E4,7.70025E3,2.24425E3,1.2278E4,4.6175E2,1.098525E4,2.60715E4,4.366425E4,9.3925E2,3.84E2,2.09225E3,1.1635E3,4.971E3,2.22425E3,9.767675E4,6.2005E3,6.791625E4,2.37115E4,4.73175E3,1.437125E4,2.995125E4,1.1225E3,1.1017E4,1.71725E4,5.90611E5,1.3209E4,2.358325E4,1.35825E3,1.7942E4,7.7975E2,8.75E1,9.3475E2,1.614125E4,1.03955E4,2.1928E4,2.76575E4,2.98375E3,6.219225E4,3.2031E4,2.699175E4,1.5E1,7.176E3,5.466025E4,4.3777025E5,1.72745E4,3.78225E3,5.9366E4,5.128025E4,6.556E3,5.536E3,4.92925E3,3.876E3,6.4675E4,4.363E3,2.1125E3,6.55225E3,2.0445E3,1.46345E4,1.0656E4,2.0145E3,1.35215E4,1.7025E2,7.53E3,1.65475E3,5.895E2],"tree_param":{"num_deleted":"0","num_feature":"188","num_nodes":"125","size_leaf_vector":"0"}},{"base_weights":[-3.7911246E-4,6.318177E-1,-7.28145E-1,-2.039786E-1,9.620365E-1,-9.074446E-1,2.83585E-1,6.993256E-1,-6.206365E-1,1.0566438E0,-2.2999838E-1,-1.1160151E-1,-1.2599611E0,6.9730425E-1,-5.321417E-1,1.2357928E-1,1.1967405E0,-9.29802E-1,8.085833E-2,-3.9065766E-1,1.1180111E0,-6.8491685E-1,5.47901E-1,1.0813249E0,-3.921759E-1,-1.4146309E0,-7.91676E-1,9.2751396E-1,-5.1100284E-1,-5.9361935E-1,1.553356E0,1.4240456E0,-3.8413623E-1,1.3604088E0,-9.505089E-1,-1.2144307E0,-3.7095955E-1,-4.1519317E-1,6.348606E-1,-1.0385566E0,1.447949E0,-1.8905727E0,1.1406667E0,-2.330562E-1,-1.4304721E0,-9.998899E-1,8.289603E-1,-1.1296211E0,1.4648986E0,-1.0876404E0,1.6263704E-1,-1.448715E0,-7.4313825E-1,-1.1251001E0,3.762296E-1,-6.700878E-1,1.0310156E0,-1.1591561E-3,-1.2507961E0,-3.7946478E-1,-1.3537828E0,-5.975591E-1,1.68972E0,4.5587793E-1,-4.6938848E-1,-2.1894294E-1,1.04116686E-1,4.240965E-1,-1.7530268E-1,-3.7214953E-1,5.749891E-1,1.7296772E-2,-4.1693038E-1,-2.4485919E-1,4.8659395E-2,-1.6919859E-2,-3.345487E-1,-4.6313068E-1,2.3805185E-1,-3.908872E-1,5.866327E-2,-5.848794E-1,4.898001E-1,2.4263729E-1,-6.8200016E-1,-3.1202096E-2,3.574919E-1,-5.0927633E-1,9.1230236E-2,-4.5118544E-1,2.7713546E-1,2.0357996E-1,-5.154005E-1,-6.537552E-1,2.8188536E-1,4.8304167E-1,-4.473901E-1,4.6200785E-1,-3.268218E-1,-4.1113198E-1,-1.6405226E-1,-2.0176674E-1,2.3711357E-1,-4.4571763E-1,-3.6382982E-1,-1.4421032E-2,-3.2548258E-1,-3.673569E-1,7.422703E-2,2.0893829E-1,-5.0148416E-1,3.6023173E-1,-3.2532242E-1,-1.2618745E-2,3.5016203E-1,1.2817882E-1,-2.5293586E-1,2.2083814E-1,-4.2248455E-1,-1.2950691E-2,-2.3104993E-1,-4.3844384E-1,3.2790035E-2,-5.7327676E-1,5.2863246E-1],"categories":[],"categories_nodes":[],"categories_segments":[],"categories_sizes":[],"default_left":[0,0,0,0,0,0,0,0,0,0,0,0,0,0,0,0,0,0,0,0,0,0,0,0,0,0,0,0,0,0,0,0,0,0,0,0,0,0,0,0,0,0,0,0,0,0,0,0,0,0,0,0,0,0,0,0,0,0,0,0,0,0,0,0,0,0,0,0,0,0,0,0,0,0,0,0,0,0,0,0,0,0,0,0,0,0,0,0,0,0,0,0,0,0,0,0,0,0,0,0,0,0,0,0,0,0,0,0,0,0,0,0,0,0,0,0,0,0,0,0,0,0,0,0,0],"id":1,"left_children":[1,3,5,7,9,11,13,15,17,19,21,23,25,27,29,31,33,35,37,39,41,43,45,47,49,51,53,55,57,59,61,63,65,67,69,71,73,75,77,79,81,83,85,87,89,91,93,95,97,99,101,103,105,107,109,111,113,115,117,119,121,-1,123,-1,-1,-1,-1,-1,-1,-1,-1,-1,-1,-1,-1,-1,-1,-1,-1,-1,-1,-1,-1,-1,-1,-1,-1,-1,-1,-1,-1,-1,-1,-1,-1,-1,-1,-1,-1,-1,-1,-1,-1,-1,-1,-1,-1,-1,-1,-1,-1,-1,-1,-1,-1,-1,-1,-1,-1,-1,-1,-1,-1,-1,-1],"loss_changes":[8.782577E5,2.819326E5,1.609711E5,1.0888222E5,8.257606E4,2.1147162E5,4.508339E4,2.6152266E4,4.2936992E4,6.0251625E4,1.905366E4,7.744853E4,3.7835312E4,2.4655246E4,5.7644893E3,2.794829E4,1.7218969E4,2.1857164E4,1.6643814E4,3.2873074E4,4.4360375E4,1.1444972E4,8.643936E3,3.7367625E4,7.2283086E4,8.9865E3,5.0507938E4,1.2311328E4,5.3502705E3,7.108159E3,6.257964E2,3.3963672E3,7.6949756E3,4.7147344E3,2.8878186E3,2.0306953E4,1.1008027E4,8.0248354E3,9.889946E3,6.658338E3,4.5159375E3,5.02775E3,4.0980188E4,1.664239E4,2.2191523E3,3.6820708E3,5.599461E3,6.457677E3,7.2068906E3,1.2712891E4,5.463338E4,3.2616875E3,4.5071357E3,1.3768922E4,1.8891688E4,3.5129968E3,1.0218492E4,3.029853E3,1.8119756E3,4.4765312E3,1.5124473E3,0E0,3.266577E2,0E0,0E0,0E0,0E0,0E0,0E0,0E0,0E0,0E0,0E0,0E0,0E0,0E0,0E0,0E0,0E0,0E0,0E0,0E0,0E0,0E0,0E0,0E0,0E0,0E0,0E0,0E0,0E0,0E0,0E0,0E0,0E0,0E0,0E0,0E0,0E0,0E0,0E0,0E0,0E0,0E0,0E0,0E0,0E0,0E0,0E0,0E0,0E0,0E0,0E0,0E0,0E0,0E0,0E0,0E0,0E0,0E0,0E0,0E0,0E0,0E0,0E0],"parents":[2147483647,0,0,1,1,2,2,3,3,4,4,5,5,6,6,7,7,8,8,9,9,10,10,11,11,12,12,13,13,14,14,15,15,16,16,17,17,18,18,19,19,20,20,21,21,22,22,23,23,24,24,25,25,26,26,27,27,28,28,29,29,30,30,31,31,32,32,33,33,34,34,35,35,36,36,37,37,38,38,39,39,40,40,41,41,42,42,43,43,44,44,45,45,46,46,47,47,48,48,49,49,50,50,51,51,52,52,53,53,54,54,55,55,56,56,57,57,58,58,59,59,60,60,62,62],"right_children":[2,4,6,8,10,12,14,16,18,20,22,24,26,28,30,32,34,36,38,40,42,44,46,48,50,52,54,56,58,60,62,64,66,68,70,72,74,76,78,80,82,84,86,88,90,92,94,96,98,100,102,104,106,108,110,112,114,116,118,120,122,-1,124,-1,-1,-1,-1,-1,-1,-1,-1,-1,-1,-1,-1,-1,-1,-1,-1,-1,-1,-1,-1,-1,-1,-1,-1,-1,-1,-1,-1,-1,-1,-1,-1,-1,-1,-1,-1,-1,-1,-1,-1,-1,-1,-1,-1,-1,-1,-1,-1,-1,-1,-1,-1,-1,-1,-1,-1,-1,-1,-1,-1,-1,-1],"split_conditions":[1.4193467E0,1.0310343E5,8.3578065E6,1.0700774E-1,1.2226325E-2,1.6806055E-2,1.7257285E-1,8.3578065E6,2.1402094E1,5.218744E0,2.2272911E1,9.7196616E-2,5.2788763E0,8.42193E-2,2.091537E-1,1.1041001E-2,1.92596E-1,1.2326411E6,6.141386E-2,8.35457E-2,9.959238E-3,1.3232003E-1,1.4594013E-2,2.4800334E0,1.4321198E-1,2.794848E6,6.2237315E6,2.9843388E-2,1.572277E-2,2.159087E-1,5.2386064E-2,2.2183644E-2,1.26E4,2.287592E-1,1.4071096E6,1.344374E-1,7.514683E-2,1.1545089E-3,1.6708591E1,2.0011081E-1,5.3295355E0,4.452776E-2,3.2902848E-2,7.684652E-2,2.2150593E-1,4.4525824E-2,1.1027513E-2,-2.3009036E0,2.3897501E1,8.727115E0,9E2,6.12E4,1.5346006E4,4.0167864E-2,1.079187E-1,7.775864E-2,4.249272E-3,1.3575669E-1,-1.9155922E0,8.6526363E-4,1.7666206E2,-5.975591E-1,6.117898E-2,4.5587793E-1,-4.6938848E-1,-2.1894294E-1,1.04116686E-1,4.240965E-1,-1.7530268E-1,-3.7214953E-1,5.749891E-1,1.7296772E-2,-4.1693038E-1,-2.4485919E-1,4.8659395E-2,-1.6919859E-2,-3.345487E-1,-4.6313068E-1,2.3805185E-1,-3.908872E-1,5.866327E-2,-5.848794E-1,4.898001E-1,2.4263729E-1,-6.8200016E-1,-3.1202096E-2,3.574919E-1,-5.0927633E-1,9.1230236E-2,-4.5118544E-1,2.7713546E-1,2.0357996E-1,-5.154005E-1,-6.537552E-1,2.8188536E-1,4.8304167E-1,-4.473901E-1,4.6200785E-1,-3.268218E-1,-4.1113198E-1,-1.6405226E-1,-2.0176674E-1,2.3711357E-1,-4.4571763E-1,-3.6382982E-1,-1.4421032E-2,-3.2548258E-1,-3.673569E-1,7.422703E-2,2.0893829E-1,-5.0148416E-1,3.6023173E-1,-3.2532242E-1,-1.2618745E-2,3.5016203E-1,1.2817882E-1,-2.5293586E-1,2.2083814E-1,-4.2248455E-1,-1.2950691E-2,-2.3104993E-1,-4.3844384E-1,3.2790035E-2,-5.7327676E-1,5.2863246E-1],"split_indices":[6,84,81,42,59,5,25,81,82,1,7,19,1,20,38,32,19,79,55,36,16,4,61,1,22,81,79,16,50,34,36,61,84,18,72,26,36,58,7,34,9,36,48,4,23,85,28,182,3,1,84,82,80,50,14,26,50,25,153,51,43,0,48,0,0,0,0,0,0,0,0,0,0,0,0,0,0,0,0,0,0,0,0,0,0,0,0,0,0,0,0,0,0,0,0,0,0,0,0,0,0,0,0,0,0,0,0,0,0,0,0,0,0,0,0,0,0,0,0,0,0,0,0,0,0],"split_type":[0,0,0,0,0,0,0,0,0,0,0,0,0,0,0,0,0,0,0,0,0,0,0,0,0,0,0,0,0,0,0,0,0,0,0,0,0,0,0,0,0,0,0,0,0,0,0,0,0,0,0,0,0,0,0,0,0,0,0,0,0,0,0,0,0,0,0,0,0,0,0,0,0,0,0,0,0,0,0,0,0,0,0,0,0,0,0,0,0,0,0,0,0,0,0,0,0,0,0,0,0,0,0,0,0,0,0,0,0,0,0,0,0,0,0,0,0,0,0,0,0,0,0,0,0],"sum_hessian":[1.9088751E6,1.0215091E6,8.87366E5,2.8929444E5,7.322147E5,7.537805E5,1.335855E5,9.131817E4,1.9797625E5,6.7837475E5,5.3839965E4,2.313914E5,5.223891E5,8.8632914E4,4.4952586E4,4.2326945E4,4.8991227E4,1.374142E5,6.056204E4,2.7593615E4,6.507811E5,3.397271E4,1.986725E4,4.4059496E4,1.873319E5,3.9268672E5,1.2970238E5,7.4448945E4,1.418397E4,4.3666082E4,1.2865018E3,1.1884386E4,3.044256E4,4.5521816E4,3.469412E3,9.104312E4,4.637109E4,3.195231E4,2.8609727E4,2.0403977E4,7.1896377E3,4.8633594E3,6.4591775E5,2.1153479E4,1.2819233E4,3.0528235E3,1.6814428E4,6.513465E3,3.754603E4,8.312845E4,1.0420345E5,3.7371622E5,1.8970502E4,1.0089734E5,2.8805037E4,4.529428E3,6.9919516E4,8.397596E3,5.786374E3,3.406947E4,9.596612E3,4.714741E1,1.2393545E3,1.1516691E4,3.6769498E2,2.0670506E4,9.772054E3,4.4308934E4,1.2128799E3,3.1512537E3,3.181583E2,1.1028813E4,8.0014305E4,2.5268736E4,2.1102355E4,2.1125023E4,1.0827288E4,1.9413293E3,2.6668396E4,1.6803785E4,3.6001926E3,3.7023782E2,6.8193994E3,6.0382983E2,4.25953E3,2.5411443E4,6.205063E5,5.6759976E3,1.5477481E4,1.2431589E4,3.8764478E2,9.147569E2,2.1380667E3,5.9592554E2,1.6218502E4,7.5917535E2,5.754289E3,3.647366E4,1.0723704E3,5.4583605E4,2.8544848E4,4.471341E4,5.949004E4,3.2303962E5,5.0676598E4,6.25398E3,1.2716521E4,9.408232E4,6.815028E3,2.4910346E4,3.8946921E3,8.2087494E2,3.7085535E3,7.874597E3,6.204492E4,5.5659287E3,2.831667E3,4.2468237E2,5.361692E3,1.8310148E4,1.5759321E4,8.938645E3,6.579671E2,2.392465E1,1.2154298E3],"tree_param":{"num_deleted":"0","num_feature":"188","num_nodes":"125","size_leaf_vector":"0"}},{"base_weights":[-1.8490726E-3,4.9366456E-1,-5.811071E-1,7.2946674E-1,-3.2326007E-1,-7.424918E-1,1.7155202E-1,1.9767311E-1,8.9389575E-1,-6.462986E-1,2.595757E-1,-8.55072E-2,-1.0561392E0,4.7888047E-1,-3.6286002E-1,5.5126524E-1,-6.158049E-1,5.3052425E-1,1.086759E0,7.291588E-1,-8.0652076E-1,-6.061572E-1,5.0956976E-1,-6.0887456E-1,3.6874864E-1,-1.1534846E0,-3.7832183E-1,7.655695E-1,-3.160337E-1,-6.560146E-1,6.297172E-2,7.190041E-1,-2.5988507E-1,9.055201E-1,-9.031167E-1,7.035998E-1,-8.537399E-1,1.1195916E0,-1.4396402E0,-1.4886129E0,1.225991E0,-9.372054E-1,2.1044812E-1,-8.5636884E-1,9.49851E-1,5.9322834E-1,-1.5021943E0,7.1437716E-1,-8.551825E-1,-5.836997E-1,6.306611E-1,-1.1703337E0,4.5285472E-1,3.897301E-1,-1.1063194E0,4.7524363E-1,1.292147E0,1.3876751E-1,-1.1243404E0,-2.7654883E-1,-1.1030564E0,3.998145E-1,-6.554781E-1,2.398042E-1,-3.369437E-1,4.7398936E-2,-3.283602E-1,3.8127288E-1,-4.9154058E-1,-5.684053E-2,-3.5836077E-1,-4.4629717E-1,2.3065613E-1,-3.037319E-1,4.0415165E-1,3.4769505E-1,-2.2926971E-2,8.667159E-2,-4.9700874E-1,-4.862096E-1,-4.1842723E-1,-5.287088E-1,4.030021E-1,-2.9628533E-1,1.2440002E-1,3.1676006E-1,-1.5522075E-1,-2.9996964E-1,2.4077696E-1,4.0141973E-1,-5.451504E-1,2.0397474E-1,-3.9050525E-1,-5.662736E-1,-3.3596642E-2,-4.0983057E-1,3.5733083E-1,3.654645E-2,-3.3169955E-1,2.5816086E-1,-3.3979368E-1,2.989371E-2,3.0547813E-1,-3.635834E-1,-2.0638037E-1,7.051359E-1,-3.4700355E-1,-1.6763838E-1,2.605218E-1,1.7684259E-1,-3.7656197E-1,2.0172192E-1,-1.4317529E-1,4.0062574E-1,-3.2411563E-1,1.4516991E-1,-2.596574E-1,-3.878586E-1,-1.808216E-2,-1.271774E-2,-4.266076E-1,3.8515085E-1,-3.4552354E-1,2.2724146E-1,-1.0187628E-1,-2.8831312E-1,3.6888126E-1],"categories":[],"categories_nodes":[],"categories_segments":[],"categories_sizes":[],"default_left":[0,0,0,0,0,0,0,0,0,0,0,0,0,0,0,0,0,0,0,0,0,0,0,0,0,0,0,0,0,0,0,0,0,0,0,0,0,0,0,0,0,0,0,0,0,0,0,0,0,0,0,0,0,0,0,0,0,0,0,0,0,0,0,0,0,0,0,0,0,0,0,0,0,0,0,0,0,0,0,0,0,0,0,0,0,0,0,0,0,0,0,0,0,0,0,0,0,0,0,0,0,0,0,0,0,0,0,0,0,0,0,0,0,0,0,0,0,0,0,0,0,0,0,0,0,0,0],"id":2,"left_children":[1,3,5,7,9,11,13,15,17,19,21,23,25,27,29,31,33,35,37,39,41,43,45,47,49,51,53,55,57,59,61,63,65,67,69,71,73,75,77,79,81,83,85,87,89,91,93,95,97,99,101,103,105,107,109,111,113,115,117,119,121,123,125,-1,-1,-1,-1,-1,-1,-1,-1,-1,-1,-1,-1,-1,-1,-1,-1,-1,-1,-1,-1,-1,-1,-1,-1,-1,-1,-1,-1,-1,-1,-1,-1,-1,-1,-1,-1,-1,-1,-1,-1,-1,-1,-1,-1,-1,-1,-1,-1,-1,-1,-1,-1,-1,-1,-1,-1,-1,-1,-1,-1,-1,-1,-1,-1],"loss_changes":[4.9730378E5,1.7987894E5,9.70275E4,6.3363156E4,3.9380914E4,1.3553819E5,2.3164012E4,4.922679E4,3.8788688E4,2.965795E4,1.61434375E4,5.053164E4,2.9375562E4,2.040648E4,6.4283335E3,1.6230832E4,2.2664738E4,4.597983E4,2.9993969E4,1.5473152E4,1.6019477E4,6.5077593E3,9.741622E3,3.2189496E4,2.8385404E4,1.0537094E4,3.1262662E4,1.0060215E4,8.72556E3,5.173385E3,5.0816167E3,1.4630879E4,7.1299097E3,7.659091E3,9.07041E3,2.4392945E4,7.451208E3,1.6816719E4,1.7410488E3,2.9603516E1,4.0253164E3,7.2795703E3,8.446806E3,3.429213E3,2.4899585E3,9.128561E3,1.2379272E3,1.5373703E4,2.0376457E4,1.9458031E4,1.8368578E4,7.7325E3,1.2347258E4,1.2353854E4,7.2480703E3,7.9670674E3,2.402543E3,5.2653706E3,1.532415E3,4.424887E3,1.6287305E3,3.7807263E3,3.861912E3,0E0,0E0,0E0,0E0,0E0,0E0,0E0,0E0,0E0,0E0,0E0,0E0,0E0,0E0,0E0,0E0,0E0,0E0,0E0,0E0,0E0,0E0,0E0,0E0,0E0,0E0,0E0,0E0,0E0,0E0,0E0,0E0,0E0,0E0,0E0,0E0,0E0,0E0,0E0,0E0,0E0,0E0,0E0,0E0,0E0,0E0,0E0,0E0,0E0,0E0,0E0,0E0,0E0,0E0,0E0,0E0,0E0,0E0,0E0,0E0,0E0,0E0,0E0,0E0],"parents":[2147483647,0,0,1,1,2,2,3,3,4,4,5,5,6,6,7,7,8,8,9,9,10,10,11,11,12,12,13,13,14,14,15,15,16,16,17,17,18,18,19,19,20,20,21,21,22,22,23,23,24,24,25,25,26,26,27,27,28,28,29,29,30,30,31,31,32,32,33,33,34,34,35,35,36,36,37,37,38,38,39,39,40,40,41,41,42,42,43,43,44,44,45,45,46,46,47,47,48,48,49,49,50,50,51,51,52,52,53,53,54,54,55,55,56,56,57,57,58,58,59,59,60,60,61,61,62,62],"right_children":[2,4,6,8,10,12,14,16,18,20,22,24,26,28,30,32,34,36,38,40,42,44,46,48,50,52,54,56,58,60,62,64,66,68,70,72,74,76,78,80,82,84,86,88,90,92,94,96,98,100,102,104,106,108,110,112,114,116,118,120,122,124,126,-1,-1,-1,-1,-1,-1,-1,-1,-1,-1,-1,-1,-1,-1,-1,-1,-1,-1,-1,-1,-1,-1,-1,-1,-1,-1,-1,-1,-1,-1,-1,-1,-1,-1,-1,-1,-1,-1,-1,-1,-1,-1,-1,-1,-1,-1,-1,-1,-1,-1,-1,-1,-1,-1,-1,-1,-1,-1,-1,-1,-1,-1,-1,-1],"split_conditions":[1.4788687E0,5.3780127E-2,5.660576E6,9.0132806E5,2.2046545E6,1.6901556E-2,1.7250377E-1,1.255652E-1,4.6160545E-2,1.551503E-1,9.638069E0,7.121896E5,7.493818E6,7.0420645E-2,3.5640478E-1,4.8138267E3,1.820197E-2,1.889667E-1,5.4227702E-2,1.505298E1,2.0694353E-1,4.27205E-1,2.9453003E-1,9.68653E-2,7.068997E1,3.7769676E1,2.1651385E-2,2.7444562E-2,1.4850767E-2,9.626001E0,2.2576429E-1,3.3877525E6,7.188207E-4,1.4390416E-1,1.4475837E-1,5.628288E1,1.75753E-2,2.2367303E-1,-8.474572E-1,2.0357712E5,8.803391E-4,6.276058E5,2.0718534E-1,1.365162E0,5.642459E5,4.3206716E5,1.1737343E1,2.587814E1,6.52817E-2,6.298586E-2,2.081964E-2,8.519233E0,-4.2997923E-1,2.0178157E-1,2.6866944E0,1.2339038E-1,1.90105E-2,1.71E4,2.6349491E1,1.2299935E-1,-2.301576E0,7.832498E4,2.081724E-1,2.398042E-1,-3.369437E-1,4.7398936E-2,-3.283602E-1,3.8127288E-1,-4.9154058E-1,-5.684053E-2,-3.5836077E-1,-4.4629717E-1,2.3065613E-1,-3.037319E-1,4.0415165E-1,3.4769505E-1,-2.2926971E-2,8.667159E-2,-4.9700874E-1,-4.862096E-1,-4.1842723E-1,-5.287088E-1,4.030021E-1,-2.9628533E-1,1.2440002E-1,3.1676006E-1,-1.5522075E-1,-2.9996964E-1,2.4077696E-1,4.0141973E-1,-5.451504E-1,2.0397474E-1,-3.9050525E-1,-5.662736E-1,-3.3596642E-2,-4.0983057E-1,3.5733083E-1,3.654645E-2,-3.3169955E-1,2.5816086E-1,-3.3979368E-1,2.989371E-2,3.0547813E-1,-3.635834E-1,-2.0638037E-1,7.051359E-1,-3.4700355E-1,-1.6763838E-1,2.605218E-1,1.7684259E-1,-3.7656197E-1,2.0172192E-1,-1.4317529E-1,4.0062574E-1,-3.2411563E-1,1.4516991E-1,-2.596574E-1,-3.878586E-1,-1.808216E-2,-1.271774E-2,-4.266076E-1,3.8515085E-1,-3.4552354E-1,2.2724146E-1,-1.0187628E-1,-2.8831312E-1,3.6888126E-1],"split_indices":[6,55,81,84,79,5,25,42,55,18,47,79,79,20,40,80,27,35,48,7,38,42,18,19,43,3,13,61,50,47,25,72,52,17,42,43,52,19,103,84,53,80,23,132,73,77,9,8,4,23,13,2,9,34,10,39,50,80,8,11,121,75,35,0,0,0,0,0,0,0,0,0,0,0,0,0,0,0,0,0,0,0,0,0,0,0,0,0,0,0,0,0,0,0,0,0,0,0,0,0,0,0,0,0,0,0,0,0,0,0,0,0,0,0,0,0,0,0,0,0,0,0,0,0,0,0,0],"split_type":[0,0,0,0,0,0,0,0,0,0,0,0,0,0,0,0,0,0,0,0,0,0,0,0,0,0,0,0,0,0,0,0,0,0,0,0,0,0,0,0,0,0,0,0,0,0,0,0,0,0,0,0,0,0,0,0,0,0,0,0,0,0,0,0,0,0,0,0,0,0,0,0,0,0,0,0,0,0,0,0,0,0,0,0,0,0,0,0,0,0,0,0,0,0,0,0,0,0,0,0,0,0,0,0,0,0,0,0,0,0,0,0,0,0,0,0,0,0,0,0,0,0,0,0,0,0,0],"sum_hessian":[1.7325812E6,9.3379056E5,7.987907E5,7.2462925E5,2.0916134E5,6.577552E5,1.410355E5,1.7113842E5,5.534908E5,1.3457347E5,7.458787E4,2.1254567E5,4.4520953E5,8.9542E4,5.1493504E4,1.1928812E5,5.18503E4,1.9191311E5,3.615777E5,1.4040097E4,1.20533375E5,1.6712127E4,5.7875742E4,9.875988E4,1.1378579E5,3.8929925E5,5.5910273E4,6.580808E4,2.3733916E4,3.0497572E4,2.0995932E4,9.8847445E4,2.0440678E4,8.236359E3,4.361394E4,1.7058522E5,2.1327902E4,3.5693953E5,4.638166E3,2.5692808E3,1.1470816E4,1.0680817E5,1.37252E4,1.4397421E4,2.314707E3,5.556576E4,2.3099792E3,1.5497897E4,8.3261984E4,2.4540973E4,8.924481E4,3.852585E5,4.040762E3,2.720691E4,2.8703365E4,4.2421246E4,2.3386836E4,1.5188688E4,8.545228E3,1.6496418E4,1.4001154E4,1.4294464E4,6.7014673E3,9.471704E4,4.1304053E3,1.3621597E4,6.8190796E3,7.202391E3,1.0339686E3,1.2646335E4,3.0967607E4,4.932364E3,1.6565284E5,1.989396E4,1.4339404E3,3.4555828E5,1.1381265E4,5.174072E2,4.120759E3,1.0605171E3,1.5087638E3,4.3289627E2,1.103792E4,1.02968664E5,3.8395122E3,6.3495596E3,7.3756406E3,1.3251338E4,1.1460829E3,2.0303622E3,2.8434485E2,5.3135586E4,2.4301763E3,1.8083276E3,5.0165146E2,2.8888394E3,1.2609059E4,1.6990656E4,6.627133E4,6.758719E3,1.7782254E4,3.765639E4,5.158842E4,3.546643E5,3.0594188E4,1.8542219E3,2.18654E3,9.125005E3,1.8081904E4,2.3164534E3,2.6386912E4,3.5146375E4,7.2748716E3,2.296836E4,4.1847714E2,1.1304377E4,3.8843115E3,7.376724E3,1.1685034E3,1.3697445E4,2.7989717E3,2.7938345E2,1.3721771E4,9.634247E3,4.6602173E3,5.7671255E3,9.343417E2],"tree_param":{"num_deleted":"0","num_feature":"188","num_nodes":"127","size_leaf_vector":"0"}},{"base_weights":[-3.315075E-3,4.1788015E-1,-4.587535E-1,-8.689244E-2,6.942788E-1,-8.2238543E-1,-1.9104956E-1,4.808588E-1,-3.430101E-1,-2.2226341E-1,7.6325876E-1,-1.0167326E0,1.8008079E-1,-8.1616215E-2,-1.1222563E0,5.4833716E-1,-1.4188311E0,-7.4503076E-1,-8.5955575E-2,-8.6640036E-1,4.389288E-1,8.0142117E-1,-6.305837E-1,9.0178055E-1,-1.0826339E0,3.73012E-1,-5.686999E-1,-6.8352747E-1,1.0776659E-1,-1.2536308E0,-2.3605445E-1,-1.000431E0,6.344117E-1,-1.5741765E0,2.8803983E0,1.17231995E-1,-9.9400294E-1,-2.4993558E-1,6.4860386E-1,6.2709814E-1,-1.01298E0,7.928356E-1,-9.472888E-1,-1.3314791E-1,8.595379E-1,2.3410094E-1,-1.5571301E0,1.176282E0,-1.2799149E0,-1.1147513E0,3.2361218E-1,5.2423596E-1,-5.1623005E-1,-8.510929E-1,7.1774274E-1,-7.761497E-1,7.568961E-1,2.0088984E-1,-9.144377E-1,-1.2767648E0,7.01829E-1,3.6443943E-1,-1.0828702E0,3.8345724E-2,-5.2063555E-1,2.018421E-1,-5.88686E-1,-5.2067256E-1,2.4868876E-1,-2.7399638E-1,8.83366E-1,1.8534197E-1,-2.4345323E-1,-3.14287E-1,2.517817E-1,1.139822E-1,-1.3952819E-1,-3.9110154E-1,2.4697211E-1,-8.3596885E-1,3.2204998E-1,2.0612851E-1,-3.4779048E-1,2.6010662E-1,-1.0328449E0,1.3721144E-1,-4.5969644E-1,-2.5352433E-1,2.4377272E-1,2.7403405E-1,4.0393807E-3,1.6461936E-1,-9.214734E-1,-6.5940374E-1,-1.2329047E-1,-4.314062E-1,3.8145074E-1,3.7919244E-1,-4.5221442E-1,-6.811133E-3,-3.3988217E-1,-4.0410432E-1,2.90535E-1,1.7712745E-1,-4.6437627E-1,-2.8397557E-1,1.7104083E-1,-1.5938932E-1,-4.5770213E-1,3.3764738E-1,-4.2031088E-1,-1.7683059E-1,-3.6240268E-1,-1.1914576E-1,4.72227E-1,1.1300742E-1,-5.6212258E-2,7.9898095E-1,-3.1490886E-1,-3.8996562E-1,1.13533266E-1,5.8294E-1,-4.3892694E-1,2.1816799E-1,-4.1814846E-1,7.075002E-1,-3.8224575E-1],"categories":[],"categories_nodes":[],"categories_segments":[],"categories_sizes":[],"default_left":[0,0,0,0,0,0,0,0,0,0,0,0,0,0,0,0,0,0,0,0,0,0,0,0,0,0,0,0,0,0,0,0,0,0,0,0,0,0,0,0,0,0,0,0,0,0,0,0,0,0,0,0,0,0,0,0,0,0,0,0,0,0,0,0,0,0,0,0,0,0,0,0,0,0,0,0,0,0,0,0,0,0,0,0,0,0,0,0,0,0,0,0,0,0,0,0,0,0,0,0,0,0,0,0,0,0,0,0,0,0,0,0,0,0,0,0,0,0,0,0,0,0,0,0,0,0,0],"id":3,"left_children":[1,3,5,7,9,11,13,15,17,19,21,23,25,27,29,31,33,35,37,39,41,43,45,47,49,51,53,55,57,59,61,63,65,67,69,71,73,75,77,79,81,83,85,87,89,91,93,95,97,99,101,103,105,107,109,111,113,115,117,119,121,123,125,-1,-1,-1,-1,-1,-1,-1,-1,-1,-1,-1,-1,-1,-1,-1,-1,-1,-1,-1,-1,-1,-1,-1,-1,-1,-1,-1,-1,-1,-1,-1,-1,-1,-1,-1,-1,-1,-1,-1,-1,-1,-1,-1,-1,-1,-1,-1,-1,-1,-1,-1,-1,-1,-1,-1,-1,-1,-1,-1,-1,-1,-1,-1,-1],"loss_changes":[2.9800275E5,1.1260317E5,7.265883E4,4.152495E4,3.2972062E4,6.1661703E4,4.380969E4,1.1380732E4,2.0336832E4,1.5547145E4,2.5799562E4,3.351825E4,7.4249717E3,4.3852652E4,5.263117E3,1.1429396E4,2.0385078E3,1.6477602E4,1.4459432E4,4.0485186E3,8.838233E3,2.5641219E4,1.0356297E4,5.274255E3,1.1576E4,5.4957915E3,3.825954E3,1.2284336E4,2.7855861E4,1.7819922E3,2.9690303E3,3.743734E3,8.0988203E3,1.1417261E3,2.8624268E1,7.995756E3,5.8554062E3,1.3299663E4,7.4701006E3,2.5222178E3,4.1894688E3,4.512407E3,3.0117805E3,1.861003E4,2.0271781E4,6.9566904E3,4.582666E3,1.9487305E3,5.7155334E2,4.97725E3,6.1673164E3,4.791342E3,2.7777002E3,1.8619966E3,1.6395427E3,6.97491E3,5.2471826E3,1.8306531E4,1.1826301E4,1.4896289E3,1.2416667E3,2.1803232E3,1.5975486E3,0E0,0E0,0E0,0E0,0E0,0E0,0E0,0E0,0E0,0E0,0E0,0E0,0E0,0E0,0E0,0E0,0E0,0E0,0E0,0E0,0E0,0E0,0E0,0E0,0E0,0E0,0E0,0E0,0E0,0E0,0E0,0E0,0E0,0E0,0E0,0E0,0E0,0E0,0E0,0E0,0E0,0E0,0E0,0E0,0E0,0E0,0E0,0E0,0E0,0E0,0E0,0E0,0E0,0E0,0E0,0E0,0E0,0E0,0E0,0E0,0E0,0E0,0E0,0E0],"parents":[2147483647,0,0,1,1,2,2,3,3,4,4,5,5,6,6,7,7,8,8,9,9,10,10,11,11,12,12,13,13,14,14,15,15,16,16,17,17,18,18,19,19,20,20,21,21,22,22,23,23,24,24,25,25,26,26,27,27,28,28,29,29,30,30,31,31,32,32,33,33,34,34,35,35,36,36,37,37,38,38,39,39,40,40,41,41,42,42,43,43,44,44,45,45,46,46,47,47,48,48,49,49,50,50,51,51,52,52,53,53,54,54,55,55,56,56,57,57,58,58,59,59,60,60,61,61,62,62],"right_children":[2,4,6,8,10,12,14,16,18,20,22,24,26,28,30,32,34,36,38,40,42,44,46,48,50,52,54,56,58,60,62,64,66,68,70,72,74,76,78,80,82,84,86,88,90,92,94,96,98,100,102,104,106,108,110,112,114,116,118,120,122,124,126,-1,-1,-1,-1,-1,-1,-1,-1,-1,-1,-1,-1,-1,-1,-1,-1,-1,-1,-1,-1,-1,-1,-1,-1,-1,-1,-1,-1,-1,-1,-1,-1,-1,-1,-1,-1,-1,-1,-1,-1,-1,-1,-1,-1,-1,-1,-1,-1,-1,-1,-1,-1,-1,-1,-1,-1,-1,-1,-1,-1,-1,-1,-1,-1],"split_conditions":[7.582304E-1,8.91455E5,1.152293E1,1.04362875E-1,8.519167E0,9.015403E6,1.1591298E7,2.661227E-1,2.9171672E5,2.077762E-1,3.2542412E0,3.804543E-1,5.60494E-2,1.6987136E-2,1.7993314E3,3.4857124E-2,1.7023685E1,1.3360755E-1,1.7710313E-3,8.7895736E-2,1.3078289E-1,1.2200844E-1,2.1071497E-1,1.7394169E-3,3.4740017E1,1.1771169E-1,3.196391E0,2.7703185E-2,1.5274296E6,9.0168976E2,4.329058E1,1.795843E-2,1.2872191E1,1.7785376E-1,5.0007954E-2,1.7935856E1,8.315599E5,4.192686E-3,1.0463295E-1,9.209508E0,6.688399E-2,2.950213E0,-9.2080295E-1,1.4472865E-1,1.2213229E-2,2.6588244E-2,4.631544E-1,1.4523785E-1,-2.2874317E0,1.2348986E-2,1.1069326E6,2.0167781E-1,5.6760762E-2,1.0291115E-1,-4.7655582E-1,9.0168976E2,7.452747E0,7.4962253E-4,8.8496864E-2,2.6397E-1,-9.283456E-1,2.8279796E-1,-2.2015166E0,3.8345724E-2,-5.2063555E-1,2.018421E-1,-5.88686E-1,-5.2067256E-1,2.4868876E-1,-2.7399638E-1,8.83366E-1,1.8534197E-1,-2.4345323E-1,-3.14287E-1,2.517817E-1,1.139822E-1,-1.3952819E-1,-3.9110154E-1,2.4697211E-1,-8.3596885E-1,3.2204998E-1,2.0612851E-1,-3.4779048E-1,2.6010662E-1,-1.0328449E0,1.3721144E-1,-4.5969644E-1,-2.5352433E-1,2.4377272E-1,2.7403405E-1,4.0393807E-3,1.6461936E-1,-9.214734E-1,-6.5940374E-1,-1.2329047E-1,-4.314062E-1,3.8145074E-1,3.7919244E-1,-4.5221442E-1,-6.811133E-3,-3.3988217E-1,-4.0410432E-1,2.90535E-1,1.7712745E-1,-4.6437627E-1,-2.8397557E-1,1.7104083E-1,-1.5938932E-1,-4.5770213E-1,3.3764738E-1,-4.2031088E-1,-1.7683059E-1,-3.6240268E-1,-1.1914576E-1,4.72227E-1,1.1300742E-1,-5.6212258E-2,7.9898095E-1,-3.1490886E-1,-3.8996562E-1,1.13533266E-1,5.8294E-1,-4.3892694E-1,2.1816799E-1,-4.1814846E-1,7.075002E-1,-3.8224575E-1],"split_indices":[44,84,7,42,2,81,78,25,79,18,0,4,55,29,82,48,9,26,60,35,42,41,18,58,3,37,0,61,77,86,44,27,9,39,88,10,80,15,4,47,14,0,138,37,59,32,106,14,92,31,84,25,16,39,140,86,2,51,26,18,168,116,104,0,0,0,0,0,0,0,0,0,0,0,0,0,0,0,0,0,0,0,0,0,0,0,0,0,0,0,0,0,0,0,0,0,0,0,0,0,0,0,0,0,0,0,0,0,0,0,0,0,0,0,0,0,0,0,0,0,0,0,0,0,0,0,0],"split_type":[0,0,0,0,0,0,0,0,0,0,0,0,0,0,0,0,0,0,0,0,0,0,0,0,0,0,0,0,0,0,0,0,0,0,0,0,0,0,0,0,0,0,0,0,0,0,0,0,0,0,0,0,0,0,0,0,0,0,0,0,0,0,0,0,0,0,0,0,0,0,0,0,0,0,0,0,0,0,0,0,0,0,0,0,0,0,0,0,0,0,0,0,0,0,0,0,0,0,0,0,0,0,0,0,0,0,0,0,0,0,0,0,0,0,0,0,0,0,0,0,0,0,0,0,0,0,0],"sum_hessian":[1.5534834E6,8.0708294E5,7.4640044E5,2.8556716E5,5.215158E5,3.1649362E5,4.299068E5,8.877452E4,1.9679262E5,3.6502465E4,4.8501334E5,2.650991E5,5.1394523E4,3.8469894E5,4.5207875E4,8.573004E4,3.0444822E3,7.675292E4,1.200397E5,1.8489545E4,1.8012922E4,4.7208834E5,1.2925005E4,8.803371E3,2.5629573E5,4.086558E4,1.0528943E4,9.207054E4,2.926284E5,3.9370938E4,5.836936E3,4.513131E3,8.121691E4,2.938923E3,1.0555924E2,1.7196607E4,5.9556312E4,9.813345E4,2.1906246E4,1.6521831E3,1.6837361E4,1.4349792E4,3.6631296E3,2.7638334E4,4.4445E5,6.6860776E3,6.2389277E3,7.8199263E3,9.8344415E2,2.5057306E5,5.7226685E3,3.4926426E4,5.9391553E3,8.633994E3,1.8949496E3,8.6508336E4,5.562206E3,2.681964E5,2.4432002E4,3.891095E4,4.5998813E2,3.4155042E3,2.421432E3,1.7806605E3,2.7324705E3,8.003424E4,1.1826606E3,2.754223E3,1.847E2,1.5352948E0,1.0402395E2,1.1174241E4,6.022367E3,5.7864305E4,1.692008E3,2.4986035E4,7.3147414E4,1.7981475E3,2.01081E4,1.9046251E2,1.4617206E3,1.3340197E3,1.5503341E4,1.4103566E4,2.4622548E2,1.0771401E3,2.5859895E3,1.5768236E4,1.1870097E4,4.178274E5,2.6622592E4,6.105772E3,5.803054E2,4.000891E3,2.2380366E3,2.7431906E2,7.5456074E3,8.034479E1,9.0309937E2,4.1052017E3,2.4646786E5,1.593413E3,4.129256E3,3.3846027E4,1.080396E3,4.254069E3,1.6850863E3,5.858481E3,2.7755132E3,1.5895226E3,3.0542694E2,6.039773E4,2.6110605E4,2.3060688E3,3.256137E3,1.8460802E5,8.358838E4,8.893452E2,2.3542656E4,3.8375125E4,5.358244E2,2.9242322E2,1.675649E2,2.8317993E3,5.8370496E2,1.2691294E2,2.294519E3],"tree_param":{"num_deleted":"0","num_feature":"188","num_nodes":"127","size_leaf_vector":"0"}},{"base_weights":[-5.1636226E-3,-5.414536E-1,2.3413572E-1,-7.2051793E-1,1.2116694E-1,6.685088E-1,1.532966E-2,-7.6749444E-2,-8.710772E-1,4.173009E-1,-2.3209476E-1,7.5080734E-1,-6.6816306E-1,-3.6870214E-1,2.6871595E-1,-7.2732794E-1,5.374777E-1,-1.0025042E0,-1.6387057E-1,-5.010115E-1,5.3007144E-1,-7.3185915E-1,1.1501348E-3,-1.6033033E0,7.819573E-1,7.462534E-1,-9.896078E-1,-6.622519E-1,2.4442889E-1,-1.0786009E0,3.179167E-1,2.0756903E0,-7.955124E-1,1.2164425E0,-3.8387656E-1,-1.024729E0,1.1225437E0,1.779027E-1,-1.0785482E0,-7.8863066E-1,9.423848E-1,6.579059E-1,-1.3123384E-1,-9.323503E-1,4.3056422E-1,-5.625539E-1,2.1936288E-1,-2.3169737E0,-4.0388143E-1,1.6547516E-1,8.801614E-1,-1.4599639E0,1.2467991E0,-1.0886021E0,5.233378E-1,7.169511E-1,-7.331532E-1,-8.35627E-1,3.5163182E-1,-2.4127258E-1,-1.4112643E0,-3.582171E-2,4.7222728E-1,-3.9787397E-1,1.2262865E0,1.5139106E-1,-2.8255472E-1,-5.637045E-1,3.7033358E-1,-7.084552E-2,-1.1205297E0,1.5547714E-1,-3.1043017E-1,-4.317265E-1,5.1843876E-1,-8.973981E-2,2.6387018E-1,-3.3905867E-1,1.2524878E0,2.8106588E-1,-2.9566568E-1,4.1661367E-1,-4.8264265E-1,2.174544E-1,-8.9176916E-2,7.016385E-2,-4.0979728E-1,-3.3093378E-1,-2.2735922E-2,3.2535213E-1,-2.4741484E-1,-4.1332524E-2,-3.75578E-1,1.966895E-1,-1.0017212E-1,-1.4970913E0,-6.570153E-1,-3.4167975E-1,3.0096754E-1,-8.020783E-2,3.2098514E-1,2.8082845E-1,-5.9365544E-2,-4.0610623E-1,-8.061271E-1,4.0404874E-1,-5.070973E-1,-1.8860687E-1,-4.3255076E-1,3.2801783E-1,-7.430153E-1,3.5144654E-1,-3.9664176E-1,-2.7339238E-1,-4.9966197E-2,3.3874953E-1,-3.0412272E-1,1.2617813E-1,-3.2133928E-1,1.7287195E-1,-4.0916377E-1,-5.481634E-1,-2.588659E-1,4.9416427E-2,-2.85265E-1,1.5628448E-1,-3.4218583E-1],"categories":[],"categories_nodes":[],"categories_segments":[],"categories_sizes":[],"default_left":[0,0,0,0,0,0,0,0,0,0,0,0,0,0,0,0,0,0,0,0,0,0,0,0,0,0,0,0,0,0,0,0,0,0,0,0,0,0,0,0,0,0,0,0,0,0,0,0,0,0,0,0,0,0,0,0,0,0,0,0,0,0,0,0,0,0,0,0,0,0,0,0,0,0,0,0,0,0,0,0,0,0,0,0,0,0,0,0,0,0,0,0,0,0,0,0,0,0,0,0,0,0,0,0,0,0,0,0,0,0,0,0,0,0,0,0,0,0,0,0,0,0,0,0,0,0,0],"id":4,"left_children":[1,3,5,7,9,11,13,15,17,19,21,23,25,27,29,31,33,35,37,39,41,43,45,47,49,51,53,55,57,59,61,63,65,67,69,71,73,75,77,79,81,83,85,87,89,91,93,95,97,99,101,103,105,107,109,111,113,115,117,119,121,123,125,-1,-1,-1,-1,-1,-1,-1,-1,-1,-1,-1,-1,-1,-1,-1,-1,-1,-1,-1,-1,-1,-1,-1,-1,-1,-1,-1,-1,-1,-1,-1,-1,-1,-1,-1,-1,-1,-1,-1,-1,-1,-1,-1,-1,-1,-1,-1,-1,-1,-1,-1,-1,-1,-1,-1,-1,-1,-1,-1,-1,-1,-1,-1,-1],"loss_changes":[1.8025536E5,5.141993E4,9.230754E4,3.306803E4,9.645161E3,3.579025E4,6.284883E4,2.5841783E4,2.569986E4,5.194202E3,4.900985E3,2.2475172E4,8.580127E3,4.6210656E4,2.579507E4,6.00384E3,2.0809148E4,1.1013547E4,1.3546872E4,2.278234E3,3.7763467E3,3.1183438E3,3.526332E3,3.425332E3,1.831186E4,3.8612834E3,2.303497E3,1.6978586E4,9.625046E3,3.8184258E3,2.0492371E4,5.1118877E3,5.8338105E3,1.0695508E3,6.98613E3,3.5746875E3,3.747072E3,1.055971E4,3.2030332E3,1.5554636E3,1.0406805E3,2.3937441E3,3.2629304E3,1.6689609E3,1.6169886E3,2.3425913E3,4.9887617E3,8.4049023E2,1.5467886E3,1.6271931E4,1.5732766E4,8.0708374E1,8.393574E2,2.3436934E3,1.618795E3,7.87006E3,1.6668812E4,2.627981E3,7.4201025E3,3.5792834E3,2.2363398E3,2.0925164E4,2.054055E4,0E0,0E0,0E0,0E0,0E0,0E0,0E0,0E0,0E0,0E0,0E0,0E0,0E0,0E0,0E0,0E0,0E0,0E0,0E0,0E0,0E0,0E0,0E0,0E0,0E0,0E0,0E0,0E0,0E0,0E0,0E0,0E0,0E0,0E0,0E0,0E0,0E0,0E0,0E0,0E0,0E0,0E0,0E0,0E0,0E0,0E0,0E0,0E0,0E0,0E0,0E0,0E0,0E0,0E0,0E0,0E0,0E0,0E0,0E0,0E0,0E0,0E0,0E0,0E0],"parents":[2147483647,0,0,1,1,2,2,3,3,4,4,5,5,6,6,7,7,8,8,9,9,10,10,11,11,12,12,13,13,14,14,15,15,16,16,17,17,18,18,19,19,20,20,21,21,22,22,23,23,24,24,25,25,26,26,27,27,28,28,29,29,30,30,31,31,32,32,33,33,34,34,35,35,36,36,37,37,38,38,39,39,40,40,41,41,42,42,43,43,44,44,45,45,46,46,47,47,48,48,49,49,50,50,51,51,52,52,53,53,54,54,55,55,56,56,57,57,58,58,59,59,60,60,61,61,62,62],"right_children":[2,4,6,8,10,12,14,16,18,20,22,24,26,28,30,32,34,36,38,40,42,44,46,48,50,52,54,56,58,60,62,64,66,68,70,72,74,76,78,80,82,84,86,88,90,92,94,96,98,100,102,104,106,108,110,112,114,116,118,120,122,124,126,-1,-1,-1,-1,-1,-1,-1,-1,-1,-1,-1,-1,-1,-1,-1,-1,-1,-1,-1,-1,-1,-1,-1,-1,-1,-1,-1,-1,-1,-1,-1,-1,-1,-1,-1,-1,-1,-1,-1,-1,-1,-1,-1,-1,-1,-1,-1,-1,-1,-1,-1,-1,-1,-1,-1,-1,-1,-1,-1,-1,-1,-1,-1,-1],"split_conditions":[1.4377227E1,3.3593892E6,8.709281E-2,5.512786E-4,8.142703E-1,1.6176546E1,8.521735E1,2.7491728E1,7.5549083E0,7.8201733E0,-1.424879E0,7.3520825E-3,5.5277133E0,4.500649E3,9E2,3.793192E-2,2.200125E0,3.8493053E1,1.00918435E-1,1.50098E0,1.2168198E7,2.0491803E5,7.8673515E-4,1.3079232E-1,1.322617E-1,1.2814278E1,9.939152E0,1.1188108E-2,1.080861E-2,-6.297805E-1,4.7459964E-2,9.018297E6,-1.1953945E0,8.2045846E-2,1.0157365E-1,7.523914E-3,1.62815E0,1.6398871E6,2.1960801E-1,6.526026E0,-5.351085E-1,1.2627046E-1,7.480966E4,1.2176204E0,1.62E4,-7.842396E-2,1.48724625E-2,5.55934E-3,9.3595535E-2,3.3593892E6,2.0804144E-1,7.625651E6,2.321625E-1,9.399604E-2,6.652938E0,3.9276E1,3.7910745E6,3.4515344E-2,5.537216E5,1.304581E-1,8.293355E-2,8.974662E-2,3.3332738E-1,-3.9787397E-1,1.2262865E0,1.5139106E-1,-2.8255472E-1,-5.637045E-1,3.7033358E-1,-7.084552E-2,-1.1205297E0,1.5547714E-1,-3.1043017E-1,-4.317265E-1,5.1843876E-1,-8.973981E-2,2.6387018E-1,-3.3905867E-1,1.2524878E0,2.8106588E-1,-2.9566568E-1,4.1661367E-1,-4.8264265E-1,2.174544E-1,-8.9176916E-2,7.016385E-2,-4.0979728E-1,-3.3093378E-1,-2.2735922E-2,3.2535213E-1,-2.4741484E-1,-4.1332524E-2,-3.75578E-1,1.966895E-1,-1.0017212E-1,-1.4970913E0,-6.570153E-1,-3.4167975E-1,3.0096754E-1,-8.020783E-2,3.2098514E-1,2.8082845E-1,-5.9365544E-2,-4.0610623E-1,-8.061271E-1,4.0404874E-1,-5.070973E-1,-1.8860687E-1,-4.3255076E-1,3.2801783E-1,-7.430153E-1,3.5144654E-1,-3.9664176E-1,-2.7339238E-1,-4.9966197E-2,3.3874953E-1,-3.0412272E-1,1.2617813E-1,-3.2133928E-1,1.7287195E-1,-4.0916377E-1,-5.481634E-1,-2.588659E-1,4.9416427E-2,-2.85265E-1,1.5628448E-1,-3.4218583E-1],"split_indices":[7,81,42,52,80,44,84,8,2,7,9,49,1,83,79,55,2,3,14,141,81,82,51,17,41,10,1,32,49,152,55,78,123,19,21,49,4,79,38,47,149,11,75,155,79,106,50,50,36,81,25,81,176,21,46,8,79,55,76,23,14,14,25,0,0,0,0,0,0,0,0,0,0,0,0,0,0,0,0,0,0,0,0,0,0,0,0,0,0,0,0,0,0,0,0,0,0,0,0,0,0,0,0,0,0,0,0,0,0,0,0,0,0,0,0,0,0,0,0,0,0,0,0,0,0,0,0],"split_type":[0,0,0,0,0,0,0,0,0,0,0,0,0,0,0,0,0,0,0,0,0,0,0,0,0,0,0,0,0,0,0,0,0,0,0,0,0,0,0,0,0,0,0,0,0,0,0,0,0,0,0,0,0,0,0,0,0,0,0,0,0,0,0,0,0,0,0,0,0,0,0,0,0,0,0,0,0,0,0,0,0,0,0,0,0,0,0,0,0,0,0,0,0,0,0,0,0,0,0,0,0,0,0,0,0,0,0,0,0,0,0,0,0,0,0,0,0,0,0,0,0,0,0,0,0,0,0],"sum_hessian":[1.4045798E6,4.3336684E5,9.712129E5,3.411701E5,9.219675E4,3.2534228E5,6.458706E5,6.466667E4,2.7650344E5,5.015358E4,4.204317E4,3.0647325E5,1.8869033E4,2.5674616E5,3.8912444E5,3.1403965E4,3.3262707E4,2.3317064E5,4.3332797E4,5.4849673E3,4.466861E4,1.3377535E4,2.8665639E4,4.0016877E3,3.0247156E5,3.493901E3,1.5375132E4,1.7362119E5,8.312498E4,1.3708515E4,3.7541594E5,7.4507263E2,3.0658893E4,1.9150209E4,1.41125E4,2.3075778E5,2.412857E3,3.1546219E4,1.1786576E4,4.5739834E3,9.109838E2,3.7432652E4,7.2359585E3,1.1409805E4,1.9677297E3,7.9993975E3,2.066624E4,2.508292E3,1.4933956E3,4.1562562E4,2.6090902E5,6.45752E2,2.848149E3,1.443116E4,9.439717E2,8.488587E3,1.651326E5,7.505113E3,7.561986E4,3.8982292E3,9.810285E3,1.14025945E5,2.6138998E5,2.7701462E2,4.6805798E2,3.1014202E3,2.755747E4,1.1013302E2,1.9040074E4,1.3517698E4,5.948016E2,1.4911979E3,2.2926658E5,4.6108542E2,1.9517716E3,1.877939E4,1.2766829E4,1.1672607E4,1.13968636E2,4.6814297E2,4.105841E3,7.757272E2,1.352566E2,3.4981246E4,2.4514033E3,5.585235E3,1.6507239E3,9.513026E3,1.8967789E3,1.2938367E3,6.73893E2,4.950308E3,3.0490894E3,1.1554784E4,9.111456E3,1.11952675E2,2.3963394E3,9.8108325E2,5.123123E2,2.8110871E4,1.3451689E4,2.4803983E5,1.2869183E4,5.9621906E2,4.9533016E1,2.7548674E3,9.328143E1,6.270156E3,8.1610044E3,7.937777E2,1.5019397E2,6.941639E3,1.546948E3,1.2563031E5,3.9502285E4,6.233701E2,6.8817427E3,7.212466E4,3.4952092E3,2.255905E3,1.6423242E3,5.577442E3,4.2328438E3,9.352911E4,2.0496838E4,2.537261E5,7.663896E3],"tree_param":{"num_deleted":"0","num_feature":"188","num_nodes":"127","size_leaf_vector":"0"}},{"base_weights":[-6.3155163E-3,-5.940739E-1,1.4346741E-1,-7.6979446E-1,9.99654E-2,5.28933E-1,-1.8545272E-2,5.0458443E-1,-8.322121E-1,-4.6695247E-1,2.383642E-1,7.141967E-1,8.185069E-2,3.795424E-2,-1.0006245E0,-1.4548157E0,8.081449E-1,-8.852682E-1,5.5341136E-1,-7.088578E-1,2.649646E-1,-1.4026293E-1,5.328906E-1,-1.7699967E-1,8.068822E-1,-2.5358957E-1,9.12426E-1,3.934471E-1,-7.6932445E-2,-1.1275599E0,1.3332604E-1,-1.8644893E0,3.4322053E-1,9.690172E-1,-1.5173104E0,-9.6071666E-1,-5.008667E-1,1.5508462E0,-3.2710102E-1,-1.1918777E0,-3.2514593E-1,7.296595E-1,-1.4164709E0,5.140032E-1,-4.7823563E-1,-3.0341895E0,5.750756E-1,-8.163975E-1,9.221664E-1,8.310126E-1,-2.1915176E0,6.573124E-1,-7.3835033E-1,9.4171274E-1,-2.293986E0,-8.239513E-1,5.139023E-1,8.609034E-2,-3.450189E-1,-1.1519169E0,1.630833E0,-6.6332096E-1,1.3134419E0,-7.8602976E-1,-4.5445982E-1,-5.643654E-1,3.3915704E-1,3.244769E-1,-5.5081445E-1,-1.097456E0,-3.5536185E-1,1.6573726E0,-2.894022E-1,3.58129E-1,-2.320032E-1,2.9989645E-1,1.1037488E0,-3.23877E-1,1.5982556E-1,-3.8986883E-1,2.8958687E-1,-4.755095E-1,-2.1145133E-2,-3.8334087E-1,3.0180764E-1,-5.503438E-1,-4.1837156E-1,-3.5228014E-1,2.2387199E-1,-8.099563E-2,-4.6842965E-1,-1.0609927E0,-7.801556E-1,1.876912E-1,-4.9518856E-1,5.2829888E-2,-4.2309788E-1,-4.0689588E-1,3.1504938E-1,-6.856434E-1,2.5488934E-1,-4.570419E-1,-9.716044E-1,2.4532308E-1,-5.687556E-1,-1.1799671E-1,-3.275538E-1,2.9814774E-1,-1.9889848E-1,3.2003224E-1,-7.668644E-1,3.358713E-2,-3.2720178E-1,-5.7409537E-1,1.6776982E-1,-2.8739992E-1,4.0618844E-2,-1.9142652E-1,-5.5123135E-3,-3.4954807E-1,3.7446886E-1,1.7546331E0,3.557809E-1,-2.9766414E-1,3.2223532E-1,4.9030757E-1,-4.3053293E-1],"categories":[],"categories_nodes":[],"categories_segments":[],"categories_sizes":[],"default_left":[0,0,0,0,0,0,0,0,0,0,0,0,0,0,0,0,0,0,0,0,0,0,0,0,0,0,0,0,0,0,0,0,0,0,0,0,0,0,0,0,0,0,0,0,0,0,0,0,0,0,0,0,0,0,0,0,0,0,0,0,0,0,0,0,0,0,0,0,0,0,0,0,0,0,0,0,0,0,0,0,0,0,0,0,0,0,0,0,0,0,0,0,0,0,0,0,0,0,0,0,0,0,0,0,0,0,0,0,0,0,0,0,0,0,0,0,0,0,0,0,0,0,0,0,0,0,0],"id":5,"left_children":[1,3,5,7,9,11,13,15,17,19,21,23,25,27,29,31,33,35,37,39,41,43,45,47,49,51,53,55,57,59,61,63,65,67,69,71,73,75,77,79,81,83,85,87,89,91,93,95,97,99,101,103,105,107,109,111,113,115,117,119,121,123,125,-1,-1,-1,-1,-1,-1,-1,-1,-1,-1,-1,-1,-1,-1,-1,-1,-1,-1,-1,-1,-1,-1,-1,-1,-1,-1,-1,-1,-1,-1,-1,-1,-1,-1,-1,-1,-1,-1,-1,-1,-1,-1,-1,-1,-1,-1,-1,-1,-1,-1,-1,-1,-1,-1,-1,-1,-1,-1,-1,-1,-1,-1,-1,-1],"loss_changes":[1.1214043E5,3.1548922E4,6.3394008E4,1.642021E4,4.10083E3,2.4881266E4,3.965742E4,5.734419E3,1.44674375E4,1.8160266E3,4.6848237E3,1.7543531E4,2.4520822E4,2.7602064E4,5.596633E3,9.533408E2,3.123958E3,5.496375E3,6.3746885E3,1.4283018E3,1.9922014E3,4.0648218E3,3.5574243E3,1.4062829E4,1.3920977E4,2.7683662E4,2.3797715E3,2.4206285E4,2.2322738E4,2.351168E3,3.6816104E3,2.7434717E2,4.2392422E2,2.4672861E3,3.80688E2,4.0713125E3,1.4360662E4,3.9885688E3,2.4953013E3,7.939004E2,1.3786284E3,1.1093352E3,2.4958496E0,2.455873E3,2.7337678E3,5.1016846E1,2.6291816E3,7.45734E3,2.1476401E3,1.1075594E4,1.0696753E3,8.921079E3,4.9901543E3,2.098912E3,2.0494617E2,3.7101865E3,1.6530078E4,1.6351275E4,1.848974E4,1.103207E3,5.681766E2,1.3370515E3,1.3943613E3,0E0,0E0,0E0,0E0,0E0,0E0,0E0,0E0,0E0,0E0,0E0,0E0,0E0,0E0,0E0,0E0,0E0,0E0,0E0,0E0,0E0,0E0,0E0,0E0,0E0,0E0,0E0,0E0,0E0,0E0,0E0,0E0,0E0,0E0,0E0,0E0,0E0,0E0,0E0,0E0,0E0,0E0,0E0,0E0,0E0,0E0,0E0,0E0,0E0,0E0,0E0,0E0,0E0,0E0,0E0,0E0,0E0,0E0,0E0,0E0,0E0,0E0,0E0,0E0],"parents":[2147483647,0,0,1,1,2,2,3,3,4,4,5,5,6,6,7,7,8,8,9,9,10,10,11,11,12,12,13,13,14,14,15,15,16,16,17,17,18,18,19,19,20,20,21,21,22,22,23,23,24,24,25,25,26,26,27,27,28,28,29,29,30,30,31,31,32,32,33,33,34,34,35,35,36,36,37,37,38,38,39,39,40,40,41,41,42,42,43,43,44,44,45,45,46,46,47,47,48,48,49,49,50,50,51,51,52,52,53,53,54,54,55,55,56,56,57,57,58,58,59,59,60,60,61,61,62,62],"right_children":[2,4,6,8,10,12,14,16,18,20,22,24,26,28,30,32,34,36,38,40,42,44,46,48,50,52,54,56,58,60,62,64,66,68,70,72,74,76,78,80,82,84,86,88,90,92,94,96,98,100,102,104,106,108,110,112,114,116,118,120,122,124,126,-1,-1,-1,-1,-1,-1,-1,-1,-1,-1,-1,-1,-1,-1,-1,-1,-1,-1,-1,-1,-1,-1,-1,-1,-1,-1,-1,-1,-1,-1,-1,-1,-1,-1,-1,-1,-1,-1,-1,-1,-1,-1,-1,-1,-1,-1,-1,-1,-1,-1,-1,-1,-1,-1,-1,-1,-1,-1,-1,-1,-1,-1,-1,-1],"split_conditions":[1.1946673E1,8.575284E6,8.542885E-2,3.8150772E-1,8.008155E0,8.1064436E-4,1.249101E7,9.294527E0,3.4758385E1,8.8218355E-1,8.736638E-4,4.294224E-2,7.493544E6,1.8408492E-2,2.7E3,1.6051042E0,3.2797348E1,4.4807435E6,1.2547287E-1,-1.6137724E-1,5.5998776E-2,6.624827E-2,8.060961E-2,2.4090565E6,1.5635069E-1,6.350056E-2,1.18458375E-1,9.991387E-3,2.0673884E-1,7.7752336E4,9.5664036E-1,2.5170884E-1,1.5527395E0,2.275895E-1,9.631615E0,2.513503E-3,2.710836E0,2.9905827E0,2.8683195E0,2.5536194E0,-3.5619363E-1,5.8387417E-2,7.078388E-2,8.818217E-4,4.7836632E-1,8.142703E-1,1.8866474E-2,1.1227679E-1,1.1817387E-2,3.402207E-3,3.2623962E5,3.639689E1,4.171155E0,8.817031E0,-2.5656044E0,7.5208907E0,1.21225424E-1,9.55733E-3,2.127529E6,2.6860487E0,-9.3013155E-1,1.225691E0,2.548417E-1,-7.8602976E-1,-4.5445982E-1,-5.643654E-1,3.3915704E-1,3.244769E-1,-5.5081445E-1,-1.097456E0,-3.5536185E-1,1.6573726E0,-2.894022E-1,3.58129E-1,-2.320032E-1,2.9989645E-1,1.1037488E0,-3.23877E-1,1.5982556E-1,-3.8986883E-1,2.8958687E-1,-4.755095E-1,-2.1145133E-2,-3.8334087E-1,3.0180764E-1,-5.503438E-1,-4.1837156E-1,-3.5228014E-1,2.2387199E-1,-8.099563E-2,-4.6842965E-1,-1.0609927E0,-7.801556E-1,1.876912E-1,-4.9518856E-1,5.2829888E-2,-4.2309788E-1,-4.0689588E-1,3.1504938E-1,-6.856434E-1,2.5488934E-1,-4.570419E-1,-9.716044E-1,2.4532308E-1,-5.687556E-1,-1.1799671E-1,-3.275538E-1,2.9814774E-1,-1.9889848E-1,3.2003224E-1,-7.668644E-1,3.358713E-2,-3.2720178E-1,-5.7409537E-1,1.6776982E-1,-2.8739992E-1,4.0618844E-2,-1.9142652E-1,-5.5123135E-3,-3.4954807E-1,3.7446886E-1,1.7546331E0,3.557809E-1,-2.9766414E-1,3.2223532E-1,4.9030757E-1,-4.3053293E-1],"split_indices":[7,81,42,4,7,52,78,47,3,141,53,55,81,32,82,180,3,79,39,100,55,26,19,81,38,14,14,16,25,80,165,44,94,18,47,15,10,0,5,146,165,94,37,58,105,80,54,39,31,15,84,3,9,9,112,9,39,13,79,140,106,159,116,0,0,0,0,0,0,0,0,0,0,0,0,0,0,0,0,0,0,0,0,0,0,0,0,0,0,0,0,0,0,0,0,0,0,0,0,0,0,0,0,0,0,0,0,0,0,0,0,0,0,0,0,0,0,0,0,0,0,0,0,0,0,0,0],"split_type":[0,0,0,0,0,0,0,0,0,0,0,0,0,0,0,0,0,0,0,0,0,0,0,0,0,0,0,0,0,0,0,0,0,0,0,0,0,0,0,0,0,0,0,0,0,0,0,0,0,0,0,0,0,0,0,0,0,0,0,0,0,0,0,0,0,0,0,0,0,0,0,0,0,0,0,0,0,0,0,0,0,0,0,0,0,0,0,0,0,0,0,0,0,0,0,0,0,0,0,0,0,0,0,0,0,0,0,0,0,0,0,0,0,0,0,0,0,0,0,0,0,0,0,0,0,0,0],"sum_hessian":[1.2737974E6,2.5868742E5,1.01510994E6,2.0642383E5,5.2263582E4,3.0039606E5,7.147139E5,9.638001E3,1.9678583E5,1.0254812E4,4.2008773E4,2.1238611E5,8.800995E4,6.7583375E5,3.8880094E4,1.2923623E3,8.345639E3,1.8952905E5,7.25679E3,7.707457E3,2.5473538E3,1.8380424E4,2.3628348E4,2.000752E4,1.923786E5,6.269168E4,2.5318277E4,1.6506677E5,5.1076703E5,3.496598E4,3.9141143E3,1.052515E3,2.3984726E2,7.806198E3,5.394403E2,1.584314E5,3.1097637E4,3.4021313E3,3.8546587E3,3.4112449E3,4.2962124E3,1.9962268E3,5.511271E2,6.260494E3,1.211993E4,2.7533853E2,2.335301E4,1.2649445E4,7.358074E3,1.9084345E5,1.5351389E3,2.1774812E4,4.0916867E4,2.5089818E4,2.2845886E2,1.4861451E4,1.5020531E5,3.1762228E5,1.9314475E5,3.4660504E4,3.0547366E2,2.3369648E3,1.5771495E3,3.3089255E2,7.216225E2,6.233554E1,1.7751172E2,7.505599E3,3.0059882E2,7.122465E1,4.6821564E2,9.576288E1,1.5833564E5,4.307075E3,2.6790562E4,2.703459E3,6.986723E2,2.0555315E3,1.7991272E3,3.249432E3,1.6181284E2,7.2150397E2,3.5747085E3,2.4112479E2,1.755102E3,2.3315405E1,5.278117E2,7.565579E2,5.5039365E3,1.0166598E4,1.9533325E3,1.24239296E2,1.5109921E2,2.2834982E4,5.1802673E2,4.735984E3,7.9134614E3,3.908573E2,6.967217E3,1.1326438E3,1.8971081E5,9.387271E2,5.9641187E2,2.0488098E4,1.2867146E3,2.0707502E4,2.0209363E4,2.430102E4,7.887977E2,1.6313574E1,2.121453E2,3.296127E3,1.1565324E4,2.752658E3,1.4745266E5,1.4322087E4,3.033002E5,1.01804E5,9.134075E4,3.447082E4,1.896863E2,2.7987303E1,2.7748636E2,1.9653566E3,3.7160822E2,1.4126196E3,1.6452989E2],"tree_param":{"num_deleted":"0","num_feature":"188","num_nodes":"127","size_leaf_vector":"0"}},{"base_weights":[-6.6514486E-3,-3.9387265E-1,1.4781107E-1,-5.573816E-1,7.5590104E-2,2.638628E-1,-3.4600616E-1,-8.110051E-2,-7.31781E-1,-6.8335056E-1,1.4413248E-1,1.01287104E-1,4.7015718E-1,-6.430401E-1,1.8798617E-1,-5.160446E-1,3.9936906E-1,-9.027731E-1,-2.7025518E-1,-9.575903E-1,4.8234433E-1,3.335343E-1,-2.0240831E-1,1.4566077E-1,-9.730099E-1,-4.4967645E-1,5.844936E-1,-3.679288E-1,-9.2593175E-1,-2.0166818E-2,9.141702E-1,9.3384606E-1,-6.030044E-1,1.0489774E0,-6.2112805E-2,-2.1599753E-1,-9.5079714E-1,-4.4251135E-1,6.409158E-1,-1.1075219E0,4.0598515E-1,-1.5956337E0,9.745492E-1,-1.6229413E0,4.06365E-1,-3.676259E-1,1.136834E0,-8.19827E-1,1.8905666E-1,-1.10209E0,4.5174322E-1,-8.556235E-1,6.5766317E-1,-5.5537796E-1,6.4663273E-1,-8.2418793E-1,-7.695528E-2,-3.3599508E-1,-1.071083E0,-1.7277573E-1,9.862497E-1,-5.675175E-2,1.3070004E0,1.3538874E0,1.108942E-1,9.413157E-2,-2.2509319E-1,-5.0156236E-1,3.3119875E-1,-3.113636E-1,1.360238E-1,-1.5580523E-1,1.6478161E0,2.018883E-1,-2.902658E-1,-5.456793E-2,-3.3510765E-1,2.8114688E-1,-3.747065E-1,-3.6286816E-1,1.7632757E-1,3.251708E-1,-5.4564863E-1,-5.790671E-1,-4.2892E-1,3.6084366E-1,-5.098961E-1,-7.0820314E-1,-2.4497105E-1,7.828802E-2,2.6461026E-1,1.4860302E-1,-1.6474588E-1,5.0079596E-1,-1.446686E-1,-3.3520165E-1,8.724681E-3,6.51504E-2,-3.5668498E-1,-3.6025834E-1,5.812127E-2,4.062435E-1,-2.3817058E-1,1.2306983E-1,-3.1105375E-1,-2.1879523E-1,2.8095964E-1,3.0349255E-2,-4.5251438E-1,-9.8908114E-1,1.9755198E-1,2.1559343E-1,-3.0949378E-1,-8.170122E-2,2.1928951E-1,-2.813162E-1,2.1587606E-1,-1.6456842E-1,-3.4671873E-1,1.4021123E-2,-2.1792203E-1,3.8754067E-1,-2.124008E-1,1.5019368E-1,-3.90327E-1,4.0762794E-1,-3.5677725E-1],"categories":[],"categories_nodes":[],"categories_segments":[],"categories_sizes":[],"default_left":[0,0,0,0,0,0,0,0,0,0,0,0,0,0,0,0,0,0,0,0,0,0,0,0,0,0,0,0,0,0,0,0,0,0,0,0,0,0,0,0,0,0,0,0,0,0,0,0,0,0,0,0,0,0,0,0,0,0,0,0,0,0,0,0,0,0,0,0,0,0,0,0,0,0,0,0,0,0,0,0,0,0,0,0,0,0,0,0,0,0,0,0,0,0,0,0,0,0,0,0,0,0,0,0,0,0,0,0,0,0,0,0,0,0,0,0,0,0,0,0,0,0,0,0,0,0,0],"id":6,"left_children":[1,3,5,7,9,11,13,15,17,19,21,23,25,27,29,31,33,35,37,39,41,43,45,47,49,51,53,55,57,59,61,63,65,67,69,71,73,75,77,79,81,83,85,87,89,91,93,95,97,99,101,103,105,107,109,111,113,115,117,119,121,123,125,-1,-1,-1,-1,-1,-1,-1,-1,-1,-1,-1,-1,-1,-1,-1,-1,-1,-1,-1,-1,-1,-1,-1,-1,-1,-1,-1,-1,-1,-1,-1,-1,-1,-1,-1,-1,-1,-1,-1,-1,-1,-1,-1,-1,-1,-1,-1,-1,-1,-1,-1,-1,-1,-1,-1,-1,-1,-1,-1,-1,-1,-1,-1,-1],"loss_changes":[7.0086016E4,2.564896E4,4.8004402E4,2.0584984E4,4.4901875E3,2.2747547E4,2.528261E4,1.3881419E4,1.4315398E4,2.2861338E3,5.196196E3,1.8082611E4,3.1439219E4,7.970949E3,8.612043E3,4.39634E3,9.461523E3,4.365297E3,7.697421E3,1.1838677E3,1.3949851E3,7.294721E3,6.1910107E3,1.5262687E4,2.7676553E3,1.4857335E4,1.883311E4,6.893798E3,4.323707E3,6.801383E3,4.8411846E3,3.9827295E3,4.4422295E3,1.9641758E3,9.283121E3,1.4985994E4,3.366414E3,7.250112E3,4.366772E3,9.028833E2,8.6793353E2,1.1743774E1,6.747886E2,1.0910986E3,3.4132593E3,3.901894E3,2.649908E3,3.9574277E3,1.3504511E4,1.7660938E3,1.4068976E3,5.5484434E3,3.4301028E3,8.60065E3,1.180868E4,6.472791E3,5.005401E3,6.3350146E3,1.7917812E3,4.673115E3,3.0194116E3,2.537195E3,1.1691904E3,0E0,0E0,0E0,0E0,0E0,0E0,0E0,0E0,0E0,0E0,0E0,0E0,0E0,0E0,0E0,0E0,0E0,0E0,0E0,0E0,0E0,0E0,0E0,0E0,0E0,0E0,0E0,0E0,0E0,0E0,0E0,0E0,0E0,0E0,0E0,0E0,0E0,0E0,0E0,0E0,0E0,0E0,0E0,0E0,0E0,0E0,0E0,0E0,0E0,0E0,0E0,0E0,0E0,0E0,0E0,0E0,0E0,0E0,0E0,0E0,0E0,0E0,0E0,0E0],"parents":[2147483647,0,0,1,1,2,2,3,3,4,4,5,5,6,6,7,7,8,8,9,9,10,10,11,11,12,12,13,13,14,14,15,15,16,16,17,17,18,18,19,19,20,20,21,21,22,22,23,23,24,24,25,25,26,26,27,27,28,28,29,29,30,30,31,31,32,32,33,33,34,34,35,35,36,36,37,37,38,38,39,39,40,40,41,41,42,42,43,43,44,44,45,45,46,46,47,47,48,48,49,49,50,50,51,51,52,52,53,53,54,54,55,55,56,56,57,57,58,58,59,59,60,60,61,61,62,62],"right_children":[2,4,6,8,10,12,14,16,18,20,22,24,26,28,30,32,34,36,38,40,42,44,46,48,50,52,54,56,58,60,62,64,66,68,70,72,74,76,78,80,82,84,86,88,90,92,94,96,98,100,102,104,106,108,110,112,114,116,118,120,122,124,126,-1,-1,-1,-1,-1,-1,-1,-1,-1,-1,-1,-1,-1,-1,-1,-1,-1,-1,-1,-1,-1,-1,-1,-1,-1,-1,-1,-1,-1,-1,-1,-1,-1,-1,-1,-1,-1,-1,-1,-1,-1,-1,-1,-1,-1,-1,-1,-1,-1,-1,-1,-1,-1,-1,-1,-1,-1,-1,-1,-1,-1,-1,-1,-1],"split_conditions":[1.43809395E1,1.9827E6,3.251644E0,7.3959894E-4,1.7148098E-1,3.9736202E6,3.6E3,2.7547216E1,5.3030453E0,1.6741408E0,1.4935441E-2,3.3140612E6,4.0782236E-2,2.563606E-2,7.577984E6,-1.9903755E0,2.2008412E0,4.9088944E-2,9.935851E0,9.373386E1,3.0300152E-3,5.981116E-2,5.1412845E-1,5.4010384E-2,1.6139021E0,1.6724956E-3,1.5360011E-1,3.0395006E5,6.478605E1,1.0032018E-2,4.5E3,-2.5014777E0,4.5623183E-2,7.7047973E-4,5.4326773E0,1.0490039E-1,7.55483E-3,5.264116E-2,2.5619725E-3,8.05977E-2,-6.673512E-1,4.443469E1,9.3498796E-1,1.6976064E-1,1.8004826E-3,6.846982E-2,1.6112909E-1,1.7317845E-1,1.0007445E1,2.5566045E6,6.22367E-3,1.1697342E1,1.3306115E-2,1.8229479E-1,6.8639E0,1.1543091E-1,1.0989682E-1,2.222315E-1,2.59559E-1,2.1987118E-1,6.49187E-2,2.5356576E-1,5.8511027E4,1.3538874E0,1.108942E-1,9.413157E-2,-2.2509319E-1,-5.0156236E-1,3.3119875E-1,-3.113636E-1,1.360238E-1,-1.5580523E-1,1.6478161E0,2.018883E-1,-2.902658E-1,-5.456793E-2,-3.3510765E-1,2.8114688E-1,-3.747065E-1,-3.6286816E-1,1.7632757E-1,3.251708E-1,-5.4564863E-1,-5.790671E-1,-4.2892E-1,3.6084366E-1,-5.098961E-1,-7.0820314E-1,-2.4497105E-1,7.828802E-2,2.6461026E-1,1.4860302E-1,-1.6474588E-1,5.0079596E-1,-1.446686E-1,-3.3520165E-1,8.724681E-3,6.51504E-2,-3.5668498E-1,-3.6025834E-1,5.812127E-2,4.062435E-1,-2.3817058E-1,1.2306983E-1,-3.1105375E-1,-2.1879523E-1,2.8095964E-1,3.0349255E-2,-4.5251438E-1,-9.8908114E-1,1.9755198E-1,2.1559343E-1,-3.0949378E-1,-8.170122E-2,2.1928951E-1,-2.813162E-1,2.1587606E-1,-1.6456842E-1,-3.4671873E-1,1.4021123E-2,-2.1792203E-1,3.8754067E-1,-2.124008E-1,1.5019368E-1,-3.90327E-1,4.0762794E-1,-3.5677725E-1],"split_indices":[7,81,0,52,2,84,82,8,1,103,50,72,55,27,79,171,2,42,2,43,58,37,40,14,181,51,34,79,43,52,85,149,42,58,1,38,49,36,52,55,105,44,164,25,64,26,34,22,1,79,50,10,13,4,47,23,37,41,40,25,48,187,80,0,0,0,0,0,0,0,0,0,0,0,0,0,0,0,0,0,0,0,0,0,0,0,0,0,0,0,0,0,0,0,0,0,0,0,0,0,0,0,0,0,0,0,0,0,0,0,0,0,0,0,0,0,0,0,0,0,0,0,0,0,0,0,0],"split_type":[0,0,0,0,0,0,0,0,0,0,0,0,0,0,0,0,0,0,0,0,0,0,0,0,0,0,0,0,0,0,0,0,0,0,0,0,0,0,0,0,0,0,0,0,0,0,0,0,0,0,0,0,0,0,0,0,0,0,0,0,0,0,0,0,0,0,0,0,0,0,0,0,0,0,0,0,0,0,0,0,0,0,0,0,0,0,0,0,0,0,0,0,0,0,0,0,0,0,0,0,0,0,0,0,0,0,0,0,0,0,0,0,0,0,0,0,0,0,0,0,0,0,0,0,0,0,0],"sum_hessian":[1.1717862E6,3.3413744E5,8.376488E5,2.4782308E5,8.631435E4,6.782533E5,1.5939547E5,6.642347E4,1.8139962E5,7.1488784E3,7.916548E4,3.7932103E5,2.989323E5,1.0242258E5,5.69729E4,3.4863383E4,3.1560082E4,1.3236016E5,4.903947E4,5.787498E3,1.3613802E3,5.1188465E4,2.7977012E4,3.6427556E5,1.50454795E4,3.304921E4,2.658831E5,5.1926508E4,5.049607E4,4.428115E4,1.2691752E4,1.9721279E3,3.2891258E4,1.3107684E4,1.8452398E4,8.650984E3,1.23709164E5,4.1243023E4,7.796446E3,5.214344E3,5.73154E2,2.6028284E2,1.1010974E3,1.8363622E3,4.93521E4,2.4905262E4,3.0717485E3,1.5668095E4,3.4860747E5,1.3795828E4,1.2496514E3,2.4183756E4,8.865457E3,1.374469E4,2.521384E5,2.0219547E4,3.1706959E4,9.971658E3,4.052441E4,3.8451367E4,5.8297812E3,3.6561184E3,9.035633E3,2.6759357E2,1.7045343E3,4.553142E3,2.8338113E4,2.59215E2,1.2848469E4,6.3784717E3,1.2073927E4,8.215342E3,4.3564267E2,1.263112E3,1.22446055E5,2.9749646E4,1.1493375E4,6.740416E3,1.05603E3,4.918582E3,2.9576233E2,4.3968994E2,1.3346402E2,8.275229E1,1.7753055E2,1.01500903E3,8.608836E1,9.579874E2,8.7837476E2,3.7799047E4,1.1553055E4,4.328081E3,2.0577182E4,2.3114993E3,7.602492E2,1.1601778E4,4.0663162E3,3.4163888E5,6.968588E3,1.281882E4,9.770078E2,7.246181E2,5.2503326E2,3.0284517E3,2.1155305E4,1.4838375E3,7.3816196E3,8.138688E3,5.606003E3,7.560637E2,2.5138234E5,2.3962847E3,1.7823262E4,2.5532912E4,6.174048E3,6.3512783E3,3.6203804E3,5.6506084E3,3.4873805E4,2.753482E4,1.0916547E4,4.939243E3,8.9053784E2,2.5254492E3,1.1306692E3,8.852533E3,1.8309947E2],"tree_param":{"num_deleted":"0","num_feature":"188","num_nodes":"127","size_leaf_vector":"0"}},{"base_weights":[-8.478175E-3,-3.9480537E-1,9.969369E-2,-7.5338256E-1,-2.1840392E-1,1.8335737E-1,-3.3987844E-1,-8.930045E-2,-9.0584123E-1,1.1887411E-1,-4.4915143E-1,3.6849687E-1,-3.470317E-3,-2.4064764E-2,-5.4114914E-1,-1.724162E-1,3.848048E0,-1.0468996E0,-3.303036E-1,-3.953807E-2,8.4917396E-1,-6.3351053E-1,5.930232E-2,4.2253026E-1,-1.1081862E0,7.2924756E-2,-6.3855624E-1,1.5032299E-1,-9.510477E-1,-6.924347E-1,-6.346084E-2,3.2931352E-1,-7.227123E-1,5.257373E0,-1.2472281E-1,-9.871988E-1,-2.1642454E0,2.882768E-1,-6.0290754E-1,6.7677546E-1,-1.803257E-1,7.253376E-1,2.992834E0,-7.394762E-1,9.745983E-2,-5.7546467E-1,3.475436E-1,5.193648E-1,4.857745E-3,-1.2792102E0,3.353175E0,1.3726717E-1,-6.302656E-1,-1.0011867E0,1.5829494E-2,3.3812913E-1,-5.080323E-1,-1.0512552E0,3.749731E-1,-8.292418E-1,1.2867793E-1,6.1246765E-1,-4.9384725E-1,1.1993518E0,3.0741666E-2,-3.270967E-1,2.0976196E-1,2.3956754E0,1.1288317E0,2.277101E0,-3.5418883E-1,2.6293652E-4,-3.1015396E-1,-4.599214E-1,-8.126322E-1,1.4999315E-1,-4.4407907E-1,-3.2273266E-1,-2.1720637E-2,3.2413304E-1,-1.569887E-1,7.927838E-2,-1.658737E-1,-1.2870912E-1,2.9212126E-1,-3.4225282E-1,1.1535062E0,-9.912542E-2,-2.731845E-1,4.5137262E-1,-1.1224782E-1,-1.473216E-2,-3.8431832E-1,1.8146877E-1,-1.3543928E-1,1.5982658E-1,-9.086621E-1,-1.674342E-1,1.4033747E-1,-2.9388008E-1,-7.3080933E-1,-1.920176E-1,1.347534E0,6.0810927E-2,-1.8813784E-1,1.5769759E-3,-2.7339542E-1,1.0121776E-2,-3.7174714E-1,7.58774E-2,-5.0057864E-1,1.3806641E-1,-2.0622881E-1,-3.3338118E-1,5.954454E-3,-3.407068E-1,1.7847443E-1,4.8508906E-1,-4.3150267E-1,-2.5930575E-1,3.4955707E-1,4.4389945E-3,1.2979627E0,2.708885E-1,-3.24087E-1,-2.0850138E-1,3.5098776E-1],"categories":[],"categories_nodes":[],"categories_segments":[],"categories_sizes":[],"default_left":[0,0,0,0,0,0,0,0,0,0,0,0,0,0,0,0,0,0,0,0,0,0,0,0,0,0,0,0,0,0,0,0,0,0,0,0,0,0,0,0,0,0,0,0,0,0,0,0,0,0,0,0,0,0,0,0,0,0,0,0,0,0,0,0,0,0,0,0,0,0,0,0,0,0,0,0,0,0,0,0,0,0,0,0,0,0,0,0,0,0,0,0,0,0,0,0,0,0,0,0,0,0,0,0,0,0,0,0,0,0,0,0,0,0,0,0,0,0,0,0,0,0,0,0,0,0,0],"id":7,"left_children":[1,3,5,7,9,11,13,15,17,19,21,23,25,27,29,31,33,35,37,39,41,43,45,47,49,51,53,55,57,59,61,63,65,67,69,71,73,75,77,79,81,83,85,87,89,91,93,95,97,99,101,103,105,107,109,111,113,115,117,119,121,123,125,-1,-1,-1,-1,-1,-1,-1,-1,-1,-1,-1,-1,-1,-1,-1,-1,-1,-1,-1,-1,-1,-1,-1,-1,-1,-1,-1,-1,-1,-1,-1,-1,-1,-1,-1,-1,-1,-1,-1,-1,-1,-1,-1,-1,-1,-1,-1,-1,-1,-1,-1,-1,-1,-1,-1,-1,-1,-1,-1,-1,-1,-1,-1,-1],"loss_changes":[4.5270758E4,1.4989152E4,3.1124764E4,7.9109727E3,1.2361584E4,2.4592992E4,8.601804E3,4.775459E3,5.1587773E3,7.464717E3,8.8406875E3,2.8494738E4,1.716982E4,8.51533E3,5.972924E3,3.945634E3,1.6897007E3,3.4024648E3,2.1098062E3,5.347455E3,3.0510264E3,5.3613613E3,4.5922144E3,1.393373E4,9.622829E3,1.429256E4,9.017141E3,5.481972E3,1.1086665E3,7.0514277E3,5.783878E3,6.2204155E3,3.563221E3,8.780381E2,6.604373E2,2.233211E3,8.8528125E2,1.4337738E3,2.1784E3,4.2198984E3,7.34076E3,3.118651E3,2.2159639E3,4.231703E3,5.8168027E3,2.9109312E3,3.54952E3,1.328943E4,1.6898924E4,4.2058086E3,2.120224E3,1.4476089E4,4.7299775E3,6.021592E3,5.411855E3,4.3196445E3,3.1336814E3,1.078541E3,1.3237573E3,3.7688398E3,4.2860254E3,3.8043926E3,4.0663462E3,0E0,0E0,0E0,0E0,0E0,0E0,0E0,0E0,0E0,0E0,0E0,0E0,0E0,0E0,0E0,0E0,0E0,0E0,0E0,0E0,0E0,0E0,0E0,0E0,0E0,0E0,0E0,0E0,0E0,0E0,0E0,0E0,0E0,0E0,0E0,0E0,0E0,0E0,0E0,0E0,0E0,0E0,0E0,0E0,0E0,0E0,0E0,0E0,0E0,0E0,0E0,0E0,0E0,0E0,0E0,0E0,0E0,0E0,0E0,0E0,0E0,0E0,0E0,0E0],"parents":[2147483647,0,0,1,1,2,2,3,3,4,4,5,5,6,6,7,7,8,8,9,9,10,10,11,11,12,12,13,13,14,14,15,15,16,16,17,17,18,18,19,19,20,20,21,21,22,22,23,23,24,24,25,25,26,26,27,27,28,28,29,29,30,30,31,31,32,32,33,33,34,34,35,35,36,36,37,37,38,38,39,39,40,40,41,41,42,42,43,43,44,44,45,45,46,46,47,47,48,48,49,49,50,50,51,51,52,52,53,53,54,54,55,55,56,56,57,57,58,58,59,59,60,60,61,61,62,62],"right_children":[2,4,6,8,10,12,14,16,18,20,22,24,26,28,30,32,34,36,38,40,42,44,46,48,50,52,54,56,58,60,62,64,66,68,70,72,74,76,78,80,82,84,86,88,90,92,94,96,98,100,102,104,106,108,110,112,114,116,118,120,122,124,126,-1,-1,-1,-1,-1,-1,-1,-1,-1,-1,-1,-1,-1,-1,-1,-1,-1,-1,-1,-1,-1,-1,-1,-1,-1,-1,-1,-1,-1,-1,-1,-1,-1,-1,-1,-1,-1,-1,-1,-1,-1,-1,-1,-1,-1,-1,-1,-1,-1,-1,-1,-1,-1,-1,-1,-1,-1,-1,-1,-1,-1,-1,-1,-1],"split_conditions":[8.71491E-1,1.3200872E-1,4.6019895E4,7.198386E-2,1.757459E-3,8.0934475E-4,1.8611347E-2,5.7640918E-2,6.1197435E6,1.6310617E-3,1.9671451E6,2.4350375E-1,6.439973E5,3.808217E0,1.9763508E-1,6.338751E-2,6.246687E1,1.4528177E1,7.542757E-4,2.6847161E-2,6.3468576E-3,3.476416E1,7.9378247E-4,2.0824262E-1,1.5796704E6,5.763007E4,2.1849714E1,1.2731696E5,3.5551566E5,3.1331823E0,2.8632133E0,1.5200973E-1,3.776737E1,-6.701783E-1,-2.7106776E0,1.6464114E-2,9.809802E0,8.24835E-1,7.038622E0,1.2821734E-1,5.1708512E5,5.559179E-2,-2.7580175E-1,3.4110304E-3,1.4651273E-1,7.2524E-2,3.653687E5,4.131423E1,2.3991938E-1,7.2244606E5,1.091748E0,1.0835612E7,1.2322505E-1,5.2572326E-3,5.290403E5,3.0375889E-2,7.22912E5,7.687111E-2,-7.797465E-1,3.7434394E5,2.7138658E6,6.5330637E-1,3.1632002E6,1.1993518E0,3.0741666E-2,-3.270967E-1,2.0976196E-1,2.3956754E0,1.1288317E0,2.277101E0,-3.5418883E-1,2.6293652E-4,-3.1015396E-1,-4.599214E-1,-8.126322E-1,1.4999315E-1,-4.4407907E-1,-3.2273266E-1,-2.1720637E-2,3.2413304E-1,-1.569887E-1,7.927838E-2,-1.658737E-1,-1.2870912E-1,2.9212126E-1,-3.4225282E-1,1.1535062E0,-9.912542E-2,-2.731845E-1,4.5137262E-1,-1.1224782E-1,-1.473216E-2,-3.8431832E-1,1.8146877E-1,-1.3543928E-1,1.5982658E-1,-9.086621E-1,-1.674342E-1,1.4033747E-1,-2.9388008E-1,-7.3080933E-1,-1.920176E-1,1.347534E0,6.0810927E-2,-1.8813784E-1,1.5769759E-3,-2.7339542E-1,1.0121776E-2,-3.7174714E-1,7.58774E-2,-5.0057864E-1,1.3806641E-1,-2.0622881E-1,-3.3338118E-1,5.954454E-3,-3.407068E-1,1.7847443E-1,4.8508906E-1,-4.3150267E-1,-2.5930575E-1,3.4955707E-1,4.4389945E-3,1.2979627E0,2.708885E-1,-3.24087E-1,-2.0850138E-1,3.5098776E-1],"split_indices":[9,17,77,37,58,52,13,55,81,58,81,34,85,0,23,42,43,7,52,32,52,3,65,25,80,76,7,74,82,4,0,18,3,155,153,11,2,183,4,33,78,36,182,50,25,22,73,3,18,84,159,78,35,15,73,50,78,48,142,87,71,40,84,0,0,0,0,0,0,0,0,0,0,0,0,0,0,0,0,0,0,0,0,0,0,0,0,0,0,0,0,0,0,0,0,0,0,0,0,0,0,0,0,0,0,0,0,0,0,0,0,0,0,0,0,0,0,0,0,0,0,0,0,0,0,0,0],"split_type":[0,0,0,0,0,0,0,0,0,0,0,0,0,0,0,0,0,0,0,0,0,0,0,0,0,0,0,0,0,0,0,0,0,0,0,0,0,0,0,0,0,0,0,0,0,0,0,0,0,0,0,0,0,0,0,0,0,0,0,0,0,0,0,0,0,0,0,0,0,0,0,0,0,0,0,0,0,0,0,0,0,0,0,0,0,0,0,0,0,0,0,0,0,0,0,0,0,0,0,0,0,0,0,0,0,0,0,0,0,0,0,0,0,0,0,0,0,0,0,0,0,0,0,0,0,0,0],"sum_hessian":[1.0832966E6,2.36971E5,8.463256E5,7.8136664E4,1.5883433E5,7.1100144E5,1.353242E5,1.4589415E4,6.3547246E4,6.4523047E4,9.431129E4,3.5711372E5,3.5388772E5,5.2674227E4,8.264998E4,1.4288742E4,3.0067303E2,5.1037637E4,1.2509611E4,5.3022645E4,1.1500402E4,6.921466E4,2.509663E4,3.445085E5,1.2605221E4,3.1588994E5,3.7997805E4,4.4334652E4,8.339575E3,6.2770023E4,1.987995E4,7.474398E3,6.8143438E3,2.2170184E2,7.89712E1,4.8450754E4,2.5868801E3,3.8265413E3,8.683069E3,8.708887E3,4.4313758E4,1.0873588E4,6.268143E2,6.0451277E4,8.763377E3,7.8369805E3,1.725965E4,2.796689E5,6.483958E4,1.2140533E4,4.646876E2,2.8940956E5,2.6480375E4,2.4448848E4,1.3548958E4,3.449492E4,9.8397295E3,7.7538247E3,5.8575E2,5.38054E4,8.964625E3,7.733673E3,1.2146275E4,4.3429318E2,7.040105E3,5.414708E3,1.3996359E3,7.693089E1,1.4477095E2,8.762066E0,7.020914E1,2.1843162E3,4.6266438E4,1.1998846E3,1.3869955E3,3.4181E3,4.0844104E2,4.5903853E3,4.0926846E3,6.516897E3,2.1919893E3,2.0204793E4,2.4108967E4,1.9253491E3,8.948239E3,1.07077515E2,5.1973676E2,1.7831977E4,4.26193E4,2.1993228E3,6.564054E3,4.48921E3,3.3477703E3,1.3055009E4,4.204642E3,2.786183E5,1.0506083E3,2.9258383E4,3.5581195E4,9.644508E3,2.4960254E3,1.0319775E2,3.6148984E2,2.6658894E5,2.2820621E4,8.12007E3,1.8360305E4,4.5709175E3,1.987793E4,1.1877905E4,1.6710526E3,3.0825691E4,3.6692322E3,4.5915757E3,5.2481533E3,7.3758203E3,3.780046E2,3.4770526E2,2.3804477E2,5.2875137E4,9.302629E2,8.728829E3,2.3579556E2,6.601292E3,1.1323809E3,1.0836683E4,1.3095929E3],"tree_param":{"num_deleted":"0","num_feature":"188","num_nodes":"127","size_leaf_vector":"0"}},{"base_weights":[-1.0205443E-2,-1.3455091E-1,2.2311662E-1,-2.4272478E-1,2.0488335E-1,3.1984892E-1,-4.2506638E-1,-5.483064E-1,-8.964249E-2,4.8197117E-1,-1.930711E-2,4.2838317E-1,-2.870906E-1,-7.7820265E-1,-1.5459287E-2,-8.092466E-2,-7.6534206E-1,-7.81338E-1,-8.554416E-3,8.3319366E-1,1.7925408E-1,1.1240444E-1,-6.29081E-1,5.4128814E-1,-1.391628E-1,-8.8092893E-1,5.2789994E-2,-9.8870695E-1,1.5787819E-1,-1.0628402E0,2.940039E-1,3.4573066E-1,-6.220918E-1,-7.89394E-1,7.9587847E-1,-8.44675E-1,1.6128727E0,-1.2582561E-1,4.326706E-1,9.4079703E-1,-3.4489936E-1,3.0664235E-1,-7.409641E-1,2.214043E-1,-3.076606E-1,-9.835859E-1,1.010794E-1,-5.66468E-1,5.825659E-1,1.4188197E-1,-9.681084E-1,-3.2411945E-1,-1.4041466E0,9.132497E-1,-2.2399507E-1,-1.2979286E0,-5.4558444E-1,1.0888475E0,-4.3115765E-1,1.0701585E0,-1.2061652E0,-1.602776E0,4.488005E-1,2.4412103E-1,-1.3854371E-1,-2.567766E-1,1.0334516E-1,-2.6412228E-1,-9.572331E-2,1.2842992E-1,3.2982569E0,-2.6371145E-1,4.2309135E-1,2.1460938E0,4.405027E-1,-2.438843E-2,-4.6767503E-1,1.6541427E-1,-3.018611E-1,2.946084E-1,-3.845144E-1,-4.1864797E-1,1.3967135E-2,2.4304884E-2,2.0102622E-1,-5.775636E-2,-3.7408257E-1,-1.2068154E-1,8.9413665E-2,1.17505066E-1,-1.4345968E-1,-3.033185E-1,1.8458449E0,3.492511E-1,-1.277851E-1,1.970984E-1,-3.146876E-1,-2.9709939E-2,1.9307496E-1,-2.94489E-1,1.06590144E-1,2.0954263E-1,-3.5555395E-1,2.2799638E-1,-2.4576703E-1,1.4271592E-1,-4.7141877E-1,3.054773E-1,-5.631931E-1,-2.6913217E-1,6.0274795E-2,-2.6282328E-1,-4.6784678E-1,-2.568991E-1,1.8145214E-1,-4.8379204E-1,4.0658504E-1,3.9182838E-2,-3.5111988E-1,-4.409343E-1,6.754337E-1,-3.6796018E-1,1.2668184E0,-9.747064E-2,-6.252118E-1,-4.075326E-2,2.5000682E-1],"categories":[],"categories_nodes":[],"categories_segments":[],"categories_sizes":[],"default_left":[0,0,0,0,0,0,0,0,0,0,0,0,0,0,0,0,0,0,0,0,0,0,0,0,0,0,0,0,0,0,0,0,0,0,0,0,0,0,0,0,0,0,0,0,0,0,0,0,0,0,0,0,0,0,0,0,0,0,0,0,0,0,0,0,0,0,0,0,0,0,0,0,0,0,0,0,0,0,0,0,0,0,0,0,0,0,0,0,0,0,0,0,0,0,0,0,0,0,0,0,0,0,0,0,0,0,0,0,0,0,0,0,0,0,0,0,0,0,0,0,0,0,0,0,0,0,0],"id":8,"left_children":[1,3,5,7,9,11,13,15,17,19,21,23,25,27,29,31,33,35,37,39,41,43,45,47,49,51,53,55,57,59,61,63,65,67,69,71,73,75,77,79,81,83,85,87,89,91,93,95,97,99,101,103,105,107,109,111,113,115,117,119,121,123,125,-1,-1,-1,-1,-1,-1,-1,-1,-1,-1,-1,-1,-1,-1,-1,-1,-1,-1,-1,-1,-1,-1,-1,-1,-1,-1,-1,-1,-1,-1,-1,-1,-1,-1,-1,-1,-1,-1,-1,-1,-1,-1,-1,-1,-1,-1,-1,-1,-1,-1,-1,-1,-1,-1,-1,-1,-1,-1,-1,-1,-1,-1,-1,-1],"loss_changes":[2.9486623E4,2.4344145E4,2.215448E4,2.3519328E4,9.953513E3,2.0253322E4,6.6369326E3,1.702177E4,1.8787959E4,7.618873E3,7.113473E3,1.6712816E4,9.413623E3,4.8555156E3,6.886151E3,1.2286803E4,4.3036016E3,5.3313594E3,1.5513845E4,4.2054688E3,4.5121245E3,3.335088E3,4.0725015E3,9.94748E3,1.0082432E4,4.945619E3,7.0649917E3,2.755748E3,2.4816687E3,1.4826274E3,4.8159487E3,1.1246037E4,5.302384E3,4.8304375E3,6.5181763E3,2.6546914E3,7.1519556E2,1.5116069E4,1.0754063E4,2.786664E3,1.142143E3,2.7724275E3,1.2986135E3,2.7644478E3,1.78996E3,2.0828818E3,2.8819958E3,4.6141797E3,8.722391E3,7.7500713E3,3.9649678E3,4.4158867E3,2.7525684E3,2.117543E3,6.419714E3,1.305916E3,2.9569275E3,1.2644407E3,1.1512975E3,9.202932E2,5.073125E2,7.6045435E2,3.409225E3,0E0,0E0,0E0,0E0,0E0,0E0,0E0,0E0,0E0,0E0,0E0,0E0,0E0,0E0,0E0,0E0,0E0,0E0,0E0,0E0,0E0,0E0,0E0,0E0,0E0,0E0,0E0,0E0,0E0,0E0,0E0,0E0,0E0,0E0,0E0,0E0,0E0,0E0,0E0,0E0,0E0,0E0,0E0,0E0,0E0,0E0,0E0,0E0,0E0,0E0,0E0,0E0,0E0,0E0,0E0,0E0,0E0,0E0,0E0,0E0,0E0,0E0,0E0,0E0],"parents":[2147483647,0,0,1,1,2,2,3,3,4,4,5,5,6,6,7,7,8,8,9,9,10,10,11,11,12,12,13,13,14,14,15,15,16,16,17,17,18,18,19,19,20,20,21,21,22,22,23,23,24,24,25,25,26,26,27,27,28,28,29,29,30,30,31,31,32,32,33,33,34,34,35,35,36,36,37,37,38,38,39,39,40,40,41,41,42,42,43,43,44,44,45,45,46,46,47,47,48,48,49,49,50,50,51,51,52,52,53,53,54,54,55,55,56,56,57,57,58,58,59,59,60,60,61,61,62,62],"right_children":[2,4,6,8,10,12,14,16,18,20,22,24,26,28,30,32,34,36,38,40,42,44,46,48,50,52,54,56,58,60,62,64,66,68,70,72,74,76,78,80,82,84,86,88,90,92,94,96,98,100,102,104,106,108,110,112,114,116,118,120,122,124,126,-1,-1,-1,-1,-1,-1,-1,-1,-1,-1,-1,-1,-1,-1,-1,-1,-1,-1,-1,-1,-1,-1,-1,-1,-1,-1,-1,-1,-1,-1,-1,-1,-1,-1,-1,-1,-1,-1,-1,-1,-1,-1,-1,-1,-1,-1,-1,-1,-1,-1,-1,-1,-1,-1,-1,-1,-1,-1,-1,-1,-1,-1,-1,-1],"split_conditions":[1.973354E-1,2.0613384E6,1.15446195E5,5.2120624E0,1.779708E5,2.2476599E-1,2.423572E1,1.0024923E-1,5.40455E3,5.055291E0,2.3024447E-1,1.0504759E1,1.5936287E-1,1.1103105E1,9.638525E4,1.5995264E-2,1.00617926E3,3.2574086E4,2.3624869E-2,9.68519E0,1.2290737E5,5.6584943E-2,1.9793239E-1,2.771243E-3,3.8932082E-1,1.7331728E1,1.6145493E-1,6.1123696E-4,-5.3927124E-1,-2.1276195E0,1.9660486E1,1.6631892E-1,6.934556E4,5.5046062E4,1.2120976E7,2.2462454E0,3.615562E-2,3.3193228E5,1.6594873E-1,5.4474488E-2,1.50439E-1,8.5146166E-4,9.0017444E2,1.3146377E-2,1.7105043E1,8.281921E6,4.9686957E-2,-1.1191996E0,1.5386443E-1,7.343416E-4,1.0972803E-2,3.3172858E-3,9.0676956E-2,3.2066066E0,8.391113E5,2.0580879E-1,1.8762995E0,1.903286E-1,7.317019E-2,1.2636649E-3,1.0580617E-3,-8.3243924E-1,1.2533119E-2,2.4412103E-1,-1.3854371E-1,-2.567766E-1,1.0334516E-1,-2.6412228E-1,-9.572331E-2,1.2842992E-1,3.2982569E0,-2.6371145E-1,4.2309135E-1,2.1460938E0,4.405027E-1,-2.438843E-2,-4.6767503E-1,1.6541427E-1,-3.018611E-1,2.946084E-1,-3.845144E-1,-4.1864797E-1,1.3967135E-2,2.4304884E-2,2.0102622E-1,-5.775636E-2,-3.7408257E-1,-1.2068154E-1,8.9413665E-2,1.17505066E-1,-1.4345968E-1,-3.033185E-1,1.8458449E0,3.492511E-1,-1.277851E-1,1.970984E-1,-3.146876E-1,-2.9709939E-2,1.9307496E-1,-2.94489E-1,1.06590144E-1,2.0954263E-1,-3.5555395E-1,2.2799638E-1,-2.4576703E-1,1.4271592E-1,-4.7141877E-1,3.054773E-1,-5.631931E-1,-2.6913217E-1,6.0274795E-2,-2.6282328E-1,-4.6784678E-1,-2.568991E-1,1.8145214E-1,-4.8379204E-1,4.0658504E-1,3.9182838E-2,-3.5111988E-1,-4.409343E-1,6.754337E-1,-3.6796018E-1,1.2668184E0,-9.747064E-2,-6.252118E-1,-4.075326E-2,2.5000682E-1],"split_indices":[19,81,74,1,73,19,7,19,79,44,18,47,38,47,78,5,44,87,15,47,75,13,42,15,40,10,38,54,94,142,10,17,83,82,78,154,55,86,33,31,35,60,72,49,3,78,55,136,34,58,32,15,24,0,79,19,94,41,187,54,57,94,16,0,0,0,0,0,0,0,0,0,0,0,0,0,0,0,0,0,0,0,0,0,0,0,0,0,0,0,0,0,0,0,0,0,0,0,0,0,0,0,0,0,0,0,0,0,0,0,0,0,0,0,0,0,0,0,0,0,0,0,0,0,0,0,0],"split_type":[0,0,0,0,0,0,0,0,0,0,0,0,0,0,0,0,0,0,0,0,0,0,0,0,0,0,0,0,0,0,0,0,0,0,0,0,0,0,0,0,0,0,0,0,0,0,0,0,0,0,0,0,0,0,0,0,0,0,0,0,0,0,0,0,0,0,0,0,0,0,0,0,0,0,0,0,0,0,0,0,0,0,0,0,0,0,0,0,0,0,0,0,0,0,0,0,0,0,0,0,0,0,0,0,0,0,0,0,0,0,0,0,0,0,0,0,0,0,0,0,0,0,0,0,0,0,0],"sum_hessian":[1.0163386E6,6.6300206E5,3.5333653E5,5.0277397E5,1.6022811E5,3.074538E5,4.5882695E4,1.6780347E5,3.349705E5,7.165951E4,8.856859E4,2.6081466E5,4.663916E4,2.4639361E4,2.1243336E4,5.3212605E4,1.1459086E5,3.5147504E4,2.99823E5,3.31713E4,3.8488207E4,7.283665E4,1.5731947E4,2.175386E5,4.327607E4,1.697642E4,2.966274E4,2.0115717E4,4.523645E3,4.8445337E3,1.6398803E4,2.975454E4,2.3458068E4,1.1285276E5,1.7381006E3,3.4242297E4,9.052067E2,2.3686772E5,6.2955285E4,3.0395293E4,2.77601E3,3.3808652E4,4.679555E3,5.7830957E4,1.5005692E4,1.0589987E4,5.14196E3,7.8143774E3,2.097242E5,3.2319375E4,1.0956694E4,8.224987E3,8.751433E3,7.218822E3,2.244392E4,1.1846803E4,8.268913E3,1.7526843E3,2.7709607E3,3.0462085E2,4.539913E3,1.236625E3,1.5162177E4,1.8837428E4,1.0917111E4,1.8888705E4,4.569364E3,9.4554195E4,1.8298568E4,1.6786074E3,5.949316E1,3.3728918E4,5.1337744E2,2.1779099E1,8.834276E2,2.297303E5,7.137419E3,5.815776E4,4.797525E3,2.9842232E4,5.530611E2,7.5287463E2,2.0231354E3,2.0860012E4,1.294864E4,2.2462087E3,2.4333462E3,6.328433E3,5.1502523E4,2.9415747E3,1.2064117E4,1.0550227E4,3.976097E1,1.7038511E3,3.438109E3,2.2100195E3,5.604358E3,1.723199E4,1.9249222E5,5.1586714E3,2.7160705E4,1.2623881E3,9.694307E3,2.578476E3,5.646511E3,7.148411E2,8.0365913E3,6.9576426E3,2.6117896E2,8.684878E3,1.3759041E4,4.535767E3,7.311036E3,6.5105723E3,1.7583411E3,1.5688805E2,1.5957963E3,1.5749459E3,1.1960148E3,9.6623024E1,2.0799782E2,4.5237144E3,1.6198526E1,3.3877298E2,8.978519E2,6.0162466E3,9.145931E3],"tree_param":{"num_deleted":"0","num_feature":"188","num_nodes":"127","size_leaf_vector":"0"}},{"base_weights":[-9.366145E-3,1.6751982E-2,-8.1886244E-1,-2.4304615E-1,9.3974866E-2,-8.721694E-1,6.562536E0,-1.1936783E-1,-6.374773E-1,1.9271713E-2,4.0095142E-1,-9.56662E-1,6.431314E-1,1.68404E1,1.5476575E-1,5.23177E-1,-2.0585942E-1,-7.009247E-1,1.2295144E0,-5.555515E-1,5.2001506E-2,6.0421246E-1,-8.738761E-2,-9.891002E-1,1.1091542E0,1.445694E0,-6.6633606E-1,1.8906225E1,-2.8315464E-1,-3.6715847E-1,1.0396953E0,7.171845E-1,-1.2971789E0,-3.9630535E-1,9.914746E-2,-9.0089256E-1,-1.4045529E-1,1.1140673E1,7.9625833E-1,-1.7168862E0,-4.1448522E-1,-4.4324484E-2,2.4092756E-1,-1.3526192E0,6.5767837E-1,-7.5419825E-1,1.9823939E-1,2.8414845E0,-1.0005121E0,2.0723073E0,-1.3460836E0,3.5595756E0,1.0694299E0,1.1074331E0,-1.176611E0,-1.6933481E-1,5.764582E0,1.4696984E-1,6.7238706E-1,-4.4122943E-1,2.7516454E-1,1.3473049E-1,-1.5707001E-1,-8.326311E-3,2.609258E-1,-2.8538808E-1,2.4218088E-1,-1.5813275E-1,1.4362575E-1,-3.7098524E-1,4.6275153E0,-8.69274E-2,8.015448E-1,-3.789894E-1,-8.8155866E-1,1.4634159E-2,-2.1947308E-1,1.3528104E-1,-2.9601146E-2,9.5828556E-2,-1.8278688E-1,-4.9280223E-1,3.4851047E-1,2.0911354E-1,-4.8049802E-1,2.2216062E-1,-2.7681682E-1,-2.9574546E-1,9.379179E-2,-3.191002E-1,1.9948595E0,-3.1660125E-1,-1.3446164E-1,6.3975453E-1,-3.6201638E-1,-3.2787395E-1,-4.3382144E-1,8.98303E-1,1.8029733E0,3.789499E-1,-4.9911782E-1,6.944493E-1,-3.9248726E-1,-3.3813804E-1,-4.9435642E-1],"categories":[],"categories_nodes":[],"categories_segments":[],"categories_sizes":[],"default_left":[0,0,0,0,0,0,0,0,0,0,0,0,0,0,0,0,0,0,0,0,0,0,0,0,0,0,0,0,0,0,0,0,0,0,0,0,0,0,0,0,0,0,0,0,0,0,0,0,0,0,0,0,0,0,0,0,0,0,0,0,0,0,0,0,0,0,0,0,0,0,0,0,0,0,0,0,0,0,0,0,0,0,0,0,0,0,0,0,0,0,0,0,0,0,0,0,0,0,0,0,0,0,0,0,0],"id":9,"left_children":[1,3,5,7,9,11,13,15,17,19,21,23,25,27,29,31,33,35,37,39,41,43,45,47,49,51,53,55,-1,-1,-1,57,59,61,63,65,67,69,71,73,75,77,79,81,83,85,87,89,91,93,95,97,99,101,103,-1,-1,-1,-1,-1,-1,-1,-1,-1,-1,-1,-1,-1,-1,-1,-1,-1,-1,-1,-1,-1,-1,-1,-1,-1,-1,-1,-1,-1,-1,-1,-1,-1,-1,-1,-1,-1,-1,-1,-1,-1,-1,-1,-1,-1,-1,-1,-1,-1,-1],"loss_changes":[2.0076012E4,1.845492E4,1.1684006E4,1.0282073E4,1.6261216E4,3.7734023E3,1.4019905E4,8.91774E3,5.9608555E3,1.0729878E4,1.3776092E4,1.8714941E3,1.6371765E3,3.0215664E3,6.074901E2,6.7241597E3,8.215084E3,5.4535996E3,7.0936367E3,5.0326377E3,9.819803E3,1.0253781E4,7.7690396E3,1.2041445E3,1.0243103E3,7.642197E2,5.374065E2,4.519004E2,0E0,0E0,0E0,5.9585957E3,7.0626465E2,9.367206E3,5.3162603E3,3.0884688E3,3.0641702E3,3.6886162E3,3.2309263E3,1.8401113E3,4.0246562E3,9.619112E3,1.2161684E4,1.9029341E3,8.485535E3,3.082126E3,3.868729E3,1.2248098E3,8.292031E2,6.3904053E1,1.5159149E0,1.8348938E2,4.3690314E2,3.904931E2,8.880249E0,0E0,0E0,0E0,0E0,0E0,0E0,0E0,0E0,0E0,0E0,0E0,0E0,0E0,0E0,0E0,0E0,0E0,0E0,0E0,0E0,0E0,0E0,0E0,0E0,0E0,0E0,0E0,0E0,0E0,0E0,0E0,0E0,0E0,0E0,0E0,0E0,0E0,0E0,0E0,0E0,0E0,0E0,0E0,0E0,0E0,0E0,0E0,0E0,0E0,0E0],"parents":[2147483647,0,0,1,1,2,2,3,3,4,4,5,5,6,6,7,7,8,8,9,9,10,10,11,11,12,12,13,13,14,14,15,15,16,16,17,17,18,18,19,19,20,20,21,21,22,22,23,23,24,24,25,25,26,26,27,27,31,31,32,32,33,33,34,34,35,35,36,36,37,37,38,38,39,39,40,40,41,41,42,42,43,43,44,44,45,45,46,46,47,47,48,48,49,49,50,50,51,51,52,52,53,53,54,54],"right_children":[2,4,6,8,10,12,14,16,18,20,22,24,26,28,30,32,34,36,38,40,42,44,46,48,50,52,54,56,-1,-1,-1,58,60,62,64,66,68,70,72,74,76,78,80,82,84,86,88,90,92,94,96,98,100,102,104,-1,-1,-1,-1,-1,-1,-1,-1,-1,-1,-1,-1,-1,-1,-1,-1,-1,-1,-1,-1,-1,-1,-1,-1,-1,-1,-1,-1,-1,-1,-1,-1,-1,-1,-1,-1,-1,-1,-1,-1,-1,-1,-1,-1,-1,-1,-1,-1,-1,-1],"split_conditions":[1.2444588E7,2.8782711E1,1.3612072E1,1.0376784E-1,8.571539E-2,2.1657604E-1,1.076292E1,1.2345887E-2,5.1552412E5,1.4146936E-1,1.451575E-1,7.006687E4,2.537417E0,1.4961099E3,1.9628639E0,1.4622635E-1,1.9982734E6,7.496256E6,-1.9472615E0,7.8314375E-3,3.9711432E6,2.450371E-2,5.4103587E-2,-3.51317E0,-1.0104364E0,6.3616405E0,1.2628676E7,6.896737E1,-2.8315464E-1,-3.6715847E-1,1.0396953E0,3.9909065E-1,1.0366057E-2,4.6692006E-2,1.806335E-3,1.4032316E1,1.0105498E1,8.825315E0,8.422611E-1,1.3527083E1,-4.5007214E-1,1.0292027E-1,8.9895853E-4,3.0476367E-2,2.1748364E-1,3.3741063E-3,1.6847935E-1,4.4525824E-2,3.605037E3,-5.190671E-1,1.4394773E1,2.566749E0,1.1005059E-1,-1.4790062E0,1.800179E3,-1.6933481E-1,5.764582E0,1.4696984E-1,6.7238706E-1,-4.4122943E-1,2.7516454E-1,1.3473049E-1,-1.5707001E-1,-8.326311E-3,2.609258E-1,-2.8538808E-1,2.4218088E-1,-1.5813275E-1,1.4362575E-1,-3.7098524E-1,4.6275153E0,-8.69274E-2,8.015448E-1,-3.789894E-1,-8.8155866E-1,1.4634159E-2,-2.1947308E-1,1.3528104E-1,-2.9601146E-2,9.5828556E-2,-1.8278688E-1,-4.9280223E-1,3.4851047E-1,2.0911354E-1,-4.8049802E-1,2.2216062E-1,-2.7681682E-1,-2.9574546E-1,9.379179E-2,-3.191002E-1,1.9948595E0,-3.1660125E-1,-1.3446164E-1,6.3975453E-1,-3.6201638E-1,-3.2787395E-1,-4.3382144E-1,8.98303E-1,1.8029733E0,3.789499E-1,-4.9911782E-1,6.944493E-1,-3.9248726E-1,-3.3813804E-1,-4.9435642E-1],"split_indices":[78,8,81,37,36,38,7,31,82,25,23,83,0,81,40,33,81,81,115,12,84,48,48,175,101,9,78,6,0,0,0,5,52,42,64,47,7,46,92,2,132,39,60,13,41,28,39,85,82,89,7,122,17,147,82,0,0,0,0,0,0,0,0,0,0,0,0,0,0,0,0,0,0,0,0,0,0,0,0,0,0,0,0,0,0,0,0,0,0,0,0,0,0,0,0,0,0,0,0,0,0,0,0,0,0],"split_type":[0,0,0,0,0,0,0,0,0,0,0,0,0,0,0,0,0,0,0,0,0,0,0,0,0,0,0,0,0,0,0,0,0,0,0,0,0,0,0,0,0,0,0,0,0,0,0,0,0,0,0,0,0,0,0,0,0,0,0,0,0,0,0,0,0,0,0,0,0,0,0,0,0,0,0,0,0,0,0,0,0,0,0,0,0,0,0,0,0,0,0,0,0,0,0,0,0,0,0,0,0,0,0,0,0],"sum_hessian":[9.4955425E5,9.1987575E5,2.9678502E4,2.1077406E5,7.091017E5,2.9466582E4,2.1191974E2,1.6046102E5,5.0313055E4,5.703156E5,1.38786E5,2.7910662E4,1.5559198E3,8.075811E1,1.3116164E2,1.9036209E4,1.414248E5,4.8660027E4,1.6530273E3,3.0722898E4,5.3959275E5,9.799667E4,4.078933E4,2.7479688E4,4.3097467E2,9.646123E2,5.9130756E2,7.2296974E1,8.461131E0,9.304765E1,3.8113983E1,1.7203342E4,1.8328683E3,8.706267E4,5.4362125E4,3.5863727E4,1.27963E4,6.819879E1,1.5848285E3,3.3264648E3,2.7396434E4,3.5737966E5,1.8221311E5,2.6056765E3,9.5391E4,1.223184E4,2.8557488E4,8.088669E1,2.73988E4,3.096569E2,1.213178E2,1.4447572E2,8.2013654E2,1.3184169E2,4.5946585E2,1.1166893E0,7.118029E1,1.4971944E4,2.2313972E3,1.6999458E3,1.3292255E2,1.1390716E4,7.567196E4,4.6676492E4,7.685634E3,3.4836293E4,1.0274342E3,7.877485E3,4.9188145E3,1.7719543E1,5.0479248E1,1.0042035E3,5.80625E2,2.4272693E3,8.991956E2,1.1132654E4,1.6263778E4,3.5337516E4,3.2204212E5,1.668119E5,1.5401197E4,2.3364836E3,2.6919278E2,9.375805E4,1.6329478E3,1.2390093E3,1.099283E4,2.5153713E3,2.6042117E4,4.0289986E1,4.0596703E1,2.4923805E4,2.4749976E3,3.04417E2,5.239881E0,3.7725864E1,8.359194E1,1.1920098E2,2.527475E1,7.663524E2,5.3784115E1,8.793357E1,4.3908127E1,4.188728E2,4.0593033E1],"tree_param":{"num_deleted":"0","num_feature":"188","num_nodes":"105","size_leaf_vector":"0"}},{"base_weights":[-9.755486E-3,1.1801709E-2,-7.762848E-1,2.938956E-2,-8.461772E-1,-9.30054E-1,2.166894E-2,-2.1078627E-1,8.8971354E-2,-8.957825E-1,9.92668E0,-9.7699684E-1,3.0377492E-1,-5.097958E-1,7.8876275E-1,1.8580432E-1,-3.4980255E-1,-7.7096087E-1,1.0674605E-1,-1.0368782E0,2.1434453E-1,3.6936944E0,-1.5376856E0,8.2607216E-1,-1.001271E0,1.3918002E0,-7.4411815E-1,2.6315908E0,-6.7287755E-1,1.1807038E0,-4.5512596E-1,3.7558517E-1,-3.2475328E-1,-8.632398E-1,-2.3794913E-1,4.6241796E-1,-9.6665376E-1,-3.2083564E-2,2.0124117E-1,1.7594409E0,-1.0542295E0,-1.3335431E0,1.0029234E0,-1.9457318E0,-3.1041104E-1,3.548932E-1,-3.9071587E-1,-1.0392536E0,1.2317197E-1,1.5338686E0,-4.3412387E-1,1.3948101E0,-3.3073777E-1,-3.4577215E-1,4.376112E0,9.03263E-2,-1.1309961E0,-1.2422128E0,1.353357E0,-1.4801004E0,1.0527306E0,-9.8282374E-2,1.5340897E-1,5.735011E-1,-1.22642025E-1,2.181324E-1,-3.1069347E-1,1.9091263E-1,-1.029048E-1,-6.5795934E-1,3.214491E-1,-3.8792315E-1,-1.5512487E-1,1.638715E-1,-3.4885686E-2,1.0747148E-1,1.0466836E-2,5.214156E0,-4.0219682E-1,-3.2830748E-1,6.479144E-2,-4.8417392E-1,-3.5593438E-1,4.78731E-1,-3.184095E-1,-6.3767606E-1,-2.108806E-1,-3.145723E-1,3.6615002E-1,5.073126E-1,-2.734394E-1,3.134431E-1,5.4247904E-1,5.38307E-1,-2.862409E-1,1.4039085E0,-3.0874807E-1,-1.2989196E-1,5.786181E-1,1.0788298E-1,-3.9246142E-1,-3.177586E-1,-4.0486333E-1,3.4341794E-1,9.2250586E-1,-4.8245597E-1,-3.6126992E-1,3.9376876E-1,-3.3901957E-1],"categories":[],"categories_nodes":[],"categories_segments":[],"categories_sizes":[],"default_left":[0,0,0,0,0,0,0,0,0,0,0,0,0,0,0,0,0,0,0,0,0,0,0,0,0,0,0,0,0,0,0,0,0,0,0,0,0,0,0,0,0,0,0,0,0,0,0,0,0,0,0,0,0,0,0,0,0,0,0,0,0,0,0,0,0,0,0,0,0,0,0,0,0,0,0,0,0,0,0,0,0,0,0,0,0,0,0,0,0,0,0,0,0,0,0,0,0,0,0,0,0,0,0,0,0,0,0,0,0],"id":10,"left_children":[1,3,5,7,9,11,13,15,17,19,21,23,25,27,29,31,33,35,37,39,41,-1,43,45,47,49,51,53,55,57,59,61,63,65,67,69,71,73,75,77,79,81,83,85,-1,-1,-1,87,89,91,-1,93,-1,-1,95,97,99,101,103,105,107,-1,-1,-1,-1,-1,-1,-1,-1,-1,-1,-1,-1,-1,-1,-1,-1,-1,-1,-1,-1,-1,-1,-1,-1,-1,-1,-1,-1,-1,-1,-1,-1,-1,-1,-1,-1,-1,-1,-1,-1,-1,-1,-1,-1,-1,-1,-1,-1],"loss_changes":[1.4933033E4,1.3263934E4,3.0331592E3,1.2325752E4,9.44439E3,1.2007266E3,1.6290728E3,9.43898E3,1.0548705E4,2.7533135E3,2.234606E3,8.747207E2,8.6800195E2,1.2110757E3,7.97852E2,4.305755E3,7.280075E3,3.3737656E3,8.870262E3,7.5850195E2,2.4216946E3,0E0,1.033165E0,2.034421E2,8.4157227E2,1.5282074E2,2.989257E2,7.7544604E2,7.849788E2,5.220139E2,6.0826996E2,3.0932183E3,2.2644521E3,6.2182207E3,9.562488E3,3.0990508E3,1.7695186E3,1.3334877E4,1.0507141E4,4.698589E3,7.9025195E2,2.5703003E1,1.6100275E3,8.3753586E-2,0E0,0E0,0E0,4.0268945E2,1.0472827E3,4.5897278E1,0E0,5.437832E1,0E0,0E0,1.3623157E2,8.117931E2,3.7103467E2,2.0610046E-1,4.1371313E2,6.3358765E0,9.191408E1,0E0,0E0,0E0,0E0,0E0,0E0,0E0,0E0,0E0,0E0,0E0,0E0,0E0,0E0,0E0,0E0,0E0,0E0,0E0,0E0,0E0,0E0,0E0,0E0,0E0,0E0,0E0,0E0,0E0,0E0,0E0,0E0,0E0,0E0,0E0,0E0,0E0,0E0,0E0,0E0,0E0,0E0,0E0,0E0,0E0,0E0,0E0,0E0],"parents":[2147483647,0,0,1,1,2,2,3,3,4,4,5,5,6,6,7,7,8,8,9,9,10,10,11,11,12,12,13,13,14,14,15,15,16,16,17,17,18,18,19,19,20,20,22,22,23,23,24,24,25,25,26,26,27,27,28,28,29,29,30,30,31,31,32,32,33,33,34,34,35,35,36,36,37,37,38,38,39,39,40,40,41,41,42,42,43,43,47,47,48,48,49,49,51,51,54,54,55,55,56,56,57,57,58,58,59,59,60,60],"right_children":[2,4,6,8,10,12,14,16,18,20,22,24,26,28,30,32,34,36,38,40,42,-1,44,46,48,50,52,54,56,58,60,62,64,66,68,70,72,74,76,78,80,82,84,86,-1,-1,-1,88,90,92,-1,94,-1,-1,96,98,100,102,104,106,108,-1,-1,-1,-1,-1,-1,-1,-1,-1,-1,-1,-1,-1,-1,-1,-1,-1,-1,-1,-1,-1,-1,-1,-1,-1,-1,-1,-1,-1,-1,-1,-1,-1,-1,-1,-1,-1,-1,-1,-1,-1,-1,-1,-1,-1,-1,-1,-1],"split_conditions":[1.2401089E7,5.384267E6,2.6839863E3,1.7429651E-1,1.6988311E6,2.1721403E-1,9.610787E-1,4.235159E2,9.218916E-3,9.836337E5,2.124857E0,1.0931801E-2,2.539267E0,-1.8607603E0,-3.2534875E-2,1.0281162E4,1.1228236E-1,4.6441596E-4,3.4671402E1,-2.1200023E0,8.092723E0,3.6936944E0,5.1449206E-2,8.81493E0,3.6692395E4,-7.320147E-1,-2.5962656E0,1.1611774E0,-1.2637458E0,1.8494165E1,3.432094E0,2.0647295E1,5.8258817E-2,1.1930922E-2,1.13885276E-1,1.1355806E-1,3.713937E0,1.793905E-1,3.6393772E1,3.28086E-2,1.8523875E0,9.3132895E-1,1.53E4,6.8563306E-1,-3.1041104E-1,3.548932E-1,-3.9071587E-1,7.959452E4,-1.5228277E0,-4.569096E-1,-4.3412387E-1,3.749569E1,-3.3073777E-1,-3.4577215E-1,4.3185756E-2,1.4621998E0,-2.154675E0,1.3210525E1,2.3381796E-1,1.653814E-2,-8.717773E-1,-9.8282374E-2,1.5340897E-1,5.735011E-1,-1.22642025E-1,2.181324E-1,-3.1069347E-1,1.9091263E-1,-1.029048E-1,-6.5795934E-1,3.214491E-1,-3.8792315E-1,-1.5512487E-1,1.638715E-1,-3.4885686E-2,1.0747148E-1,1.0466836E-2,5.214156E0,-4.0219682E-1,-3.2830748E-1,6.479144E-2,-4.8417392E-1,-3.5593438E-1,4.78731E-1,-3.184095E-1,-6.3767606E-1,-2.108806E-1,-3.145723E-1,3.6615002E-1,5.073126E-1,-2.734394E-1,3.134431E-1,5.4247904E-1,5.38307E-1,-2.862409E-1,1.4039085E0,-3.0874807E-1,-1.2989196E-1,5.786181E-1,1.0788298E-1,-3.9246142E-1,-3.177586E-1,-4.0486333E-1,3.4341794E-1,9.2250586E-1,-4.8245597E-1,-3.6126992E-1,3.9376876E-1,-3.3901957E-1],"split_indices":[78,72,82,18,85,38,165,78,13,79,0,32,0,136,176,79,17,58,3,111,1,0,48,1,85,155,151,159,99,10,4,3,14,16,17,42,77,18,3,55,88,6,77,6,0,0,0,80,145,144,0,8,0,0,20,125,132,7,34,5,91,0,0,0,0,0,0,0,0,0,0,0,0,0,0,0,0,0,0,0,0,0,0,0,0,0,0,0,0,0,0,0,0,0,0,0,0,0,0,0,0,0,0,0,0,0,0,0,0],"split_type":[0,0,0,0,0,0,0,0,0,0,0,0,0,0,0,0,0,0,0,0,0,0,0,0,0,0,0,0,0,0,0,0,0,0,0,0,0,0,0,0,0,0,0,0,0,0,0,0,0,0,0,0,0,0,0,0,0,0,0,0,0,0,0,0,0,0,0,0,0,0,0,0,0,0,0,0,0,0,0,0,0,0,0,0,0,0,0,0,0,0,0,0,0,0,0,0,0,0,0,0,0,0,0,0,0,0,0,0,0],"sum_hessian":[9.0370406E5,8.7898525E5,2.4718822E4,8.613297E5,1.7655572E4,2.072488E4,3.9939407E3,1.7120303E5,6.901266E5,1.757556E4,8.001246E1,1.9965473E4,7.5940735E2,2.3595276E3,1.6344133E3,4.4435504E4,1.2676753E5,1.3975095E4,6.7615156E5,1.55936875E4,1.9818729E3,6.616925E1,1.3843209E1,2.647794E2,1.9700693E4,3.7240833E2,3.86999E2,1.1570013E2,2.2438274E3,1.2428502E3,3.9156302E2,3.2394365E4,1.2041139E4,2.2675262E4,1.04092266E5,1.913522E3,1.2061573E4,2.738376E5,4.0231397E5,9.554327E1,1.5498145E4,6.6866705E2,1.3132059E3,6.05924E0,7.7839694E0,2.2713673E2,3.7642647E1,1.9057041E4,6.4365356E2,3.550976E2,1.7310738E1,5.511667E1,3.3188232E2,3.6615078E1,7.908505E1,8.4196173E2,1.4018656E3,8.226037E1,1.16059E3,2.3311806E2,1.5844498E2,5.242435E3,2.715193E4,4.3537244E2,1.1605767E4,2.2174268E3,2.0457836E4,1.1166234E4,9.292603E4,3.5651175E2,1.5570103E3,6.986764E3,5.074809E3,3.4802105E4,2.3903548E5,2.0697595E5,1.95338E5,1.5058508E1,8.0484764E1,1.5023649E4,4.7449442E2,2.2666391E2,4.4200314E2,1.0203863E3,2.9281958E2,4.672691E0,1.3865488E0,1.8979293E4,7.7747215E1,2.5563477E2,3.8801883E2,1.2935457E2,2.2574303E2,4.7306175E1,7.810495E0,7.50066E1,4.078452E0,6.559971E2,1.8596466E2,1.4884154E2,1.253024E3,3.4426365E1,4.7834E1,1.0366356E3,1.2395429E2,1.5590245E2,7.72156E1,1.4194684E2,1.6498142E1],"tree_param":{"num_deleted":"0","num_feature":"188","num_nodes":"109","size_leaf_vector":"0"}},{"base_weights":[-9.424995E-3,5.749502E-3,-7.7111953E-1,5.077141E-2,-2.5484726E-1,-9.362537E-1,6.452869E-2,6.678439E-2,-8.327556E-1,-3.27137E-1,6.973574E-1,-1.0193007E0,-2.4630001E-1,-9.1057783E-1,3.7888247E-1,1.1444226E-1,-2.2588675E-1,-9.8370695E-1,3.5160187E-1,-4.4736075E-1,3.676596E-1,-4.537044E-1,1.0950255E0,1.2415837E0,-1.0326456E0,-7.316752E-1,1.1439555E0,8.531992E-1,-1.2931594E0,6.263583E-1,-1.202431E0,-1.2883146E-3,2.7352396E-1,7.363257E-2,-5.1304966E-1,-2.859338E-1,-1.0843422E0,7.4037856E-1,-1.5407486E0,-6.558925E-1,-1.7912403E-1,7.4967575E-1,-1.3995421E0,-5.6518304E-1,6.7248216E0,-1.4728657E0,1.1857634E0,-3.0338725E-1,2.3346796E0,-1.0405362E0,-5.9658535E-2,2.8150734E-1,-1.0907407E0,8.3613265E-1,5.402342E0,-3.890733E-1,1.8794852E0,-1.3903668E0,-3.4139922E-1,8.162357E-1,-1.2557442E0,2.3543495E-1,-1.2824363E0,-1.04565755E-1,2.2300486E-2,1.1236174E-2,1.19702846E-1,4.4883966E-1,-7.875474E-3,-2.0431319E-1,7.825023E-4,-2.918831E-1,2.4444799E-1,-3.3009925E-1,1.0144008E0,3.254014E-1,-3.933361E-1,-3.7278146E-1,-5.5244523E-1,-2.7938217E-1,-1.0563623E-1,-2.2040205E-1,1.2508752E-2,-2.035958E-1,2.7441087E-1,-1.2837285E0,-3.6031634E-1,1.7645147E-1,-3.0097798E-1,-3.3015952E-1,4.464798E0,-5.577993E-1,-3.819227E-1,3.7596393E-1,-4.8691618E-1,7.260028E-1,-2.7175796E-1,-3.1455064E-1,-3.5272904E-2,3.1468046E0,-3.182616E-1,3.7286955E-1,-3.2422933E-1,-3.1917405E-1,-3.9918527E-1,3.7184852E-1,-3.4997034E-1,-3.2356358E-1,2.552541E0,1.2289935E0,3.9617074E-1,-3.99327E-1,-4.810559E-1,2.2152112E-1,1.5374689E0,-3.950362E-1,-3.2229263E-1,-3.2858267E-1,-4.028701E-1],"categories":[],"categories_nodes":[],"categories_segments":[],"categories_sizes":[],"default_left":[0,0,0,0,0,0,0,0,0,0,0,0,0,0,0,0,0,0,0,0,0,0,0,0,0,0,0,0,0,0,0,0,0,0,0,0,0,0,0,0,0,0,0,0,0,0,0,0,0,0,0,0,0,0,0,0,0,0,0,0,0,0,0,0,0,0,0,0,0,0,0,0,0,0,0,0,0,0,0,0,0,0,0,0,0,0,0,0,0,0,0,0,0,0,0,0,0,0,0,0,0,0,0,0,0,0,0,0,0,0,0,0,0,0,0,0,0,0,0],"id":11,"left_children":[1,3,5,7,9,11,13,15,17,19,21,23,25,27,29,31,33,35,37,39,41,43,45,47,49,51,53,55,57,59,61,63,65,67,69,71,73,75,77,79,81,83,85,87,89,91,93,-1,95,97,99,101,103,105,107,-1,109,111,-1,113,115,-1,117,-1,-1,-1,-1,-1,-1,-1,-1,-1,-1,-1,-1,-1,-1,-1,-1,-1,-1,-1,-1,-1,-1,-1,-1,-1,-1,-1,-1,-1,-1,-1,-1,-1,-1,-1,-1,-1,-1,-1,-1,-1,-1,-1,-1,-1,-1,-1,-1,-1,-1,-1,-1,-1,-1,-1,-1],"loss_changes":[1.0107372E4,1.005935E4,2.3571172E3,1.034333E4,8.694393E3,8.1696875E2,8.6456E2,1.0015707E4,2.327043E3,9.806172E3,4.080146E3,3.8536035E2,1.0357045E3,4.6510022E2,8.3537476E2,1.1368829E4,8.648846E3,8.1026953E2,1.0840563E3,5.597793E3,1.1691943E4,1.8357346E3,1.5452622E3,1.8743068E2,9.710156E1,4.1407245E2,5.1621625E2,2.7422397E2,6.94635E0,6.602971E2,4.6945953E1,9.387486E3,7.703588E3,6.9933833E3,4.447157E3,1.1021221E3,7.240049E2,8.64369E2,2.0234192E1,4.7097188E3,5.3700347E3,3.3571362E3,1.7543594E3,1.1400027E3,2.2560615E3,1.5124054E1,1.2143203E3,0E0,1.6267517E1,9.217578E1,1.0976063E3,3.9214462E2,3.989624E0,3.0167645E2,5.445892E2,0E0,9.841226E1,2.2011719E0,0E0,5.5838E2,4.6209717E-1,0E0,1.6767883E0,0E0,0E0,0E0,0E0,0E0,0E0,0E0,0E0,0E0,0E0,0E0,0E0,0E0,0E0,0E0,0E0,0E0,0E0,0E0,0E0,0E0,0E0,0E0,0E0,0E0,0E0,0E0,0E0,0E0,0E0,0E0,0E0,0E0,0E0,0E0,0E0,0E0,0E0,0E0,0E0,0E0,0E0,0E0,0E0,0E0,0E0,0E0,0E0,0E0,0E0,0E0,0E0,0E0,0E0,0E0,0E0],"parents":[2147483647,0,0,1,1,2,2,3,3,4,4,5,5,6,6,7,7,8,8,9,9,10,10,11,11,12,12,13,13,14,14,15,15,16,16,17,17,18,18,19,19,20,20,21,21,22,22,23,23,24,24,25,25,26,26,27,27,28,28,29,29,30,30,31,31,32,32,33,33,34,34,35,35,36,36,37,37,38,38,39,39,40,40,41,41,42,42,43,43,44,44,45,45,46,46,48,48,49,49,50,50,51,51,52,52,53,53,54,54,56,56,57,57,59,59,60,60,62,62],"right_children":[2,4,6,8,10,12,14,16,18,20,22,24,26,28,30,32,34,36,38,40,42,44,46,48,50,52,54,56,58,60,62,64,66,68,70,72,74,76,78,80,82,84,86,88,90,92,94,-1,96,98,100,102,104,106,108,-1,110,112,-1,114,116,-1,118,-1,-1,-1,-1,-1,-1,-1,-1,-1,-1,-1,-1,-1,-1,-1,-1,-1,-1,-1,-1,-1,-1,-1,-1,-1,-1,-1,-1,-1,-1,-1,-1,-1,-1,-1,-1,-1,-1,-1,-1,-1,-1,-1,-1,-1,-1,-1,-1,-1,-1,-1,-1,-1,-1,-1,-1],"split_conditions":[1.2544164E7,6.585496E5,2.3289712E3,6.020759E6,1.0510084E-1,2.1692258E5,1.34753855E-2,8.55E4,9.91503E5,1.3558187E1,2.543333E0,-2.6628227E0,1.9994497E-1,-1.2295456E0,7.250993E-2,7.174482E0,2.4895273E-2,1.7704029E-2,3.8221E-1,1.8876658E-1,1.8591918E-1,1.5799264E6,6.058644E-2,8.142703E-1,5.743002E-1,-1.3468674E0,1.0448172E0,9.69205E-1,1.0172083E-2,6.364249E-1,-2.699146E0,1.3030371E-2,4.936439E-2,-5.237191E0,2.2070923E5,1.1522221E5,4.987918E6,6.3024453E4,7.9928894E0,-2.0970991E-1,9.570103E0,1.3628726E-2,1.9224355E-1,8.621442E-2,3.511597E0,2.5850085E-3,2.0586133E-1,-3.0338725E-1,7.5977844E1,8.4839344E-2,-1.6202393E0,-1.0093638E0,1.047132E5,-6.417534E-1,2.095379E-1,-3.890733E-1,1.23183E-1,9.636338E-1,-3.4139922E-1,1.9176341E0,5.5835314E-2,2.3543495E-1,1.52028265E1,-1.04565755E-1,2.2300486E-2,1.1236174E-2,1.19702846E-1,4.4883966E-1,-7.875474E-3,-2.0431319E-1,7.825023E-4,-2.918831E-1,2.4444799E-1,-3.3009925E-1,1.0144008E0,3.254014E-1,-3.933361E-1,-3.7278146E-1,-5.5244523E-1,-2.7938217E-1,-1.0563623E-1,-2.2040205E-1,1.2508752E-2,-2.035958E-1,2.7441087E-1,-1.2837285E0,-3.6031634E-1,1.7645147E-1,-3.0097798E-1,-3.3015952E-1,4.464798E0,-5.577993E-1,-3.819227E-1,3.7596393E-1,-4.8691618E-1,7.260028E-1,-2.7175796E-1,-3.1455064E-1,-3.5272904E-2,3.1468046E0,-3.182616E-1,3.7286955E-1,-3.2422933E-1,-3.1917405E-1,-3.9918527E-1,3.7184852E-1,-3.4997034E-1,-3.2356358E-1,2.552541E0,1.2289935E0,3.9617074E-1,-3.99327E-1,-4.810559E-1,2.2152112E-1,1.5374689E0,-3.950362E-1,-3.2229263E-1,-3.2858267E-1,-4.028701E-1],"split_indices":[78,73,82,72,12,73,50,77,79,2,1,111,38,120,134,9,29,27,130,42,34,83,55,80,42,98,138,141,5,186,104,49,55,9,73,79,81,77,1,105,47,13,34,26,0,5,25,0,43,55,178,166,84,149,35,0,18,165,0,101,5,0,7,0,0,0,0,0,0,0,0,0,0,0,0,0,0,0,0,0,0,0,0,0,0,0,0,0,0,0,0,0,0,0,0,0,0,0,0,0,0,0,0,0,0,0,0,0,0,0,0,0,0,0,0,0,0,0,0],"split_type":[0,0,0,0,0,0,0,0,0,0,0,0,0,0,0,0,0,0,0,0,0,0,0,0,0,0,0,0,0,0,0,0,0,0,0,0,0,0,0,0,0,0,0,0,0,0,0,0,0,0,0,0,0,0,0,0,0,0,0,0,0,0,0,0,0,0,0,0,0,0,0,0,0,0,0,0,0,0,0,0,0,0,0,0,0,0,0,0,0,0,0,0,0,0,0,0,0,0,0,0,0,0,0,0,0,0,0,0,0,0,0,0,0,0,0,0,0,0,0],"sum_hessian":[8.7446494E5,8.573851E5,1.7079854E4,7.31081E5,1.2630414E5,1.426149E4,2.8183633E3,7.180677E5,1.3013281E4,1.1739256E5,8.911581E3,1.2728889E4,1.5326016E3,6.866182E2,2.131745E3,6.175138E5,1.0055386E5,1.1542332E4,1.4709491E3,1.0007627E5,1.731629E4,2.2881946E3,6.6233867E3,7.4151886E1,1.2654737E4,1.1363464E3,3.962551E2,1.2216822E2,5.6445E2,1.8437948E3,2.879503E2,3.5746334E5,2.600505E5,4.9218387E4,5.1335477E4,1.4553354E3,1.0086997E4,1.2207576E3,2.5019154E2,5.630352E4,4.3772754E4,1.423885E4,3.077438E3,2.2541108E3,3.4083866E1,2.2553348E2,6.3978535E3,2.4249146E1,4.9902737E1,1.2552868E4,1.0186861E2,2.9739548E2,8.389509E2,3.70658E2,2.5597126E1,3.9387062E1,8.278116E1,3.421412E2,2.2230879E2,1.6753428E3,1.6845204E2,1.0803285E1,2.77147E2,6.3923086E4,2.9354025E5,9.025647E4,1.6979403E5,3.228319E3,4.5990066E4,3.8720535E4,1.261494E4,8.961462E2,5.591893E2,1.0051762E4,3.523512E1,1.0457294E3,1.750282E2,1.2821414E2,1.219774E2,2.953069E4,2.6772828E4,1.2449462E4,3.1323291E4,1.4744243E3,1.2764426E4,1.9712308E2,2.880315E3,6.203997E2,1.633711E3,1.7837988E1,1.6245878E1,7.40289E1,1.5150458E2,6.248362E3,1.4949144E2,4.8869125E1,1.0336123E0,1.2445319E4,1.0754924E2,8.008859E0,9.385975E1,1.7440259E2,1.2299287E2,7.5945087E2,7.950009E1,3.0883652E2,6.1821445E1,8.5047865E0,1.7092339E1,1.5392231E1,6.738892E1,2.7336453E2,6.877665E1,1.6467668E3,2.857595E1,1.2136264E2,4.70894E1,7.233994E1,2.0480705E2],"tree_param":{"num_deleted":"0","num_feature":"188","num_nodes":"119","size_leaf_vector":"0"}},{"base_weights":[-8.0522355E-3,-7.6544154E-1,3.9707115E-3,-9.4065183E-1,6.1343923E-2,-6.865728E-2,1.294991E-1,-1.0180624E0,8.372692E-1,8.272573E-1,-7.040757E-1,-1.622215E-2,-5.758447E-1,1.6638699E-1,-6.5701693E-1,1.5958732E0,-1.0481434E0,1.7644708E0,-1.3181964E0,9.2811786E-2,2.907575E0,4.7748998E-1,-1.2626231E0,4.19266E-2,-3.3123708E-1,-7.3258203E-1,1.6084786E-1,-3.3099517E-1,2.1890454E-1,-1.1231722E0,-2.5760254E-1,-3.469661E-1,6.7083937E-1,-1.0878452E0,2.5646725E-1,1.899937E0,-3.8956687E-1,-3.6164823E-1,-1.6540668E0,-1.0566946E0,9.120523E-1,8.502612E0,2.0143065E0,1.4234542E0,-3.777436E-1,-1.2086316E0,-1.4843148E0,-3.617436E-1,1.0483353E-1,-7.926355E-1,-9.297598E-2,-7.9491806E-1,1.4542718E0,-1.448848E0,4.936572E-1,-3.463375E-1,1.3212221E1,3.2588056E-1,-8.1940524E-2,5.357293E-1,-1.3440523E0,-6.915785E-1,6.237468E-1,-1.196163E-1,-3.496024E-1,-3.7994933E-1,3.206389E-1,5.2223223E-1,7.275177E-1,-6.407627E-1,-3.733202E-1,3.5286632E-1,-4.2396966E-1,-4.974074E-1,3.4830558E-1,-2.6965222E-1,2.792268E0,7.568341E-1,-3.8460633E-1,-3.867577E-1,5.783937E-1,-3.433767E-1,-4.120745E-1,-3.569853E-1,-4.7204846E-1,2.7604872E-1,-1.2878856E-1,-1.3881393E-1,4.928497E-2,2.10955E-1,-2.8674334E-1,-3.7837863E-2,9.0602547E-1,1.6452743E-2,-2.8558573E-1,-3.3551747E-1,6.8486947E-1,-2.1118529E-1,-1.0112909E0,-6.302949E-1,2.2114512E-1,-1.8770155E-1,7.4351005E-2,8.475316E0,-2.9575416E-1,1.0172548E-1,-1.0319631E0,-8.479966E-2,1.5469252E-1,4.1540116E-1,-4.7410432E-1,-4.1874087E-1,9.822666E-1,2.1020049E-1,-3.00285E-1,3.3795542E-1,-3.437145E-1],"categories":[],"categories_nodes":[],"categories_segments":[],"categories_sizes":[],"default_left":[0,0,0,0,0,0,0,0,0,0,0,0,0,0,0,0,0,0,0,0,0,0,0,0,0,0,0,0,0,0,0,0,0,0,0,0,0,0,0,0,0,0,0,0,0,0,0,0,0,0,0,0,0,0,0,0,0,0,0,0,0,0,0,0,0,0,0,0,0,0,0,0,0,0,0,0,0,0,0,0,0,0,0,0,0,0,0,0,0,0,0,0,0,0,0,0,0,0,0,0,0,0,0,0,0,0,0,0,0,0,0,0,0,0,0,0,0],"id":12,"left_children":[1,3,5,7,9,11,13,15,17,19,21,23,25,27,29,31,33,35,37,39,41,43,45,47,49,51,53,55,57,59,61,-1,-1,63,65,67,-1,-1,69,71,73,75,77,79,-1,81,83,85,87,89,91,93,95,97,99,101,103,105,107,109,111,113,115,-1,-1,-1,-1,-1,-1,-1,-1,-1,-1,-1,-1,-1,-1,-1,-1,-1,-1,-1,-1,-1,-1,-1,-1,-1,-1,-1,-1,-1,-1,-1,-1,-1,-1,-1,-1,-1,-1,-1,-1,-1,-1,-1,-1,-1,-1,-1,-1,-1,-1,-1,-1,-1,-1],"loss_changes":[7.7485493E3,1.926228E3,7.6365493E3,1.510875E3,1.3641934E3,1.4111581E4,8.907257E3,8.284121E2,9.183042E2,1.7767904E3,7.6874365E2,8.809101E3,5.7408945E3,7.660228E3,2.5605293E3,2.1408975E2,5.38709E2,1.3561841E2,3.245926E0,8.11449E2,1.4994641E3,6.167304E2,7.6689453E0,1.0309055E4,8.238086E3,5.589701E3,4.673804E3,5.824032E3,8.53653E3,2.3261484E3,2.8340596E3,0E0,0E0,5.383047E2,3.8216705E2,2.149707E1,0E0,0E0,3.6763687E0,2.8714697E2,3.2380518E2,3.2216943E2,4.4401587E2,3.3477542E2,0E0,5.2007446E0,2.077179E0,4.7402036E3,1.1850866E4,6.2293975E3,5.1004287E3,5.3190723E3,2.4254204E3,2.1378008E3,4.568802E3,4.643506E3,6.800215E3,9.730736E3,8.346015E3,1.3431005E3,1.3431846E3,2.1390671E3,2.1763271E3,0E0,0E0,0E0,0E0,0E0,0E0,0E0,0E0,0E0,0E0,0E0,0E0,0E0,0E0,0E0,0E0,0E0,0E0,0E0,0E0,0E0,0E0,0E0,0E0,0E0,0E0,0E0,0E0,0E0,0E0,0E0,0E0,0E0,0E0,0E0,0E0,0E0,0E0,0E0,0E0,0E0,0E0,0E0,0E0,0E0,0E0,0E0,0E0,0E0,0E0,0E0,0E0,0E0,0E0],"parents":[2147483647,0,0,1,1,2,2,3,3,4,4,5,5,6,6,7,7,8,8,9,9,10,10,11,11,12,12,13,13,14,14,15,15,16,16,17,17,18,18,19,19,20,20,21,21,22,22,23,23,24,24,25,25,26,26,27,27,28,28,29,29,30,30,33,33,34,34,35,35,38,38,39,39,40,40,41,41,42,42,43,43,45,45,46,46,47,47,48,48,49,49,50,50,51,51,52,52,53,53,54,54,55,55,56,56,57,57,58,58,59,59,60,60,61,61,62,62],"right_children":[2,4,6,8,10,12,14,16,18,20,22,24,26,28,30,32,34,36,38,40,42,44,46,48,50,52,54,56,58,60,62,-1,-1,64,66,68,-1,-1,70,72,74,76,78,80,-1,82,84,86,88,90,92,94,96,98,100,102,104,106,108,110,112,114,116,-1,-1,-1,-1,-1,-1,-1,-1,-1,-1,-1,-1,-1,-1,-1,-1,-1,-1,-1,-1,-1,-1,-1,-1,-1,-1,-1,-1,-1,-1,-1,-1,-1,-1,-1,-1,-1,-1,-1,-1,-1,-1,-1,-1,-1,-1,-1,-1,-1,-1,-1,-1,-1,-1],"split_conditions":[3.472526E-2,1.3969173E0,7.7846E1,2.7769809E0,1.2292946E-2,5.757646E5,2.4360973E-1,-2.7141464E0,-1.6152093E0,2.1949673E-1,-1.2449284E0,4.784614E-1,3.9405277E1,4.0942527E-2,1.7016007E-1,1.0471393E1,2.7291732E0,-1.5289747E0,7.7592515E6,1.0879307E0,2.128931E-1,1.0460091E-1,7.245462E6,2.3636112E1,6.0421333E-2,2.8307672E0,1.2791087E-1,1.117783E-1,3.2355633E0,-1.3440124E0,3.926653E1,-3.469661E-1,6.7083937E-1,1.5685521E-1,1.4352903E-1,1.3832179E-1,-3.8956687E-1,-3.6164823E-1,1.9559716E-1,-2.4328108E0,1.2253299E0,1.2048903E0,-2.9603258E-1,2.6068938E-1,-3.777436E-1,3.0646315E6,1.4113531E1,6.1723804E-1,1.6453223E-2,1.833561E-2,2.8307672E0,1.0848413E-1,1.1342254E-1,4.0684067E-2,8.151444E-3,1.0645025E1,-1.281279E0,1.4396481E1,7.567168E6,-6.104216E-1,6.2836562E4,8.388856E0,1.7982155E-1,-1.196163E-1,-3.496024E-1,-3.7994933E-1,3.206389E-1,5.2223223E-1,7.275177E-1,-6.407627E-1,-3.733202E-1,3.5286632E-1,-4.2396966E-1,-4.974074E-1,3.4830558E-1,-2.6965222E-1,2.792268E0,7.568341E-1,-3.8460633E-1,-3.867577E-1,5.783937E-1,-3.433767E-1,-4.120745E-1,-3.569853E-1,-4.7204846E-1,2.7604872E-1,-1.2878856E-1,-1.3881393E-1,4.928497E-2,2.10955E-1,-2.8674334E-1,-3.7837863E-2,9.0602547E-1,1.6452743E-2,-2.8558573E-1,-3.3551747E-1,6.8486947E-1,-2.1118529E-1,-1.0112909E0,-6.302949E-1,2.2114512E-1,-1.8770155E-1,7.4351005E-2,8.475316E0,-2.9575416E-1,1.0172548E-1,-1.0319631E0,