{"learner":{"attributes":{"best_iteration":"99","best_ntree_limit":"100","scikit_learn":"{\"use_label_encoder\": false, \"n_estimators\": 100, \"objective\": \"binary:logistic\", \"max_depth\": null, \"max_leaves\": null, \"max_bin\": null, \"grow_policy\": null, \"learning_rate\": null, \"verbosity\": null, \"booster\": null, \"tree_method\": null, \"gamma\": null, \"min_child_weight\": null, \"max_delta_step\": null, \"subsample\": null, \"sampling_method\": null, \"colsample_bytree\": null, \"colsample_bylevel\": null, \"colsample_bynode\": null, \"reg_alpha\": null, \"reg_lambda\": null, \"scale_pos_weight\": null, \"base_score\": null, \"missing\": NaN, \"num_parallel_tree\": null, \"random_state\": null, \"n_jobs\": -6, \"monotone_constraints\": null, \"interaction_constraints\": null, \"importance_type\": null, \"gpu_id\": null, \"validate_parameters\": null, \"predictor\": null, \"enable_categorical\": false, \"max_cat_to_onehot\": null, \"eval_metric\": null, \"early_stopping_rounds\": null, \"callbacks\": null, \"kwargs\": {\"seed\": 15}, \"classes_\": [0, 1], \"n_classes_\": 2, \"_estimator_type\": \"classifier\"}"},"feature_names":[],"feature_types":[],"gradient_booster":{"model":{"gbtree_model_param":{"num_parallel_tree":"1","num_trees":"100","size_leaf_vector":"0"},"tree_info":[0,0,0,0,0,0,0,0,0,0,0,0,0,0,0,0,0,0,0,0,0,0,0,0,0,0,0,0,0,0,0,0,0,0,0,0,0,0,0,0,0,0,0,0,0,0,0,0,0,0,0,0,0,0,0,0,0,0,0,0,0,0,0,0,0,0,0,0,0,0,0,0,0,0,0,0,0,0,0,0,0,0,0,0,0,0,0,0,0,0,0,0,0,0,0,0,0,0,0,0],"trees":[{"base_weights":[-0E0,1.814281E-1,-3.09122E-1,1.1368317E-1,-4.7040188E-1,3.3835877E-2,-6.6348916E-1,-1.467629E-1,-1.415772E0,-1.4015982E-1,-1.5029856E0,-1.7784634E-1,-4.650751E-1],"categories":[],"categories_nodes":[],"categories_segments":[],"categories_sizes":[],"default_left":[0,0,0,0,0,0,0,0,0,0,0,0,0],"id":0,"left_children":[1,-1,3,-1,5,-1,7,-1,9,-1,11,-1,-1],"loss_changes":[3.75915E5,0E0,1.476659E5,0E0,1.2138853E5,0E0,1.0617756E5,0E0,1.2601156E4,0E0,6.0002188E3,0E0,0E0],"parents":[2147483647,0,0,2,2,4,4,6,6,8,8,10,10],"right_children":[2,-1,4,-1,6,-1,8,-1,10,-1,12,-1,-1],"split_conditions":[2.00001E0,1.814281E-1,2.00001E0,1.1368317E-1,2.00001E0,3.3835877E-2,2.00001E0,-1.467629E-1,2.00001E0,-1.4015982E-1,2.00001E0,-1.7784634E-1,-4.650751E-1],"split_indices":[8,0,1,0,9,0,13,0,10,0,7,0,0],"split_type":[0,0,0,0,0,0,0,0,0,0,0,0,0],"sum_hessian":[2.010833E6,6.8016675E5,1.3306662E6,2.5267625E5,1.07799E6,2.681345E5,8.098555E5,6.57529E5,1.523265E5,1.28265E4,1.395E5,6.88725E3,1.3261275E5],"tree_param":{"num_deleted":"0","num_feature":"16","num_nodes":"13","size_leaf_vector":"0"}},{"base_weights":[-4.5066967E-4,1.2819776E-1,-2.1920156E-1,7.987254E-2,-3.3375153E-1,2.3692861E-2,-4.7216782E-1,-1.03367545E-1,-1.0465778E0,-9.866681E-2,-1.1156962E0,-1.2562843E-1,-3.460741E-1],"categories":[],"categories_nodes":[],"categories_segments":[],"categories_sizes":[],"default_left":[0,0,0,0,0,0,0,0,0,0,0,0,0],"id":1,"left_children":[1,-1,3,-1,5,-1,7,-1,9,-1,11,-1,-1],"loss_changes":[1.8657395E5,0E0,7.335813E4,0E0,6.097583E4,0E0,5.8587766E4,0E0,7.206828E3,0E0,3.4985938E3,0E0,0E0],"parents":[2147483647,0,0,2,2,4,4,6,6,8,8,10,10],"right_children":[2,-1,4,-1,6,-1,8,-1,10,-1,12,-1,-1],"split_conditions":[2.00001E0,1.2819776E-1,2.00001E0,7.987254E-2,2.00001E0,2.3692861E-2,2.00001E0,-1.03367545E-1,2.00001E0,-9.866681E-2,2.00001E0,-1.2562843E-1,-3.460741E-1],"split_indices":[8,0,1,0,9,0,13,0,10,0,7,0,0],"split_type":[0,0,0,0,0,0,0,0,0,0,0,0,0],"sum_hessian":[1.99381E6,6.746002E5,1.3192099E6,2.5186162E5,1.0673482E6,2.6805778E5,7.9929044E5,6.54001E5,1.4528947E5,1.2763712E4,1.3252575E5,6.833076E3,1.2569268E5],"tree_param":{"num_deleted":"0","num_feature":"16","num_nodes":"13","size_leaf_vector":"0"}},{"base_weights":[-1.1890874E-3,9.143237E-2,-1.5774162E-1,5.6321546E-2,-2.4029228E-1,1.6595839E-2,-3.418657E-1,-7.324647E-2,-8.19739E-1,-6.984253E-2,-8.817321E-1,6.3883877E-1,-2.675244E-1],"categories":[],"categories_nodes":[],"categories_segments":[],"categories_sizes":[],"default_left":[0,0,0,0,0,0,0,0,0,0,0,0,0],"id":2,"left_children":[1,-1,3,-1,5,-1,7,-1,9,-1,11,-1,-1],"loss_changes":[9.398215E4,0E0,3.701711E4,0E0,3.1456367E4,0E0,3.640729E4,0E0,4.815922E3,0E0,3.612539E3,0E0,0E0],"parents":[2147483647,0,0,2,2,4,4,6,6,8,8,10,10],"right_children":[2,-1,4,-1,6,-1,8,-1,10,-1,12,-1,-1],"split_conditions":[2.00001E0,9.143237E-2,2.00001E0,5.6321546E-2,2.00001E0,1.6595839E-2,2.00001E0,-7.324647E-2,2.00001E0,-6.984253E-2,2.00001E0,6.3883877E-1,-2.675244E-1],"split_indices":[8,0,1,0,9,0,13,0,10,0,15,0,0],"split_type":[0,0,0,0,0,0,0,0,0,0,0,0,0],"sum_hessian":[1.9620724E6,6.641222E5,1.2979502E6,2.503244E5,1.0476258E6,2.6791275E5,7.7971306E5,6.473507E5,1.3236236E5,1.2645324E4,1.1971703E5,3.961796E2,1.1932085E5],"tree_param":{"num_deleted":"0","num_feature":"16","num_nodes":"13","size_leaf_vector":"0"}},{"base_weights":[-1.5910184E-3,6.5253235E-2,-1.1375531E-1,-2.5964472E-1,-9.1599874E-2,-2.4205999E-1,-7.298769E-2,-5.1920656E-2,3.9895207E-2,-2.2698697E-1,6.901216E-2,-4.0175158E-1,2.188849E-2],"categories":[],"categories_nodes":[],"categories_segments":[],"categories_sizes":[],"default_left":[0,0,0,0,0,0,0,0,0,0,0,0,0],"id":3,"left_children":[1,-1,3,-1,5,-1,7,-1,9,-1,11,-1,-1],"loss_changes":[4.743413E4,0E0,2.1261709E4,0E0,1.6508545E4,0E0,1.3654307E4,0E0,1.3172827E4,0E0,3.0475967E3,0E0,0E0],"parents":[2147483647,0,0,2,2,4,4,6,6,8,8,10,10],"right_children":[2,-1,4,-1,6,-1,8,-1,10,-1,12,-1,-1],"split_conditions":[2.00001E0,6.5253235E-2,2.00001E0,-2.5964472E-1,2.00001E0,-2.4205999E-1,2.00001E0,-5.1920656E-2,2.00001E0,-2.2698697E-1,2.00001E0,-4.0175158E-1,2.188849E-2],"split_indices":[8,0,11,0,0,0,13,0,5,0,3,0,0],"split_type":[0,0,0,0,0,0,0,0,0,0,0,0,0],"sum_hessian":[1.9301451E6,6.535328E5,1.2766122E6,3.654696E4,1.2400654E6,3.1448701E4,1.2086166E6,6.406343E5,5.679823E5,2.0029646E4,5.479527E5,1.5315797E3,5.464211E5],"tree_param":{"num_deleted":"0","num_feature":"16","num_nodes":"13","size_leaf_vector":"0"}},{"base_weights":[-1.785173E-3,4.645233E-2,-8.196837E-2,-2.1490975E-1,-6.554392E-2,-1.9794893E-1,-5.1860165E-2,3.3258487E-2,-9.42853E-2,-1.8372591E-1,-8.443838E-2,5.065823E-3,-3.7537694E-2],"categories":[],"categories_nodes":[],"categories_segments":[],"categories_sizes":[],"default_left":[0,0,0,0,0,0,0,0,0,0,0,0,0],"id":4,"left_children":[1,-1,3,-1,5,-1,7,-1,9,-1,11,-1,-1],"loss_changes":[2.3904605E4,0E0,1.3117461E4,0E0,9.979253E3,0E0,8.28099E3,0E0,4.8543564E3,0E0,3.8493833E3,0E0,0E0],"parents":[2147483647,0,0,2,2,4,4,6,6,8,8,10,10],"right_children":[2,-1,4,-1,6,-1,8,-1,10,-1,12,-1,-1],"split_conditions":[2.00001E0,4.645233E-2,2.00001E0,-2.1490975E-1,2.00001E0,-1.9794893E-1,2.00001E0,3.3258487E-2,2.00001E0,-1.8372591E-1,2.00001E0,5.065823E-3,-3.7537694E-2],"split_indices":[8,0,11,0,0,0,1,0,5,0,9,0,0],"split_type":[0,0,0,0,0,0,0,0,0,0,0,0,0],"sum_hessian":[1.9034139E6,6.444917E5,1.2589221E6,3.176967E4,1.2271525E6,2.761883E4,1.1995336E6,2.4806764E5,9.5146606E5,1.7743814E4,9.3372225E5,2.675175E5,6.6620475E5],"tree_param":{"num_deleted":"0","num_feature":"16","num_nodes":"13","size_leaf_vector":"0"}},{"base_weights":[-1.7001554E-3,3.2958265E-2,-5.8869053E-2,-1.7641886E-1,-4.6762295E-2,-1.6018239E-1,-3.6753662E-2,2.341547E-2,-6.67616E-2,-1.4692394E-1,-5.952723E-2,3.5471604E-3,-2.651616E-2],"categories":[],"categories_nodes":[],"categories_segments":[],"categories_sizes":[],"default_left":[0,0,0,0,0,0,0,0,0,0,0,0,0],"id":5,"left_children":[1,-1,3,-1,5,-1,7,-1,9,-1,11,-1,-1],"loss_changes":[1.1997234E4,0E0,7.9683857E3,0E0,5.928813E3,0E0,4.104619E3,0E0,2.8903433E3,0E0,1.9123203E3,0E0,0E0],"parents":[2147483647,0,0,2,2,4,4,6,6,8,8,10,10],"right_children":[2,-1,4,-1,6,-1,8,-1,10,-1,12,-1,-1],"split_conditions":[2.00001E0,3.2958265E-2,2.00001E0,-1.7641886E-1,2.00001E0,-1.6018239E-1,2.00001E0,2.341547E-2,2.00001E0,-1.4692394E-1,2.00001E0,3.5471604E-3,-2.651616E-2],"split_indices":[8,0,11,0,0,0,1,0,5,0,9,0,0],"split_type":[0,0,0,0,0,0,0,0,0,0,0,0,0],"sum_hessian":[1.8810848E6,6.373469E5,1.2437379E6,2.7816451E4,1.2159215E6,2.4476047E4,1.1914454E6,2.4688895E5,9.4455644E5,1.5882106E4,9.286743E5,2.6745078E5,6.6122356E5],"tree_param":{"num_deleted":"0","num_feature":"16","num_nodes":"13","size_leaf_vector":"0"}},{"base_weights":[-1.488144E-3,2.3310179E-2,-4.210777E-2,-1.424919E-1,-3.3253957E-2,-1.274141E-1,-2.5984976E-2,1.6464042E-2,-4.716205E-2,-1.1544306E-1,-4.1894127E-2,-3.6371666E-1,-1.2122167E-2],"categories":[],"categories_nodes":[],"categories_segments":[],"categories_sizes":[],"default_left":[0,0,0,0,0,0,0,0,0,0,0,0,0],"id":6,"left_children":[1,-1,3,-1,5,-1,7,-1,9,-1,11,-1,-1],"loss_changes":[5.995501E3,0E0,4.7215435E3,0E0,3.4353306E3,0E0,2.0297706E3,0E0,1.6707073E3,0E0,1.6096006E3,0E0,0E0],"parents":[2147483647,0,0,2,2,4,4,6,6,8,8,10,10],"right_children":[2,-1,4,-1,6,-1,8,-1,10,-1,12,-1,-1],"split_conditions":[2.00001E0,2.3310179E-2,2.00001E0,-1.424919E-1,2.00001E0,-1.274141E-1,2.00001E0,1.6464042E-2,2.00001E0,-1.1544306E-1,2.00001E0,-3.6371666E-1,-1.2122167E-2],"split_indices":[8,0,11,0,0,0,1,0,5,0,3,0,0],"split_type":[0,0,0,0,0,0,0,0,0,0,0,0,0],"sum_hessian":[1.8639132E6,6.319377E5,1.2319755E6,2.469265E4,1.2072829E6,2.2008191E4,1.1852746E6,2.459827E5,9.39292E5,1.4428414E4,9.2486356E5,1.1723519E3,9.236912E5],"tree_param":{"num_deleted":"0","num_feature":"16","num_nodes":"13","size_leaf_vector":"0"}},{"base_weights":[-1.245283E-3,-1.1278254E-1,3.3209445E-3,1.6442908E-2,-2.3583556E-2,-9.933627E-2,-1.8345285E-2,-2.0167463E-1,-1.6502913E-2,-1.4279281E-2,1.863682E-2,-8.894941E-2,7.924682E-3],"categories":[],"categories_nodes":[],"categories_segments":[],"categories_sizes":[],"default_left":[0,0,0,0,0,0,0,0,0,0,0,0,0],"id":7,"left_children":[1,-1,3,-1,5,-1,7,-1,9,-1,11,-1,-1],"loss_changes":[3.1686602E3,0E0,2.5346355E3,0E0,1.9359597E3,0E0,1.4235239E3,0E0,1.2874807E3,0E0,1.3560309E3,0E0,0E0],"parents":[2147483647,0,0,2,2,4,4,6,6,8,8,10,10],"right_children":[2,-1,4,-1,6,-1,8,-1,10,-1,12,-1,-1],"split_conditions":[2.00001E0,-1.1278254E-1,2.00001E0,1.6442908E-2,2.00001E0,-9.933627E-2,2.00001E0,-2.0167463E-1,2.00001E0,-1.4279281E-2,2.00001E0,-8.894941E-2,7.924682E-3],"split_indices":[11,0,8,0,0,0,12,0,13,0,5,0,0],"split_type":[0,0,0,0,0,0,0,0,0,0,0,0,0],"sum_hessian":[1.8519875E6,2.2296484E4,1.8296911E6,6.279482E5,1.2017429E6,2.0125385E4,1.1816175E6,3.3188289E3,1.1782986E6,6.2512944E5,5.531692E5,1.3324604E4,5.398446E5],"tree_param":{"num_deleted":"0","num_feature":"16","num_nodes":"13","size_leaf_vector":"0"}},{"base_weights":[-1.0032525E-3,-8.737729E-2,2.2624875E-3,1.1574668E-2,-1.6706508E-2,-3.4448206E-1,-1.5839543E-2,6.456001E-1,-1.6282469E-2,-7.589078E-2,-1.251782E-2,-1.6123194E-1,-3.3566416E-3],"categories":[],"categories_nodes":[],"categories_segments":[],"categories_sizes":[],"default_left":[0,0,0,0,0,0,0,0,0,0,0,0,0],"id":8,"left_children":[1,-1,3,-1,5,-1,7,-1,9,-1,11,-1,-1],"loss_changes":[1.7463461E3,0E0,1.2551573E3,0E0,1.1740646E3,0E0,1.148304E3,0E0,1.0653538E3,0E0,8.210417E2,0E0,0E0],"parents":[2147483647,0,0,2,2,4,4,6,6,8,8,10,10],"right_children":[2,-1,4,-1,6,-1,8,-1,10,-1,12,-1,-1],"split_conditions":[2.00001E0,-8.737729E-2,2.00001E0,1.1574668E-2,2.00001E0,-3.4448206E-1,2.00001E0,6.456001E-1,2.00001E0,-7.589078E-2,2.00001E0,-1.6123194E-1,-3.3566416E-3],"split_indices":[11,0,8,0,3,0,2,0,0,0,12,0,0],"split_type":[0,0,0,0,0,0,0,0,0,0,0,0,0],"sum_hessian":[1.842339E6,2.0497104E4,1.8218419E6,6.250548E5,1.1967871E6,9.152184E2,1.1958719E6,2.4329462E2,1.1956285E6,1.8718426E4,1.1769101E6,2.9711975E3,1.1739389E6],"tree_param":{"num_deleted":"0","num_feature":"16","num_nodes":"13","size_leaf_vector":"0"}},{"base_weights":[-7.970093E-4,-6.632327E-2,1.525637E-3,-9.034924E-3,1.8008001E-2,-3.3131325E-1,1.8667186E-2,-5.690373E-2,2.1797761E-2,-6.639422E-2,2.4401966E-2,3.850542E-1,7.1712052E-3],"categories":[],"categories_nodes":[],"categories_segments":[],"categories_sizes":[],"default_left":[0,0,0,0,0,0,0,0,0,0,0,0,0],"id":9,"left_children":[1,-1,3,-1,5,-1,7,-1,9,-1,11,-1,-1],"loss_changes":[9.399366E2,0E0,9.4813135E2,0E0,8.843856E2,0E0,7.7918634E2,0E0,7.451373E2,0E0,7.300558E2,0E0,0E0],"parents":[2147483647,0,0,2,2,4,4,6,6,8,8,10,10],"right_children":[2,-1,4,-1,6,-1,8,-1,10,-1,12,-1,-1],"split_conditions":[2.00001E0,-6.632327E-2,2.00001E0,-9.034924E-3,2.00001E0,-3.3131325E-1,2.00001E0,-5.690373E-2,2.00001E0,-6.639422E-2,2.00001E0,3.850542E-1,7.1712052E-3],"split_indices":[11,0,13,0,3,0,0,0,5,0,15,0,0],"split_type":[0,0,0,0,0,0,0,0,0,0,0,0,0],"sum_hessian":[1.8371259E6,1.9167625E4,1.8179582E6,6.2264106E5,1.1953171E6,7.006213E2,1.1946165E6,1.7683506E4,1.176933E6,1.2472751E4,1.1644602E6,4.5931592E2,1.164001E6],"tree_param":{"num_deleted":"0","num_feature":"16","num_nodes":"13","size_leaf_vector":"0"}},{"base_weights":[-6.166261E-4,-3.2221538E-1,-3.0455698E-4,2.5412852E-1,-6.938889E-4,-1.2859097E-1,-6.013578E-5,-4.943467E-2,1.5966053E-3,-6.3405675E-3,1.3484664E-2,-4.1983407E-2,4.710877E-3],"categories":[],"categories_nodes":[],"categories_segments":[],"categories_sizes":[],"default_left":[0,0,0,0,0,0,0,0,0,0,0,0,0],"id":10,"left_children":[1,-1,3,-1,5,-1,7,-1,9,-1,11,-1,-1],"loss_changes":[6.1359314E2,0E0,6.0413916E2,0E0,4.964034E2,0E0,4.9876193E2,0E0,4.889745E2,0E0,4.0436395E2,0E0,0E0],"parents":[2147483647,0,0,2,2,4,4,6,6,8,8,10,10],"right_children":[2,-1,4,-1,6,-1,8,-1,10,-1,12,-1,-1],"split_conditions":[2.00001E0,-3.2221538E-1,2.00001E0,2.5412852E-1,2.00001E0,-1.2859097E-1,2.00001E0,-4.943467E-2,2.00001E0,-6.3405675E-3,2.00001E0,-4.1983407E-2,4.710877E-3],"split_indices":[3,0,14,0,12,0,11,0,13,0,0,0,0],"split_type":[0,0,0,0,0,0,0,0,0,0,0,0,0],"sum_hessian":[1.8316989E6,5.313572E2,1.8311675E6,8.3993225E2,1.8303276E6,2.70558E3,1.827622E6,1.8197828E4,1.8094241E6,6.213345E5,1.1880896E6,1.6931527E4,1.1711581E6],"tree_param":{"num_deleted":"0","num_feature":"16","num_nodes":"13","size_leaf_vector":"0"}},{"base_weights":[-4.7573276E-4,-3.1574687E-1,-2.4468504E-4,3.2789546E-1,-4.315752E-4,2.6592562E-1,-6.5619085E-4,-5.0539058E-2,4.459522E-4,-9.957004E-2,9.023896E-4,-3.6288053E-2,6.2708074E-4],"categories":[],"categories_nodes":[],"categories_segments":[],"categories_sizes":[],"default_left":[0,0,0,0,0,0,0,0,0,0,0,0,0],"id":11,"left_children":[1,-1,3,-1,5,-1,7,-1,9,-1,11,-1,-1],"loss_changes":[4.4437827E2,0E0,3.7345053E2,0E0,3.6404236E2,0E0,3.3790927E2,0E0,2.7534708E2,0E0,2.62395E2,0E0,0E0],"parents":[2147483647,0,0,2,2,4,4,6,6,8,8,10,10],"right_children":[2,-1,4,-1,6,-1,8,-1,10,-1,12,-1,-1],"split_conditions":[2.00001E0,-3.1574687E-1,2.00001E0,3.2789546E-1,2.00001E0,2.6592562E-1,2.00001E0,-5.0539058E-2,2.00001E0,-9.957004E-2,2.00001E0,-3.6288053E-2,6.2708074E-4],"split_indices":[3,0,2,0,15,0,5,0,12,0,11,0,0],"split_type":[0,0,0,0,0,0,0,0,0,0,0,0,0],"sum_hessian":[1.8282254E6,4.004344E2,1.827825E6,3.1141812E2,1.8275135E6,4.6174457E2,1.8270518E6,1.1920617E4,1.8151311E6,2.4884497E3,1.8126428E6,1.749755E4,1.7951451E6],"tree_param":{"num_deleted":"0","num_feature":"16","num_nodes":"13","size_leaf_vector":"0"}},{"base_weights":[-3.5826227E-4,-3.1102318E-1,-1.8722846E-4,1.5389898E-1,-4.5290112E-4,4.405268E-3,-8.249969E-3,6.4670644E-3,-1.5840264E-2,1.9522004E-1,-1.6149094E-2,-7.3025934E-2,-4.5930203E-3],"categories":[],"categories_nodes":[],"categories_segments":[],"categories_sizes":[],"default_left":[0,0,0,0,0,0,0,0,0,0,0,0,0],"id":12,"left_children":[1,-1,3,-1,5,-1,7,-1,9,-1,11,-1,-1],"loss_changes":[3.2384314E2,0E0,2.4904652E2,0E0,2.1548187E2,0E0,2.7262842E2,0E0,1.977274E2,0E0,1.8305598E2,0E0,0E0],"parents":[2147483647,0,0,2,2,4,4,6,6,8,8,10,10],"right_children":[2,-1,4,-1,6,-1,8,-1,10,-1,12,-1,-1],"split_conditions":[2.00001E0,-3.1102318E-1,2.00001E0,1.5389898E-1,2.00001E0,4.405268E-3,2.00001E0,6.4670644E-3,2.00001E0,1.9522004E-1,2.00001E0,-7.3025934E-2,-4.5930203E-3],"split_indices":[3,0,14,0,8,0,1,0,15,0,4,0,0],"split_type":[0,0,0,0,0,0,0,0,0,0,0,0,0],"sum_hessian":[1.82697E6,3.004535E2,1.8266695E6,9.441696E2,1.8257254E6,6.207019E5,1.2050235E6,2.4457666E5,9.604468E5,4.4380524E2,9.60003E5,3.5299973E3,9.56473E5],"tree_param":{"num_deleted":"0","num_feature":"16","num_nodes":"13","size_leaf_vector":"0"}},{"base_weights":[-2.6133825E-4,-3.0746713E-1,-1.3456424E-4,-3.720885E-2,7.1601465E-4,2.1750696E-1,5.8487826E-4,-3.577986E-2,1.3464364E-3,-2.9471047E-2,2.2585196E-3,-3.2603645E-3,2.7739105E-3],"categories":[],"categories_nodes":[],"categories_segments":[],"categories_sizes":[],"default_left":[0,0,0,0,0,0,0,0,0,0,0,0,0],"id":13,"left_children":[1,-1,3,-1,5,-1,7,-1,9,-1,11,-1,-1],"loss_changes":[2.3704721E2,0E0,1.9228839E2,0E0,1.7213077E2,0E0,1.6537909E2,0E0,1.6353317E2,0E0,1.6364946E2,0E0,0E0],"parents":[2147483647,0,0,2,2,4,4,6,6,8,8,10,10],"right_children":[2,-1,4,-1,6,-1,8,-1,10,-1,12,-1,-1],"split_conditions":[2.00001E0,-3.0746713E-1,2.00001E0,-3.720885E-2,2.00001E0,2.1750696E-1,2.00001E0,-3.577986E-2,2.00001E0,-2.9471047E-2,2.00001E0,-3.2603645E-3,2.7739105E-3],"split_indices":[3,0,10,0,2,0,5,0,0,0,13,0,0],"split_type":[0,0,0,0,0,0,0,0,0,0,0,0,0],"sum_hessian":[1.8248952E6,2.2476042E2,1.8246705E6,1.2440552E4,1.8122299E6,3.2704572E2,1.8119029E6,1.1439523E4,1.8004634E6,1.63398125E4,1.7841235E6,6.198184E5,1.1643051E6],"tree_param":{"num_deleted":"0","num_feature":"16","num_nodes":"13","size_leaf_vector":"0"}},{"base_weights":[-1.9518136E-4,-3.0468076E-1,-1.0115025E-4,7.745251E-2,-4.3877543E-4,-7.521382E-2,-1.1898975E-4,-2.5805663E-2,6.904424E-4,-5.427702E-2,1.0343805E-3,9.948989E-2,2.5498943E-4],"categories":[],"categories_nodes":[],"categories_segments":[],"categories_sizes":[],"default_left":[0,0,0,0,0,0,0,0,0,0,0,0,0],"id":14,"left_children":[1,-1,3,-1,5,-1,7,-1,9,-1,11,-1,-1],"loss_changes":[1.740572E2,0E0,1.5894977E2,0E0,1.4569608E2,0E0,1.2641315E2,0E0,1.12506096E2,0E0,1.0960306E2,0E0,0E0],"parents":[2147483647,0,0,2,2,4,4,6,6,8,8,10,10],"right_children":[2,-1,4,-1,6,-1,8,-1,10,-1,12,-1,-1],"split_conditions":[2.00001E0,-3.0468076E-1,2.00001E0,7.745251E-2,2.00001E0,-7.521382E-2,2.00001E0,-2.5805663E-2,2.00001E0,-5.427702E-2,2.00001E0,9.948989E-2,2.5498943E-4],"split_indices":[3,0,6,0,12,0,11,0,4,0,14,0,0],"split_type":[0,0,0,0,0,0,0,0,0,0,0,0,0],"sum_hessian":[1.8229728E6,1.6779953E2,1.8228049E6,2.3787092E3,1.8204262E6,2.3220684E3,1.8181041E6,1.6971031E4,1.8011331E6,3.4035247E3,1.7977296E6,1.0012558E3,1.7967282E6],"tree_param":{"num_deleted":"0","num_feature":"16","num_nodes":"13","size_leaf_vector":"0"}},{"base_weights":[-1.4992587E-4,-3.0237356E-1,-8.018237E-5,1.4454164E-1,-1.919315E-4,-2.6337164E-2,4.063015E-4,-2.595373E-2,9.445545E-4,1.5154077E-1,8.522158E-4,-2.1286536E-2,4.487314E-4],"categories":[],"categories_nodes":[],"categories_segments":[],"categories_sizes":[],"default_left":[0,0,0,0,0,0,0,0,0,0,0,0,0],"id":15,"left_children":[1,-1,3,-1,5,-1,7,-1,9,-1,11,-1,-1],"loss_changes":[1.2809187E2,0E0,9.8133865E1,0E0,9.547675E1,0E0,8.4659294E1,0E0,8.372792E1,0E0,8.3093994E1,0E0,0E0],"parents":[2147483647,0,0,2,2,4,4,6,6,8,8,10,10],"right_children":[2,-1,4,-1,6,-1,8,-1,10,-1,12,-1,-1],"split_conditions":[2.00001E0,-3.0237356E-1,2.00001E0,1.4454164E-1,2.00001E0,-2.6337164E-2,2.00001E0,-2.595373E-2,2.00001E0,1.5154077E-1,2.00001E0,-2.1286536E-2,4.487314E-4],"split_indices":[3,0,15,0,10,0,5,0,2,0,0,0,0],"split_type":[0,0,0,0,0,0,0,0,0,0,0,0,0],"sum_hessian":[1.8224682E6,1.251176E2,1.8223431E6,4.2150345E2,1.8219216E6,1.2356978E4,1.8095648E6,1.1135962E4,1.7984288E6,3.2830627E2,1.7981004E6,1.5970917E4,1.7821295E6],"tree_param":{"num_deleted":"0","num_feature":"16","num_nodes":"13","size_leaf_vector":"0"}},{"base_weights":[-1.1043077E-4,-3.0031914E-1,-5.8654547E-5,-5.626136E-2,1.684159E-4,5.1615667E-2,-6.549103E-5,-1.8654289E-2,5.081831E-4,-2.4951566E-3,5.1371274E-3,-3.9499603E-2,1.656371E-3],"categories":[],"categories_nodes":[],"categories_segments":[],"categories_sizes":[],"default_left":[0,0,0,0,0,0,0,0,0,0,0,0,0],"id":16,"left_children":[1,-1,3,-1,5,-1,7,-1,9,-1,11,-1,-1],"loss_changes":[9.441744E1,0E0,7.755326E1,0E0,7.315411E1,0E0,6.474937E1,0E0,7.355178E1,0E0,6.2058777E1,0E0,0E0],"parents":[2147483647,0,0,2,2,4,4,6,6,8,8,10,10],"right_children":[2,-1,4,-1,6,-1,8,-1,10,-1,12,-1,-1],"split_conditions":[2.00001E0,-3.0031914E-1,2.00001E0,-5.626136E-2,2.00001E0,5.1615667E-2,2.00001E0,-1.8654289E-2,2.00001E0,-2.4951566E-3,2.00001E0,-3.9499603E-2,1.656371E-3],"split_indices":[3,0,12,0,6,0,11,0,13,0,4,0,0],"split_type":[0,0,0,0,0,0,0,0,0,0,0,0,0],"sum_hessian":[1.8218311E6,9.323281E1,1.8217379E6,2.2027793E3,1.8195351E6,2.471739E3,1.8170634E6,1.6627129E4,1.8004362E6,6.1943806E5,1.1809981E6,3.3057231E3,1.1776925E6],"tree_param":{"num_deleted":"0","num_feature":"16","num_nodes":"13","size_leaf_vector":"0"}},{"base_weights":[-8.393612E-5,-2.9832733E-1,-4.5451277E-5,1.069693E-1,-1.242382E-4,6.635597E-2,-2.5016372E-4,-1.9043852E-2,1.8017748E-4,-1.9082922E-2,5.6847115E-4,-1.568322E-2,3.1059736E-4],"categories":[],"categories_nodes":[],"categories_segments":[],"categories_sizes":[],"default_left":[0,0,0,0,0,0,0,0,0,0,0,0,0],"id":17,"left_children":[1,-1,3,-1,5,-1,7,-1,9,-1,11,-1,-1],"loss_changes":[6.96736E1,0E0,5.1153442E1,0E0,5.0728065E1,0E0,4.9501266E1,0E0,4.4756054E1,0E0,4.4309402E1,0E0,0E0],"parents":[2147483647,0,0,2,2,4,4,6,6,8,8,10,10],"right_children":[2,-1,4,-1,6,-1,8,-1,10,-1,12,-1,-1],"split_conditions":[2.00001E0,-2.9832733E-1,2.00001E0,1.069693E-1,2.00001E0,6.635597E-2,2.00001E0,-1.9043852E-2,2.00001E0,-1.9082922E-2,2.00001E0,-1.568322E-2,3.1059736E-4],"split_indices":[3,0,15,0,14,0,10,0,5,0,0,0,0],"split_type":[0,0,0,0,0,0,0,0,0,0,0,0,0],"sum_hessian":[1.8207214E6,6.9466255E1,1.8206519E6,4.0115405E2,1.8202508E6,1.0341326E3,1.8192166E6,1.2296964E4,1.8069196E6,1.0931313E4,1.7959884E6,1.5726293E4,1.780262E6],"tree_param":{"num_deleted":"0","num_feature":"16","num_nodes":"13","size_leaf_vector":"0"}},{"base_weights":[-6.2155894E-5,-2.9622468E-1,-3.3526692E-5,1.0706803E-1,-9.7374854E-5,-4.1456163E-2,6.34168E-5,-1.8409045E-3,3.2655695E-3,-1.3389955E-2,3.929278E-3,3.4992583E-2,1.1061692E-3],"categories":[],"categories_nodes":[],"categories_segments":[],"categories_sizes":[],"default_left":[0,0,0,0,0,0,0,0,0,0,0,0,0],"id":18,"left_children":[1,-1,3,-1,5,-1,7,-1,9,-1,11,-1,-1],"loss_changes":[5.145415E1,0E0,4.1481518E1,0E0,4.0408646E1,0E0,3.608788E1,0E0,3.810716E1,0E0,3.2254784E1,0E0,0E0],"parents":[2147483647,0,0,2,2,4,4,6,6,8,8,10,10],"right_children":[2,-1,4,-1,6,-1,8,-1,10,-1,12,-1,-1],"split_conditions":[2.00001E0,-2.9622468E-1,2.00001E0,1.0706803E-1,2.00001E0,-4.1456163E-2,2.00001E0,-1.8409045E-3,2.00001E0,-1.3389955E-2,2.00001E0,3.4992583E-2,1.1061692E-3],"split_indices":[3,0,2,0,12,0,13,0,11,0,6,0,0],"split_type":[0,0,0,0,0,0,0,0,0,0,0,0,0],"sum_hessian":[1.8202818E6,5.1779175E1,1.82023E6,3.245504E2,1.8199054E6,2.1156333E3,1.8177898E6,6.1911175E5,1.198678E6,1.63815625E4,1.1822965E6,2.5324788E3,1.179764E6],"tree_param":{"num_deleted":"0","num_feature":"16","num_nodes":"13","size_leaf_vector":"0"}},{"base_weights":[-4.64968E-5,-2.9384056E-1,-2.51635E-5,-2.8803283E-2,1.4591798E-4,7.8555316E-2,9.036693E-5,-1.3723937E-2,4.0174113E-4,-1.3918187E-2,6.831769E-4,-1.1466686E-2,3.070528E-4],"categories":[],"categories_nodes":[],"categories_segments":[],"categories_sizes":[],"default_left":[0,0,0,0,0,0,0,0,0,0,0,0,0],"id":19,"left_children":[1,-1,3,-1,5,-1,7,-1,9,-1,11,-1,-1],"loss_changes":[3.801812E1,0E0,2.987885E1,0E0,2.6404922E1,0E0,2.5917086E1,0E0,2.3753878E1,0E0,2.3738842E1,0E0,0E0],"parents":[2147483647,0,0,2,2,4,4,6,6,8,8,10,10],"right_children":[2,-1,4,-1,6,-1,8,-1,10,-1,12,-1,-1],"split_conditions":[2.00001E0,-2.9384056E-1,2.00001E0,-2.8803283E-2,2.00001E0,7.8555316E-2,2.00001E0,-1.3723937E-2,2.00001E0,-1.3918187E-2,2.00001E0,-1.1466686E-2,3.070528E-4],"split_indices":[3,0,4,0,15,0,10,0,5,0,0,0,0],"split_type":[0,0,0,0,0,0,0,0,0,0,0,0,0],"sum_hessian":[1.8195451E6,3.863159E1,1.8195065E6,3.2362542E3,1.8162702E6,3.8445013E2,1.8158858E6,1.2251283E4,1.8036345E6,1.07814795E4,1.792853E6,1.5546333E4,1.7773066E6],"tree_param":{"num_deleted":"0","num_feature":"16","num_nodes":"13","size_leaf_vector":"0"}},{"base_weights":[-3.4516976E-5,-2.9099756E-1,-1.8592253E-5,4.4988275E-2,-1.0561539E-4,-3.019777E-2,8.1032795E-6,7.63088E-2,-3.682637E-5,-1.3813047E-3,2.325071E-3,-9.587667E-3,8.387302E-4],"categories":[],"categories_nodes":[],"categories_segments":[],"categories_sizes":[],"default_left":[0,0,0,0,0,0,0,0,0,0,0,0,0],"id":20,"left_children":[1,-1,3,-1,5,-1,7,-1,9,-1,11,-1,-1],"loss_changes":[2.8099203E1,0E0,2.3742685E1,0E0,2.0789337E1,0E0,2.0753593E1,0E0,1.9587816E1,0E0,1.9313545E1,0E0,0E0],"parents":[2147483647,0,0,2,2,4,4,6,6,8,8,10,10],"right_children":[2,-1,4,-1,6,-1,8,-1,10,-1,12,-1,-1],"split_conditions":[2.00001E0,-2.9099756E-1,2.00001E0,4.4988275E-2,2.00001E0,-3.019777E-2,2.00001E0,7.63088E-2,2.00001E0,-1.3813047E-3,2.00001E0,-9.587667E-3,8.387302E-4],"split_indices":[3,0,14,0,12,0,2,0,13,0,11,0,0],"split_type":[0,0,0,0,0,0,0,0,0,0,0,0,0],"sum_hessian":[1.8191542E6,2.886631E1,1.8191254E6,1.0539067E3,1.8180714E6,2.0527825E3,1.8160186E6,3.1972852E2,1.8156989E6,6.188819E5,1.196817E6,1.6208073E4,1.180609E6],"tree_param":{"num_deleted":"0","num_feature":"16","num_nodes":"13","size_leaf_vector":"0"}},{"base_weights":[-2.5774652E-5,-2.8750625E-1,-1.3856127E-5,2.3678115E-2,-1.2579125E-4,2.2291613E-3,-1.2983601E-3,7.841411E-4,-3.8356576E-3,5.711991E-2,-3.9115525E-3,-2.0811142E-2,-1.1076046E-3],"categories":[],"categories_nodes":[],"categories_segments":[],"categories_sizes":[],"default_left":[0,0,0,0,0,0,0,0,0,0,0,0,0],"id":21,"left_children":[1,-1,3,-1,5,-1,7,-1,9,-1,11,-1,-1],"loss_changes":[2.0771702E1,0E0,1.606938E1,0E0,1.6090317E1,0E0,1.5604707E1,0E0,1.40579815E1,0E0,1.3698095E1,0E0,0E0],"parents":[2147483647,0,0,2,2,4,4,6,6,8,8,10,10],"right_children":[2,-1,4,-1,6,-1,8,-1,10,-1,12,-1,-1],"split_conditions":[2.00001E0,-2.8750625E-1,2.00001E0,2.3678115E-2,2.00001E0,2.2291613E-3,2.00001E0,7.841411E-4,2.00001E0,5.711991E-2,2.00001E0,-2.0811142E-2,-1.1076046E-3],"split_indices":[3,0,6,0,1,0,8,0,15,0,4,0,0],"split_type":[0,0,0,0,0,0,0,0,0,0,0,0,0],"sum_hessian":[1.8185919E6,2.1617155E1,1.8185704E6,2.5740134E3,1.8159962E6,2.4394539E5,1.5720509E6,6.184642E5,9.535867E5,3.7147504E2,9.5321525E5,3.1851692E3,9.5003006E5],"tree_param":{"num_deleted":"0","num_feature":"16","num_nodes":"13","size_leaf_vector":"0"}},{"base_weights":[-1.882895E-5,-2.831657E-1,-9.880156E-6,-9.561413E-3,2.0563796E-4,3.1410977E-2,1.4387711E-4,-9.792111E-3,3.3875887E-4,-8.036881E-3,5.736815E-4,5.47175E-2,1.624022E-4],"categories":[],"categories_nodes":[],"categories_segments":[],"categories_sizes":[],"default_left":[0,0,0,0,0,0,0,0,0,0,0,0,0],"id":22,"left_children":[1,-1,3,-1,5,-1,7,-1,9,-1,11,-1,-1],"loss_changes":[1.535673E1,0E0,1.24844675E1,0E0,1.1654975E1,0E0,1.1531153E1,0E0,1.1434342E1,0E0,1.0459297E1,0E0,0E0],"parents":[2147483647,0,0,2,2,4,4,6,6,8,8,10,10],"right_children":[2,-1,4,-1,6,-1,8,-1,10,-1,12,-1,-1],"split_conditions":[2.00001E0,-2.831657E-1,2.00001E0,-9.561413E-3,2.00001E0,3.1410977E-2,2.00001E0,-9.792111E-3,2.00001E0,-8.036881E-3,2.00001E0,5.47175E-2,1.624022E-4],"split_indices":[3,0,10,0,14,0,5,0,0,0,2,0,0],"split_type":[0,0,0,0,0,0,0,0,0,0,0,0,0],"sum_hessian":[1.818124E6,1.623746E1,1.8181078E6,1.2214463E4,1.8058932E6,1.0656992E3,1.8048276E6,1.0664186E4,1.7941634E6,1.5402501E4,1.7787609E6,3.153382E2,1.7784455E6],"tree_param":{"num_deleted":"0","num_feature":"16","num_nodes":"13","size_leaf_vector":"0"}},{"base_weights":[-1.4190072E-5,-2.7777177E-1,-7.443927E-6,-2.1455541E-2,7.159089E-5,-1.483076E-2,1.5757715E-4,-6.497038E-3,3.526963E-4,1.6319813E-2,2.743093E-4,4.1273225E-2,7.396095E-5],"categories":[],"categories_nodes":[],"categories_segments":[],"categories_sizes":[],"default_left":[0,0,0,0,0,0,0,0,0,0,0,0,0],"id":23,"left_children":[1,-1,3,-1,5,-1,7,-1,9,-1,11,-1,-1],"loss_changes":[1.1355013E1,0E0,1.0274502E1,0E0,7.730182E0,0E0,7.715769E0,0E0,7.611696E0,0E0,6.8412867E0,0E0,0E0],"parents":[2147483647,0,0,2,2,4,4,6,6,8,8,10,10],"right_children":[2,-1,4,-1,6,-1,8,-1,10,-1,12,-1,-1],"split_conditions":[2.00001E0,-2.7777177E-1,2.00001E0,-2.1455541E-2,2.00001E0,-1.483076E-2,2.00001E0,-6.497038E-3,2.00001E0,1.6319813E-2,2.00001E0,4.1273225E-2,7.396095E-5],"split_indices":[3,0,12,0,4,0,11,0,6,0,15,0,0],"split_type":[0,0,0,0,0,0,0,0,0,0,0,0,0],"sum_hessian":[1.8179076E6,1.224537E1,1.8178954E6,2.0059431E3,1.8158894E6,3.147436E3,1.812742E6,1.6069397E4,1.7966725E6,2.60104E3,1.7940715E6,3.618183E2,1.7937098E6],"tree_param":{"num_deleted":"0","num_feature":"16","num_nodes":"13","size_leaf_vector":"0"}},{"base_weights":[-1.0832298E-5,-2.7113524E-1,-5.720014E-6,1.4903281E-3,-7.7621726E-4,2.1776672E-2,-8.2634314E-4,4.781382E-4,-2.393853E-3,3.888028E-2,-2.4370954E-3,-6.732455E-3,-6.534743E-4],"categories":[],"categories_nodes":[],"categories_segments":[],"categories_sizes":[],"default_left":[0,0,0,0,0,0,0,0,0,0,0,0,0],"id":24,"left_children":[1,-1,3,-1,5,-1,7,-1,9,-1,11,-1,-1],"loss_changes":[8.398708E0,0E0,6.9657483E0,0E0,5.788154E0,0E0,5.966754E0,0E0,5.448858E0,0E0,4.941237E0,0E0,0E0],"parents":[2147483647,0,0,2,2,4,4,6,6,8,8,10,10],"right_children":[2,-1,4,-1,6,-1,8,-1,10,-1,12,-1,-1],"split_conditions":[2.00001E0,-2.7113524E-1,2.00001E0,1.4903281E-3,2.00001E0,2.1776672E-2,2.00001E0,4.781382E-4,2.00001E0,3.888028E-2,2.00001E0,-6.732455E-3,-6.534743E-4],"split_indices":[3,0,1,0,14,0,8,0,2,0,10,0,0],"split_type":[0,0,0,0,0,0,0,0,0,0,0,0,0],"sum_hessian":[1.8177665E6,9.28232E0,1.8177571E6,2.4383325E5,1.5739239E6,1.0736431E3,1.5728502E6,6.1827394E5,9.545763E5,3.1164404E2,9.542647E5,1.2188914E4,9.4207575E5],"tree_param":{"num_deleted":"0","num_feature":"16","num_nodes":"13","size_leaf_vector":"0"}},{"base_weights":[-7.885119E-6,-2.6310995E-1,-3.9852407E-6,-6.747272E-3,1.2768344E-4,-5.498379E-3,2.8527665E-4,-1.5128226E-2,3.4121628E-4,-5.102125E-4,1.4194654E-3,-4.3837666E-3,4.9235753E-4],"categories":[],"categories_nodes":[],"categories_segments":[],"categories_sizes":[],"default_left":[0,0,0,0,0,0,0,0,0,0,0,0,0],"id":25,"left_children":[1,-1,3,-1,5,-1,7,-1,9,-1,11,-1,-1],"loss_changes":[6.216299E0,0E0,5.381211E0,0E0,5.255311E0,0E0,5.082499E0,0E0,3.9402165E0,0E0,4.163228E0,0E0,0E0],"parents":[2147483647,0,0,2,2,4,4,6,6,8,8,10,10],"right_children":[2,-1,4,-1,6,-1,8,-1,10,-1,12,-1,-1],"split_conditions":[2.00001E0,-2.6310995E-1,2.00001E0,-6.747272E-3,2.00001E0,-5.498379E-3,2.00001E0,-1.5128226E-2,2.00001E0,-5.102125E-4,2.00001E0,-4.3837666E-3,4.9235753E-4],"split_indices":[3,0,5,0,0,0,12,0,13,0,11,0,0],"split_type":[0,0,0,0,0,0,0,0,0,0,0,0,0],"sum_hessian":[1.8174764E6,7.081757E0,1.8174692E6,1.0578973E4,1.8068902E6,1.5297497E4,1.7915928E6,1.9730818E3,1.7896198E6,6.184448E5,1.1711749E6,1.597576E4,1.1551991E6],"tree_param":{"num_deleted":"0","num_feature":"16","num_nodes":"13","size_leaf_vector":"0"}},{"base_weights":[-6.102263E-6,-2.536279E-1,-3.1033258E-6,-1.0445034E-2,5.679622E-5,1.1377873E-2,2.016354E-6,2.9670255E-2,-1.7412096E-5,-4.868713E-3,9.2294926E-5,1.5010757E-2,1.8687337E-5],"categories":[],"categories_nodes":[],"categories_segments":[],"categories_sizes":[],"default_left":[0,0,0,0,0,0,0,0,0,0,0,0,0],"id":26,"left_children":[1,-1,3,-1,5,-1,7,-1,9,-1,11,-1,-1],"loss_changes":[4.6069508E0,0E0,3.7891884E0,0E0,3.763016E0,0E0,3.4803922E0,0E0,3.2208827E0,0E0,2.695505E0,0E0,0E0],"parents":[2147483647,0,0,2,2,4,4,6,6,8,8,10,10],"right_children":[2,-1,4,-1,6,-1,8,-1,10,-1,12,-1,-1],"split_conditions":[2.00001E0,-2.536279E-1,2.00001E0,-1.0445034E-2,2.00001E0,1.1377873E-2,2.00001E0,2.9670255E-2,2.00001E0,-4.868713E-3,2.00001E0,1.5010757E-2,1.8687337E-5],"split_indices":[3,0,4,0,6,0,15,0,10,0,14,0,0],"split_type":[0,0,0,0,0,0,0,0,0,0,0,0,0],"sum_hessian":[1.8170781E6,5.4456515E0,1.8170728E6,3.1200435E3,1.8139526E6,2.6191758E3,1.8113335E6,3.547628E2,1.8109788E6,1.21718545E4,1.7988069E6,1.0789915E3,1.7977279E6],"tree_param":{"num_deleted":"0","num_feature":"16","num_nodes":"13","size_leaf_vector":"0"}},{"base_weights":[-4.6656846E-6,-2.4273257E-1,-2.3381842E-6,-4.758873E-3,9.0066445E-5,-3.8749634E-3,2.0066589E-4,2.7409174E-2,1.8489952E-4,-1.0744498E-2,2.241748E-4,8.9037034E-4,-6.257979E-5],"categories":[],"categories_nodes":[],"categories_segments":[],"categories_sizes":[],"default_left":[0,0,0,0,0,0,0,0,0,0,0,0,0],"id":27,"left_children":[1,-1,3,-1,5,-1,7,-1,9,-1,11,-1,-1],"loss_changes":[3.4218578E0,0E0,2.6630538E0,0E0,2.5987353E0,0E0,2.5746388E0,0E0,2.5322957E0,0E0,2.124327E0,0E0,0E0],"parents":[2147483647,0,0,2,2,4,4,6,6,8,8,10,10],"right_children":[2,-1,4,-1,6,-1,8,-1,10,-1,12,-1,-1],"split_conditions":[2.00001E0,-2.4273257E-1,2.00001E0,-4.758873E-3,2.00001E0,-3.8749634E-3,2.00001E0,2.7409174E-2,2.00001E0,-1.0744498E-2,2.00001E0,8.9037034E-4,-6.257979E-5],"split_indices":[3,0,5,0,0,0,2,0,12,0,1,0,0],"split_type":[0,0,0,0,0,0,0,0,0,0,0,0,0],"sum_hessian":[1.8170544E6,4.2269955E0,1.8170501E6,1.0523934E4,1.8065261E6,1.5230982E4,1.7912952E6,3.0874313E2,1.7909865E6,1.9508141E3,1.7890356E6,2.4374175E5,1.5452939E6],"tree_param":{"num_deleted":"0","num_feature":"16","num_nodes":"13","size_leaf_vector":"0"}},{"base_weights":[-3.4757013E-6,-2.3059784E-1,-1.6494693E-6,-7.34865E-3,4.023825E-5,7.938181E-3,1.832734E-6,2.1182794E-2,-1.1838868E-5,-3.0690695E-3,7.878776E-5,-3.394022E-3,4.6946425E-5],"categories":[],"categories_nodes":[],"categories_segments":[],"categories_sizes":[],"default_left":[0,0,0,0,0,0,0,0,0,0,0,0,0],"id":28,"left_children":[1,-1,3,-1,5,-1,7,-1,9,-1,11,-1,-1],"loss_changes":[2.550478E0,0E0,1.8641338E0,0E0,1.8404483E0,0E0,1.7483603E0,0E0,1.6769317E0,0E0,1.5888135E0,0E0,0E0],"parents":[2147483647,0,0,2,2,4,4,6,6,8,8,10,10],"right_children":[2,-1,4,-1,6,-1,8,-1,10,-1,12,-1,-1],"split_conditions":[2.00001E0,-2.3059784E-1,2.00001E0,-7.34865E-3,2.00001E0,7.938181E-3,2.00001E0,2.1182794E-2,2.00001E0,-3.0690695E-3,2.00001E0,-3.394022E-3,4.6946425E-5],"split_indices":[3,0,4,0,6,0,15,0,11,0,10,0,0],"split_type":[0,0,0,0,0,0,0,0,0,0,0,0,0],"sum_hessian":[1.8169109E6,3.3167467E0,1.8169076E6,3.1008506E3,1.8138068E6,2.631784E3,1.8111749E6,3.496271E2,1.8108252E6,1.5917988E4,1.7949074E6,1.2158233E4,1.7827491E6],"tree_param":{"num_deleted":"0","num_feature":"16","num_nodes":"13","size_leaf_vector":"0"}},{"base_weights":[-2.7406918E-6,-2.1752031E-1,-1.2903844E-6,-3.5814175E-4,6.140019E-4,-3.360269E-3,7.182923E-4,-2.7366984E-3,8.45709E-4,-7.610901E-3,8.890577E-4,1.0475393E-2,2.572618E-4],"categories":[],"categories_nodes":[],"categories_segments":[],"categories_sizes":[],"default_left":[0,0,0,0,0,0,0,0,0,0,0,0,0],"id":29,"left_children":[1,-1,3,-1,5,-1,7,-1,9,-1,11,-1,-1],"loss_changes":[1.9105388E0,0E0,1.3331045E0,0E0,1.4767513E0,0E0,1.4895841E0,0E0,1.3328059E0,0E0,1.2557771E0,0E0,0E0],"parents":[2147483647,0,0,2,2,4,4,6,6,8,8,10,10],"right_children":[2,-1,4,-1,6,-1,8,-1,10,-1,12,-1,-1],"split_conditions":[2.00001E0,-2.1752031E-1,2.00001E0,-3.5814175E-4,2.00001E0,-3.360269E-3,2.00001E0,-2.7366984E-3,2.00001E0,-7.610901E-3,2.00001E0,1.0475393E-2,2.572618E-4],"split_indices":[3,0,13,0,5,0,0,0,12,0,14,0,0],"split_type":[0,0,0,0,0,0,0,0,0,0,0,0,0],"sum_hessian":[1.816849E6,2.6341362E0,1.8168464E6,6.183683E5,1.1984781E6,1.0485507E4,1.1879926E6,1.5184639E4,1.172808E6,1.9351426E3,1.1708729E6,1.0824639E3,1.1697904E6],"tree_param":{"num_deleted":"0","num_feature":"16","num_nodes":"13","size_leaf_vector":"0"}},{"base_weights":[-2.0302884E-6,-2.03883E-1,-8.633083E-7,1.9285133E-2,-1.1749343E-5,-5.248278E-3,1.803206E-5,-2.2316384E-3,8.392324E-5,5.4574106E-3,5.7269073E-5,1.4963151E-2,1.4291447E-5],"categories":[],"categories_nodes":[],"categories_segments":[],"categories_sizes":[],"default_left":[0,0,0,0,0,0,0,0,0,0,0,0,0],"id":30,"left_children":[1,-1,3,-1,5,-1,7,-1,9,-1,11,-1,-1],"loss_changes":[1.4407787E0,0E0,1.2713122E0,0E0,9.4569445E-1,0E0,8.909316E-1,0E0,8.6748916E-1,0E0,8.611386E-1,0E0,0E0],"parents":[2147483647,0,0,2,2,4,4,6,6,8,8,10,10],"right_children":[2,-1,4,-1,6,-1,8,-1,10,-1,12,-1,-1],"split_conditions":[2.00001E0,-2.03883E-1,2.00001E0,1.9285133E-2,2.00001E0,-5.248278E-3,2.00001E0,-2.2316384E-3,2.00001E0,5.4574106E-3,2.00001E0,1.4963151E-2,1.4291447E-5],"split_indices":[3,0,2,0,4,0,11,0,6,0,15,0,0],"split_type":[0,0,0,0,0,0,0,0,0,0,0,0,0],"sum_hessian":[1.8166669E6,2.1194615E0,1.8166648E6,3.0658435E2,1.8163581E6,3.0879014E3,1.8132702E6,1.5881382E4,1.7973889E6,2.6408667E3,1.794748E6,3.4588333E2,1.7944021E6],"tree_param":{"num_deleted":"0","num_feature":"16","num_nodes":"13","size_leaf_vector":"0"}},{"base_weights":[-1.6152201E-6,-1.9009858E-1,-6.634143E-7,5.2791124E-4,-2.7338753E-4,-2.4594886E-3,-2.116931E-4,7.312069E-3,-2.2880863E-4,1.3601889E-2,-2.377511E-4,-2.364055E-3,-5.5843582E-5],"categories":[],"categories_nodes":[],"categories_segments":[],"categories_sizes":[],"default_left":[0,0,0,0,0,0,0,0,0,0,0,0,0],"id":31,"left_children":[1,-1,3,-1,5,-1,7,-1,9,-1,11,-1,-1],"loss_changes":[1.095648E0,0E0,8.7215394E-1,0E0,7.690452E-1,0E0,6.5677065E-1,0E0,6.355834E-1,0E0,6.1501753E-1,0E0,0E0],"parents":[2147483647,0,0,2,2,4,4,6,6,8,8,10,10],"right_children":[2,-1,4,-1,6,-1,8,-1,10,-1,12,-1,-1],"split_conditions":[2.00001E0,-1.9009858E-1,2.00001E0,5.2791124E-4,2.00001E0,-2.4594886E-3,2.00001E0,7.312069E-3,2.00001E0,1.3601889E-2,2.00001E0,-2.364055E-3,-5.5843582E-5],"split_indices":[3,0,1,0,10,0,14,0,2,0,5,0,0],"split_type":[0,0,0,0,0,0,0,0,0,0,0,0,0],"sum_hessian":[1.8166286E6,1.72871E0,1.8166269E6,2.4368627E5,1.5729406E6,1.2149542E4,1.5607911E6,1.0848304E3,1.5597062E6,3.0502655E2,1.5594012E6,1.0458276E4,1.548943E6],"tree_param":{"num_deleted":"0","num_feature":"16","num_nodes":"13","size_leaf_vector":"0"}},{"base_weights":[-1.2982525E-6,-1.7655092E-1,-5.1117524E-7,-1.908433E-3,5.2991523E-5,-2.3822612E-4,4.956822E-4,-5.3538247E-3,5.255731E-4,-1.5489901E-3,6.0296064E-4,-3.6715455E-3,1.9109437E-4],"categories":[],"categories_nodes":[],"categories_segments":[],"categories_sizes":[],"default_left":[0,0,0,0,0,0,0,0,0,0,0,0,0],"id":32,"left_children":[1,-1,3,-1,5,-1,7,-1,9,-1,11,-1,-1],"loss_changes":[8.414332E-1,0E0,6.182313E-1,0E0,6.7552465E-1,0E0,6.4865756E-1,0E0,5.2002245E-1,0E0,5.091163E-1,0E0,0E0],"parents":[2147483647,0,0,2,2,4,4,6,6,8,8,10,10],"right_children":[2,-1,4,-1,6,-1,8,-1,10,-1,12,-1,-1],"split_conditions":[2.00001E0,-1.7655092E-1,2.00001E0,-1.908433E-3,2.00001E0,-2.3822612E-4,2.00001E0,-5.3538247E-3,2.00001E0,-1.5489901E-3,2.00001E0,-3.6715455E-3,1.9109437E-4],"split_indices":[3,0,0,0,13,0,12,0,11,0,4,0,0],"split_type":[0,0,0,0,0,0,0,0,0,0,0,0,0],"sum_hessian":[1.8165796E6,1.4295372E0,1.8165781E6,1.5151066E4,1.8014271E6,6.1830794E5,1.1831191E6,1.9239802E3,1.1811951E6,1.5851647E4,1.1653435E6,3.0782183E3,1.1622652E6],"tree_param":{"num_deleted":"0","num_feature":"16","num_nodes":"13","size_leaf_vector":"0"}},{"base_weights":[-1.0070443E-6,-1.6355167E-1,-3.4728131E-7,-1.780121E-3,3.9588616E-5,1.0544432E-2,3.288909E-5,3.769478E-3,1.4466146E-5,-1.7156964E-3,4.789494E-5,-1.6678945E-4,1.09887435E-4],"categories":[],"categories_nodes":[],"categories_segments":[],"categories_sizes":[],"default_left":[0,0,0,0,0,0,0,0,0,0,0,0,0],"id":33,"left_children":[1,-1,3,-1,5,-1,7,-1,9,-1,11,-1,-1],"loss_changes":[6.533446E-1,0E0,4.304154E-1,0E0,4.2438874E-1,0E0,4.164914E-1,0E0,3.4524322E-1,0E0,3.443245E-1,0E0,0E0],"parents":[2147483647,0,0,2,2,4,4,6,6,8,8,10,10],"right_children":[2,-1,4,-1,6,-1,8,-1,10,-1,12,-1,-1],"split_conditions":[2.00001E0,-1.6355167E-1,2.00001E0,-1.780121E-3,2.00001E0,1.0544432E-2,2.00001E0,3.769478E-3,2.00001E0,-1.7156964E-3,2.00001E0,-1.6678945E-4,1.09887435E-4],"split_indices":[3,0,10,0,15,0,6,0,5,0,13,0,0],"split_type":[0,0,0,0,0,0,0,0,0,0,0,0,0],"sum_hessian":[1.8164411E6,1.198244E0,1.8164399E6,1.2143197E4,1.8042966E6,3.4323572E2,1.8039535E6,2.6470408E3,1.8013064E6,1.0440617E4,1.7908658E6,6.1827194E5,1.1725939E6],"tree_param":{"num_deleted":"0","num_feature":"16","num_nodes":"13","size_leaf_vector":"0"}},{"base_weights":[-7.191837E-7,-1.513203E-1,-1.589309E-7,-1.3712071E-3,3.8233266E-5,-3.7996715E-3,5.177034E-5,9.488158E-3,4.6419314E-5,5.020619E-3,3.6324665E-5,-2.610045E-3,1.5384308E-5],"categories":[],"categories_nodes":[],"categories_segments":[],"categories_sizes":[],"default_left":[0,0,0,0,0,0,0,0,0,0,0,0,0],"id":34,"left_children":[1,-1,3,-1,5,-1,7,-1,9,-1,11,-1,-1],"loss_changes":[5.132927E-1,0E0,3.1872445E-1,0E0,3.097652E-1,0E0,3.0401504E-1,0E0,3.0308005E-1,0E0,2.3492971E-1,0E0,0E0],"parents":[2147483647,0,0,2,2,4,4,6,6,8,8,10,10],"right_children":[2,-1,4,-1,6,-1,8,-1,10,-1,12,-1,-1],"split_conditions":[2.00001E0,-1.513203E-1,2.00001E0,-1.3712071E-3,2.00001E0,-3.7996715E-3,2.00001E0,9.488158E-3,2.00001E0,5.020619E-3,2.00001E0,-2.610045E-3,1.5384308E-5],"split_indices":[3,0,0,0,12,0,2,0,14,0,4,0,0],"split_type":[0,0,0,0,0,0,0,0,0,0,0,0,0],"sum_hessian":[1.8163751E6,1.017502E0,1.8163741E6,1.5129359E4,1.8012448E6,1.9163546E3,1.7993284E6,3.038759E2,1.7990245E6,1.0865153E3,1.797938E6,3.0717173E3,1.7948664E6],"tree_param":{"num_deleted":"0","num_feature":"16","num_nodes":"13","size_leaf_vector":"0"}},{"base_weights":[-7.7184467E-7,2.7468507E-4,-1.4274205E-4,2.1572695E-4,-3.1920942E-4,2.6293988E-3,-3.377025E-4,7.4343956E-3,-3.4430553E-4,2.6495038E-5,-7.3493767E-4,-1.2132956E-4,-1.1468342E-3],"categories":[],"categories_nodes":[],"categories_segments":[],"categories_sizes":[],"default_left":[0,0,0,0,0,0,0,0,0,0,0,0,0],"id":35,"left_children":[1,-1,3,-1,5,-1,7,-1,9,-1,11,-1,-1],"loss_changes":[2.3630686E-1,0E0,2.391848E-1,0E0,2.1929698E-1,0E0,2.1608591E-1,0E0,2.2010335E-1,0E0,6.984861E-1,0E0,0E0],"parents":[2147483647,0,0,2,2,4,4,6,6,8,8,10,10],"right_children":[2,-1,4,-1,6,-1,8,-1,10,-1,12,-1,-1],"split_conditions":[2.00001E0,2.7468507E-4,2.00001E0,2.1572695E-4,2.00001E0,2.6293988E-3,2.00001E0,7.4343956E-3,2.00001E0,2.6495038E-5,2.00001E0,-1.2132956E-4,-1.1468342E-3],"split_indices":[1,0,9,0,6,0,15,0,8,0,13,0,0],"split_type":[0,0,0,0,0,0,0,0,0,0,0,0,0],"sum_hessian":[1.8163474E6,2.4364742E5,1.5727E6,2.672926E5,1.3054074E6,2.651208E3,1.3027561E6,3.4137903E2,1.3024148E6,6.179928E5,6.8442194E5,6.1824906E5,6.617286E4],"tree_param":{"num_deleted":"0","num_feature":"16","num_nodes":"13","size_leaf_vector":"0"}},{"base_weights":[-5.068185E-7,3.8561288E-3,-8.214113E-6,7.0130248E-3,-1.2133452E-5,-1.3500556E-3,3.4786772E-6,-2.3279737E-3,1.1686835E-5,-9.0759346E-4,3.222529E-5,-7.8039576E-4,1.6694115E-5],"categories":[],"categories_nodes":[],"categories_segments":[],"categories_sizes":[],"default_left":[0,0,0,0,0,0,0,0,0,0,0,0,0],"id":36,"left_children":[1,-1,3,-1,5,-1,7,-1,9,-1,11,-1,-1],"loss_changes":[1.7994031E-1,0E0,1.6636772E-1,0E0,1.2716462E-1,0E0,1.1524865E-1,0E0,1.1269181E-1,0E0,1.1069132E-1,0E0,0E0],"parents":[2147483647,0,0,2,2,4,4,6,6,8,8,10,10],"right_children":[2,-1,4,-1,6,-1,8,-1,10,-1,12,-1,-1],"split_conditions":[2.00001E0,3.8561288E-3,2.00001E0,7.0130248E-3,2.00001E0,-1.3500556E-3,2.00001E0,-2.3279737E-3,2.00001E0,-9.0759346E-4,2.00001E0,-7.8039576E-4,1.6694115E-5],"split_indices":[14,0,2,0,7,0,12,0,10,0,11,0,0],"split_type":[0,0,0,0,0,0,0,0,0,0,0,0,0],"sum_hessian":[1.8162626E6,1.087362E3,1.8151752E6,3.031746E2,1.814872E6,6.29033E3,1.8085818E6,1.9091787E3,1.8066725E6,1.2135015E4,1.7945375E6,1.5818287E4,1.7787192E6],"tree_param":{"num_deleted":"0","num_feature":"16","num_nodes":"13","size_leaf_vector":"0"}},{"base_weights":[-4.0268748E-7,1.8724214E-4,-9.715939E-5,1.4598727E-4,-2.1670049E-4,1.8334574E-3,-2.295986E-4,5.229892E-3,-2.3422408E-4,2.697813E-3,-2.4194727E-4,1.358491E-5,-1.5052185E-4],"categories":[],"categories_nodes":[],"categories_segments":[],"categories_sizes":[],"default_left":[0,0,0,0,0,0,0,0,0,0,0,0,0],"id":37,"left_children":[1,-1,3,-1,5,-1,7,-1,9,-1,11,-1,-1],"loss_changes":[1.09753385E-1,0E0,1.0974647E-1,0E0,1.065446E-1,0E0,1.0642912E-1,0E0,9.280785E-2,0E0,9.709871E-2,0E0,0E0],"parents":[2147483647,0,0,2,2,4,4,6,6,8,8,10,10],"right_children":[2,-1,4,-1,6,-1,8,-1,10,-1,12,-1,-1],"split_conditions":[2.00001E0,1.8724214E-4,2.00001E0,1.4598727E-4,2.00001E0,1.8334574E-3,2.00001E0,5.229892E-3,2.00001E0,2.697813E-3,2.00001E0,1.358491E-5,-1.5052185E-4],"split_indices":[1,0,9,0,6,0,15,0,14,0,8,0,0],"split_type":[0,0,0,0,0,0,0,0,0,0,0,0,0],"sum_hessian":[1.816243E6,2.4363398E5,1.572609E6,2.672891E5,1.3053199E6,2.654116E3,1.3026658E6,3.4006653E2,1.3023258E6,1.0881979E3,1.3012375E6,6.179848E5,6.832527E5],"tree_param":{"num_deleted":"0","num_feature":"16","num_nodes":"13","size_leaf_vector":"0"}},{"base_weights":[-2.1637813E-7,4.9724435E-3,-2.9874755E-6,-8.244778E-4,1.2852412E-5,-1.4479073E-3,2.1083099E-5,-5.7783606E-4,3.753208E-5,-9.0048584E-4,4.826282E-5,-1.5884681E-3,1.6196624E-5],"categories":[],"categories_nodes":[],"categories_segments":[],"categories_sizes":[],"default_left":[0,0,0,0,0,0,0,0,0,0,0,0,0],"id":38,"left_children":[1,-1,3,-1,5,-1,7,-1,9,-1,11,-1,-1],"loss_changes":[8.342012E-2,0E0,7.8964114E-2,0E0,7.191258E-2,0E0,5.7730705E-2,0E0,5.8288902E-2,0E0,5.4490164E-2,0E0,0E0],"parents":[2147483647,0,0,2,2,4,4,6,6,8,8,10,10],"right_children":[2,-1,4,-1,6,-1,8,-1,10,-1,12,-1,-1],"split_conditions":[2.00001E0,4.9724435E-3,2.00001E0,-8.244778E-4,2.00001E0,-1.4479073E-3,2.00001E0,-5.7783606E-4,2.00001E0,-9.0048584E-4,2.00001E0,-1.5884681E-3,1.6196624E-5],"split_indices":[2,0,5,0,4,0,0,0,7,0,12,0,0],"split_type":[0,0,0,0,0,0,0,0,0,0,0,0,0],"sum_hessian":[1.8162024E6,3.0259152E2,1.8158999E6,1.0416426E4,1.8054834E6,3.0646174E3,1.8024188E6,1.5097402E4,1.7873214E6,6.2875493E3,1.7810339E6,1.9055895E3,1.7791282E6],"tree_param":{"num_deleted":"0","num_feature":"16","num_nodes":"13","size_leaf_vector":"0"}},{"base_weights":[-2.4014204E-7,3.6727749E-3,-2.5334525E-6,1.2627113E-4,-6.814787E-5,1.2775703E-3,-7.547262E-5,9.734062E-5,-1.5755922E-4,1.883152E-3,-1.6294837E-4,3.491563E-3,-4.9709564E-5],"categories":[],"categories_nodes":[],"categories_segments":[],"categories_sizes":[],"default_left":[0,0,0,0,0,0,0,0,0,0,0,0,0],"id":39,"left_children":[1,-1,3,-1,5,-1,7,-1,9,-1,11,-1,-1],"loss_changes":[5.099222E-2,0E0,5.045064E-2,0E0,4.9827218E-2,0E0,5.152848E-2,0E0,4.5161027E-2,0E0,4.2233273E-2,0E0,0E0],"parents":[2147483647,0,0,2,2,4,4,6,6,8,8,10,10],"right_children":[2,-1,4,-1,6,-1,8,-1,10,-1,12,-1,-1],"split_conditions":[2.00001E0,3.6727749E-3,2.00001E0,1.2627113E-4,2.00001E0,1.2775703E-3,2.00001E0,9.734062E-5,2.00001E0,1.883152E-3,2.00001E0,3.491563E-3,-4.9709564E-5],"split_indices":[15,0,1,0,6,0,9,0,14,0,2,0,0],"split_type":[0,0,0,0,0,0,0,0,0,0,0,0,0],"sum_hessian":[1.8161804E6,3.3914136E2,1.8158412E6,2.4362461E5,1.5722166E6,2.6561458E3,1.5695605E6,2.6728666E5,1.3022739E6,1.0887819E3,1.3011851E6,3.0216568E2,1.3008829E6],"tree_param":{"num_deleted":"0","num_feature":"16","num_nodes":"13","size_leaf_vector":"0"}},{"base_weights":[-1.00731654E-7,-5.8033847E-4,1.29086475E-5,-4.9165305E-4,2.7508993E-5,-5.627714E-4,3.8654704E-5,-9.998605E-4,4.4473247E-5,-6.156499E-4,5.192658E-5,-3.8984415E-4,1.90673E-5],"categories":[],"categories_nodes":[],"categories_segments":[],"categories_sizes":[],"default_left":[0,0,0,0,0,0,0,0,0,0,0,0,0],"id":40,"left_children":[1,-1,3,-1,5,-1,7,-1,9,-1,11,-1,-1],"loss_changes":[4.5703754E-2,0E0,4.3506615E-2,0E0,3.7937336E-2,0E0,3.4876402E-2,0E0,2.77343E-2,0E0,2.7797624E-2,0E0,0E0],"parents":[2147483647,0,0,2,2,4,4,6,6,8,8,10,10],"right_children":[2,-1,4,-1,6,-1,8,-1,10,-1,12,-1,-1],"split_conditions":[2.00001E0,-5.8033847E-4,2.00001E0,-4.9165305E-4,2.00001E0,-5.627714E-4,2.00001E0,-9.998605E-4,2.00001E0,-6.156499E-4,2.00001E0,-3.8984415E-4,1.90673E-5],"split_indices":[10,0,11,0,5,0,4,0,7,0,0,0,0],"split_type":[0,0,0,0,0,0,0,0,0,0,0,0,0],"sum_hessian":[1.8161738E6,1.2131937E4,1.8040418E6,1.5805786E4,1.788236E6,1.040934E4,1.7778266E6,3.061885E3,1.7747648E6,6.2857847E3,1.768479E6,1.5089845E4,1.7533891E6],"tree_param":{"num_deleted":"0","num_feature":"16","num_nodes":"13","size_leaf_vector":"0"}},{"base_weights":[-1.259371E-7,-1.104686E-3,3.7388809E-6,2.574443E-3,2.1334783E-6,8.8811043E-4,-2.2086354E-6,-4.0632937E-4,6.90926E-6,-3.4437038E-4,1.7140985E-5,-4.047007E-5,2.9344177E-5],"categories":[],"categories_nodes":[],"categories_segments":[],"categories_sizes":[],"default_left":[0,0,0,0,0,0,0,0,0,0,0,0,0],"id":41,"left_children":[1,-1,3,-1,5,-1,7,-1,9,-1,11,-1,-1],"loss_changes":[2.5845466E-2,0E0,2.4983507E-2,0E0,2.3299674E-2,0E0,2.233172E-2,0E0,2.1257922E-2,0E0,2.187357E-2,0E0,0E0],"parents":[2147483647,0,0,2,2,4,4,6,6,8,8,10,10],"right_children":[2,-1,4,-1,6,-1,8,-1,10,-1,12,-1,-1],"split_conditions":[2.00001E0,-1.104686E-3,2.00001E0,2.574443E-3,2.00001E0,8.8811043E-4,2.00001E0,-4.0632937E-4,2.00001E0,-3.4437038E-4,2.00001E0,-4.047007E-5,2.9344177E-5],"split_indices":[12,0,15,0,6,0,10,0,11,0,13,0,0],"split_type":[0,0,0,0,0,0,0,0,0,0,0,0,0],"sum_hessian":[1.8161518E6,1.9032473E3,1.8142485E6,3.3848972E2,1.81391E6,2.6575674E3,1.8112524E6,1.2130297E4,1.7991221E6,1.5799416E4,1.7833226E6,6.182083E5,1.1651144E6],"tree_param":{"num_deleted":"0","num_feature":"16","num_nodes":"13","size_leaf_vector":"0"}},{"base_weights":[-5.2753336E-8,1.303549E-3,-2.6626808E-6,2.4360716E-3,-4.0183036E-6,-4.0299818E-4,3.7057937E-6,-7.0930034E-4,7.73007E-6,7.3826384E-5,-2.954902E-5,5.3643977E-5,-2.18126E-5],"categories":[],"categories_nodes":[],"categories_segments":[],"categories_sizes":[],"default_left":[0,0,0,0,0,0,0,0,0,0,0,0,0],"id":42,"left_children":[1,-1,3,-1,5,-1,7,-1,9,-1,11,-1,-1],"loss_changes":[2.059623E-2,0E0,1.9986555E-2,0E0,1.8773425E-2,0E0,1.7194718E-2,0E0,1.6005732E-2,0E0,1.4007809E-2,0E0,0E0],"parents":[2147483647,0,0,2,2,4,4,6,6,8,8,10,10],"right_children":[2,-1,4,-1,6,-1,8,-1,10,-1,12,-1,-1],"split_conditions":[2.00001E0,1.303549E-3,2.00001E0,2.4360716E-3,2.00001E0,-4.0299818E-4,2.00001E0,-7.0930034E-4,2.00001E0,7.3826384E-5,2.00001E0,5.3643977E-5,-2.18126E-5],"split_indices":[14,0,2,0,5,0,4,0,1,0,9,0,0],"split_type":[0,0,0,0,0,0,0,0,0,0,0,0,0],"sum_hessian":[1.8161322E6,1.0891952E3,1.8150431E6,3.018608E2,1.8147412E6,1.0405018E4,1.8043362E6,3.060114E3,1.8012761E6,2.4361656E5,1.5576595E6,2.6728447E5,1.2903751E6],"tree_param":{"num_deleted":"0","num_feature":"16","num_nodes":"13","size_leaf_vector":"0"}},{"base_weights":[-1.1851868E-7,-4.3333773E-4,4.8977404E-6,-2.7526877E-4,1.2651699E-5,-7.67707E-4,1.5380814E-5,1.8137725E-3,1.4240183E-5,6.281054E-4,1.1150366E-5,-2.7794676E-4,5.2644655E-6],"categories":[],"categories_nodes":[],"categories_segments":[],"categories_sizes":[],"default_left":[0,0,0,0,0,0,0,0,0,0,0,0,0],"id":43,"left_children":[1,-1,3,-1,5,-1,7,-1,9,-1,11,-1,-1],"loss_changes":[1.315817E-2,0E0,1.2945288E-2,0E0,1.2596343E-2,0E0,1.2332249E-2,0E0,1.1517073E-2,0E0,1.073715E-2,0E0,0E0],"parents":[2147483647,0,0,2,2,4,4,6,6,8,8,10,10],"right_children":[2,-1,4,-1,6,-1,8,-1,10,-1,12,-1,-1],"split_conditions":[2.00001E0,-4.3333773E-4,2.00001E0,-2.7526877E-4,2.00001E0,-7.67707E-4,2.00001E0,1.8137725E-3,2.00001E0,6.281054E-4,2.00001E0,-2.7794676E-4,5.2644655E-6],"split_indices":[7,0,0,0,12,0,15,0,6,0,10,0,0],"split_type":[0,0,0,0,0,0,0,0,0,0,0,0,0],"sum_hessian":[1.8161236E6,6.284655E3,1.809839E6,1.5085243E4,1.7947538E6,1.9016187E3,1.7928521E6,3.380389E2,1.7925141E6,2.6585166E3,1.7898556E6,1.2129087E4,1.7777265E6],"tree_param":{"num_deleted":"0","num_feature":"16","num_nodes":"13","size_leaf_vector":"0"}},{"base_weights":[6.3694806E-8,9.110234E-4,-1.7607513E-6,-2.3622983E-4,5.136779E-6,1.7075262E-3,4.180068E-6,-2.837927E-4,9.706542E-6,-4.984218E-4,1.2570385E-5,-2.3353568E-5,1.8136652E-5],"categories":[],"categories_nodes":[],"categories_segments":[],"categories_sizes":[],"default_left":[0,0,0,0,0,0,0,0,0,0,0,0,0],"id":44,"left_children":[1,-1,3,-1,5,-1,7,-1,9,-1,11,-1,-1],"loss_changes":[1.0061776E-2,0E0,9.836002E-3,0E0,9.788616E-3,0E0,9.446225E-3,0E0,8.559574E-3,0E0,7.730318E-3,0E0,0E0],"parents":[2147483647,0,0,2,2,4,4,6,6,8,8,10,10],"right_children":[2,-1,4,-1,6,-1,8,-1,10,-1,12,-1,-1],"split_conditions":[2.00001E0,9.110234E-4,2.00001E0,-2.3622983E-4,2.00001E0,1.7075262E-3,2.00001E0,-2.837927E-4,2.00001E0,-4.984218E-4,2.00001E0,-2.3353568E-5,1.8136652E-5],"split_indices":[14,0,11,0,2,0,5,0,4,0,13,0,0],"split_type":[0,0,0,0,0,0,0,0,0,0,0,0,0],"sum_hessian":[1.8161176E6,1.0894744E3,1.8150282E6,1.5794742E4,1.7992335E6,3.016497E2,1.7989318E6,1.0401795E4,1.78853E6,3.0588298E3,1.7854711E6,6.181997E5,1.1672715E6],"tree_param":{"num_deleted":"0","num_feature":"16","num_nodes":"13","size_leaf_vector":"0"}},{"base_weights":[5.0836938E-8,-3.0887136E-4,3.6263584E-6,-1.9816826E-4,9.208246E-6,-5.432964E-4,1.11387935E-5,1.2673932E-3,1.0342593E-5,-2.000346E-4,1.4955713E-5,4.341293E-4,3.843781E-6],"categories":[],"categories_nodes":[],"categories_segments":[],"categories_sizes":[],"default_left":[0,0,0,0,0,0,0,0,0,0,0,0,0],"id":45,"left_children":[1,-1,3,-1,5,-1,7,-1,9,-1,11,-1,-1],"loss_changes":[6.6858768E-3,0E0,6.7097703E-3,0E0,6.3066846E-3,0E0,6.014562E-3,0E0,5.599167E-3,0E0,5.4643657E-3,0E0,0E0],"parents":[2147483647,0,0,2,2,4,4,6,6,8,8,10,10],"right_children":[2,-1,4,-1,6,-1,8,-1,10,-1,12,-1,-1],"split_conditions":[2.00001E0,-3.0887136E-4,2.00001E0,-1.9816826E-4,2.00001E0,-5.432964E-4,2.00001E0,1.2673932E-3,2.00001E0,-2.000346E-4,2.00001E0,4.341293E-4,3.843781E-6],"split_indices":[7,0,0,0,12,0,15,0,10,0,6,0,0],"split_type":[0,0,0,0,0,0,0,0,0,0,0,0,0],"sum_hessian":[1.8161038E6,6.2838823E3,1.8098199E6,1.5082148E4,1.7947378E6,1.9005354E3,1.7928372E6,3.3771536E2,1.7924995E6,1.2128352E4,1.7803711E6,2.6592246E3,1.7777119E6],"tree_param":{"num_deleted":"0","num_feature":"16","num_nodes":"13","size_leaf_vector":"0"}},{"base_weights":[-8.8326246E-8,4.3485477E-5,-2.2558183E-5,6.366442E-4,-2.4046754E-5,1.196576E-3,-2.4819337E-5,2.9319921E-5,-4.9942784E-5,3.429757E-6,-1.05245585E-4,-1.7548218E-5,-1.5976146E-4],"categories":[],"categories_nodes":[],"categories_segments":[],"categories_sizes":[],"default_left":[0,0,0,0,0,0,0,0,0,0,0,0,0],"id":46,"left_children":[1,-1,3,-1,5,-1,7,-1,9,-1,11,-1,-1],"loss_changes":[5.9187217E-3,0E0,5.020298E-3,0E0,4.8715803E-3,0E0,4.8373174E-3,0E0,4.425441E-3,0E0,1.3700619E-2,0E0,0E0],"parents":[2147483647,0,0,2,2,4,4,6,6,8,8,10,10],"right_children":[2,-1,4,-1,6,-1,8,-1,10,-1,12,-1,-1],"split_conditions":[2.00001E0,4.3485477E-5,2.00001E0,6.366442E-4,2.00001E0,1.196576E-3,2.00001E0,2.9319921E-5,2.00001E0,3.429757E-6,2.00001E0,-1.7548218E-5,-1.5976146E-4],"split_indices":[1,0,14,0,2,0,9,0,8,0,13,0,0],"split_type":[0,0,0,0,0,0,0,0,0,0,0,0,0],"sum_hessian":[1.8160994E6,2.4361189E5,1.5724875E6,1.089669E3,1.5713979E6,3.0150134E2,1.5710962E6,2.6728325E5,1.3038131E6,6.179785E5,6.8583456E5,6.181967E5,6.763786E4],"tree_param":{"num_deleted":"0","num_feature":"16","num_nodes":"13","size_leaf_vector":"0"}},{"base_weights":[-5.3124253E-8,3.5180926E-4,-1.7736952E-6,9.3673036E-4,-2.3570108E-6,-3.02346E-4,-6.5795496E-7,3.050307E-5,-1.6573118E-5,-1.5200973E-4,-1.3297495E-5,4.4578008E-4,-4.3047644E-6],"categories":[],"categories_nodes":[],"categories_segments":[],"categories_sizes":[],"default_left":[0,0,0,0,0,0,0,0,0,0,0,0,0],"id":47,"left_children":[1,-1,3,-1,5,-1,7,-1,9,-1,11,-1,-1],"loss_changes":[3.6645057E-3,0E0,3.304798E-3,0E0,3.09737E-3,0E0,2.9479591E-3,0E0,2.514835E-3,0E0,2.4535134E-3,0E0,0E0],"parents":[2147483647,0,0,2,2,4,4,6,6,8,8,10,10],"right_children":[2,-1,4,-1,6,-1,8,-1,10,-1,12,-1,-1],"split_conditions":[2.00001E0,3.5180926E-4,2.00001E0,9.3673036E-4,2.00001E0,-3.02346E-4,2.00001E0,3.050307E-5,2.00001E0,-1.5200973E-4,2.00001E0,4.4578008E-4,-4.3047644E-6],"split_indices":[6,0,15,0,4,0,1,0,5,0,14,0,0],"split_type":[0,0,0,0,0,0,0,0,0,0,0,0,0],"sum_hessian":[1.816087E6,2.6595247E3,1.8134274E6,3.3751962E2,1.8130899E6,3.0576362E3,1.8100322E6,2.4360989E5,1.5664224E6,1.0398234E4,1.5560241E6,1.0898042E3,1.5549344E6],"tree_param":{"num_deleted":"0","num_feature":"16","num_nodes":"13","size_leaf_vector":"0"}},{"base_weights":[8.96082E-8,-1.1733962E-4,3.5210596E-6,8.4038504E-4,3.0510357E-6,-3.314427E-4,4.221997E-6,-1.6702538E-4,6.189365E-6,2.462838E-4,4.9776177E-6,6.569423E-4,1.3693065E-6],"categories":[],"categories_nodes":[],"categories_segments":[],"categories_sizes":[],"default_left":[0,0,0,0,0,0,0,0,0,0,0,0,0],"id":48,"left_children":[1,-1,3,-1,5,-1,7,-1,9,-1,11,-1,-1],"loss_changes":[2.4380197E-3,0E0,2.3674078E-3,0E0,2.3350676E-3,0E0,1.9844545E-3,0E0,1.7690148E-3,0E0,1.6154326E-3,0E0,0E0],"parents":[2147483647,0,0,2,2,4,4,6,6,8,8,10,10],"right_children":[2,-1,4,-1,6,-1,8,-1,10,-1,12,-1,-1],"split_conditions":[2.00001E0,-1.1733962E-4,2.00001E0,8.4038504E-4,2.00001E0,-3.314427E-4,2.00001E0,-1.6702538E-4,2.00001E0,2.462838E-4,2.00001E0,6.569423E-4,1.3693065E-6],"split_indices":[11,0,2,0,12,0,7,0,6,0,15,0,0],"split_type":[0,0,0,0,0,0,0,0,0,0,0,0,0],"sum_hessian":[1.8160842E6,1.5789605E4,1.8002946E6,3.0139774E2,1.7999932E6,1.8995137E3,1.7980938E6,6.283002E3,1.7918108E6,2.6599102E3,1.7891508E6,3.373541E2,1.7888135E6],"tree_param":{"num_deleted":"0","num_feature":"16","num_nodes":"13","size_leaf_vector":"0"}},{"base_weights":[6.919171E-9,2.142711E-5,-1.2317816E-5,2.0933045E-5,-2.7640479E-5,3.272311E-6,-6.230505E-5,-1.1357366E-5,-2.8127266E-4,1.724124E-4,-3.1559542E-4,3.117069E-4,-1.0146941E-4],"categories":[],"categories_nodes":[],"categories_segments":[],"categories_sizes":[],"default_left":[0,0,0,0,0,0,0,0,0,0,0,0,0],"id":49,"left_children":[1,-1,3,-1,5,-1,7,-1,9,-1,11,-1,-1],"loss_changes":[1.5985041E-3,0E0,1.9482506E-3,0E0,1.7440711E-3,0E0,3.6787365E-3,0E0,2.0279498E-3,0E0,2.035134E-3,0E0,0E0],"parents":[2147483647,0,0,2,2,4,4,6,6,8,8,10,10],"right_children":[2,-1,4,-1,6,-1,8,-1,10,-1,12,-1,-1],"split_conditions":[2.00001E0,2.142711E-5,2.00001E0,2.0933045E-5,2.00001E0,3.272311E-6,2.00001E0,-1.1357366E-5,2.00001E0,1.724124E-4,2.00001E0,3.117069E-4,-1.0146941E-4],"split_indices":[9,0,1,0,8,0,13,0,6,0,14,0,0],"split_type":[0,0,0,0,0,0,0,0,0,0,0,0,0],"sum_hessian":[1.8160819E6,2.6728284E5,1.5487991E6,2.436084E5,1.3051906E6,6.1797844E5,6.8721225E5,6.181937E5,6.901856E4,2.6601797E3,6.635838E4,1.089899E3,6.526848E4],"tree_param":{"num_deleted":"0","num_feature":"16","num_nodes":"13","size_leaf_vector":"0"}},{"base_weights":[-2.041705E-8,6.1960437E-4,-3.6430893E-7,-1.8168308E-4,6.566904E-7,4.909618E-4,3.5137492E-7,-2.0173968E-4,1.0574175E-6,1.4969339E-5,-7.4017858E-6,1.462715E-5,-5.3786343E-6],"categories":[],"categories_nodes":[],"categories_segments":[],"categories_sizes":[],"default_left":[0,0,0,0,0,0,0,0,0,0,0,0,0],"id":50,"left_children":[1,-1,3,-1,5,-1,7,-1,9,-1,11,-1,-1],"loss_changes":[1.2898925E-3,0E0,1.1220683E-3,0E0,9.0537954E-4,0E0,8.60949E-4,0E0,7.480018E-4,0E0,9.1231667E-4,0E0,0E0],"parents":[2147483647,0,0,2,2,4,4,6,6,8,8,10,10],"right_children":[2,-1,4,-1,6,-1,8,-1,10,-1,12,-1,-1],"split_conditions":[2.00001E0,6.1960437E-4,2.00001E0,-1.8168308E-4,2.00001E0,4.909618E-4,2.00001E0,-2.0173968E-4,2.00001E0,1.4969339E-5,2.00001E0,1.462715E-5,-5.3786343E-6],"split_indices":[2,0,4,0,15,0,12,0,9,0,1,0,0],"split_type":[0,0,0,0,0,0,0,0,0,0,0,0,0],"sum_hessian":[1.8160744E6,3.013335E2,1.815773E6,3.0569019E3,1.8127161E6,3.3725592E2,1.8123789E6,1.8988885E3,1.81048E6,2.6728253E5,1.5431975E6,2.4360745E5,1.29959E6],"tree_param":{"num_deleted":"0","num_feature":"16","num_nodes":"13","size_leaf_vector":"0"}},{"base_weights":[1.1745656E-8,-7.4707415E-5,1.4457054E-6,4.344215E-4,1.2034917E-6,2.1989668E-4,7.6101605E-7,-5.7876918E-5,2.3931748E-6,-1.2723716E-4,3.1232933E-6,-6.3363377E-6,4.786695E-6],"categories":[],"categories_nodes":[],"categories_segments":[],"categories_sizes":[],"default_left":[0,0,0,0,0,0,0,0,0,0,0,0,0],"id":51,"left_children":[1,-1,3,-1,5,-1,7,-1,9,-1,11,-1,-1],"loss_changes":[6.485353E-4,0E0,6.326942E-4,0E0,5.845752E-4,0E0,5.7037716E-4,0E0,5.571754E-4,0E0,5.5569585E-4,0E0,0E0],"parents":[2147483647,0,0,2,2,4,4,6,6,8,8,10,10],"right_children":[2,-1,4,-1,6,-1,8,-1,10,-1,12,-1,-1],"split_conditions":[2.00001E0,-7.4707415E-5,2.00001E0,4.344215E-4,2.00001E0,2.1989668E-4,2.00001E0,-5.7876918E-5,2.00001E0,-1.2723716E-4,2.00001E0,-6.3363377E-6,4.786695E-6],"split_indices":[5,0,2,0,14,0,0,0,4,0,13,0,0],"split_type":[0,0,0,0,0,0,0,0,0,0,0,0,0],"sum_hessian":[1.8160728E6,1.0396147E4,1.8056765E6,3.0127954E2,1.8053752E6,1.0899639E3,1.8042852E6,1.507652E4,1.7892088E6,3.05657E3,1.7861522E6,6.181911E5,1.1679611E6],"tree_param":{"num_deleted":"0","num_feature":"16","num_nodes":"13","size_leaf_vector":"0"}},{"base_weights":[3.679709E-8,-8.633948E-5,1.0361475E-6,-6.0590613E-5,2.4057329E-6,-5.149006E-5,3.9477545E-6,3.4277485E-4,3.7316186E-6,-1.4271346E-4,4.243379E-6,1.2087943E-4,1.0938793E-6],"categories":[],"categories_nodes":[],"categories_segments":[],"categories_sizes":[],"default_left":[0,0,0,0,0,0,0,0,0,0,0,0,0],"id":52,"left_children":[1,-1,3,-1,5,-1,7,-1,9,-1,11,-1,-1],"loss_changes":[5.2238937E-4,0E0,5.031802E-4,0E0,4.8244296E-4,0E0,4.385148E-4,0E0,4.3711992E-4,0E0,4.2366365E-4,0E0,0E0],"parents":[2147483647,0,0,2,2,4,4,6,6,8,8,10,10],"right_children":[2,-1,4,-1,6,-1,8,-1,10,-1,12,-1,-1],"split_conditions":[2.00001E0,-8.633948E-5,2.00001E0,-6.0590613E-5,2.00001E0,-5.149006E-5,2.00001E0,3.4277485E-4,2.00001E0,-1.4271346E-4,2.00001E0,1.2087943E-4,1.0938793E-6],"split_indices":[7,0,10,0,11,0,15,0,12,0,6,0,0],"split_type":[0,0,0,0,0,0,0,0,0,0,0,0,0],"sum_hessian":[1.8160691E6,6.282502E3,1.8097866E6,1.2127036E4,1.7976595E6,1.5786762E4,1.7818728E6,3.3716824E2,1.7815356E6,1.8986041E3,1.779637E6,2.6603674E3,1.7769766E6],"tree_param":{"num_deleted":"0","num_feature":"16","num_nodes":"13","size_leaf_vector":"0"}},{"base_weights":[6.5281767E-9,-5.2678824E-5,1.0175979E-6,3.043186E-4,8.4794533E-7,-4.085176E-5,2.0018517E-6,-4.7674635E-6,1.1439172E-5,-8.941543E-5,1.22485535E-5,-4.2436463E-5,4.1579387E-6],"categories":[],"categories_nodes":[],"categories_segments":[],"categories_sizes":[],"default_left":[0,0,0,0,0,0,0,0,0,0,0,0,0],"id":53,"left_children":[1,-1,3,-1,5,-1,7,-1,9,-1,11,-1,-1],"loss_changes":[3.2243677E-4,0E0,3.1043426E-4,0E0,2.854455E-4,0E0,3.0231985E-4,0E0,2.9361135E-4,0E0,2.8952103E-4,0E0,0E0],"parents":[2147483647,0,0,2,2,4,4,6,6,8,8,10,10],"right_children":[2,-1,4,-1,6,-1,8,-1,10,-1,12,-1,-1],"split_conditions":[2.00001E0,-5.2678824E-5,2.00001E0,3.043186E-4,2.00001E0,-4.085176E-5,2.00001E0,-4.7674635E-6,2.00001E0,-8.941543E-5,2.00001E0,-4.2436463E-5,4.1579387E-6],"split_indices":[5,0,2,0,0,0,13,0,4,0,10,0,0],"split_type":[0,0,0,0,0,0,0,0,0,0,0,0,0],"sum_hessian":[1.8160679E6,1.0395552E4,1.8056724E6,3.012416E2,1.8053711E6,1.5075835E4,1.7902952E6,6.181903E5,1.172105E6,3.0563403E3,1.1690486E6,1.2126865E4,1.1569218E6],"tree_param":{"num_deleted":"0","num_feature":"16","num_nodes":"13","size_leaf_vector":"0"}},{"base_weights":[-1.0864858E-8,1.5238299E-4,-3.1620436E-7,-6.169857E-5,3.971608E-7,-3.7238537E-5,1.4936501E-6,-1.01205085E-4,1.8530006E-6,2.3905722E-4,1.7028902E-6,8.335208E-5,3.875554E-7],"categories":[],"categories_nodes":[],"categories_segments":[],"categories_sizes":[],"default_left":[0,0,0,0,0,0,0,0,0,0,0,0,0],"id":54,"left_children":[1,-1,3,-1,5,-1,7,-1,9,-1,11,-1,-1],"loss_changes":[2.8166923E-4,0E0,2.6586952E-4,0E0,2.4696102E-4,0E0,2.1831175E-4,0E0,2.1373473E-4,0E0,2.032467E-4,0E0,0E0],"parents":[2147483647,0,0,2,2,4,4,6,6,8,8,10,10],"right_children":[2,-1,4,-1,6,-1,8,-1,10,-1,12,-1,-1],"split_conditions":[2.00001E0,1.5238299E-4,2.00001E0,-6.169857E-5,2.00001E0,-3.7238537E-5,2.00001E0,-1.01205085E-4,2.00001E0,2.3905722E-4,2.00001E0,8.335208E-5,3.875554E-7],"split_indices":[14,0,7,0,11,0,12,0,15,0,6,0,0],"split_type":[0,0,0,0,0,0,0,0,0,0,0,0,0],"sum_hessian":[1.816065E6,1.0900116E3,1.814975E6,6.282349E3,1.8086926E6,1.5786147E4,1.7929065E6,1.8984043E3,1.7910081E6,3.3710693E2,1.790671E6,2.6605044E3,1.7880105E6],"tree_param":{"num_deleted":"0","num_feature":"16","num_nodes":"13","size_leaf_vector":"0"}},{"base_weights":[-6.6415794E-8,7.3635E-6,-4.3137607E-6,7.060012E-6,-9.51134E-6,7.5317035E-7,-2.0322257E-5,-3.4454238E-6,-9.948788E-5,5.8363E-5,-1.11281326E-4,1.0670877E-4,-3.5726036E-5],"categories":[],"categories_nodes":[],"categories_segments":[],"categories_sizes":[],"default_left":[0,0,0,0,0,0,0,0,0,0,0,0,0],"id":55,"left_children":[1,-1,3,-1,5,-1,7,-1,9,-1,11,-1,-1],"loss_changes":[1.8983916E-4,0E0,2.2416752E-4,0E0,1.696311E-4,0E0,4.8078265E-4,0E0,2.3932493E-4,0E0,2.4188502E-4,0E0,0E0],"parents":[2147483647,0,0,2,2,4,4,6,6,8,8,10,10],"right_children":[2,-1,4,-1,6,-1,8,-1,10,-1,12,-1,-1],"split_conditions":[2.00001E0,7.3635E-6,2.00001E0,7.060012E-6,2.00001E0,7.5317035E-7,2.00001E0,-3.4454238E-6,2.00001E0,5.8363E-5,2.00001E0,1.0670877E-4,-3.5726036E-5],"split_indices":[9,0,1,0,8,0,13,0,6,0,14,0,0],"split_type":[0,0,0,0,0,0,0,0,0,0,0,0,0],"sum_hessian":[1.8160644E6,2.6728216E5,1.5487821E6,2.4360628E5,1.3051759E6,6.179768E5,6.8719906E5,6.181897E5,6.900935E4,2.6605957E3,6.634876E4,1.0900438E3,6.5258715E4],"tree_param":{"num_deleted":"0","num_feature":"16","num_nodes":"13","size_leaf_vector":"0"}},{"base_weights":[5.7283984E-8,2.2389201E-4,-6.692295E-8,1.7828385E-4,-1.7760297E-7,5.2109E-6,-3.2070961E-6,4.9827463E-6,-6.907547E-6,5.957237E-7,-1.4912456E-5,-2.4327524E-6,-2.2927728E-5],"categories":[],"categories_nodes":[],"categories_segments":[],"categories_sizes":[],"default_left":[0,0,0,0,0,0,0,0,0,0,0,0,0],"id":56,"left_children":[1,-1,3,-1,5,-1,7,-1,9,-1,11,-1,-1],"loss_changes":[1.6832972E-4,0E0,1.1944502E-4,0E0,9.650682E-5,0E0,1.13523936E-4,0E0,9.2869996E-5,0E0,2.8731942E-4,0E0,0E0],"parents":[2147483647,0,0,2,2,4,4,6,6,8,8,10,10],"right_children":[2,-1,4,-1,6,-1,8,-1,10,-1,12,-1,-1],"split_conditions":[2.00001E0,2.2389201E-4,2.00001E0,1.7828385E-4,2.00001E0,5.2109E-6,2.00001E0,4.9827463E-6,2.00001E0,5.957237E-7,2.00001E0,-2.4327524E-6,-2.2927728E-5],"split_indices":[2,0,15,0,9,0,1,0,8,0,13,0,0],"split_type":[0,0,0,0,0,0,0,0,0,0,0,0,0],"sum_hessian":[1.8160619E6,3.0121817E2,1.8157606E6,3.3707098E2,1.8154235E6,2.6728203E5,1.5481415E6,2.4360595E5,1.3045355E6,6.179767E5,6.865589E5,6.181891E5,6.8369695E4],"tree_param":{"num_deleted":"0","num_feature":"16","num_nodes":"13","size_leaf_vector":"0"}},{"base_weights":[3.689702E-9,1.5683439E-4,-8.331667E-8,8.1607664E-5,-2.469208E-7,-4.51016E-5,6.3568977E-9,4.7721882E-5,-2.2768849E-7,-5.326357E-5,-4.133168E-8,1.2487524E-4,-3.576615E-8],"categories":[],"categories_nodes":[],"categories_segments":[],"categories_sizes":[],"default_left":[0,0,0,0,0,0,0,0,0,0,0,0,0],"id":57,"left_children":[1,-1,3,-1,5,-1,7,-1,9,-1,11,-1,-1],"loss_changes":[8.260355E-5,0E0,8.0834296E-5,0E0,6.898447E-5,0E0,6.744424E-5,0E0,5.9775637E-5,0E0,5.8592886E-5,0E0,0E0],"parents":[2147483647,0,0,2,2,4,4,6,6,8,8,10,10],"right_children":[2,-1,4,-1,6,-1,8,-1,10,-1,12,-1,-1],"split_conditions":[2.00001E0,1.5683439E-4,2.00001E0,8.1607664E-5,2.00001E0,-4.51016E-5,2.00001E0,4.7721882E-5,2.00001E0,-5.326357E-5,2.00001E0,1.2487524E-4,-3.576615E-8],"split_indices":[2,0,14,0,4,0,6,0,12,0,15,0,0],"split_type":[0,0,0,0,0,0,0,0,0,0,0,0,0],"sum_hessian":[1.81606E6,3.011986E2,1.8157588E6,1.0900616E3,1.8146688E6,3.0560706E3,1.8116126E6,2.6606345E3,1.808952E6,1.8981733E3,1.8070539E6,3.3703943E2,1.8067168E6],"tree_param":{"num_deleted":"0","num_feature":"16","num_nodes":"13","size_leaf_vector":"0"}},{"base_weights":[-3.229365E-8,3.6323256E-6,-2.127381E-6,3.4989812E-6,-4.7013637E-6,1.09997825E-4,-4.787361E-6,3.5955347E-7,-1.0172649E-5,-1.671982E-6,-5.15555E-5,3.3406E-5,-1.743601E-5],"categories":[],"categories_nodes":[],"categories_segments":[],"categories_sizes":[],"default_left":[0,0,0,0,0,0,0,0,0,0,0,0,0],"id":58,"left_children":[1,-1,3,-1,5,-1,7,-1,9,-1,11,-1,-1],"loss_changes":[4.6190547E-5,0E0,5.4976903E-5,0E0,4.1683605E-5,0E0,4.206341E-5,0E0,1.3074015E-4,0E0,7.348272E-5,0E0,0E0],"parents":[2147483647,0,0,2,2,4,4,6,6,8,8,10,10],"right_children":[2,-1,4,-1,6,-1,8,-1,10,-1,12,-1,-1],"split_conditions":[2.00001E0,3.6323256E-6,2.00001E0,3.4989812E-6,2.00001E0,1.09997825E-4,2.00001E0,3.5955347E-7,2.00001E0,-1.671982E-6,2.00001E0,3.3406E-5,-1.743601E-5],"split_indices":[9,0,1,0,2,0,8,0,13,0,6,0,0],"split_type":[0,0,0,0,0,0,0,0,0,0,0,0,0],"sum_hessian":[1.8160599E6,2.6728194E5,1.5487779E6,2.4360573E5,1.3051721E6,3.0118494E2,1.304871E6,6.1797656E5,6.8689444E5,6.1818875E5,6.870566E4,2.6606868E3,6.604497E4],"tree_param":{"num_deleted":"0","num_feature":"16","num_nodes":"13","size_leaf_vector":"0"}},{"base_weights":[-3.0531655E-8,6.235177E-5,-1.5549325E-7,9.280559E-5,-2.1314663E-7,-2.0329617E-5,2.1562945E-8,-2.6418631E-5,1.7071753E-7,-1.4213643E-5,4.461098E-7,-3.2088097E-5,1.6796096E-7],"categories":[],"categories_nodes":[],"categories_segments":[],"categories_sizes":[],"default_left":[0,0,0,0,0,0,0,0,0,0,0,0,0],"id":59,"left_children":[1,-1,3,-1,5,-1,7,-1,9,-1,11,-1,-1],"loss_changes":[4.7173522E-5,0E0,3.2386655E-5,0E0,2.8771286E-5,0E0,2.3758274E-5,0E0,2.3639941E-5,0E0,2.1931159E-5,0E0,0E0],"parents":[2147483647,0,0,2,2,4,4,6,6,8,8,10,10],"right_children":[2,-1,4,-1,6,-1,8,-1,10,-1,12,-1,-1],"split_conditions":[2.00001E0,6.235177E-5,2.00001E0,9.280559E-5,2.00001E0,-2.0329617E-5,2.00001E0,-2.6418631E-5,2.00001E0,-1.4213643E-5,2.00001E0,-3.2088097E-5,1.6796096E-7],"split_indices":[14,0,15,0,7,0,4,0,5,0,12,0,0],"split_type":[0,0,0,0,0,0,0,0,0,0,0,0,0],"sum_hessian":[1.8160588E6,1.0900752E3,1.8149686E6,3.3702048E2,1.8146316E6,6.2820923E3,1.8083495E6,3.0559568E3,1.8052935E6,1.0394514E4,1.794899E6,1.8980712E3,1.793001E6],"tree_param":{"num_deleted":"0","num_feature":"16","num_nodes":"13","size_leaf_vector":"0"}},{"base_weights":[-1.5908393E-8,4.368267E-5,-1.034523E-7,2.484271E-6,-1.5514157E-6,2.3861555E-6,-3.3270283E-6,7.708521E-5,-3.3873498E-6,2.0210665E-7,-7.0467427E-6,-1.2155194E-6,-1.032874E-5],"categories":[],"categories_nodes":[],"categories_segments":[],"categories_sizes":[],"default_left":[0,0,0,0,0,0,0,0,0,0,0,0,0],"id":60,"left_children":[1,-1,3,-1,5,-1,7,-1,9,-1,11,-1,-1],"loss_changes":[2.3152164E-5,0E0,2.2034174E-5,0E0,2.6121385E-5,0E0,2.047545E-5,0E0,1.9375404E-5,0E0,5.6243058E-5,0E0,0E0],"parents":[2147483647,0,0,2,2,4,4,6,6,8,8,10,10],"right_children":[2,-1,4,-1,6,-1,8,-1,10,-1,12,-1,-1],"split_conditions":[2.00001E0,4.368267E-5,2.00001E0,2.484271E-6,2.00001E0,2.3861555E-6,2.00001E0,7.708521E-5,2.00001E0,2.0210665E-7,2.00001E0,-1.2155194E-6,-1.032874E-5],"split_indices":[14,0,9,0,1,0,2,0,8,0,13,0,0],"split_type":[0,0,0,0,0,0,0,0,0,0,0,0,0],"sum_hessian":[1.8160584E6,1.0900883E3,1.8149682E6,2.672819E5,1.5476864E6,2.4360556E5,1.3040808E6,3.0117535E2,1.3037796E6,6.1797644E5,6.858032E5,6.181885E5,6.761464E4],"tree_param":{"num_deleted":"0","num_feature":"16","num_nodes":"13","size_leaf_vector":"0"}},{"base_weights":[-8.0463725E-9,2.6491249E-5,-1.3767135E-7,6.811148E-5,-1.8002329E-7,1.7667365E-6,-1.2294477E-6,1.7184594E-6,-2.5310608E-6,3.05689E-5,-2.6186324E-6,1.233832E-7,-1.6078972E-6],"categories":[],"categories_nodes":[],"categories_segments":[],"categories_sizes":[],"default_left":[0,0,0,0,0,0,0,0,0,0,0,0,0],"id":61,"left_children":[1,-1,3,-1,5,-1,7,-1,9,-1,11,-1,-1],"loss_changes":[2.0789283E-5,0E0,1.7447366E-5,0E0,1.1547589E-5,0E0,1.39988415E-5,0E0,1.1908477E-5,0E0,1.0805574E-5,0E0,0E0],"parents":[2147483647,0,0,2,2,4,4,6,6,8,8,10,10],"right_children":[2,-1,4,-1,6,-1,8,-1,10,-1,12,-1,-1],"split_conditions":[2.00001E0,2.6491249E-5,2.00001E0,6.811148E-5,2.00001E0,1.7667365E-6,2.00001E0,1.7184594E-6,2.00001E0,3.05689E-5,2.00001E0,1.233832E-7,-1.6078972E-6],"split_indices":[6,0,15,0,9,0,1,0,14,0,8,0,0],"split_type":[0,0,0,0,0,0,0,0,0,0,0,0,0],"sum_hessian":[1.8160576E6,2.6607122E3,1.8133969E6,3.3700586E2,1.8130599E6,2.6728188E5,1.545778E6,2.4360545E5,1.3021726E6,1.0900977E3,1.3010825E6,6.1797644E5,6.8310606E5],"tree_param":{"num_deleted":"0","num_feature":"16","num_nodes":"13","size_leaf_vector":"0"}},{"base_weights":[1.3746087E-8,1.851867E-5,-7.684066E-8,5.45198E-5,-1.071408E-7,4.774462E-5,-1.3683442E-7,-1.0660715E-5,-1.3715005E-8,-1.8898101E-5,5.2560516E-8,-1.4866014E-5,4.1020066E-8],"categories":[],"categories_nodes":[],"categories_segments":[],"categories_sizes":[],"default_left":[0,0,0,0,0,0,0,0,0,0,0,0,0],"id":62,"left_children":[1,-1,3,-1,5,-1,7,-1,9,-1,11,-1,-1],"loss_changes":[1.0152814E-5,0E0,9.9897625E-6,0E0,8.573943E-6,0E0,7.900529E-6,0E0,7.5402927E-6,0E0,7.5349953E-6,0E0,0E0],"parents":[2147483647,0,0,2,2,4,4,6,6,8,8,10,10],"right_children":[2,-1,4,-1,6,-1,8,-1,10,-1,12,-1,-1],"split_conditions":[2.00001E0,1.851867E-5,2.00001E0,5.45198E-5,2.00001E0,4.774462E-5,2.00001E0,-1.0660715E-5,2.00001E0,-1.8898101E-5,2.00001E0,-1.4866014E-5,4.1020066E-8],"split_indices":[6,0,2,0,15,0,7,0,12,0,4,0,0],"split_type":[0,0,0,0,0,0,0,0,0,0,0,0,0],"sum_hessian":[1.8160572E6,2.6607412E3,1.8133965E6,3.0116876E2,1.8130952E6,3.369938E2,1.8127582E6,6.282032E3,1.8064762E6,1.8980077E3,1.8045782E6,3.0558867E3,1.8015224E6],"tree_param":{"num_deleted":"0","num_feature":"16","num_nodes":"13","size_leaf_vector":"0"}},{"base_weights":[5.0391378E-8,2.138319E-5,7.571883E-9,1.2955681E-5,-5.5844303E-8,1.1927089E-6,-7.532836E-7,1.1991398E-6,-1.6424899E-6,3.8178725E-5,-1.6724248E-6,1.233832E-7,-1.067208E-6],"categories":[],"categories_nodes":[],"categories_segments":[],"categories_sizes":[],"default_left":[0,0,0,0,0,0,0,0,0,0,0,0,0],"id":63,"left_children":[1,-1,3,-1,5,-1,7,-1,9,-1,11,-1,-1],"loss_changes":[5.5387954E-6,0E0,4.969723E-6,0E0,5.095766E-6,0E0,6.5263484E-6,0E0,5.0220624E-6,0E0,5.1103316E-6,0E0,0E0],"parents":[2147483647,0,0,2,2,4,4,6,6,8,8,10,10],"right_children":[2,-1,4,-1,6,-1,8,-1,10,-1,12,-1,-1],"split_conditions":[2.00001E0,2.138319E-5,2.00001E0,1.2955681E-5,2.00001E0,1.1927089E-6,2.00001E0,1.1991398E-6,2.00001E0,3.8178725E-5,2.00001E0,1.233832E-7,-1.067208E-6],"split_indices":[14,0,6,0,9,0,1,0,2,0,8,0,0],"split_type":[0,0,0,0,0,0,0,0,0,0,0,0,0],"sum_hessian":[1.8160571E6,1.0901041E3,1.814967E6,2.6607612E3,1.8123062E6,2.6728184E5,1.5450245E6,2.4360539E5,1.301419E6,3.0116397E2,1.3011179E6,6.1797644E5,6.8314144E5],"tree_param":{"num_deleted":"0","num_feature":"16","num_nodes":"13","size_leaf_vector":"0"}},{"base_weights":[4.8854066E-8,3.377231E-5,2.7908094E-8,-6.0466637E-6,1.4412689E-7,-7.1579725E-6,2.2795886E-7,-1.2867532E-5,2.7352178E-7,-1.0089296E-5,3.3128973E-7,1.4997145E-5,9.032102E-8],"categories":[],"categories_nodes":[],"categories_segments":[],"categories_sizes":[],"default_left":[0,0,0,0,0,0,0,0,0,0,0,0,0],"id":64,"left_children":[1,-1,3,-1,5,-1,7,-1,9,-1,11,-1,-1],"loss_changes":[4.2803663E-6,0E0,4.2591328E-6,0E0,3.6328747E-6,0E0,3.534523E-6,0E0,3.519893E-6,0E0,2.6923497E-6,0E0,0E0],"parents":[2147483647,0,0,2,2,4,4,6,6,8,8,10,10],"right_children":[2,-1,4,-1,6,-1,8,-1,10,-1,12,-1,-1],"split_conditions":[2.00001E0,3.377231E-5,2.00001E0,-6.0466637E-6,2.00001E0,-7.1579725E-6,2.00001E0,-1.2867532E-5,2.00001E0,-1.0089296E-5,2.00001E0,1.4997145E-5,9.032102E-8],"split_indices":[15,0,5,0,7,0,12,0,4,0,14,0,0],"split_type":[0,0,0,0,0,0,0,0,0,0,0,0,0],"sum_hessian":[1.8160569E6,3.3698553E2,1.8157199E6,1.0394293E4,1.8053256E6,6.2820107E3,1.7990436E6,1.8979789E3,1.7971456E6,3.0558577E3,1.7940898E6,1.0901086E3,1.7929996E6],"tree_param":{"num_deleted":"0","num_feature":"16","num_nodes":"13","size_leaf_vector":"0"}},{"base_weights":[1.2295459E-7,9.053055E-6,7.884023E-8,2.6739655E-5,6.3999046E-8,8.339415E-7,-4.0558416E-7,8.28197E-7,-9.978977E-7,1.233832E-7,-2.2706195E-6,-7.436108E-8,-6.3611874E-6],"categories":[],"categories_nodes":[],"categories_segments":[],"categories_sizes":[],"default_left":[0,0,0,0,0,0,0,0,0,0,0,0,0],"id":65,"left_children":[1,-1,3,-1,5,-1,7,-1,9,-1,11,-1,-1],"loss_changes":[2.4077417E-6,0E0,2.396684E-6,0E0,2.3122363E-6,0E0,2.899034E-6,0E0,2.3354964E-6,0E0,2.6204307E-5,0E0,0E0],"parents":[2147483647,0,0,2,2,4,4,6,6,8,8,10,10],"right_children":[2,-1,4,-1,6,-1,8,-1,10,-1,12,-1,-1],"split_conditions":[2.00001E0,9.053055E-6,2.00001E0,2.6739655E-5,2.00001E0,8.339415E-7,2.00001E0,8.28197E-7,2.00001E0,1.233832E-7,2.00001E0,-7.436108E-8,-6.3611874E-6],"split_indices":[6,0,2,0,9,0,1,0,8,0,13,0,0],"split_type":[0,0,0,0,0,0,0,0,0,0,0,0,0],"sum_hessian":[1.8160568E6,2.6607756E3,1.813396E6,3.0116064E2,1.8130949E6,2.672818E5,1.545813E6,2.4360533E5,1.3022078E6,6.1797644E5,6.8423125E5,6.18188E5,6.60433E4],"tree_param":{"num_deleted":"0","num_feature":"16","num_nodes":"13","size_leaf_vector":"0"}},{"base_weights":[-2.5087356E-8,2.5506675E-5,-4.091817E-8,1.24502785E-5,-6.589664E-8,6.3551574E-6,-9.7112526E-8,1.8802197E-5,-1.0758173E-7,5.4692754E-7,-4.417181E-7,5.314427E-7,-2.5685935E-7],"categories":[],"categories_nodes":[],"categories_segments":[],"categories_sizes":[],"default_left":[0,0,0,0,0,0,0,0,0,0,0,0,0],"id":66,"left_children":[1,-1,3,-1,5,-1,7,-1,9,-1,11,-1,-1],"loss_changes":[2.4450858E-6,0E0,1.8840885E-6,0E0,1.2037004E-6,0E0,1.1907663E-6,0E0,1.168723E-6,0E0,1.4167041E-6,0E0,0E0],"parents":[2147483647,0,0,2,2,4,4,6,6,8,8,10,10],"right_children":[2,-1,4,-1,6,-1,8,-1,10,-1,12,-1,-1],"split_conditions":[2.00001E0,2.5506675E-5,2.00001E0,1.24502785E-5,2.00001E0,6.3551574E-6,2.00001E0,1.8802197E-5,2.00001E0,5.4692754E-7,2.00001E0,5.314427E-7,-2.5685935E-7],"split_indices":[15,0,14,0,6,0,2,0,9,0,1,0,0],"split_type":[0,0,0,0,0,0,0,0,0,0,0,0,0],"sum_hessian":[1.8160564E6,3.3698065E2,1.8157195E6,1.0901105E3,1.8146294E6,2.6607856E3,1.8119685E6,3.0115836E2,1.8116674E6,2.672818E5,1.5443856E6,2.4360528E5,1.3007802E6],"tree_param":{"num_deleted":"0","num_feature":"16","num_nodes":"13","size_leaf_vector":"0"}},{"base_weights":[-5.405618E-10,1.8028039E-5,-1.1726395E-8,2.5220995E-6,-8.5558575E-8,-7.04534E-6,-1.8253916E-8],"categories":[],"categories_nodes":[],"categories_segments":[],"categories_sizes":[],"default_left":[0,0,0,0,0,0,0],"id":67,"left_children":[1,-1,3,-1,5,-1,-1],"loss_changes":[1.2207571E-6,0E0,1.1286031E-6,0E0,1.0407905E-6,0E0,0E0],"parents":[2147483647,0,0,2,2,4,4],"right_children":[2,-1,4,-1,6,-1,-1],"split_conditions":[2.00001E0,1.8028039E-5,2.00001E0,2.5220995E-6,2.00001E0,-7.04534E-6,-1.8253916E-8],"split_indices":[15,0,11,0,12,0,0],"split_type":[0,0,0,0,0,0,0],"sum_hessian":[1.8160564E6,3.3697626E2,1.8157194E6,1.5784433E4,1.799935E6,1.8979507E3,1.798037E6],"tree_param":{"num_deleted":"0","num_feature":"16","num_nodes":"7","size_leaf_vector":"0"}},{"base_weights":[-1.984594E-8],"categories":[],"categories_nodes":[],"categories_segments":[],"categories_sizes":[],"default_left":[0],"id":68,"left_children":[-1],"loss_changes":[0E0],"parents":[2147483647],"right_children":[-1],"split_conditions":[-5.9537824E-9],"split_indices":[0],"split_type":[0],"sum_hessian":[1.8160564E6],"tree_param":{"num_deleted":"0","num_feature":"16","num_nodes":"1","size_leaf_vector":"0"}},{"base_weights":[-1.984594E-8],"categories":[],"categories_nodes":[],"categories_segments":[],"categories_sizes":[],"default_left":[0],"id":69,"left_children":[-1],"loss_changes":[0E0],"parents":[2147483647],"right_children":[-1],"split_conditions":[-5.9537824E-9],"split_indices":[0],"split_type":[0],"sum_hessian":[1.8160564E6],"tree_param":{"num_deleted":"0","num_feature":"16","num_nodes":"1","size_leaf_vector":"0"}},{"base_weights":[-1.984594E-8],"categories":[],"categories_nodes":[],"categories_segments":[],"categories_sizes":[],"default_left":[0],"id":70,"left_children":[-1],"loss_changes":[0E0],"parents":[2147483647],"right_children":[-1],"split_conditions":[-5.9537824E-9],"split_indices":[0],"split_type":[0],"sum_hessian":[1.8160564E6],"tree_param":{"num_deleted":"0","num_feature":"16","num_nodes":"1","size_leaf_vector":"0"}},{"base_weights":[-1.984594E-8],"categories":[],"categories_nodes":[],"categories_segments":[],"categories_sizes":[],"default_left":[0],"id":71,"left_children":[-1],"loss_changes":[0E0],"parents":[2147483647],"right_children":[-1],"split_conditions":[-5.9537824E-9],"split_indices":[0],"split_type":[0],"sum_hessian":[1.8160564E6],"tree_param":{"num_deleted":"0","num_feature":"16","num_nodes":"1","size_leaf_vector":"0"}},{"base_weights":[-1.984594E-8],"categories":[],"categories_nodes":[],"categories_segments":[],"categories_sizes":[],"default_left":[0],"id":72,"left_children":[-1],"loss_changes":[0E0],"parents":[2147483647],"right_children":[-1],"split_conditions":[-5.9537824E-9],"split_indices":[0],"split_type":[0],"sum_hessian":[1.8160564E6],"tree_param":{"num_deleted":"0","num_feature":"16","num_nodes":"1","size_leaf_vector":"0"}},{"base_weights":[-1.984594E-8],"categories":[],"categories_nodes":[],"categories_segments":[],"categories_sizes":[],"default_left":[0],"id":73,"left_children":[-1],"loss_changes":[0E0],"parents":[2147483647],"right_children":[-1],"split_conditions":[-5.9537824E-9],"split_indices":[0],"split_type":[0],"sum_hessian":[1.8160564E6],"tree_param":{"num_deleted":"0","num_feature":"16","num_nodes":"1","size_leaf_vector":"0"}},{"base_weights":[-1.984594E-8],"categories":[],"categories_nodes":[],"categories_segments":[],"categories_sizes":[],"default_left":[0],"id":74,"left_children":[-1],"loss_changes":[0E0],"parents":[2147483647],"right_children":[-1],"split_conditions":[-5.9537824E-9],"split_indices":[0],"split_type":[0],"sum_hessian":[1.8160564E6],"tree_param":{"num_deleted":"0","num_feature":"16","num_nodes":"1","size_leaf_vector":"0"}},{"base_weights":[-1.984594E-8],"categories":[],"categories_nodes":[],"categories_segments":[],"categories_sizes":[],"default_left":[0],"id":75,"left_children":[-1],"loss_changes":[0E0],"parents":[2147483647],"right_children":[-1],"split_conditions":[-5.9537824E-9],"split_indices":[0],"split_type":[0],"sum_hessian":[1.8160564E6],"tree_param":{"num_deleted":"0","num_feature":"16","num_nodes":"1","size_leaf_vector":"0"}},{"base_weights":[-1.984594E-8],"categories":[],"categories_nodes":[],"categories_segments":[],"categories_sizes":[],"default_left":[0],"id":76,"left_children":[-1],"loss_changes":[0E0],"parents":[2147483647],"right_children":[-1],"split_conditions":[-5.9537824E-9],"split_indices":[0],"split_type":[0],"sum_hessian":[1.8160564E6],"tree_param":{"num_deleted":"0","num_feature":"16","num_nodes":"1","size_leaf_vector":"0"}},{"base_weights":[-1.984594E-8],"categories":[],"categories_nodes":[],"categories_segments":[],"categories_sizes":[],"default_left":[0],"id":77,"left_children":[-1],"loss_changes":[0E0],"parents":[2147483647],"right_children":[-1],"split_conditions":[-5.9537824E-9],"split_indices":[0],"split_type":[0],"sum_hessian":[1.8160564E6],"tree_param":{"num_deleted":"0","num_feature":"16","num_nodes":"1","size_leaf_vector":"0"}},{"base_weights":[-1.984594E-8],"categories":[],"categories_nodes":[],"categories_segments":[],"categories_sizes":[],"default_left":[0],"id":78,"left_children":[-1],"loss_changes":[0E0],"parents":[2147483647],"right_children":[-1],"split_conditions":[-5.9537824E-9],"split_indices":[0],"split_type":[0],"sum_hessian":[1.8160564E6],"tree_param":{"num_deleted":"0","num_feature":"16","num_nodes":"1","size_leaf_vector":"0"}},{"base_weights":[-1.984594E-8],"categories":[],"categories_nodes":[],"categories_segments":[],"categories_sizes":[],"default_left":[0],"id":79,"left_children":[-1],"loss_changes":[0E0],"parents":[2147483647],"right_children":[-1],"split_conditions":[-5.9537824E-9],"split_indices":[0],"split_type":[0],"sum_hessian":[1.8160564E6],"tree_param":{"num_deleted":"0","num_feature":"16","num_nodes":"1","size_leaf_vector":"0"}},{"base_weights":[-1.984594E-8],"categories":[],"categories_nodes":[],"categories_segments":[],"categories_sizes":[],"default_left":[0],"id":80,"left_children":[-1],"loss_changes":[0E0],"parents":[2147483647],"right_children":[-1],"split_conditions":[-5.9537824E-9],"split_indices":[0],"split_type":[0],"sum_hessian":[1.8160564E6],"tree_param":{"num_deleted":"0","num_feature":"16","num_nodes":"1","size_leaf_vector":"0"}},{"base_weights":[-1.984594E-8],"categories":[],"categories_nodes":[],"categories_segments":[],"categories_sizes":[],"default_left":[0],"id":81,"left_children":[-1],"loss_changes":[0E0],"parents":[2147483647],"right_children":[-1],"split_conditions":[-5.9537824E-9],"split_indices":[0],"split_type":[0],"sum_hessian":[1.8160564E6],"tree_param":{"num_deleted":"0","num_feature":"16","num_nodes":"1","size_leaf_vector":"0"}},{"base_weights":[-1.984594E-8],"categories":[],"categories_nodes":[],"categories_segments":[],"categories_sizes":[],"default_left":[0],"id":82,"left_children":[-1],"loss_changes":[0E0],"parents":[2147483647],"right_children":[-1],"split_conditions":[-5.9537824E-9],"split_indices":[0],"split_type":[0],"sum_hessian":[1.8160564E6],"tree_param":{"num_deleted":"0","num_feature":"16","num_nodes":"1","size_leaf_vector":"0"}},{"base_weights":[-1.984594E-8],"categories":[],"categories_nodes":[],"categories_segments":[],"categories_sizes":[],"default_left":[0],"id":83,"left_children":[-1],"loss_changes":[0E0],"parents":[2147483647],"right_children":[-1],"split_conditions":[-5.9537824E-9],"split_indices":[0],"split_type":[0],"sum_hessian":[1.8160564E6],"tree_param":{"num_deleted":"0","num_feature":"16","num_nodes":"1","size_leaf_vector":"0"}},{"base_weights":[-1.984594E-8],"categories":[],"categories_nodes":[],"categories_segments":[],"categories_sizes":[],"default_left":[0],"id":84,"left_children":[-1],"loss_changes":[0E0],"parents":[2147483647],"right_children":[-1],"split_conditions":[-5.9537824E-9],"split_indices":[0],"split_type":[0],"sum_hessian":[1.8160564E6],"tree_param":{"num_deleted":"0","num_feature":"16","num_nodes":"1","size_leaf_vector":"0"}},{"base_weights":[-1.984594E-8],"categories":[],"categories_nodes":[],"categories_segments":[],"categories_sizes":[],"default_left":[0],"id":85,"left_children":[-1],"loss_changes":[0E0],"parents":[2147483647],"right_children":[-1],"split_conditions":[-5.9537824E-9],"split_indices":[0],"split_type":[0],"sum_hessian":[1.8160564E6],"tree_param":{"num_deleted":"0","num_feature":"16","num_nodes":"1","size_leaf_vector":"0"}},{"base_weights":[-1.984594E-8],"categories":[],"categories_nodes":[],"categories_segments":[],"categories_sizes":[],"default_left":[0],"id":86,"left_children":[-1],"loss_changes":[0E0],"parents":[2147483647],"right_children":[-1],"split_conditions":[-5.9537824E-9],"split_indices":[0],"split_type":[0],"sum_hessian":[1.8160564E6],"tree_param":{"num_deleted":"0","num_feature":"16","num_nodes":"1","size_leaf_vector":"0"}},{"base_weights":[1.5355726E-8],"categories":[],"categories_nodes":[],"categories_segments":[],"categories_sizes":[],"default_left":[0],"id":87,"left_children":[-1],"loss_changes":[0E0],"parents":[2147483647],"right_children":[-1],"split_conditions":[4.6067177E-9],"split_indices":[0],"split_type":[0],"sum_hessian":[1.8160564E6],"tree_param":{"num_deleted":"0","num_feature":"16","num_nodes":"1","size_leaf_vector":"0"}},{"base_weights":[-1.984594E-8],"categories":[],"categories_nodes":[],"categories_segments":[],"categories_sizes":[],"default_left":[0],"id":88,"left_children":[-1],"loss_changes":[0E0],"parents":[2147483647],"right_children":[-1],"split_conditions":[-5.9537824E-9],"split_indices":[0],"split_type":[0],"sum_hessian":[1.8160564E6],"tree_param":{"num_deleted":"0","num_feature":"16","num_nodes":"1","size_leaf_vector":"0"}},{"base_weights":[1.5355726E-8],"categories":[],"categories_nodes":[],"categories_segments":[],"categories_sizes":[],"default_left":[0],"id":89,"left_children":[-1],"loss_changes":[0E0],"parents":[2147483647],"right_children":[-1],"split_conditions":[4.6067177E-9],"split_indices":[0],"split_type":[0],"sum_hessian":[1.8160564E6],"tree_param":{"num_deleted":"0","num_feature":"16","num_nodes":"1","size_leaf_vector":"0"}},{"base_weights":[-1.984594E-8],"categories":[],"categories_nodes":[],"categories_segments":[],"categories_sizes":[],"default_left":[0],"id":90,"left_children":[-1],"loss_changes":[0E0],"parents":[2147483647],"right_children":[-1],"split_conditions":[-5.9537824E-9],"split_indices":[0],"split_type":[0],"sum_hessian":[1.8160564E6],"tree_param":{"num_deleted":"0","num_feature":"16","num_nodes":"1","size_leaf_vector":"0"}},{"base_weights":[1.5355726E-8],"categories":[],"categories_nodes":[],"categories_segments":[],"categories_sizes":[],"default_left":[0],"id":91,"left_children":[-1],"loss_changes":[0E0],"parents":[2147483647],"right_children":[-1],"split_conditions":[4.6067177E-9],"split_indices":[0],"split_type":[0],"sum_hessian":[1.8160564E6],"tree_param":{"num_deleted":"0","num_feature":"16","num_nodes":"1","size_leaf_vector":"0"}},{"base_weights":[-1.984594E-8],"categories":[],"categories_nodes":[],"categories_segments":[],"categories_sizes":[],"default_left":[0],"id":92,"left_children":[-1],"loss_changes":[0E0],"parents":[2147483647],"right_children":[-1],"split_conditions":[-5.9537824E-9],"split_indices":[0],"split_type":[0],"sum_hessian":[1.8160564E6],"tree_param":{"num_deleted":"0","num_feature":"16","num_nodes":"1","size_leaf_vector":"0"}},{"base_weights":[1.5355726E-8],"categories":[],"categories_nodes":[],"categories_segments":[],"categories_sizes":[],"default_left":[0],"id":93,"left_children":[-1],"loss_changes":[0E0],"parents":[2147483647],"right_children":[-1],"split_conditions":[4.6067177E-9],"split_indices":[0],"split_type":[0],"sum_hessian":[1.8160564E6],"tree_param":{"num_deleted":"0","num_feature":"16","num_nodes":"1","size_leaf_vector":"0"}},{"base_weights":[-1.984594E-8],"categories":[],"categories_nodes":[],"categories_segments":[],"categories_sizes":[],"default_left":[0],"id":94,"left_children":[-1],"loss_changes":[0E0],"parents":[2147483647],"right_children":[-1],"split_conditions":[-5.9537824E-9],"split_indices":[0],"split_type":[0],"sum_hessian":[1.8160564E6],"tree_param":{"num_deleted":"0","num_feature":"16","num_nodes":"1","size_leaf_vector":"0"}},{"base_weights":[1.5355726E-8],"categories":[],"categories_nodes":[],"categories_segments":[],"categories_sizes":[],"default_left":[0],"id":95,"left_children":[-1],"loss_changes":[0E0],"parents":[2147483647],"right_children":[-1],"split_conditions":[4.6067177E-9],"split_indices":[0],"split_type":[0],"sum_hessian":[1.8160564E6],"tree_param":{"num_deleted":"0","num_feature":"16","num_nodes":"1","size_leaf_vector":"0"}},{"base_weights":[-1.984594E-8],"categories":[],"categories_nodes":[],"categories_segments":[],"categories_sizes":[],"default_left":[0],"id":96,"left_children":[-1],"loss_changes":[0E0],"parents":[2147483647],"right_children":[-1],"split_conditions":[-5.9537824E-9],"split_indices":[0],"split_type":[0],"sum_hessian":[1.8160564E6],"tree_param":{"num_deleted":"0","num_feature":"16","num_nodes":"1","size_leaf_vector":"0"}},{"base_weights":[1.5355726E-8],"categories":[],"categories_nodes":[],"categories_segments":[],"categories_sizes":[],"default_left":[0],"id":97,"left_children":[-1],"loss_changes":[0E0],"parents":[2147483647],"right_children":[-1],"split_conditions":[4.6067177E-9],"split_indices":[0],"split_type":[0],"sum_hessian":[1.8160564E6],"tree_param":{"num_deleted":"0","num_feature":"16","num_nodes":"1","size_leaf_vector":"0"}},{"base_weights":[-1.984594E-8],"categories":[],"categories_nodes":[],"categories_segments":[],"categories_sizes":[],"default_left":[0],"id":98,"left_children":[-1],"loss_changes":[0E0],"parents":[2147483647],"right_children":[-1],"split_conditions":[-5.9537824E-9],"split_indices":[0],"split_type":[0],"sum_hessian":[1.8160564E6],"tree_param":{"num_deleted":"0","num_feature":"16","num_nodes":"1","size_leaf_vector":"0"}},{"base_weights":[1.5355726E-8],"categories":[],"categories_nodes":[],"categories_segments":[],"categories_sizes":[],"default_left":[0],"id":99,"left_children":[-1],"loss_changes":[0E0],"parents":[2147483647],"right_children":[-1],"split_conditions":[4.6067177E-9],"split_indices":[0],"split_type":[0],"sum_hessian":[1.8160564E6],"tree_param":{"num_deleted":"0","num_feature":"16","num_nodes":"1","size_leaf_vector":"0"}}]},"name":"gbtree"},"learner_model_param":{"base_score":"5E-1","num_class":"0","num_feature":"16","num_target":"1"},"objective":{"name":"binary:logistic","reg_loss_param":{"scale_pos_weight":"1"}}},"version":[1,6,1]}