{"learner":{"attributes":{"best_iteration":"99","best_ntree_limit":"100","scikit_learn":"{\"use_label_encoder\": false, \"n_estimators\": 100, \"objective\": \"binary:logistic\", \"max_depth\": null, \"max_leaves\": null, \"max_bin\": null, \"grow_policy\": null, \"learning_rate\": null, \"verbosity\": null, \"booster\": null, \"tree_method\": null, \"gamma\": null, \"min_child_weight\": null, \"max_delta_step\": null, \"subsample\": null, \"sampling_method\": null, \"colsample_bytree\": null, \"colsample_bylevel\": null, \"colsample_bynode\": null, \"reg_alpha\": null, \"reg_lambda\": null, \"scale_pos_weight\": null, \"base_score\": null, \"missing\": NaN, \"num_parallel_tree\": null, \"random_state\": null, \"n_jobs\": -6, \"monotone_constraints\": null, \"interaction_constraints\": null, \"importance_type\": null, \"gpu_id\": null, \"validate_parameters\": null, \"predictor\": null, \"enable_categorical\": false, \"max_cat_to_onehot\": null, \"eval_metric\": null, \"early_stopping_rounds\": null, \"callbacks\": null, \"kwargs\": {\"seed\": 15}, \"classes_\": [0, 1], \"n_classes_\": 2, \"_estimator_type\": \"classifier\"}"},"feature_names":[],"feature_types":[],"gradient_booster":{"model":{"gbtree_model_param":{"num_parallel_tree":"1","num_trees":"100","size_leaf_vector":"0"},"tree_info":[0,0,0,0,0,0,0,0,0,0,0,0,0,0,0,0,0,0,0,0,0,0,0,0,0,0,0,0,0,0,0,0,0,0,0,0,0,0,0,0,0,0,0,0,0,0,0,0,0,0,0,0,0,0,0,0,0,0,0,0,0,0,0,0,0,0,0,0,0,0,0,0,0,0,0,0,0,0,0,0,0,0,0,0,0,0,0,0,0,0,0,0,0,0,0,0,0,0,0,0],"trees":[{"base_weights":[-0E0,8.6081123E-1,-9.452594E-1,3.716796E-1,1.4262834E0,-1.6392403E0,-4.9284318E-1,8.837405E-1,-3.321292E-1,-6.596357E-1,1.5132298E0,-1.8235592E0,-4.3881707E-2,1.6674124E0,-6.0995567E-1,3.0103198E-1,1.344347E0,5.576823E-1,-7.525973E-1,1.0193372E0,-1.0465512E0,1.5428874E0,-6.143101E-1,1.8369566E-1,-1.8400275E0,-5.932444E-1,7.7449596E-1,-1.3362422E0,1.8640158E0,-8.9017147E-1,3.432495E-1,4.8459455E-1,-1.3265715E0,5.2172315E-1,1.6353403E0,6.995766E-2,1.4962852E0,-7.587145E-2,-1.2049539E0,1.5643252E0,-9.023486E-1,-1.248015E0,8.596838E-1,-1.8075031E0,1.5617828E0,-1.6923853E0,1.1113801E0,1.2580212E0,-1.4740963E0,-1.6925231E0,-1.9123943E0,1.1050011E0,-1.1105917E0,1.136637E0,-1.4714564E0,1.3414634E0,-1.831987E0,1.9330187E0,-1.4980044E0,-1.2595367E-1,-1.260406E0,1.2274145E0,-4.4614837E-1,2.4023989E-1,-8.282332E-2,-4.131594E-1,5.0020534E-1,-9.544899E-2,4.5332527E-1,5.0627035E-1,-7.11503E-2,2.6948807E-1,-1.1839522E-1,5.446916E-1,4.55408E-2,1.2507248E-1,-2.725095E-1,-2.6193058E-1,-5.309182E-1,5.526565E-1,-2.1383749E-1,5.421222E-1,-5.9895974E-1,2.3741417E-1,-4.229305E-1,4.5684722E-1,-5.979076E-1,-5.869644E-1,4.9419957E-1,4.7836438E-1,-7.941231E-2,2.890472E-1,-5.6826043E-1,4.278858E-1,-5.9737706E-1,-5.9660536E-1,4.91964E-1,-5.993159E-1,2.1668653E-1,-5.400107E-1,-2.7990094E-1,-5.7946074E-1,-4.650692E-1,-5.983027E-1,3.9561632E-1,5.0695483E-2,-3.8601622E-1,4.3436092E-1,-2.2414152E-1,-4.890406E-1,5.6666666E-1,-5.827338E-1,5.360316E-1,-5.820957E-1,-2.1487605E-2,-1.163868E-1,5.910144E-1,5.0259745E-1,-5.987699E-1,2.585769E-1,-1.8767351E-1,-4.8061392E-1,-2.0240921E-1,4.3185076E-1,-8.952487E-2,4.5930177E-1,-1.9086193E-1],"categories":[],"categories_nodes":[],"categories_segments":[],"categories_sizes":[],"default_left":[0,0,0,0,0,0,0,0,0,0,0,0,0,0,0,0,0,0,0,0,0,0,0,0,0,0,0,0,0,0,0,0,0,0,0,0,0,0,0,0,0,0,0,0,0,0,0,0,0,0,0,0,0,0,0,0,0,0,0,0,0,0,0,0,0,0,0,0,0,0,0,0,0,0,0,0,0,0,0,0,0,0,0,0,0,0,0,0,0,0,0,0,0,0,0,0,0,0,0,0,0,0,0,0,0,0,0,0,0,0,0,0,0,0,0,0,0,0,0,0,0,0,0,0,0,0,0],"id":0,"left_children":[1,3,5,7,9,11,13,15,17,19,21,23,25,27,29,31,33,35,37,39,41,43,45,47,49,51,53,55,57,59,61,63,65,67,69,71,73,75,77,79,81,83,85,87,89,91,93,95,97,99,101,103,105,107,109,111,113,115,117,119,121,123,125,-1,-1,-1,-1,-1,-1,-1,-1,-1,-1,-1,-1,-1,-1,-1,-1,-1,-1,-1,-1,-1,-1,-1,-1,-1,-1,-1,-1,-1,-1,-1,-1,-1,-1,-1,-1,-1,-1,-1,-1,-1,-1,-1,-1,-1,-1,-1,-1,-1,-1,-1,-1,-1,-1,-1,-1,-1,-1,-1,-1,-1,-1,-1,-1],"loss_changes":[1.6361961E6,2.91091E5,3.0090825E5,2.0337267E5,8.8528625E4,1.1121931E5,1.4678253E5,8.767247E4,8.891696E4,1.2689942E4,2.9568E4,1.1208125E4,1.761232E4,1.762136E4,1.469994E5,4.308651E4,4.3671156E4,3.491235E4,4.9405977E4,3.833204E3,6.097668E3,2.9259875E4,1.1988592E4,4.9174365E3,3.5865E3,2.0594986E4,1.2799559E4,2.4363538E3,6.4993438E3,1.2033847E5,8.726728E4,3.1171984E4,2.217713E3,3.9615027E4,1.31800625E4,1.9315104E4,1.11968125E4,2.6527053E4,1.8128219E4,1.8050581E3,2.401974E3,4.7375176E3,2.874706E3,1.3380381E3,2.750275E4,2.1275957E3,2.4239417E3,2.0802078E3,1.2501404E3,9.037406E3,1.5609375E3,3.6283945E3,4.0494473E3,7.945635E3,1.16829E3,4.2316602E2,2.9497412E2,2.3591094E3,8.940603E2,6.851017E4,5.7330312E4,1.9085672E4,2.482329E4,0E0,0E0,0E0,0E0,0E0,0E0,0E0,0E0,0E0,0E0,0E0,0E0,0E0,0E0,0E0,0E0,0E0,0E0,0E0,0E0,0E0,0E0,0E0,0E0,0E0,0E0,0E0,0E0,0E0,0E0,0E0,0E0,0E0,0E0,0E0,0E0,0E0,0E0,0E0,0E0,0E0,0E0,0E0,0E0,0E0,0E0,0E0,0E0,0E0,0E0,0E0,0E0,0E0,0E0,0E0,0E0,0E0,0E0,0E0,0E0,0E0,0E0,0E0,0E0],"parents":[2147483647,0,0,1,1,2,2,3,3,4,4,5,5,6,6,7,7,8,8,9,9,10,10,11,11,12,12,13,13,14,14,15,15,16,16,17,17,18,18,19,19,20,20,21,21,22,22,23,23,24,24,25,25,26,26,27,27,28,28,29,29,30,30,31,31,32,32,33,33,34,34,35,35,36,36,37,37,38,38,39,39,40,40,41,41,42,42,43,43,44,44,45,45,46,46,47,47,48,48,49,49,50,50,51,51,52,52,53,53,54,54,55,55,56,56,57,57,58,58,59,59,60,60,61,61,62,62],"right_children":[2,4,6,8,10,12,14,16,18,20,22,24,26,28,30,32,34,36,38,40,42,44,46,48,50,52,54,56,58,60,62,64,66,68,70,72,74,76,78,80,82,84,86,88,90,92,94,96,98,100,102,104,106,108,110,112,114,116,118,120,122,124,126,-1,-1,-1,-1,-1,-1,-1,-1,-1,-1,-1,-1,-1,-1,-1,-1,-1,-1,-1,-1,-1,-1,-1,-1,-1,-1,-1,-1,-1,-1,-1,-1,-1,-1,-1,-1,-1,-1,-1,-1,-1,-1,-1,-1,-1,-1,-1,-1,-1,-1,-1,-1,-1,-1,-1,-1,-1,-1,-1,-1,-1,-1,-1,-1],"split_conditions":[1.0828624E0,1E0,1.1989699E1,2.6622057E0,8.389929E0,1E0,1.6988125E1,1.2072986E-1,1.7808123E-2,1.9192824E-1,2.4890882E-1,9.142006E-5,2.3745634E1,2.0125756E0,1E0,3.730846E-1,3.564081E1,1E0,8.72612E-2,2.3682508E0,6.042404E-2,5.689425E0,1.0189424E-2,5.878599E0,6.67287E-2,1.6932653E1,1.0410724E1,5.882218E0,2.1164127E-1,1.9147666E-3,1.5154034E-1,2.0304626E-1,5.448059E-1,1E0,4.6294853E-1,1.3230838E-1,9.388806E0,1.3014024E-2,1.3743759E1,4.912442E-2,6.149033E-3,1.837053E-2,2.7404673E1,9.831757E-2,3.964734E1,1.3580612E1,9.871101E-2,5.048563E-2,1.4485915E-1,1E0,3.4738106E1,7.112959E-2,6.7945337E0,1.5903474E-1,2.439321E-1,2.6894054E-1,1E0,7.525918E-2,1.497202E-3,3.524262E1,2.3153636E-1,5.689425E0,1.3017749E0,2.4023989E-1,-8.282332E-2,-4.131594E-1,5.0020534E-1,-9.544899E-2,4.5332527E-1,5.0627035E-1,-7.11503E-2,2.6948807E-1,-1.1839522E-1,5.446916E-1,4.55408E-2,1.2507248E-1,-2.725095E-1,-2.6193058E-1,-5.309182E-1,5.526565E-1,-2.1383749E-1,5.421222E-1,-5.9895974E-1,2.3741417E-1,-4.229305E-1,4.5684722E-1,-5.979076E-1,-5.869644E-1,4.9419957E-1,4.7836438E-1,-7.941231E-2,2.890472E-1,-5.6826043E-1,4.278858E-1,-5.9737706E-1,-5.9660536E-1,4.91964E-1,-5.993159E-1,2.1668653E-1,-5.400107E-1,-2.7990094E-1,-5.7946074E-1,-4.650692E-1,-5.983027E-1,3.9561632E-1,5.0695483E-2,-3.8601622E-1,4.3436092E-1,-2.2414152E-1,-4.890406E-1,5.6666666E-1,-5.827338E-1,5.360316E-1,-5.820957E-1,-2.1487605E-2,-1.163868E-1,5.910144E-1,5.0259745E-1,-5.987699E-1,2.585769E-1,-1.8767351E-1,-4.8061392E-1,-2.0240921E-1,4.3185076E-1,-8.952487E-2,4.5930177E-1,-1.9086193E-1],"split_indices":[43,77,7,0,2,70,3,21,27,4,26,5,8,1,70,18,3,92,22,0,13,1,15,44,23,3,45,10,34,5,18,26,28,70,40,34,9,28,9,23,32,14,3,13,3,7,33,32,39,87,3,21,45,18,16,11,89,29,36,3,18,1,1,0,0,0,0,0,0,0,0,0,0,0,0,0,0,0,0,0,0,0,0,0,0,0,0,0,0,0,0,0,0,0,0,0,0,0,0,0,0,0,0,0,0,0,0,0,0,0,0,0,0,0,0,0,0,0,0,0,0,0,0,0,0,0,0],"split_type":[0,0,0,0,0,0,0,0,0,0,0,0,0,0,0,0,0,0,0,0,0,0,0,0,0,0,0,0,0,0,0,0,0,0,0,0,0,0,0,0,0,0,0,0,0,0,0,0,0,0,0,0,0,0,0,0,0,0,0,0,0,0,0,0,0,0,0,0,0,0,0,0,0,0,0,0,0,0,0,0,0,0,0,0,0,0,0,0,0,0,0,0,0,0,0,0,0,0,0,0,0,0,0,0,0,0,0,0,0,0,0,0,0,0,0,0,0,0,0,0,0,0,0,0,0,0,0],"sum_hessian":[2.010833E6,1.0524278E6,9.5840525E5,5.6430625E5,4.881215E5,3.7822575E5,5.801795E5,3.2664975E5,2.376565E5,1.953175E4,4.6858975E5,3.3905325E5,3.91725E4,2.983475E4,5.5034475E5,1.4421125E5,1.824385E5,7.626375E4,1.6139275E5,3.65775E3,1.5874E4,4.6214775E5,6.442E3,2.759E3,3.3629425E5,2.343875E4,1.573375E4,1.8325E3,2.800225E4,4.2531425E5,1.250305E5,1.29596E5,1.461525E4,4.767275E4,1.3476575E5,5.01865E4,2.607725E4,6.4661E4,9.673175E4,2.84975E3,8.08E2,1.4357E4,1.517E3,2.59125E3,4.595565E5,3.965E3,2.477E3,1.67425E3,1.08475E3,1.106935E5,2.2560075E5,5.47275E3,1.7966E4,1.35495E4,2.18425E3,2.86E2,1.5465E3,2.74395E4,5.6275E2,1.38804E5,2.8651025E5,5.8975E4,6.60555E4,9.15425E4,3.80535E4,1.437275E4,2.425E2,2.57845E4,2.188825E4,1.31109E5,3.65675E3,1.803375E4,3.215275E4,2.107175E4,5.0055E3,4.061825E4,2.404275E4,6.093175E4,3.58E4,2.54E3,3.0975E2,2.3225E2,5.7575E2,1.05475E3,1.330225E4,1.23125E3,2.8575E2,2.4845E3,1.0675E2,4.51458E5,8.0985E3,2.7975E2,3.68525E3,2.24925E3,2.2775E2,1.7575E2,1.4985E3,8.76E2,2.0875E2,9.696625E4,1.372725E4,2.142715E5,1.132925E4,3.525E2,5.12025E3,2.17375E3,1.579225E4,1.16285E4,1.921E3,2.08625E3,9.8E1,3.375E1,2.5225E2,1.45675E3,8.975E1,4.3075E2,2.700875E4,7.6E1,4.8675E2,4.66215E4,9.21825E4,1.8095725E5,1.05553E5,5.1778E4,7.197E3,5.79225E3,6.026325E4],"tree_param":{"num_deleted":"0","num_feature":"95","num_nodes":"127","size_leaf_vector":"0"}},{"base_weights":[-2.2540064E-4,6.3227546E-1,-6.949392E-1,8.060315E-1,-3.239584E-1,-1.2541192E0,-3.535214E-1,2.704181E-1,1.0544932E0,1.167235E-1,-1.2331738E0,-1.4011035E0,-2.0812664E-2,1.294791E0,-4.3889362E-1,-1.0180513E0,4.722366E-1,1.1574407E0,9.902515E-2,5.9581316E-1,-9.44174E-1,3.053942E-1,-1.3180046E0,-1.8393773E-1,-1.4158223E0,-1.2742347E0,1.9533017E-1,-9.585936E-1,1.4519527E0,-2.7903885E-1,-1.3955537E0,1.3575488E-1,-1.1732019E0,6.737621E-1,-6.8316233E-1,1.2071054E0,-2.0296784E-1,4.4337302E-1,-1.2732373E0,-1.3829691E0,7.638471E-1,-1.1086363E0,9.929807E-1,-1.834678E0,1.1508881E0,-1.4256229E0,-3.196744E-1,8.518789E-1,-1.369142E0,-1.4220236E-1,-1.4242619E0,-1.4151943E0,8.789025E-1,-2.3987272E-1,7.7384305E-1,-1.413071E0,8.8540286E-1,1.5074126E0,-1.1837138E0,-6.478877E-1,5.936543E-2,-1.5046945E0,-5.1901555E-1,-3.8648832E-1,2.782538E-1,-1.2084596E-1,-4.334619E-1,-1.2386381E-1,2.551093E-1,-5.2142683E-3,-3.1604484E-1,-3.4019598E-1,3.69079E-1,-3.551076E-1,8.6753495E-2,-1.3464788E-1,2.4248017E-1,-4.4213453E-1,6.4059936E-2,-4.918883E-1,9.7678706E-2,2.8779045E-1,-2.4861804E-1,-4.5510387E-1,-2.0707026E-1,-6.097329E-1,4.8602694E-1,-6.4789385E-1,-5.389984E-1,4.8314795E-1,-5.3727686E-1,-3.032484E-1,-4.74E-1,-2.864514E-1,5.4930186E-1,3.9628032E-1,-5.492718E-1,-4.74649E-1,1.5403657E-1,6.11059E-1,-3.7136728E-1,-4.4267738E-1,-3.8570145E-1,-4.693826E-1,-9.627015E-2,-5.5370444E-1,5.131343E-1,2.6980686E-1,-2.0414531E-1,2.8308555E-1,-4.4128388E-1,-4.4081527E-1,5.334845E-1,3.703628E-1,-5.6600535E-1,-5.616908E-1,4.5870775E-1,3.4675947E-1,-4.7167566E-1,-2.6925337E-1,3.7769288E-2,-7.399474E-2,2.0060696E-1,-4.5709798E-1,4.6745616E-1,-2.1289334E-1,4.7189492E-1],"categories":[],"categories_nodes":[],"categories_segments":[],"categories_sizes":[],"default_left":[0,0,0,0,0,0,0,0,0,0,0,0,0,0,0,0,0,0,0,0,0,0,0,0,0,0,0,0,0,0,0,0,0,0,0,0,0,0,0,0,0,0,0,0,0,0,0,0,0,0,0,0,0,0,0,0,0,0,0,0,0,0,0,0,0,0,0,0,0,0,0,0,0,0,0,0,0,0,0,0,0,0,0,0,0,0,0,0,0,0,0,0,0,0,0,0,0,0,0,0,0,0,0,0,0,0,0,0,0,0,0,0,0,0,0,0,0,0,0,0,0,0,0,0,0,0,0],"id":1,"left_children":[1,3,5,7,9,11,13,15,17,19,21,23,25,27,29,31,33,35,37,39,41,43,45,47,49,51,53,55,57,59,61,63,65,67,69,71,73,75,77,79,81,83,85,87,89,91,93,95,97,99,101,103,105,107,109,111,113,115,117,119,121,123,125,-1,-1,-1,-1,-1,-1,-1,-1,-1,-1,-1,-1,-1,-1,-1,-1,-1,-1,-1,-1,-1,-1,-1,-1,-1,-1,-1,-1,-1,-1,-1,-1,-1,-1,-1,-1,-1,-1,-1,-1,-1,-1,-1,-1,-1,-1,-1,-1,-1,-1,-1,-1,-1,-1,-1,-1,-1,-1,-1,-1,-1,-1,-1,-1],"loss_changes":[8.44822E5,1.6721212E5,1.7492616E5,1.1333456E5,6.2004516E4,6.296725E4,8.0056945E4,7.0176984E4,5.722375E4,5.297793E4,6.594047E3,5.56E3,1.0021538E4,9.922777E3,8.2716305E4,6.5425703E3,5.432846E4,3.5483562E4,2.6739754E4,2.3876715E4,1.0331941E4,4.78022E3,5.1436406E3,4.55508E3,3.296E3,1.6525E3,7.9436646E3,1.5324697E3,3.8299102E3,5.784807E4,7.407672E3,4.886443E3,6.741742E3,3.812639E4,8.543794E3,2.7470875E4,8.928749E3,1.4727389E4,3.3848828E3,2.4653066E3,2.0602945E4,5.106086E3,4.818748E3,5.3635254E0,2.5629978E3,2.7659922E3,6.367967E3,2.4941113E3,6.947422E2,4.824905E3,2.16525E3,8.3445996E2,7.6194E2,9.03894E3,5.163642E3,2.6611523E2,3.525825E2,1.8764805E3,4.9293292E2,4.283242E4,4.5068363E4,4.0026719E3,3.421294E3,0E0,0E0,0E0,0E0,0E0,0E0,0E0,0E0,0E0,0E0,0E0,0E0,0E0,0E0,0E0,0E0,0E0,0E0,0E0,0E0,0E0,0E0,0E0,0E0,0E0,0E0,0E0,0E0,0E0,0E0,0E0,0E0,0E0,0E0,0E0,0E0,0E0,0E0,0E0,0E0,0E0,0E0,0E0,0E0,0E0,0E0,0E0,0E0,0E0,0E0,0E0,0E0,0E0,0E0,0E0,0E0,0E0,0E0,0E0,0E0,0E0,0E0,0E0,0E0],"parents":[2147483647,0,0,1,1,2,2,3,3,4,4,5,5,6,6,7,7,8,8,9,9,10,10,11,11,12,12,13,13,14,14,15,15,16,16,17,17,18,18,19,19,20,20,21,21,22,22,23,23,24,24,25,25,26,26,27,27,28,28,29,29,30,30,31,31,32,32,33,33,34,34,35,35,36,36,37,37,38,38,39,39,40,40,41,41,42,42,43,43,44,44,45,45,46,46,47,47,48,48,49,49,50,50,51,51,52,52,53,53,54,54,55,55,56,56,57,57,58,58,59,59,60,60,61,61,62,62],"right_children":[2,4,6,8,10,12,14,16,18,20,22,24,26,28,30,32,34,36,38,40,42,44,46,48,50,52,54,56,58,60,62,64,66,68,70,72,74,76,78,80,82,84,86,88,90,92,94,96,98,100,102,104,106,108,110,112,114,116,118,120,122,124,126,-1,-1,-1,-1,-1,-1,-1,-1,-1,-1,-1,-1,-1,-1,-1,-1,-1,-1,-1,-1,-1,-1,-1,-1,-1,-1,-1,-1,-1,-1,-1,-1,-1,-1,-1,-1,-1,-1,-1,-1,-1,-1,-1,-1,-1,-1,-1,-1,-1,-1,-1,-1,-1,-1,-1,-1,-1,-1,-1,-1,-1,-1,-1,-1],"split_conditions":[1.0762488E0,3.0066028E0,1.1916279E1,3.526824E1,2.6143437E-2,1E0,1.6988125E1,8.9201875E-2,2.207794E-1,7.1336195E-2,1.482602E-1,1.0783459E-3,2.2843117E-2,2.0125756E0,9.701493E-2,7.6772203E0,2.0431125E-1,1.3778447E1,3.2409836E-2,2.0520078E-2,2.0559815E-1,1.5611589E-1,1E0,5.8816752E0,1.9960882E-4,2.7735754E1,2.3546944E1,4.3695682E-1,2.1155037E-1,5.6204226E-2,1E0,2.1961071E0,8.4676266E-2,2.9760788E1,2.1476164E-2,8.5E0,1.182314E-1,1.6850585E-1,1.6132934E-1,3.1287187E-1,2.6501808E1,2.6531267E-1,4.255463E-2,1.7092558E-2,9.837896E-2,4.531577E-2,2.021475E0,8.447341E-2,1.7824703E1,1.1094124E-2,9.03164E-2,1E0,3.84359E-2,1.6935966E1,1.0424854E1,1E0,5.3506005E-1,5.477991E-2,7.05742E-3,1E0,1E0,1E0,7.2391385E-1,-3.8648832E-1,2.782538E-1,-1.2084596E-1,-4.334619E-1,-1.2386381E-1,2.551093E-1,-5.2142683E-3,-3.1604484E-1,-3.4019598E-1,3.69079E-1,-3.551076E-1,8.6753495E-2,-1.3464788E-1,2.4248017E-1,-4.4213453E-1,6.4059936E-2,-4.918883E-1,9.7678706E-2,2.8779045E-1,-2.4861804E-1,-4.5510387E-1,-2.0707026E-1,-6.097329E-1,4.8602694E-1,-6.4789385E-1,-5.389984E-1,4.8314795E-1,-5.3727686E-1,-3.032484E-1,-4.74E-1,-2.864514E-1,5.4930186E-1,3.9628032E-1,-5.492718E-1,-4.74649E-1,1.5403657E-1,6.11059E-1,-3.7136728E-1,-4.4267738E-1,-3.8570145E-1,-4.693826E-1,-9.627015E-2,-5.5370444E-1,5.131343E-1,2.6980686E-1,-2.0414531E-1,2.8308555E-1,-4.4128388E-1,-4.4081527E-1,5.334845E-1,3.703628E-1,-5.6600535E-1,-5.616908E-1,4.5870775E-1,3.4675947E-1,-4.7167566E-1,-2.6925337E-1,3.7769288E-2,-7.399474E-2,2.0060696E-1,-4.5709798E-1,4.6745616E-1,-2.1289334E-1,4.7189492E-1],"split_indices":[43,0,7,3,11,70,3,35,19,30,26,5,16,1,32,45,26,9,16,14,6,19,70,44,12,8,8,18,34,36,70,0,4,8,32,2,17,4,12,33,7,34,20,27,39,11,4,35,10,17,32,86,12,3,45,83,18,20,17,78,70,83,38,0,0,0,0,0,0,0,0,0,0,0,0,0,0,0,0,0,0,0,0,0,0,0,0,0,0,0,0,0,0,0,0,0,0,0,0,0,0,0,0,0,0,0,0,0,0,0,0,0,0,0,0,0,0,0,0,0,0,0,0,0,0,0,0],"split_type":[0,0,0,0,0,0,0,0,0,0,0,0,0,0,0,0,0,0,0,0,0,0,0,0,0,0,0,0,0,0,0,0,0,0,0,0,0,0,0,0,0,0,0,0,0,0,0,0,0,0,0,0,0,0,0,0,0,0,0,0,0,0,0,0,0,0,0,0,0,0,0,0,0,0,0,0,0,0,0,0,0,0,0,0,0,0,0,0,0,0,0,0,0,0,0,0,0,0,0,0,0,0,0,0,0,0,0,0,0,0,0,0,0,0,0,0,0,0,0,0,0,0,0,0,0,0,0],"sum_hessian":[1.9226389E6,1.0063812E6,9.1625775E5,8.516323E5,1.5474886E5,3.473535E5,5.6890425E5,2.6987025E5,5.8176206E5,1.0423078E5,5.0518086E4,3.103644E5,3.6989094E4,2.8013977E4,5.4089025E5,3.6545957E4,2.333243E5,5.2517644E5,5.6585605E4,7.1804914E4,3.242587E4,2.6396882E3,4.78784E4,3.7084429E3,3.0665597E5,5.4396167E3,3.1549477E4,1.8261104E3,2.6187865E4,4.634505E5,7.7439766E4,4.331807E3,3.221415E4,1.9867219E5,3.4652117E4,5.066791E5,1.849735E4,4.523521E4,1.1350394E4,5.619694E3,6.618522E4,2.9888773E4,2.537096E3,7.472121E2,1.8924761E3,4.321903E4,4.6593667E3,1.979088E3,1.7293549E3,2.0187812E3,3.046372E5,5.105704E3,3.3391272E2,1.8005164E4,1.3544314E4,1.4652208E3,3.6088953E2,2.5648594E4,5.392716E2,2.2174992E5,2.4170058E5,6.88645E4,8.5752705E3,1.5476282E3,2.784179E3,8.399118E3,2.3815033E4,2.7774307E4,1.7089788E5,1.238563E4,2.2266488E4,4.962459E3,5.0171662E5,6.1802505E3,1.2317099E4,1.3130274E4,3.2104936E4,1.000136E4,1.3490333E3,4.885796E3,7.3389777E2,5.895068E4,7.2345366E3,1.5124276E4,1.4764497E4,4.352132E2,2.1018828E3,7.2413185E1,6.7479895E2,1.6371531E3,2.5532307E2,1.1724386E4,3.1494646E4,3.597475E3,1.0618915E3,1.6849932E3,2.940949E2,1.553708E3,1.7564688E2,6.7516956E2,1.3436117E3,2.2229627E5,8.234092E4,4.491946E3,6.1375836E2,7.779508E1,2.5611765E2,5.0212827E3,1.2983881E4,1.2592511E4,9.5180304E2,1.4403447E3,2.4876099E1,3.2101312E2,3.9876415E1,1.6243619E2,2.5486158E4,7.652179E1,4.6274982E2,1.6766194E5,5.408798E4,1.6089606E5,8.080452E4,6.844121E4,4.2328525E2,7.8597305E3,7.155405E2],"tree_param":{"num_deleted":"0","num_feature":"95","num_nodes":"127","size_leaf_vector":"0"}},{"base_weights":[-1.6745208E-3,4.8600534E-1,-5.4577994E-1,1.684816E-1,8.77083E-1,-1.0372776E0,-2.6578358E-1,3.4750533E-1,-7.067012E-1,7.597138E-2,9.664682E-1,-1.1690747E0,-3.259452E-2,1.1002827E0,-3.2720155E-1,3.7226535E-2,6.772775E-1,-1.7091545E-1,-1.1195453E0,-7.0019925E-1,8.1787443E-1,9.839769E-1,-1.9786837E0,-9.3902063E-1,-1.2333409E0,-9.406569E-1,2.007628E-1,-8.520703E-1,1.2320579E0,-2.0544398E-1,-1.1262102E0,4.4735608E-1,-2.440157E-1,8.95701E-1,-1.743521E-2,4.7446567E-1,-8.846091E-1,1.1766138E0,-1.216195E0,7.12487E-1,-9.7371906E-1,1.0089389E0,-1.6032546E0,1.0425649E0,1.5172097E-1,4.2186832E-1,-2.3787346E0,5.246502E-1,-1.0907421E0,-1.0196913E0,-1.2774031E0,-1.0817043E0,1.0478094E0,7.966874E-1,-1.8868035E-1,8.504938E-1,-1.1849539E0,1.2773062E0,-1.0120751E0,-4.591999E-1,1.3217656E-1,-1.2336537E0,-3.6441305E-1,-3.1827354E-1,1.8154456E-1,2.6624328E-1,-1.1604316E-1,-4.467365E-1,2.8165284E-1,2.1925999E-1,-1.4936362E-1,-2.0165989E-1,3.0078962E-1,3.9979628E-1,-3.3973163E-1,-2.8301725E-1,5.1761645E-1,-3.8325682E-1,-1.3397567E-1,-7.151831E-1,3.0378628E-1,-4.8622793E-1,-5.092075E-2,-5.6530184E-1,3.3886826E-1,-5.6952477E-1,5.347886E-1,3.1670594E-1,-5.776341E-1,-1.5781945E-1,3.7057585E-1,9.510198E-1,-4.2409298E-1,5.6552004E-2,-7.8950024E-1,-3.3347023E-1,6.9304436E-1,-3.4295395E-2,-3.4849027E-1,-3.3331633E-1,3.1776074E-1,2.2791792E-2,-3.8659063E-1,-5.3510445E-1,-2.5711843E-1,-5.787971E-1,4.335522E-1,-2.988899E-1,3.0525756E-1,2.5390634E-1,-1.5914293E-1,-4.4355398E-1,3.549968E-1,-3.9280963E-1,1.2813047E-1,3.844753E-2,3.9926723E-1,3.420173E-1,-4.180334E-1,-1.9834456E-1,6.792208E-2,2.4570774E-1,-4.016806E-2,4.076027E-1,-3.7489122E-1,1.5498882E-3,-3.972801E-1],"categories":[],"categories_nodes":[],"categories_segments":[],"categories_sizes":[],"default_left":[0,0,0,0,0,0,0,0,0,0,0,0,0,0,0,0,0,0,0,0,0,0,0,0,0,0,0,0,0,0,0,0,0,0,0,0,0,0,0,0,0,0,0,0,0,0,0,0,0,0,0,0,0,0,0,0,0,0,0,0,0,0,0,0,0,0,0,0,0,0,0,0,0,0,0,0,0,0,0,0,0,0,0,0,0,0,0,0,0,0,0,0,0,0,0,0,0,0,0,0,0,0,0,0,0,0,0,0,0,0,0,0,0,0,0,0,0,0,0,0,0,0,0,0,0,0,0],"id":2,"left_children":[1,3,5,7,9,11,13,15,17,19,21,23,25,27,29,31,33,35,37,39,41,43,45,47,49,51,53,55,57,59,61,63,65,67,69,71,73,75,77,79,81,83,85,87,89,91,93,95,97,99,101,103,105,107,109,111,113,115,117,119,121,123,125,-1,-1,-1,-1,-1,-1,-1,-1,-1,-1,-1,-1,-1,-1,-1,-1,-1,-1,-1,-1,-1,-1,-1,-1,-1,-1,-1,-1,-1,-1,-1,-1,-1,-1,-1,-1,-1,-1,-1,-1,-1,-1,-1,-1,-1,-1,-1,-1,-1,-1,-1,-1,-1,-1,-1,-1,-1,-1,-1,-1,-1,-1,-1,-1],"loss_changes":[4.720855E5,1.16502484E5,1.15723375E5,8.112771E4,3.0104281E4,4.041122E4,4.4947844E4,4.3984348E4,1.9449934E4,2.4301309E4,1.95045E4,3.9877188E3,7.500189E3,5.9311094E3,4.98752E4,2.5546842E4,3.162093E4,1.7627318E4,1.102291E4,7.9699023E3,9.982906E3,1.8332406E4,2.1478115E3,1.3083906E4,1.983875E3,2.0306567E3,6.535106E3,8.273279E2,2.1938906E3,3.8114344E4,5.548414E3,2.1442824E4,2.1228375E4,1.6312883E4,1.7921324E4,1.2171995E4,9.987695E3,2.3360017E3,2.2488125E3,3.1120552E3,8.988592E3,6.9817344E3,1.5809983E3,1.3681344E4,1.8160795E4,1.6195432E3,1.2448174E3,1.6170344E4,3.6950156E3,6.8502812E3,2.6576562E3,1.0640747E3,5.703887E2,4.4076885E3,6.025251E3,1.8703264E2,2.4523157E2,1.3031875E3,3.5231995E2,3.5166215E4,3.488634E4,2.4634688E3,2.9731167E3,0E0,0E0,0E0,0E0,0E0,0E0,0E0,0E0,0E0,0E0,0E0,0E0,0E0,0E0,0E0,0E0,0E0,0E0,0E0,0E0,0E0,0E0,0E0,0E0,0E0,0E0,0E0,0E0,0E0,0E0,0E0,0E0,0E0,0E0,0E0,0E0,0E0,0E0,0E0,0E0,0E0,0E0,0E0,0E0,0E0,0E0,0E0,0E0,0E0,0E0,0E0,0E0,0E0,0E0,0E0,0E0,0E0,0E0,0E0,0E0,0E0,0E0,0E0,0E0],"parents":[2147483647,0,0,1,1,2,2,3,3,4,4,5,5,6,6,7,7,8,8,9,9,10,10,11,11,12,12,13,13,14,14,15,15,16,16,17,17,18,18,19,19,20,20,21,21,22,22,23,23,24,24,25,25,26,26,27,27,28,28,29,29,30,30,31,31,32,32,33,33,34,34,35,35,36,36,37,37,38,38,39,39,40,40,41,41,42,42,43,43,44,44,45,45,46,46,47,47,48,48,49,49,50,50,51,51,52,52,53,53,54,54,55,55,56,56,57,57,58,58,59,59,60,60,61,61,62,62],"right_children":[2,4,6,8,10,12,14,16,18,20,22,24,26,28,30,32,34,36,38,40,42,44,46,48,50,52,54,56,58,60,62,64,66,68,70,72,74,76,78,80,82,84,86,88,90,92,94,96,98,100,102,104,106,108,110,112,114,116,118,120,122,124,126,-1,-1,-1,-1,-1,-1,-1,-1,-1,-1,-1,-1,-1,-1,-1,-1,-1,-1,-1,-1,-1,-1,-1,-1,-1,-1,-1,-1,-1,-1,-1,-1,-1,-1,-1,-1,-1,-1,-1,-1,-1,-1,-1,-1,-1,-1,-1,-1,-1,-1,-1,-1,-1,-1,-1,-1,-1,-1,-1,-1,-1,-1,-1,-1],"split_conditions":[1.1223351E0,1E0,1.1996141E1,1.2852306E1,6.8427877E0,1E0,1.6988125E1,1.1169844E-1,2.6544945E1,1.8504523E-1,4.7350365E-1,2.6798442E-2,2.8557168E-2,2.0125756E0,9.693713E-2,5.222225E-2,2.6951199E0,1.2564224E-2,3.3727074E-3,4.8620462E-2,1.1545625E-1,2.223209E-1,6.1483426E0,5.884655E0,9.1603845E-2,1.5279033E1,4.2994287E-2,5.9317174E0,2.3509333E-1,2.7991377E-2,1E0,5.087122E0,7.7261715E0,1.2584558E1,9.679253E-2,7.284345E-2,8.134239E-3,1.00218154E-1,4.686949E1,8.343689E-2,2.1830277E0,5.6045935E-2,3.0135536E-1,4.5505684E-2,3.3240178E-1,7.1635745E-2,3.9480966E-2,2.1830277E0,7.7801663E-4,2.6927187E1,1.49500985E-2,2.3997529E0,5.7489514E-2,8.6727664E-2,1.6988125E1,7.5745456E-2,1.1406968E1,5.7646167E-2,1.5152465E-3,1E0,1.9109651E-2,2.862668E-3,3.3378143E1,-3.1827354E-1,1.8154456E-1,2.6624328E-1,-1.1604316E-1,-4.467365E-1,2.8165284E-1,2.1925999E-1,-1.4936362E-1,-2.0165989E-1,3.0078962E-1,3.9979628E-1,-3.3973163E-1,-2.8301725E-1,5.1761645E-1,-3.8325682E-1,-1.3397567E-1,-7.151831E-1,3.0378628E-1,-4.8622793E-1,-5.092075E-2,-5.6530184E-1,3.3886826E-1,-5.6952477E-1,5.347886E-1,3.1670594E-1,-5.776341E-1,-1.5781945E-1,3.7057585E-1,9.510198E-1,-4.2409298E-1,5.6552004E-2,-7.8950024E-1,-3.3347023E-1,6.9304436E-1,-3.4295395E-2,-3.4849027E-1,-3.3331633E-1,3.1776074E-1,2.2791792E-2,-3.8659063E-1,-5.3510445E-1,-2.5711843E-1,-5.787971E-1,4.335522E-1,-2.988899E-1,3.0525756E-1,2.5390634E-1,-1.5914293E-1,-4.4355398E-1,3.549968E-1,-3.9280963E-1,1.2813047E-1,3.844753E-2,3.9926723E-1,3.420173E-1,-4.180334E-1,-1.9834456E-1,6.792208E-2,2.4570774E-1,-4.016806E-2,4.076027E-1,-3.7489122E-1,1.5498882E-3,-3.972801E-1],"split_indices":[43,77,7,9,1,70,3,21,7,18,40,27,12,1,32,37,0,32,20,4,39,42,2,44,42,10,13,10,18,13,70,1,45,7,18,20,36,22,8,21,0,30,13,31,34,14,4,0,15,8,19,4,32,35,3,31,6,21,36,78,29,16,8,0,0,0,0,0,0,0,0,0,0,0,0,0,0,0,0,0,0,0,0,0,0,0,0,0,0,0,0,0,0,0,0,0,0,0,0,0,0,0,0,0,0,0,0,0,0,0,0,0,0,0,0,0,0,0,0,0,0,0,0,0,0,0,0],"split_type":[0,0,0,0,0,0,0,0,0,0,0,0,0,0,0,0,0,0,0,0,0,0,0,0,0,0,0,0,0,0,0,0,0,0,0,0,0,0,0,0,0,0,0,0,0,0,0,0,0,0,0,0,0,0,0,0,0,0,0,0,0,0,0,0,0,0,0,0,0,0,0,0,0,0,0,0,0,0,0,0,0,0,0,0,0,0,0,0,0,0,0,0,0,0,0,0,0,0,0,0,0,0,0,0,0,0,0,0,0,0,0,0,0,0,0,0,0,0,0,0,0,0,0,0,0,0,0],"sum_hessian":[1.7791079E6,9.382013E5,8.409066E5,5.177948E5,4.204065E5,3.0518712E5,5.357195E5,4.298642E5,8.793062E4,4.2199254E4,3.7820725E5,2.6979456E5,3.5392555E4,2.3048775E4,5.1267072E5,2.2147862E5,2.0838556E5,3.8268062E4,4.966256E4,2.0623371E4,2.1575883E4,3.759728E5,2.2344595E3,5.8914273E4,2.108803E5,7.2352036E3,2.815735E4,1.4569825E3,2.1591793E4,4.4487878E5,6.779194E4,9.0094766E4,1.3138386E5,1.5853922E5,4.9846355E4,2.0095959E4,1.8172102E4,2.0055034E3,4.7657055E4,3.3450605E3,1.727831E4,1.9998291E4,1.5775908E3,3.5124603E5,2.4726785E4,3.1917255E2,1.9152869E3,5.533137E3,5.3381137E4,3.605938E4,1.7482092E5,6.756409E3,4.7879453E2,1.1128108E4,1.7029242E4,2.3802533E2,1.2189572E3,2.1165467E4,4.2632642E2,2.5398388E5,1.9089489E5,5.9411895E4,8.380044E3,8.532324E3,8.156244E4,1.4722094E4,1.16661766E5,2.81644E3,1.5572277E5,1.9489887E4,3.0356469E4,6.3372725E3,1.3758687E4,1.8265037E3,1.6345598E4,4.1223874E2,1.5932646E3,4.413909E4,3.5179646E3,2.9496933E2,3.0500913E3,9.573002E3,7.7053076E3,7.997836E2,1.9198508E4,1.4514972E3,1.2609361E2,3.4970062E5,1.5453787E3,1.5211802E4,9.514982E3,1.2751907E2,1.9165349E2,1.717991E2,1.7434878E3,2.8874634E3,2.645674E3,3.613509E3,4.9767625E4,3.45418E4,1.5175763E3,1.4389304E3,1.7338198E5,1.6362909E3,5.120118E3,5.5926563E1,4.2286795E2,1.2199331E3,9.908176E3,4.2271157E3,1.2802126E4,2.9331644E1,2.086937E2,1.1317977E3,8.715946E1,9.4312103E2,2.0222346E4,6.387568E1,3.624507E2,1.9619408E5,5.7789805E4,5.3300285E4,1.3759461E5,3.6355972E2,5.9048332E4,6.0511294E3,2.3289148E3],"tree_param":{"num_deleted":"0","num_feature":"95","num_nodes":"127","size_leaf_vector":"0"}},{"base_weights":[-2.2208036E-3,3.8081416E-1,-4.2948312E-1,1.2640546E-1,7.156302E-1,-9.013387E-1,-1.9717678E-1,2.6008925E-1,-5.5661225E-1,5.4094785E-1,1.0250257E0,-1.0322735E0,-1.4406765E-2,-3.436729E-1,2.911661E-1,3.141821E-1,-1.5325881E0,-2.5224617E-1,-1.1682808E0,7.437375E-1,9.3779795E-2,-2.4169245E0,1.0757788E0,-8.002322E-1,-1.0997715E0,-1.0171959E0,1.4064704E-1,9.863792E-2,-6.608722E-1,8.4689534E-1,-1.9655882E-1,6.467321E-1,7.5457945E-2,-1.6283625E0,8.933914E-1,2.081746E-1,-7.68787E-1,8.1591225E-1,-1.2143397E0,8.3040226E-1,-7.523869E-1,-7.236089E-1,4.6246728E-1,-1.3139919E0,-3.1925352E0,-3.7391703E0,1.0900166E0,-1.0067158E0,8.758358E-2,-1.1471754E0,-7.9158235E-1,1.6631086E-1,-1.2162386E0,3.034601E-1,-1.0201893E0,5.0458515E-1,-4.3803027E-1,-7.315464E-1,1.3866626E0,9.836475E-1,-2.0524962E-1,-3.993189E-1,6.9700265E-1,-3.202786E-1,2.2597176E-1,1.8010978E-1,-8.4155135E-2,-6.825476E-1,-4.1911843E-1,-9.446938E-1,3.712042E-1,1.8712296E-1,-1.808929E-1,-1.5727454E-1,-4.2853853E-1,5.675531E-1,-5.4496247E-1,-4.0718144E-1,-1.5089272E-1,-1.5377085E-1,2.700836E-1,-6.9553606E-2,-9.10286E-1,-3.7884894E-1,1.2768663E-1,1.7438523E-1,-5.0191784E-1,-9.711426E-1,-8.414453E-2,-1.0960177E0,-4.7051623E-1,-1.1939564E0,-9.637421E-1,3.3124414E-1,-9.8267764E-1,3.278011E-1,-3.1656533E-1,4.2114225E-1,-2.682208E-1,-3.5386145E-1,-2.3525296E-1,5.729534E-1,-2.764929E-1,2.5286686E-1,-4.4391564E-1,5.013381E-1,-3.8885078E-1,-2.99122E-1,1.4170891E-1,1.3933374E-1,-3.8265523E-1,-2.0063795E-1,2.0199677E-1,-4.447356E-2,-4.5260265E-1,2.9575905E-1,-2.3914891E-1,-4.30303E-1,5.213859E-1,-1.9547078E-1,3.2768142E-1,4.1003847E-1,-2.3166126E-1,-3.8419285E-1,-7.0637256E-2,-1.512869E-1,3.4175313E-1],"categories":[],"categories_nodes":[],"categories_segments":[],"categories_sizes":[],"default_left":[0,0,0,0,0,0,0,0,0,0,0,0,0,0,0,0,0,0,0,0,0,0,0,0,0,0,0,0,0,0,0,0,0,0,0,0,0,0,0,0,0,0,0,0,0,0,0,0,0,0,0,0,0,0,0,0,0,0,0,0,0,0,0,0,0,0,0,0,0,0,0,0,0,0,0,0,0,0,0,0,0,0,0,0,0,0,0,0,0,0,0,0,0,0,0,0,0,0,0,0,0,0,0,0,0,0,0,0,0,0,0,0,0,0,0,0,0,0,0,0,0,0,0,0,0,0,0],"id":3,"left_children":[1,3,5,7,9,11,13,15,17,19,21,23,25,27,29,31,33,35,37,39,41,43,45,47,49,51,53,55,57,59,61,63,65,67,69,71,73,75,77,79,81,83,85,87,89,91,93,95,97,99,101,103,105,107,109,111,113,115,117,119,121,123,125,-1,-1,-1,-1,-1,-1,-1,-1,-1,-1,-1,-1,-1,-1,-1,-1,-1,-1,-1,-1,-1,-1,-1,-1,-1,-1,-1,-1,-1,-1,-1,-1,-1,-1,-1,-1,-1,-1,-1,-1,-1,-1,-1,-1,-1,-1,-1,-1,-1,-1,-1,-1,-1,-1,-1,-1,-1,-1,-1,-1,-1,-1,-1,-1],"loss_changes":[2.668963E5,7.324829E4,8.4503125E4,4.4616777E4,2.0066016E4,2.9535E4,3.6956715E4,3.962804E4,1.4890418E4,2.1519312E4,2.3407562E4,3.4700625E3,5.0871406E3,5.5752363E4,3.2310684E4,3.1491852E4,2.7826113E3,1.2702314E4,2.4297305E3,2.1170023E4,2.2313828E4,1.6615293E3,9.055516E3,9.155289E3,2.5070938E3,1.0323247E3,5.355847E3,3.6156133E4,3.3489008E4,8.017324E3,1.1503197E4,3.0267797E4,4.3148387E4,1.7196074E3,6.368774E2,9.519598E3,4.0597188E3,1.7127549E3,2.6401719E3,1.4482914E4,1.0618582E4,1.4263434E4,1.2948439E4,1.6004108E3,8.494629E2,3.659082E1,8.124625E3,4.1268594E3,1.2178219E4,1.7469062E3,8.0436377E3,7.047098E2,8.6779736E2,5.4594707E3,1.3219067E3,1.8708426E4,2.2174785E4,2.5209383E4,7.6545576E3,8.759461E3,5.714104E3,7.472873E3,6.237944E3,0E0,0E0,0E0,0E0,0E0,0E0,0E0,0E0,0E0,0E0,0E0,0E0,0E0,0E0,0E0,0E0,0E0,0E0,0E0,0E0,0E0,0E0,0E0,0E0,0E0,0E0,0E0,0E0,0E0,0E0,0E0,0E0,0E0,0E0,0E0,0E0,0E0,0E0,0E0,0E0,0E0,0E0,0E0,0E0,0E0,0E0,0E0,0E0,0E0,0E0,0E0,0E0,0E0,0E0,0E0,0E0,0E0,0E0,0E0,0E0,0E0,0E0,0E0,0E0],"parents":[2147483647,0,0,1,1,2,2,3,3,4,4,5,5,6,6,7,7,8,8,9,9,10,10,11,11,12,12,13,13,14,14,15,15,16,16,17,17,18,18,19,19,20,20,21,21,22,22,23,23,24,24,25,25,26,26,27,27,28,28,29,29,30,30,31,31,32,32,33,33,34,34,35,35,36,36,37,37,38,38,39,39,40,40,41,41,42,42,43,43,44,44,45,45,46,46,47,47,48,48,49,49,50,50,51,51,52,52,53,53,54,54,55,55,56,56,57,57,58,58,59,59,60,60,61,61,62,62],"right_children":[2,4,6,8,10,12,14,16,18,20,22,24,26,28,30,32,34,36,38,40,42,44,46,48,50,52,54,56,58,60,62,64,66,68,70,72,74,76,78,80,82,84,86,88,90,92,94,96,98,100,102,104,106,108,110,112,114,116,118,120,122,124,126,-1,-1,-1,-1,-1,-1,-1,-1,-1,-1,-1,-1,-1,-1,-1,-1,-1,-1,-1,-1,-1,-1,-1,-1,-1,-1,-1,-1,-1,-1,-1,-1,-1,-1,-1,-1,-1,-1,-1,-1,-1,-1,-1,-1,-1,-1,-1,-1,-1,-1,-1,-1,-1,-1,-1,-1,-1,-1,-1,-1,-1,-1,-1,-1],"split_conditions":[1.0803025E0,1E0,1.1935572E1,1.2884309E1,1.3487323E1,1E0,1E0,1E0,2.1156961E-2,2.0420688E-1,3.7203822E-2,2.6931347E-2,1.18127786E-1,1.8913273E-2,1.527546E-1,6.7748833E0,2.5581903E1,4.0082806E1,2.7654762E-3,1E0,1.445657E-1,4.2487048E-2,5.2808253E-3,8.896858E-2,1E0,1.7421309E1,1.2479547E-1,1.16574235E-1,1.0298158E0,6.0459914E0,6.592593E-2,4.3225333E-2,5.3140804E-2,8.5925255E0,6.7748833E0,1.2733346E-1,2.1130063E-1,6.329739E-3,1.6643493E-1,5.1688285E0,6.839637E0,1.9475112E-2,3.1545114E-2,3.2017108E-2,4.7329447E-1,2.1875E-1,4.4105206E-2,2.1336257E-4,8.1844784E-2,1E0,4.7180965E-3,7.5940356E0,8.820854E-3,7.136809E-2,6.7938733E0,9.3021296E-2,2.6005304E1,1.6988125E1,1E0,2.3614872E0,1.5841525E-2,1.8399409E0,3.2535415E0,-3.202786E-1,2.2597176E-1,1.8010978E-1,-8.4155135E-2,-6.825476E-1,-4.1911843E-1,-9.446938E-1,3.712042E-1,1.8712296E-1,-1.808929E-1,-1.5727454E-1,-4.2853853E-1,5.675531E-1,-5.4496247E-1,-4.0718144E-1,-1.5089272E-1,-1.5377085E-1,2.700836E-1,-6.9553606E-2,-9.10286E-1,-3.7884894E-1,1.2768663E-1,1.7438523E-1,-5.0191784E-1,-9.711426E-1,-8.414453E-2,-1.0960177E0,-4.7051623E-1,-1.1939564E0,-9.637421E-1,3.3124414E-1,-9.8267764E-1,3.278011E-1,-3.1656533E-1,4.2114225E-1,-2.682208E-1,-3.5386145E-1,-2.3525296E-1,5.729534E-1,-2.764929E-1,2.5286686E-1,-4.4391564E-1,5.013381E-1,-3.8885078E-1,-2.99122E-1,1.4170891E-1,1.3933374E-1,-3.8265523E-1,-2.0063795E-1,2.0199677E-1,-4.447356E-2,-4.5260265E-1,2.9575905E-1,-2.3914891E-1,-4.30303E-1,5.213859E-1,-1.9547078E-1,3.2768142E-1,4.1003847E-1,-2.3166126E-1,-3.8419285E-1,-7.0637256E-2,-1.512869E-1,3.4175313E-1],"split_indices":[43,77,7,9,2,70,70,80,16,26,30,27,25,5,18,44,7,8,20,86,34,21,32,32,78,3,38,23,18,1,16,14,14,45,44,23,35,11,22,1,44,15,29,21,40,19,28,13,35,94,36,45,34,35,45,18,7,3,78,1,14,2,2,0,0,0,0,0,0,0,0,0,0,0,0,0,0,0,0,0,0,0,0,0,0,0,0,0,0,0,0,0,0,0,0,0,0,0,0,0,0,0,0,0,0,0,0,0,0,0,0,0,0,0,0,0,0,0,0,0,0,0,0,0,0,0,0],"split_type":[0,0,0,0,0,0,0,0,0,0,0,0,0,0,0,0,0,0,0,0,0,0,0,0,0,0,0,0,0,0,0,0,0,0,0,0,0,0,0,0,0,0,0,0,0,0,0,0,0,0,0,0,0,0,0,0,0,0,0,0,0,0,0,0,0,0,0,0,0,0,0,0,0,0,0,0,0,0,0,0,0,0,0,0,0,0,0,0,0,0,0,0,0,0,0,0,0,0,0,0,0,0,0,0,0,0,0,0,0,0,0,0,0,0,0,0,0,0,0,0,0,0,0,0,0,0,0],"sum_hessian":[1.6308311E6,8.599224E5,7.709088E5,4.8863572E5,3.7128662E5,2.5432552E5,5.1658328E5,4.0865272E5,7.9983016E4,2.3730742E5,1.339792E5,2.2160981E5,3.27157E4,3.973762E5,1.1920708E5,3.9668388E5,1.1968846E4,5.3408414E4,2.65746E4,1.6326602E5,7.4041414E4,1.9461987E3,1.32033E5,4.9940258E4,1.7166955E5,4.3804136E3,2.8335285E4,1.6595917E5,2.3141702E5,5.5718695E4,6.3488383E4,1.6576561E5,2.3091825E5,1.1514594E4,4.5425195E2,2.8238504E4,2.516991E4,6.025005E2,2.59721E4,1.5432689E5,8.939119E3,2.3015205E4,5.1026207E4,8.0465643E2,1.1415424E3,3.8849677E2,1.316445E5,4.051691E4,9.423348E3,1.4878198E5,2.288756E4,6.3066254E2,3.7497512E3,2.4850604E4,3.484682E3,9.448715E4,7.147203E4,2.236964E5,7.720621E3,4.9309742E4,6.408953E3,5.174692E4,1.1741461E4,9.69569E3,1.5606992E5,9.331647E4,1.3760178E5,3.0307524E3,8.483842E3,3.4980892E1,4.1927106E2,1.8672465E4,9.56604E3,1.8364182E4,6.805728E3,4.278939E2,1.7460661E2,2.1625967E4,4.346133E3,7.6323657E3,1.4669453E5,7.279613E3,1.6595066E3,1.5665045E4,7.350161E3,4.8337523E4,2.6886843E3,2.8052496E2,5.241315E2,8.882494E2,2.532929E2,2.6214734E2,1.2634944E2,1.3122052E5,4.2398572E2,9.144349E2,3.9602477E4,4.0254705E3,5.3978774E3,1.3660123E5,1.2180754E4,1.050681E3,2.1836879E4,4.4729553E2,1.8336697E2,1.0047147E2,3.6492798E3,2.8558647E3,2.1994738E4,5.1123392E2,2.973448E3,1.1879019E4,8.2608125E4,5.6248676E4,1.5223352E4,8.231664E3,2.1546473E5,8.546164E2,6.866005E3,3.0711917E3,4.623855E4,1.6983577E3,4.7105957E3,8.1116777E3,4.3635246E4,3.1590005E3,8.58246E3],"tree_param":{"num_deleted":"0","num_feature":"95","num_nodes":"127","size_leaf_vector":"0"}},{"base_weights":[-2.552584E-3,-6.6877425E-1,1.6726896E-1,-8.2059544E-1,2.859052E-2,3.154631E-1,-2.3633036E-1,-9.8906344E-1,-1.6897756E-1,2.2759369E-1,-6.6054845E-1,4.1623497E-1,-2.509241E-1,-7.2467715E-2,-7.239659E-1,-9.9415E-1,2.9967592E0,-7.687127E-1,9.202105E-2,-1.0400246E0,4.0906766E-1,-9.1057694E-1,2.565532E-1,4.6402517E-1,-7.564006E-1,-6.9677407E-1,1.0542674E-1,-2.0730019E-1,6.126027E-1,-1.0864277E0,-1.4704175E-1,5.326355E-1,-1.0051432E0,-3.650665E-1,9.865071E-1,-1.0726616E0,5.6938255E-1,2.660031E-1,-1.1648567E0,-1.4159352E0,9.722721E-1,6.0695463E-1,-2.9518527E-1,-9.888864E-1,1.3860967E0,-1.687628E0,5.756847E-1,1.9412316E-1,5.976527E-1,7.077255E-2,-1.2067015E0,1.2402744E0,-8.0230725E-1,-9.842293E-1,3.4918797E-1,-3.9259458E-1,2.7495953E-1,9.684081E-1,-8.303843E-1,-1.1158403E0,5.949495E-1,1.7847823E0,-3.7246063E-1,5.835882E-1,-2.555138E-1,-2.6177078E-1,-3.3786792E-1,3.8299215E-1,-3.7052637E-1,-2.80814E-1,3.5756198E-1,1.2492542E-1,-4.855657E-1,-1.2583795E-3,-3.665098E-1,3.4374094E-1,-4.41191E-1,4.429406E-1,-5.615077E-1,-2.5420773E-1,2.2085203E-1,2.2063784E-1,-3.006827E-1,-2.5231257E-1,-6.1697626E-1,-5.627128E-1,4.6818775E-1,-4.4481716E-1,-6.137665E-1,-6.7436904E-1,2.2328638E-1,-1.1538119E-3,2.919389E-1,1.9157468E-1,-1.4576067E-1,3.26728E-1,-1.5832193E-1,-4.2224726E-1,-1.8027315E-1,-3.8519984E-1,5.8424497E-1,-2.8055248E-1,1.08491324E-1,-3.711418E-1,5.8354985E-4,3.659731E-1,-2.8121308E-3,-5.7638023E-2,-2.5509426E-1,-1.7832077E-1,2.2512479E-1,-4.424909E-1,3.1215772E-1,1.6279748E-1,-3.6301258E-1,-3.4584135E-1,6.04685E-2,-4.371011E-1,4.5841476E-1,-3.808355E-1,6.639109E-1,-2.7893248E-1,2.253686E-1],"categories":[],"categories_nodes":[],"categories_segments":[],"categories_sizes":[],"default_left":[0,0,0,0,0,0,0,0,0,0,0,0,0,0,0,0,0,0,0,0,0,0,0,0,0,0,0,0,0,0,0,0,0,0,0,0,0,0,0,0,0,0,0,0,0,0,0,0,0,0,0,0,0,0,0,0,0,0,0,0,0,0,0,0,0,0,0,0,0,0,0,0,0,0,0,0,0,0,0,0,0,0,0,0,0,0,0,0,0,0,0,0,0,0,0,0,0,0,0,0,0,0,0,0,0,0,0,0,0,0,0,0,0,0,0,0,0,0,0,0,0,0,0],"id":4,"left_children":[1,3,5,7,9,11,13,15,17,19,21,23,25,27,29,31,33,35,37,39,41,43,45,47,49,51,53,55,57,59,61,63,65,-1,-1,67,69,71,73,75,77,79,81,83,85,87,89,91,93,95,97,99,101,103,105,107,109,111,113,115,117,119,121,-1,-1,-1,-1,-1,-1,-1,-1,-1,-1,-1,-1,-1,-1,-1,-1,-1,-1,-1,-1,-1,-1,-1,-1,-1,-1,-1,-1,-1,-1,-1,-1,-1,-1,-1,-1,-1,-1,-1,-1,-1,-1,-1,-1,-1,-1,-1,-1,-1,-1,-1,-1,-1,-1,-1,-1,-1,-1,-1,-1],"loss_changes":[1.6876881E5,3.2080234E4,7.10972E4,2.7315531E4,7.4294688E3,4.9624773E4,2.5509406E4,4.0114531E3,8.001509E3,9.670214E3,2.7836348E3,4.136517E4,2.0865312E4,2.207203E4,1.6790707E4,3.3147812E3,3.139287E2,6.3048154E3,7.78909E3,3.9836606E3,5.124791E3,1.7168706E3,1.6148683E3,2.557886E4,1.0766266E4,1.192665E4,1.9387838E4,1.7841457E4,2.0176102E4,2.4393906E3,1.3492915E4,2.7634802E3,3.1461094E3,0E0,0E0,4.821633E3,2.6904849E3,8.869762E3,2.8573877E2,6.2333887E2,1.1918208E3,5.395215E3,5.8793994E3,1.4543936E3,1.8220703E2,2.3909424E1,1.0657488E3,3.6219555E4,2.1037438E4,6.210854E3,2.2756758E3,5.383996E3,8.556324E3,3.328086E3,1.8622598E4,1.3234854E4,2.2907865E4,5.556283E3,4.0527793E3,2.3603633E3,1.6267677E3,4.2377236E3,1.7376879E4,0E0,0E0,0E0,0E0,0E0,0E0,0E0,0E0,0E0,0E0,0E0,0E0,0E0,0E0,0E0,0E0,0E0,0E0,0E0,0E0,0E0,0E0,0E0,0E0,0E0,0E0,0E0,0E0,0E0,0E0,0E0,0E0,0E0,0E0,0E0,0E0,0E0,0E0,0E0,0E0,0E0,0E0,0E0,0E0,0E0,0E0,0E0,0E0,0E0,0E0,0E0,0E0,0E0,0E0,0E0,0E0,0E0,0E0,0E0,0E0],"parents":[2147483647,0,0,1,1,2,2,3,3,4,4,5,5,6,6,7,7,8,8,9,9,10,10,11,11,12,12,13,13,14,14,15,15,16,16,17,17,18,18,19,19,20,20,21,21,22,22,23,23,24,24,25,25,26,26,27,27,28,28,29,29,30,30,31,31,32,32,35,35,36,36,37,37,38,38,39,39,40,40,41,41,42,42,43,43,44,44,45,45,46,46,47,47,48,48,49,49,50,50,51,51,52,52,53,53,54,54,55,55,56,56,57,57,58,58,59,59,60,60,61,61,62,62],"right_children":[2,4,6,8,10,12,14,16,18,20,22,24,26,28,30,32,34,36,38,40,42,44,46,48,50,52,54,56,58,60,62,64,66,-1,-1,68,70,72,74,76,78,80,82,84,86,88,90,92,94,96,98,100,102,104,106,108,110,112,114,116,118,120,122,-1,-1,-1,-1,-1,-1,-1,-1,-1,-1,-1,-1,-1,-1,-1,-1,-1,-1,-1,-1,-1,-1,-1,-1,-1,-1,-1,-1,-1,-1,-1,-1,-1,-1,-1,-1,-1,-1,-1,-1,-1,-1,-1,-1,-1,-1,-1,-1,-1,-1,-1,-1,-1,-1,-1,-1,-1,-1,-1,-1],"split_conditions":[2.6937037E1,1E0,1.2662013E-1,5.333592E0,1.0041301E-1,3.569012E1,8.343436E0,1E0,3.1289365E-2,6.541274E-2,2.0425035E-1,4.8955813E-1,4.8462994E-2,1.3487323E1,1.8404087E-1,1.7763785E-4,1.47748575E1,1.7771374E-1,4.0734215E0,4.5941764E-1,7.6020814E-2,2.0781689E1,1.9441365E-1,3.4789955E1,1.4730583E-2,-2.50765E0,1.8399409E0,4.5079615E-2,1.7548484E-1,4.338621E-1,1.5506445E-1,4.3583844E-2,6.805245E0,-3.650665E-1,9.865071E-1,2.1128249E-4,1.0329137E-2,1.6684446E1,1.5905537E-2,-9.511702E0,1.2269383E1,9.16094E-2,9.559917E-2,1.3119838E1,3.3545232E-1,1.2040105E1,3.2260448E-2,1E0,3.955308E1,6.233243E0,8.023063E-2,5.728819E-2,1.2571031E-1,9.235931E-2,2.536895E0,4.475391E-2,1.0505716E0,1.8950957E-1,6.321247E-2,8.826809E-1,4.017193E-1,1.4916733E-1,2.8125873E-1,5.835882E-1,-2.555138E-1,-2.6177078E-1,-3.3786792E-1,3.8299215E-1,-3.7052637E-1,-2.80814E-1,3.5756198E-1,1.2492542E-1,-4.855657E-1,-1.2583795E-3,-3.665098E-1,3.4374094E-1,-4.41191E-1,4.429406E-1,-5.615077E-1,-2.5420773E-1,2.2085203E-1,2.2063784E-1,-3.006827E-1,-2.5231257E-1,-6.1697626E-1,-5.627128E-1,4.6818775E-1,-4.4481716E-1,-6.137665E-1,-6.7436904E-1,2.2328638E-1,-1.1538119E-3,2.919389E-1,1.9157468E-1,-1.4576067E-1,3.26728E-1,-1.5832193E-1,-4.2224726E-1,-1.8027315E-1,-3.8519984E-1,5.8424497E-1,-2.8055248E-1,1.08491324E-1,-3.711418E-1,5.8354985E-4,3.659731E-1,-2.8121308E-3,-5.7638023E-2,-2.5509426E-1,-1.7832077E-1,2.2512479E-1,-4.424909E-1,3.1215772E-1,1.6279748E-1,-3.6301258E-1,-3.4584135E-1,6.04685E-2,-4.371011E-1,4.5841476E-1,-3.808355E-1,6.639109E-1,-2.7893248E-1,2.253686E-1],"split_indices":[8,70,23,1,38,43,44,84,20,21,12,33,20,2,39,12,7,39,4,34,29,10,33,3,29,2,2,28,34,12,42,34,44,0,0,13,12,7,34,9,7,42,26,7,37,7,29,87,3,44,13,13,22,28,2,32,43,42,35,18,23,37,26,0,0,0,0,0,0,0,0,0,0,0,0,0,0,0,0,0,0,0,0,0,0,0,0,0,0,0,0,0,0,0,0,0,0,0,0,0,0,0,0,0,0,0,0,0,0,0,0,0,0,0,0,0,0,0,0,0,0,0,0],"split_type":[0,0,0,0,0,0,0,0,0,0,0,0,0,0,0,0,0,0,0,0,0,0,0,0,0,0,0,0,0,0,0,0,0,0,0,0,0,0,0,0,0,0,0,0,0,0,0,0,0,0,0,0,0,0,0,0,0,0,0,0,0,0,0,0,0,0,0,0,0,0,0,0,0,0,0,0,0,0,0,0,0,0,0,0,0,0,0,0,0,0,0,0,0,0,0,0,0,0,0,0,0,0,0,0,0,0,0,0,0,0,0,0,0,0,0,0,0,0,0,0,0,0,0],"sum_hessian":[1.4916952E6,3.030005E5,1.1886948E6,2.4882858E5,5.417191E4,8.6944944E5,3.192453E5,1.97712E5,5.111659E4,4.20343E4,1.2137607E4,7.3812256E5,1.3132684E5,2.3895066E5,8.0294664E4,1.9746075E5,2.5124185E2,1.5499394E4,3.5617195E4,5.263483E3,3.677082E4,9.537433E3,2.6001738E3,7.0921925E5,2.8903297E4,5.8337133E4,7.298971E4,1.9965597E5,3.929469E4,4.9312445E4,3.0982219E4,1.4112562E3,1.960495E5,1.6056023E1,2.3518584E2,1.2630556E4,2.8688376E3,3.1287098E4,4.3300977E3,4.4352456E3,8.282373E2,2.870514E4,8.0656772E3,9.22351E3,3.1392368E2,3.6602493E2,2.234149E3,2.3485648E5,4.7436278E5,1.0188514E4,1.8714783E4,3.013525E3,5.532361E4,1.3342651E4,5.9647062E4,1.4423719E5,5.5418785E4,3.1522373E4,7.7723193E3,4.8464977E4,8.4746765E2,3.2367322E3,2.7745486E4,6.9828546E2,7.129707E2,9.358808E4,1.02461414E5,8.163383E2,1.1814218E4,8.390875E2,2.0297501E3,2.8975232E4,2.311866E3,2.022127E2,4.127885E3,9.230986E1,4.342936E3,7.0392224E2,1.2431506E2,2.3419314E3,2.636321E4,3.281935E3,4.783742E3,8.103241E3,1.1202682E3,1.5448912E1,2.9847476E2,2.3611783E2,1.2990709E2,1.251946E2,2.1089543E3,1.8726719E5,4.758929E4,4.5709656E5,1.7266229E4,3.7712368E3,6.4172764E3,1.4054949E4,4.659834E3,6.5933026E2,2.3541946E3,4.9655492E4,5.6681187E3,1.0619076E4,2.723575E3,1.7397357E4,4.2249707E4,1.0030705E5,4.3930133E4,1.9593049E4,3.5825734E4,9.0316785E2,3.0619205E4,1.6834918E3,6.0888276E3,4.7142363E4,1.3226138E3,2.64735E2,5.8273267E2,3.9779095E2,2.8389412E3,1.8546957E4,9.198529E3],"tree_param":{"num_deleted":"0","num_feature":"95","num_nodes":"123","size_leaf_vector":"0"}},{"base_weights":[-5.2328324E-3,-5.45933E-1,1.3931109E-1,-6.965121E-1,9.2497535E-2,1.749562E-1,-1.1492535E0,2.3766723E-1,-7.770832E-1,-1.4546055E0,1.6392292E-1,3.9446735E-1,-1.795389E-2,-1.2114459E0,-1.9904507E-2,-4.5945954E-1,7.7220803E-1,-8.79312E-1,-3.38652E-1,-1.143421E0,-1.6051122E0,-5.941115E-1,2.9931474E-1,1.2743445E-1,6.585746E-1,-1.4437842E-1,4.2384028E-1,-1.5199882E0,-9.974538E-1,1.2912427E0,-1.1037589E0,-1.2869654E0,2.2645636E-1,9.8633415E-1,-1.0167952E0,-6.158679E-1,-1.0499653E0,-7.5517654E-1,7.482349E-2,-1.3130884E0,1.0774256E0,-1.4089202E0,-1.7221969E0,-1.3589919E-1,-1.2108706E0,-1.6799788E-1,5.4885906E-1,3.8374478E-1,-2.1206473E-1,7.0457095E-1,-8.623246E-1,-5.0172126E-3,-6.2512875E-1,7.2776955E-1,-4.852178E-2,-1.5925924E0,-7.30904E-1,8.5385215E-1,-1.0775497E0,-2.2171597E0,1.4395943E0,1.7504659E0,-1.4442612E0,-4.3707785E-1,1.4215435E-1,2.6672292E-1,-1.8007901E-1,-3.0628884E-1,3.3890635E-1,-4.208227E-1,3.032322E-1,-2.874232E-1,8.6993035E-3,-3.2015353E-1,2.87294E-1,-3.031269E-1,1.7364362E-2,3.1271565E-1,-7.373488E-2,-9.008838E-2,-4.6384236E-1,4.9647444E-1,-4.797522E-1,-4.0994123E-1,-5.1441854E-1,-5.9209514E-1,-4.8099717E-1,-2.9495224E-1,1.1602576E-1,-4.6486962E-1,-7.841456E-2,-2.4494758E-1,6.4123675E-2,1.9417559E-1,-3.1281793E-1,1.4041707E-1,-2.7718306E-1,-2.2718698E-1,7.699981E-2,2.1916293E-1,-4.9534622E-1,-3.7970522E-1,8.978838E-2,-1.6532268E-1,2.4612913E-2,2.2928484E-1,-2.047401E-1,4.3037392E-2,2.853377E-1,-8.205411E-2,1.8443993E-1,-4.3934616E-1,-5.297241E-1,4.9651808E-1,-4.2017588E-1,-4.710976E-1,4.939614E-1,2.3759408E-2,-3.489271E-1,-7.0066506E-1,-3.4750336E-1,1.2319154E0,3.7817603E-1,-5.394741E-1,7.236295E-1,3.0944178E-1,-4.5188808E-1],"categories":[],"categories_nodes":[],"categories_segments":[],"categories_sizes":[],"default_left":[0,0,0,0,0,0,0,0,0,0,0,0,0,0,0,0,0,0,0,0,0,0,0,0,0,0,0,0,0,0,0,0,0,0,0,0,0,0,0,0,0,0,0,0,0,0,0,0,0,0,0,0,0,0,0,0,0,0,0,0,0,0,0,0,0,0,0,0,0,0,0,0,0,0,0,0,0,0,0,0,0,0,0,0,0,0,0,0,0,0,0,0,0,0,0,0,0,0,0,0,0,0,0,0,0,0,0,0,0,0,0,0,0,0,0,0,0,0,0,0,0,0,0,0,0,0,0],"id":5,"left_children":[1,3,5,7,9,11,13,15,17,19,21,23,25,27,29,31,33,35,37,39,41,43,45,47,49,51,53,55,57,59,61,63,65,67,69,71,73,75,77,79,81,83,85,87,89,91,93,95,97,99,101,103,105,107,109,111,113,115,117,119,121,123,125,-1,-1,-1,-1,-1,-1,-1,-1,-1,-1,-1,-1,-1,-1,-1,-1,-1,-1,-1,-1,-1,-1,-1,-1,-1,-1,-1,-1,-1,-1,-1,-1,-1,-1,-1,-1,-1,-1,-1,-1,-1,-1,-1,-1,-1,-1,-1,-1,-1,-1,-1,-1,-1,-1,-1,-1,-1,-1,-1,-1,-1,-1,-1,-1],"loss_changes":[1.08240805E5,2.8084617E4,5.019422E4,1.7792414E4,6.161226E3,4.5030555E4,2.0661016E3,6.994771E3,9.753359E3,1.134043E2,5.469909E3,3.5079516E4,3.1612885E4,1.8393477E3,2.1848042E3,4.624331E3,4.0708032E3,7.9329688E3,7.0868306E3,3.0496326E2,3.5612305E1,2.282377E3,5.27332E3,2.1522334E4,1.7494602E4,2.9483469E4,1.8079111E4,6.5287695E2,2.4425215E3,3.653191E2,8.2050073E2,1.1057104E3,2.4411328E3,2.731626E3,8.9050574E2,1.5309906E4,3.7018594E3,4.25421E3,6.4063145E3,1.7629211E2,9.18738E1,5.762451E0,2.7699463E1,2.0529468E3,1.1066992E3,3.8972173E3,4.616967E3,1.5538945E4,2.7192344E4,1.4852289E4,3.4401626E3,1.6219162E4,7.8794023E3,1.0000355E4,7.358436E3,2.2929297E2,1.542237E3,1.3158256E3,1.5618555E3,8.822632E-1,3.1377722E2,2.1602136E2,1.1711804E2,0E0,0E0,0E0,0E0,0E0,0E0,0E0,0E0,0E0,0E0,0E0,0E0,0E0,0E0,0E0,0E0,0E0,0E0,0E0,0E0,0E0,0E0,0E0,0E0,0E0,0E0,0E0,0E0,0E0,0E0,0E0,0E0,0E0,0E0,0E0,0E0,0E0,0E0,0E0,0E0,0E0,0E0,0E0,0E0,0E0,0E0,0E0,0E0,0E0,0E0,0E0,0E0,0E0,0E0,0E0,0E0,0E0,0E0,0E0,0E0,0E0,0E0,0E0,0E0],"parents":[2147483647,0,0,1,1,2,2,3,3,4,4,5,5,6,6,7,7,8,8,9,9,10,10,11,11,12,12,13,13,14,14,15,15,16,16,17,17,18,18,19,19,20,20,21,21,22,22,23,23,24,24,25,25,26,26,27,27,28,28,29,29,30,30,31,31,32,32,33,33,34,34,35,35,36,36,37,37,38,38,39,39,40,40,41,41,42,42,43,43,44,44,45,45,46,46,47,47,48,48,49,49,50,50,51,51,52,52,53,53,54,54,55,55,56,56,57,57,58,58,59,59,60,60,61,61,62,62],"right_children":[2,4,6,8,10,12,14,16,18,20,22,24,26,28,30,32,34,36,38,40,42,44,46,48,50,52,54,56,58,60,62,64,66,68,70,72,74,76,78,80,82,84,86,88,90,92,94,96,98,100,102,104,106,108,110,112,114,116,118,120,122,124,126,-1,-1,-1,-1,-1,-1,-1,-1,-1,-1,-1,-1,-1,-1,-1,-1,-1,-1,-1,-1,-1,-1,-1,-1,-1,-1,-1,-1,-1,-1,-1,-1,-1,-1,-1,-1,-1,-1,-1,-1,-1,-1,-1,-1,-1,-1,-1,-1,-1,-1,-1,-1,-1,-1,-1,-1,-1,-1,-1,-1,-1,-1,-1,-1],"split_conditions":[1.3382069E1,1E0,1E0,2.2320913E-3,5.249997E-2,2.5642018E0,2.5621412E1,8.476617E-2,5.336357E0,6.394547E-2,1.6460109E-1,1.22232065E-1,1E0,9.220603E0,6.065658E-2,1.1805794E1,1.7410251E-1,6.912743E-2,1.4527893E-1,1.2456244E-1,2.380515E1,5.393554E-2,2.2780994E1,4.313428E-2,4.6827394E-1,3.5067024E0,8.105398E-2,5.2735215E-1,9.31775E0,2.1726099E1,1.0505067E-2,3.655444E1,1.2504025E-2,5.9180964E-2,2.0863865E1,9.0483524E-2,1E0,8.698948E0,4.6368484E0,1.3380245E-2,6.3963947E0,1.2133509E1,1.5229589E-1,1.5691537E-1,1.9604674E-1,2.240763E-1,9.373268E-2,3.286601E-1,4.9968477E-2,2.6781163E-1,3.521182E-1,9.220603E0,2.521254E1,1.0535246E1,1.2375822E1,6.857103E0,9.825991E-2,1.6300198E0,1.166549E-1,2.1928237E-10,8.09138E-4,1.1930341E-1,2.714766E-2,-4.3707785E-1,1.4215435E-1,2.6672292E-1,-1.8007901E-1,-3.0628884E-1,3.3890635E-1,-4.208227E-1,3.032322E-1,-2.874232E-1,8.6993035E-3,-3.2015353E-1,2.87294E-1,-3.031269E-1,1.7364362E-2,3.1271565E-1,-7.373488E-2,-9.008838E-2,-4.6384236E-1,4.9647444E-1,-4.797522E-1,-4.0994123E-1,-5.1441854E-1,-5.9209514E-1,-4.8099717E-1,-2.9495224E-1,1.1602576E-1,-4.6486962E-1,-7.841456E-2,-2.4494758E-1,6.4123675E-2,1.9417559E-1,-3.1281793E-1,1.4041707E-1,-2.7718306E-1,-2.2718698E-1,7.699981E-2,2.1916293E-1,-4.9534622E-1,-3.7970522E-1,8.978838E-2,-1.6532268E-1,2.4612913E-2,2.2928484E-1,-2.047401E-1,4.3037392E-2,2.853377E-1,-8.205411E-2,1.8443993E-1,-4.3934616E-1,-5.297241E-1,4.9651808E-1,-4.2017588E-1,-4.710976E-1,4.939614E-1,2.3759408E-2,-3.489271E-1,-7.0066506E-1,-3.4750336E-1,1.2319154E0,3.7817603E-1,-5.394741E-1,7.236295E-1,3.0944178E-1,-4.5188808E-1],"split_indices":[7,70,80,5,37,0,7,21,1,19,6,21,78,45,34,45,21,23,18,16,8,32,8,20,24,0,30,34,45,10,36,3,11,30,10,32,76,2,10,16,44,7,18,20,30,33,29,34,32,14,35,45,3,45,45,1,33,4,40,43,12,22,24,0,0,0,0,0,0,0,0,0,0,0,0,0,0,0,0,0,0,0,0,0,0,0,0,0,0,0,0,0,0,0,0,0,0,0,0,0,0,0,0,0,0,0,0,0,0,0,0,0,0,0,0,0,0,0,0,0,0,0,0,0,0,0,0],"split_type":[0,0,0,0,0,0,0,0,0,0,0,0,0,0,0,0,0,0,0,0,0,0,0,0,0,0,0,0,0,0,0,0,0,0,0,0,0,0,0,0,0,0,0,0,0,0,0,0,0,0,0,0,0,0,0,0,0,0,0,0,0,0,0,0,0,0,0,0,0,0,0,0,0,0,0,0,0,0,0,0,0,0,0,0,0,0,0,0,0,0,0,0,0,0,0,0,0,0,0,0,0,0,0,0,0,0,0,0,0,0,0,0,0,0,0,0,0,0,0,0,0,0,0,0,0,0,0],"sum_hessian":[1.3849498E6,2.9213778E5,1.092812E6,2.3638447E5,5.575331E4,1.0633965E6,2.9415498E4,1.8768766E4,2.176157E5,2.4595298E3,5.329378E4,4.9740338E5,5.659932E5,2.788009E4,1.5354086E3,8.1456606E3,1.06231045E4,1.764678E5,4.1147902E4,8.045847E2,1.6549452E3,8.075745E3,4.5218035E4,2.4733248E5,2.5007089E5,4.400643E5,1.25928836E5,1.1415159E4,1.646493E4,6.9476025E2,8.4064825E2,3.6913948E3,4.4542656E3,9.487939E3,1.1351644E3,6.937522E4,1.07092586E5,2.049796E4,2.0649941E4,7.478588E2,5.672587E1,6.233941E2,1.031551E3,4.634115E3,3.4416294E3,1.5740916E4,2.947712E4,1.4093286E5,1.0639963E5,2.4273055E5,7.3403354E3,3.4116694E5,9.889738E4,7.662555E4,4.9303285E4,1.0452407E4,9.627517E2,6.8240576E2,1.5782524E4,2.762012E1,6.6714014E2,8.915712E1,7.5149115E2,3.3666086E3,3.24786E2,2.472483E3,1.9817828E3,6.3201935E2,8.855921E3,9.538983E2,1.812661E2,4.5323184E4,2.4052037E4,1.0618266E5,9.0992914E2,1.5600265E4,4.8976953E3,5.13891E3,1.5511031E4,1.4032536E2,6.0753345E2,4.6972942E1,9.752927E0,5.5220984E2,7.118427E1,3.2611462E2,7.0543646E2,1.7676625E3,2.866453E3,2.5362756E3,9.053538E2,5.832206E3,9.90871E3,2.7761479E4,1.7156396E3,1.3239728E5,8.5355625E3,4.918606E4,5.721358E4,2.4008428E5,2.646265E3,5.4483623E3,1.8919733E3,4.691319E4,2.9425375E5,3.9190562E3,9.497833E4,2.1190826E4,5.5434723E4,3.6816195E4,1.248709E4,6.013149E3,4.4392583E3,2.1067633E2,7.520754E2,1.6791379E2,5.14492E2,1.0867479E3,1.4695776E4,2.3757845E1,3.8622742E0,4.0584652E1,6.265555E2,1.3740586E1,7.5416534E1,1.7987213E1,7.335039E2],"tree_param":{"num_deleted":"0","num_feature":"95","num_nodes":"127","size_leaf_vector":"0"}},{"base_weights":[-6.3432804E-3,8.923227E-2,-5.71733E-1,1.0948731E-2,5.3188515E-1,-7.3116887E-1,1.0691306E-1,6.1840683E-2,-5.8927166E-1,-1.0681057E0,6.685838E-1,-8.456057E-1,-1.8892834E-1,-8.6055055E-2,1.1860249E0,1.2190842E-1,-4.7116247E-1,-3.2384005E-1,-1.1222405E0,5.620894E-1,-1.3638666E0,-1.5664237E0,7.2232217E-1,-8.611091E-1,1.0433468E0,-4.78508E-1,9.329571E-1,1.7850322E-1,-5.3985196E-1,1.2417611E0,-1.9624867E0,-4.358327E-3,4.4732758E-1,1.1287158E0,-5.954437E-1,-5.6035876E-1,6.232626E-1,-1.1981314E0,1.5544789E0,-2.0029325E0,9.909815E-1,-2.2424245E0,-1.0133243E0,-2.117275E0,-9.6055627E-1,7.753189E-1,-1.1899191E0,-5.995886E-1,-9.568187E-1,-1.2915474E0,2.5437257E0,1.1039759E0,-7.0108056E-1,-1.0847498E0,1.3216078E0,-1.9195147E-1,6.08329E-1,-8.587099E-2,-1.1292888E0,1.2741667E0,-2.395366E0,-4.6043321E-1,-6.800762E-1,-3.540321E-2,1.488684E-1,1.5811045E-1,-2.1548243E-1,-6.1341584E-1,3.760111E-1,-6.653496E-2,-2.8031877E-1,-2.451132E-1,6.243759E-2,2.7693877E-1,-5.199446E-1,-4.8671556E-1,-2.7398705E-1,5.393578E-1,-4.007406E-1,-5.3574437E-1,-7.1956354E-1,4.7778785E-1,-6.6300115E-4,-7.533562E-1,-2.008268E-1,-3.640455E-1,1.7988028E-1,1.1360511E-1,-6.954892E-1,-4.0773967E-1,9.9983335E-2,2.4526617E-1,-1.6901545E-1,-3.8420117E-1,1.6052638E0,-2.2822633E-1,2.5036147E-1,-2.921789E-1,3.4628952E-1,-3.791001E-1,-6.7176956E-1,-3.4128544E-1,7.810627E-1,-6.888217E-2,9.7536474E-1,5.794944E-1,-2.5584397E-1,-3.5693437E-1,4.8534387E-1,5.316495E-1,1.8227164E-1,8.9454636E-2,-2.9923612E-1,3.8086936E-1,6.341425E-2,-9.413676E-2,3.275743E-1,-4.046999E-1,2.0065649E-1,-5.864907E-1,3.9322478E-1,-1.1238998E0,-5.267144E-1],"categories":[],"categories_nodes":[],"categories_segments":[],"categories_sizes":[],"default_left":[0,0,0,0,0,0,0,0,0,0,0,0,0,0,0,0,0,0,0,0,0,0,0,0,0,0,0,0,0,0,0,0,0,0,0,0,0,0,0,0,0,0,0,0,0,0,0,0,0,0,0,0,0,0,0,0,0,0,0,0,0,0,0,0,0,0,0,0,0,0,0,0,0,0,0,0,0,0,0,0,0,0,0,0,0,0,0,0,0,0,0,0,0,0,0,0,0,0,0,0,0,0,0,0,0,0,0,0,0,0,0,0,0,0,0,0,0,0,0,0,0,0,0],"id":6,"left_children":[1,3,5,7,9,11,13,15,17,19,21,23,25,27,29,31,33,35,37,39,41,43,45,47,49,51,53,55,57,59,61,63,65,67,69,71,73,75,77,79,81,83,85,87,89,91,93,95,97,99,101,103,105,107,109,111,113,115,117,119,121,-1,-1,-1,-1,-1,-1,-1,-1,-1,-1,-1,-1,-1,-1,-1,-1,-1,-1,-1,-1,-1,-1,-1,-1,-1,-1,-1,-1,-1,-1,-1,-1,-1,-1,-1,-1,-1,-1,-1,-1,-1,-1,-1,-1,-1,-1,-1,-1,-1,-1,-1,-1,-1,-1,-1,-1,-1,-1,-1,-1,-1,-1],"loss_changes":[7.019317E4,3.8503754E4,2.0323531E4,2.88409E4,3.6521223E4,9.437914E3,7.441086E3,2.7866062E4,1.0439543E4,6.3378604E3,1.8477469E4,3.678914E3,8.611908E3,3.6394697E3,9.536919E2,3.2141004E4,1.7528658E4,1.1036008E4,4.9856504E3,2.2232263E3,3.4240273E3,1.2035273E3,1.5224859E4,3.1174453E3,3.5865728E3,7.421788E3,4.2662744E3,3.0494905E3,2.9874204E3,6.309121E2,8.848663E0,3.2062166E4,2.0315887E4,2.5163525E3,1.0359988E4,7.7762607E3,6.958063E3,2.8816445E3,4.7852234E2,2.05896E1,1.0340718E3,1.3393955E3,2.5687007E3,9.4977246E2,8.8849854E2,8.2650625E3,2.4117446E3,7.715337E3,3.295336E3,7.760437E0,1.4015967E2,7.4411885E3,7.3806924E3,2.5141345E2,1.466145E3,4.061425E3,2.3266313E3,1.6936438E3,1.91994E3,6.263633E2,3.4374542E1,0E0,0E0,0E0,0E0,0E0,0E0,0E0,0E0,0E0,0E0,0E0,0E0,0E0,0E0,0E0,0E0,0E0,0E0,0E0,0E0,0E0,0E0,0E0,0E0,0E0,0E0,0E0,0E0,0E0,0E0,0E0,0E0,0E0,0E0,0E0,0E0,0E0,0E0,0E0,0E0,0E0,0E0,0E0,0E0,0E0,0E0,0E0,0E0,0E0,0E0,0E0,0E0,0E0,0E0,0E0,0E0,0E0,0E0,0E0,0E0,0E0,0E0],"parents":[2147483647,0,0,1,1,2,2,3,3,4,4,5,5,6,6,7,7,8,8,9,9,10,10,11,11,12,12,13,13,14,14,15,15,16,16,17,17,18,18,19,19,20,20,21,21,22,22,23,23,24,24,25,25,26,26,27,27,28,28,29,29,30,30,31,31,32,32,33,33,34,34,35,35,36,36,37,37,38,38,39,39,40,40,41,41,42,42,43,43,44,44,45,45,46,46,47,47,48,48,49,49,50,50,51,51,52,52,53,53,54,54,55,55,56,56,57,57,58,58,59,59,60,60],"right_children":[2,4,6,8,10,12,14,16,18,20,22,24,26,28,30,32,34,36,38,40,42,44,46,48,50,52,54,56,58,60,62,64,66,68,70,72,74,76,78,80,82,84,86,88,90,92,94,96,98,100,102,104,106,108,110,112,114,116,118,120,122,-1,-1,-1,-1,-1,-1,-1,-1,-1,-1,-1,-1,-1,-1,-1,-1,-1,-1,-1,-1,-1,-1,-1,-1,-1,-1,-1,-1,-1,-1,-1,-1,-1,-1,-1,-1,-1,-1,-1,-1,-1,-1,-1,-1,-1,-1,-1,-1,-1,-1,-1,-1,-1,-1,-1,-1,-1,-1,-1,-1,-1,-1],"split_conditions":[1.3991998E0,1.3487323E1,1E0,2.1570529E-1,3.0973558E-3,3.9172083E-1,8.9798706E2,2.5238602E1,1.8647709E1,1.5401026E-2,3.3127103E-2,8.518474E0,4.2640156E-1,4.2448472E-2,3.4174368E0,1.441068E-1,3.3710971E-3,1.7467606E1,5.4788084E0,6.315278E-2,1.1822315E1,2.604145E0,8.139357E0,3.494293E0,1.8851522E-1,1.2518384E1,1E0,7.295466E-2,1.22929325E1,1.6256413E-1,1.348756E-1,1E0,1.124397E1,1.385603E-1,4.9970925E-2,6.916147E-2,2.4067724E-1,5.353023E-2,1.2771237E-1,6.713673E-3,3.4851031E-3,4.7389072E-1,1.031894E-2,1.4805176E-2,3.8847536E-2,1.3417958E-2,1.5860167E-1,1E0,5.363001E-1,1.0100824E1,1.6990373E-1,1E0,9.101522E-3,4.586785E0,2.0293951E-1,1.17040925E-1,1.5644825E-1,2.92519E0,8.373296E0,4.272116E-3,2.394905E0,-4.6043321E-1,-6.800762E-1,-3.540321E-2,1.488684E-1,1.5811045E-1,-2.1548243E-1,-6.1341584E-1,3.760111E-1,-6.653496E-2,-2.8031877E-1,-2.451132E-1,6.243759E-2,2.7693877E-1,-5.199446E-1,-4.8671556E-1,-2.7398705E-1,5.393578E-1,-4.007406E-1,-5.3574437E-1,-7.1956354E-1,4.7778785E-1,-6.6300115E-4,-7.533562E-1,-2.008268E-1,-3.640455E-1,1.7988028E-1,1.1360511E-1,-6.954892E-1,-4.0773967E-1,9.9983335E-2,2.4526617E-1,-1.6901545E-1,-3.8420117E-1,1.6052638E0,-2.2822633E-1,2.5036147E-1,-2.921789E-1,3.4628952E-1,-3.791001E-1,-6.7176956E-1,-3.4128544E-1,7.810627E-1,-6.888217E-2,9.7536474E-1,5.794944E-1,-2.5584397E-1,-3.5693437E-1,4.8534387E-1,5.316495E-1,1.8227164E-1,8.9454636E-2,-2.9923612E-1,3.8086936E-1,6.341425E-2,-9.413676E-2,3.275743E-1,-4.046999E-1,2.0065649E-1,-5.864907E-1,3.9322478E-1,-1.1238998E0,-5.267144E-1],"split_indices":[5,2,70,30,16,40,43,7,7,37,30,9,18,29,9,21,20,10,0,22,9,0,44,10,21,43,78,27,10,14,19,92,9,17,14,29,34,16,18,15,28,24,5,18,32,31,32,91,37,2,18,89,34,0,42,19,17,1,44,13,2,0,0,0,0,0,0,0,0,0,0,0,0,0,0,0,0,0,0,0,0,0,0,0,0,0,0,0,0,0,0,0,0,0,0,0,0,0,0,0,0,0,0,0,0,0,0,0,0,0,0,0,0,0,0,0,0,0,0,0,0,0,0],"split_type":[0,0,0,0,0,0,0,0,0,0,0,0,0,0,0,0,0,0,0,0,0,0,0,0,0,0,0,0,0,0,0,0,0,0,0,0,0,0,0,0,0,0,0,0,0,0,0,0,0,0,0,0,0,0,0,0,0,0,0,0,0,0,0,0,0,0,0,0,0,0,0,0,0,0,0,0,0,0,0,0,0,0,0,0,0,0,0,0,0,0,0,0,0,0,0,0,0,0,0,0,0,0,0,0,0,0,0,0,0,0,0,0,0,0,0,0,0,0,0,0,0,0,0],"sum_hessian":[1.298971E6,1.1111405E6,1.8783044E5,9.441651E5,1.669754E5,1.520977E5,3.573273E4,8.7036856E5,7.379659E4,1.3142467E4,1.5383294E5,1.2559172E5,2.6505984E4,3.0313035E4,5.419694E3,7.822161E5,8.815246E4,4.9263676E4,2.4532916E4,2.0180942E3,1.1124372E4,3.611245E3,1.5022169E5,1.2456987E5,1.0218536E3,2.1068406E4,5.437577E3,1.914963E4,1.1163403E4,5.3260166E3,9.367748E1,5.635519E5,2.1866425E5,6.353643E3,8.179881E4,3.941982E4,9.8438545E3,2.3857066E4,6.7584875E2,2.8857568E2,1.7295186E3,3.1711577E3,7.9532144E3,1.8901952E3,1.7210498E3,1.4617123E5,4.0504592E3,3.3376887E4,9.119298E4,3.9980893E2,6.220446E2,2.5973525E3,1.8471055E4,8.779336E2,4.5596436E3,1.0285448E4,8.864184E3,6.3069614E3,4.8564414E3,5.2796265E3,4.6390102E1,4.1464287E1,5.2213196E1,4.5927866E5,1.0427318E5,2.0466895E5,1.39953E4,2.3956012E2,6.114083E3,3.8908152E4,4.2890664E4,2.9549713E4,9.870109E3,8.733123E3,1.1107308E3,9.581427E3,1.427564E4,6.2370654E2,5.2142162E1,1.8988051E2,9.869517E1,1.0766898E3,6.5282874E2,2.7078916E3,4.6326624E2,7.075417E3,8.7779736E2,1.4082182E2,1.7493734E3,1.3156904E3,4.053594E2,1.4170108E5,4.4701616E3,3.9958228E3,5.4636505E1,3.000538E4,3.3715063E3,9.046032E4,7.3265546E2,3.906496E2,9.159318E0,9.657651E0,6.1238696E2,1.6027981E3,9.9455444E2,1.0058973E3,1.7465156E4,8.4562915E2,3.2304447E1,2.7947026E3,1.7649409E3,6.394898E3,3.89055E3,3.324327E3,5.5398564E3,5.284977E3,1.0219846E3,4.3278784E3,5.2856323E2,5.8554886E1,5.221072E3,1.334601E1,3.304409E1],"tree_param":{"num_deleted":"0","num_feature":"95","num_nodes":"123","size_leaf_vector":"0"}},{"base_weights":[-5.855818E-3,-4.3314037E-1,8.282619E-2,-5.4402685E-1,-3.9401673E-2,1.0388992E-1,-1.1706061E0,-7.1669066E-1,-6.151718E-2,-1.0731548E0,5.207726E-2,1.2482541E-1,-1.1052226E0,-1.2968111E0,4.0177846E-1,-1.7850979E-1,-7.839528E-1,-1.3997445E0,2.6596323E-2,-3.0050007E-1,-1.2938318E0,-7.7843004E-1,1.6363902E-1,1.4997524E-1,-9.292471E-1,1.7124687E0,-1.2379938E0,-1.6761407E0,-1.0610356E0,1.0782636E0,-1.2897449E0,-7.267198E-1,5.918217E-1,-6.235996E-1,-9.6056396E-1,-1.5358815E0,1.1831683E0,-3.1940764E-1,3.9941916E-1,-1.3524696E0,4.7318447E-1,-1.5156219E0,-6.3635623E-1,-1.2948085E0,-1.422558E-1,-2.4135085E-2,6.548799E-1,3.8699737E-1,6.025925E-2,-6.4928794E-1,-1.1371051E0,-2.1432173E0,1.7797773E0,-1.259709E0,2.6459897E0,-1.7217034E0,-9.6000695E-1,-1.3772322E0,-4.4563678E-1,6.273884E-1,4.6176E0,5.189495E-1,-1.4874663E0,-2.8302112E-1,2.8282642E-1,-1.7469731E-1,4.581183E-1,4.032414E-1,-1.9841976E-1,-2.8974047E-1,1.9643888E0,-6.044407E-1,-3.826074E-1,4.195661E-1,-6.364158E-1,-3.0896804E-1,1.3866964E-2,6.3666515E-2,5.4726356E-1,3.4827048E-1,-4.9255833E-1,3.090526E-1,-5.334304E-1,-2.3867303E-1,-4.9058753E-1,1.6560705E-2,-4.6498296E-1,-4.8525807E-1,-1.3275017E-1,2.5554425E-1,-2.0355181E-1,1.837101E-1,-7.1566105E-2,-4.0291426E-1,2.5063348E-1,1.4645673E-1,-1.0591809E-1,5.4477487E-2,-4.4529554E-2,5.4910537E-2,-2.9180396E-1,-3.6332184E-1,-8.310797E-2,-8.0672055E-1,-2.983917E-1,3.8633576E-1,6.309628E-1,1.4316326E-1,-3.9010194E-1,1.1106243E0,-3.799202E-1,-5.310883E-1,-4.2085814E-1,4.6569273E-1,-4.5159867E-1,2.0059174E-1,-4.3349287E-1,1.2640283E-2,-4.4513595E-1,-5.9157044E-1,2.857999E-1,1.5229837E0,-3.6851573E-1,-5.10237E-1,4.4736716E-1,-8.3693224E-1,-4.2395842E-1],"categories":[],"categories_nodes":[],"categories_segments":[],"categories_sizes":[],"default_left":[0,0,0,0,0,0,0,0,0,0,0,0,0,0,0,0,0,0,0,0,0,0,0,0,0,0,0,0,0,0,0,0,0,0,0,0,0,0,0,0,0,0,0,0,0,0,0,0,0,0,0,0,0,0,0,0,0,0,0,0,0,0,0,0,0,0,0,0,0,0,0,0,0,0,0,0,0,0,0,0,0,0,0,0,0,0,0,0,0,0,0,0,0,0,0,0,0,0,0,0,0,0,0,0,0,0,0,0,0,0,0,0,0,0,0,0,0,0,0,0,0,0,0,0,0,0,0],"id":7,"left_children":[1,3,5,7,9,11,13,15,17,19,21,23,25,27,29,31,33,35,37,39,41,43,45,47,49,51,53,55,57,59,61,63,65,67,69,71,73,75,77,79,81,83,85,87,89,91,93,95,97,99,101,103,105,107,109,111,113,115,117,119,121,123,125,-1,-1,-1,-1,-1,-1,-1,-1,-1,-1,-1,-1,-1,-1,-1,-1,-1,-1,-1,-1,-1,-1,-1,-1,-1,-1,-1,-1,-1,-1,-1,-1,-1,-1,-1,-1,-1,-1,-1,-1,-1,-1,-1,-1,-1,-1,-1,-1,-1,-1,-1,-1,-1,-1,-1,-1,-1,-1,-1,-1,-1,-1,-1,-1],"loss_changes":[4.6434375E4,9.195734E3,2.679296E4,1.3691332E4,4.376874E3,2.5263732E4,3.3287754E3,4.381008E3,5.1070645E3,6.411865E2,3.9398342E3,2.6007473E4,6.3569863E3,1.3868125E3,1.4282188E3,5.6791826E3,3.0461719E3,9.4263135E2,5.2421206E3,6.8205365E2,4.2578467E2,1.6540491E3,3.457861E3,2.0375512E4,1.3296523E3,2.02302E2,1.3715898E3,1.9247461E2,1.8630303E3,1.4193457E3,1.2832306E2,2.843016E3,6.1409004E3,4.195129E3,2.0195938E3,3.1460303E2,9.871568E1,5.4752583E3,5.2167363E3,2.6016113E2,6.076934E2,1.8719922E2,4.675675E2,7.6376904E2,1.2038411E3,3.7015645E3,3.7409033E3,1.9703094E4,1.7600354E4,2.622897E3,8.342871E2,5.8369217E0,1.1699365E2,1.1391895E3,3.7870074E2,8.41582E1,4.9300333E2,8.777549E2,1.6469067E3,6.7124805E2,2.7604712E2,7.9992065E1,2.7181519E1,0E0,0E0,0E0,0E0,0E0,0E0,0E0,0E0,0E0,0E0,0E0,0E0,0E0,0E0,0E0,0E0,0E0,0E0,0E0,0E0,0E0,0E0,0E0,0E0,0E0,0E0,0E0,0E0,0E0,0E0,0E0,0E0,0E0,0E0,0E0,0E0,0E0,0E0,0E0,0E0,0E0,0E0,0E0,0E0,0E0,0E0,0E0,0E0,0E0,0E0,0E0,0E0,0E0,0E0,0E0,0E0,0E0,0E0,0E0,0E0,0E0,0E0,0E0,0E0],"parents":[2147483647,0,0,1,1,2,2,3,3,4,4,5,5,6,6,7,7,8,8,9,9,10,10,11,11,12,12,13,13,14,14,15,15,16,16,17,17,18,18,19,19,20,20,21,21,22,22,23,23,24,24,25,25,26,26,27,27,28,28,29,29,30,30,31,31,32,32,33,33,34,34,35,35,36,36,37,37,38,38,39,39,40,40,41,41,42,42,43,43,44,44,45,45,46,46,47,47,48,48,49,49,50,50,51,51,52,52,53,53,54,54,55,55,56,56,57,57,58,58,59,59,60,60,61,61,62,62],"right_children":[2,4,6,8,10,12,14,16,18,20,22,24,26,28,30,32,34,36,38,40,42,44,46,48,50,52,54,56,58,60,62,64,66,68,70,72,74,76,78,80,82,84,86,88,90,92,94,96,98,100,102,104,106,108,110,112,114,116,118,120,122,124,126,-1,-1,-1,-1,-1,-1,-1,-1,-1,-1,-1,-1,-1,-1,-1,-1,-1,-1,-1,-1,-1,-1,-1,-1,-1,-1,-1,-1,-1,-1,-1,-1,-1,-1,-1,-1,-1,-1,-1,-1,-1,-1,-1,-1,-1,-1,-1,-1,-1,-1,-1,-1,-1,-1,-1,-1,-1,-1,-1,-1,-1,-1,-1,-1],"split_conditions":[2.6884537E1,1E0,1E0,5.320319E0,1.8967372E-1,1E0,1.2679145E-1,7.00924E-3,1.0086639E1,2.120094E-2,1.9436868E-2,1E0,5.6450515E0,3.863545E-3,1.8441752E-1,8.065627E-2,6.810736E0,1E0,3.4645138E1,1.1993515E-1,2.842181E-1,5.5133957E-2,9.820965E0,2.287494E0,9.561529E-2,1.05073184E-1,5.331885E-1,5.9383416E-1,2.0753267E-1,1E0,1.3013511E-2,1.8655257E-1,6.573117E-2,1.1521697E-2,1E0,7.4939126E-1,2.3584436E-1,1.2718102E-1,9.405789E0,1.3998625E-2,2.3787389E0,5.39506E-3,2.2116755E-1,1.8896274E-1,5.6272317E-2,1.6567485E-2,8.682784E-2,2.0259376E-1,1E0,8.79509E-2,1.0359323E-1,4.576036E-2,1.5532908E-1,6.121728E-3,1.6418235E-2,7.5755413E-3,6.213284E-1,4.668116E-5,2.0961954E-1,6.5769906E0,5.3056635E-2,1.2207135E-2,1.6925037E1,-2.8302112E-1,2.8282642E-1,-1.7469731E-1,4.581183E-1,4.032414E-1,-1.9841976E-1,-2.8974047E-1,1.9643888E0,-6.044407E-1,-3.826074E-1,4.195661E-1,-6.364158E-1,-3.0896804E-1,1.3866964E-2,6.3666515E-2,5.4726356E-1,3.4827048E-1,-4.9255833E-1,3.090526E-1,-5.334304E-1,-2.3867303E-1,-4.9058753E-1,1.6560705E-2,-4.6498296E-1,-4.8525807E-1,-1.3275017E-1,2.5554425E-1,-2.0355181E-1,1.837101E-1,-7.1566105E-2,-4.0291426E-1,2.5063348E-1,1.4645673E-1,-1.0591809E-1,5.4477487E-2,-4.4529554E-2,5.4910537E-2,-2.9180396E-1,-3.6332184E-1,-8.310797E-2,-8.0672055E-1,-2.983917E-1,3.8633576E-1,6.309628E-1,1.4316326E-1,-3.9010194E-1,1.1106243E0,-3.799202E-1,-5.310883E-1,-4.2085814E-1,4.6569273E-1,-4.5159867E-1,2.0059174E-1,-4.3349287E-1,1.2640283E-2,-4.4513595E-1,-5.9157044E-1,2.857999E-1,1.5229837E0,-3.6851573E-1,-5.10237E-1,4.4736716E-1,-8.3693224E-1,-4.2395842E-1],"split_indices":[8,70,74,1,24,69,32,29,45,13,16,80,44,6,18,21,44,69,3,41,36,28,6,0,38,22,25,34,42,86,17,16,16,34,57,43,41,18,5,25,1,5,37,19,22,29,36,34,82,4,15,43,22,34,32,5,34,12,25,44,24,17,3,0,0,0,0,0,0,0,0,0,0,0,0,0,0,0,0,0,0,0,0,0,0,0,0,0,0,0,0,0,0,0,0,0,0,0,0,0,0,0,0,0,0,0,0,0,0,0,0,0,0,0,0,0,0,0,0,0,0,0,0,0,0,0,0],"split_type":[0,0,0,0,0,0,0,0,0,0,0,0,0,0,0,0,0,0,0,0,0,0,0,0,0,0,0,0,0,0,0,0,0,0,0,0,0,0,0,0,0,0,0,0,0,0,0,0,0,0,0,0,0,0,0,0,0,0,0,0,0,0,0,0,0,0,0,0,0,0,0,0,0,0,0,0,0,0,0,0,0,0,0,0,0,0,0,0,0,0,0,0,0,0,0,0,0,0,0,0,0,0,0,0,0,0,0,0,0,0,0,0,0,0,0,0,0,0,0,0,0,0,0,0,0,0,0],"sum_hessian":[1.2254234E6,2.106196E5,1.0148038E6,1.6433769E5,4.6281902E4,9.9803294E5,1.6770865E4,1.2102793E5,4.330976E4,3.7617458E3,4.2520156E4,9.8104725E5,1.69857E4,1.5524955E4,1.2459108E3,1.3446091E4,1.0758184E5,2.6745803E3,4.0635184E4,8.3622815E2,2.9255178E3,5.0346167E3,3.748554E4,9.581861E5,2.2861152E4,7.638233E2,1.6221876E4,5.948519E3,9.576437E3,8.902419E2,3.5566885E2,7.8556426E3,5.5904487E3,5.6388633E4,5.1193207E4,2.541055E3,1.3352545E2,2.10757E4,1.9559484E4,3.540638E2,4.8216437E2,2.1865957E3,7.389222E2,2.7783848E3,2.256232E3,2.7120014E4,1.0365523E4,2.6309853E5,6.9508756E5,9.742854E3,1.3118298E4,1.2576102E1,7.512472E2,1.6132356E4,8.951954E1,5.591374E3,3.5714536E2,6.3252417E3,3.2511946E3,7.9069293E2,9.9548935E1,3.488915E1,3.207797E2,6.953563E3,9.020796E2,2.4788074E3,3.111641E3,1.0621394E3,5.5326496E4,5.1158395E4,3.4813923E1,8.929009E2,1.648154E3,1.2589651E2,7.628944E0,7.1602476E3,1.3915451E4,1.7289092E4,2.2703914E3,3.624694E1,3.1781686E2,3.869672E2,9.519717E1,3.1270706E2,1.8738885E3,4.2110077E2,3.1782138E2,2.0146564E3,7.6372845E2,7.904158E2,1.465816E3,6.833348E3,2.0286666E4,8.586154E2,9.506908E3,2.3145139E5,3.1647148E4,4.395403E5,2.5554727E5,2.7263645E3,7.0164893E3,1.2079077E4,1.0392213E3,7.6156306E0,4.9604716E0,2.999528E2,4.5129443E2,3.685031E2,1.5763853E4,7.053376E1,1.898578E1,4.847999E3,7.43375E2,6.3366623E1,2.9377872E2,2.024476E2,6.122794E3,2.2125806E3,1.038614E3,8.737984E1,7.033131E2,9.242367E1,7.125269E0,1.0398861E1,2.4490288E1,1.5334644E1,3.0544507E2],"tree_param":{"num_deleted":"0","num_feature":"95","num_nodes":"127","size_leaf_vector":"0"}},{"base_weights":[-7.336556E-3,-2.6260793E-1,9.4450966E-2,-6.971031E-1,-8.3925426E-2,1.3381916E-1,-9.3700343E-1,-8.5661006E-1,2.8129935E-1,-2.452592E-1,4.8941687E-1,1.8918717E-1,-2.4506329E-1,-1.0372634E0,6.74752E-1,-8.664218E-1,3.0859497E0,1.0723786E0,-5.446761E-1,-4.3149608E-1,1.5982686E-1,-3.4013164E-1,8.162996E-1,6.313262E-2,3.5952014E-1,4.1726676E-1,-4.9335068E-1,-1.36555E0,-5.870431E-1,-1.9705906E0,1.3521852E0,-9.231278E-1,-3.8048646E-1,5.0951767E0,-4.2226455E-1,8.2328385E-1,5.217814E0,-8.6944216E-1,1.3489485E0,2.4236834E-1,-6.274421E-1,-2.9850036E-1,3.8906556E-1,-1.0118794E0,9.827156E-2,1.1809565E0,-7.591054E-2,-2.979736E-2,5.479024E-1,4.4598186E-1,-2.1600924E-1,7.2749764E-1,-3.6289954E-1,-6.301861E-1,2.2199199E-1,-1.4564602E0,-3.1313327E-1,1.0885292E0,-7.3384917E-1,-1.820519E0,-1.6863333E0,1.9317789E0,-1.443369E0,-6.312621E-2,-2.8753453E-1,5.409312E-1,-1.660405E-1,-3.364243E-1,1.592127E0,3.4361476E-1,-4.824066E-1,-3.9188626E-1,1.7923256E0,-3.3566475E-1,7.1718045E-2,-5.0815E-1,4.6729046E-1,-8.922626E-2,3.616135E-1,-2.2636193E-1,3.28579E-2,-2.3631963E-1,5.229786E-3,-3.9589536E-1,1.4300077E-1,-3.211481E-1,2.1383284E-1,2.0456621E-1,-1.3033693E-1,-7.118945E-2,4.0788743E-1,2.5155827E-1,-1.5540965E-1,-7.310994E-2,4.7091372E-2,1.9664328E-1,-2.2375636E-1,7.945892E-2,2.0299892E-1,-1.2661879E-1,3.2329807E-1,-5.216287E-1,2.4755104E-1,-4.7762755E-1,1.3029876E-2,-2.1805489E-1,-3.779973E-2,2.3145293E-1,-4.04487E-1,-4.52921E-1,1.3860445E-1,1.5820773E-1,-5.1081973E-1,-2.750203E-1,8.557132E-1,-2.5677696E-1,4.4850278E-1,-4.9994013E-1,-9.2044926E-1,6.174318E-1,-4.798841E-1,-1.0961473E0,-3.7429434E-1],"categories":[],"categories_nodes":[],"categories_segments":[],"categories_sizes":[],"default_left":[0,0,0,0,0,0,0,0,0,0,0,0,0,0,0,0,0,0,0,0,0,0,0,0,0,0,0,0,0,0,0,0,0,0,0,0,0,0,0,0,0,0,0,0,0,0,0,0,0,0,0,0,0,0,0,0,0,0,0,0,0,0,0,0,0,0,0,0,0,0,0,0,0,0,0,0,0,0,0,0,0,0,0,0,0,0,0,0,0,0,0,0,0,0,0,0,0,0,0,0,0,0,0,0,0,0,0,0,0,0,0,0,0,0,0,0,0,0,0,0,0,0,0],"id":8,"left_children":[1,3,5,7,9,11,13,15,17,19,21,23,25,27,29,31,33,35,37,39,41,43,45,47,49,51,53,55,57,59,61,63,65,67,-1,69,71,73,75,77,79,81,83,85,87,89,91,93,95,97,99,101,103,105,107,109,111,113,115,117,-1,119,121,-1,-1,-1,-1,-1,-1,-1,-1,-1,-1,-1,-1,-1,-1,-1,-1,-1,-1,-1,-1,-1,-1,-1,-1,-1,-1,-1,-1,-1,-1,-1,-1,-1,-1,-1,-1,-1,-1,-1,-1,-1,-1,-1,-1,-1,-1,-1,-1,-1,-1,-1,-1,-1,-1,-1,-1,-1,-1,-1,-1],"loss_changes":[3.0497707E4,2.597713E4,3.407453E4,1.5216836E4,2.1931455E4,1.695627E4,4.9859727E3,3.24575E3,8.93165E3,1.3959203E4,1.4118882E4,1.5142127E4,1.6948082E4,4.2919766E3,3.2414053E3,2.3040742E3,1.8881848E3,7.2053555E3,4.113797E3,1.6737162E4,6.1229917E3,4.3345186E3,1.215173E4,1.8258377E4,1.4925289E4,6.801463E3,7.3375E3,1.6064941E3,3.0139448E3,1.9184778E2,2.3350598E3,1.8849961E3,3.3026245E3,1.9589722E2,0E0,5.160585E3,1.960415E3,1.5788228E3,6.2454614E2,1.4844214E4,9.19832E3,3.0032375E3,5.815636E3,5.883262E2,2.7694824E3,6.7186953E3,4.3818267E3,1.3587068E4,9.074293E3,1.0894645E4,1.0443107E4,4.8446504E3,3.9935452E3,3.066582E3,1.0387831E4,1.5808711E3,1.562183E3,3.494244E3,3.0658247E3,6.3269287E1,0E0,5.3535254E2,1.0262842E2,0E0,0E0,0E0,0E0,0E0,0E0,0E0,0E0,0E0,0E0,0E0,0E0,0E0,0E0,0E0,0E0,0E0,0E0,0E0,0E0,0E0,0E0,0E0,0E0,0E0,0E0,0E0,0E0,0E0,0E0,0E0,0E0,0E0,0E0,0E0,0E0,0E0,0E0,0E0,0E0,0E0,0E0,0E0,0E0,0E0,0E0,0E0,0E0,0E0,0E0,0E0,0E0,0E0,0E0,0E0,0E0,0E0,0E0,0E0,0E0],"parents":[2147483647,0,0,1,1,2,2,3,3,4,4,5,5,6,6,7,7,8,8,9,9,10,10,11,11,12,12,13,13,14,14,15,15,16,16,17,17,18,18,19,19,20,20,21,21,22,22,23,23,24,24,25,25,26,26,27,27,28,28,29,29,30,30,31,31,32,32,33,33,35,35,36,36,37,37,38,38,39,39,40,40,41,41,42,42,43,43,44,44,45,45,46,46,47,47,48,48,49,49,50,50,51,51,52,52,53,53,54,54,55,55,56,56,57,57,58,58,59,59,61,61,62,62],"right_children":[2,4,6,8,10,12,14,16,18,20,22,24,26,28,30,32,34,36,38,40,42,44,46,48,50,52,54,56,58,60,62,64,66,68,-1,70,72,74,76,78,80,82,84,86,88,90,92,94,96,98,100,102,104,106,108,110,112,114,116,118,-1,120,122,-1,-1,-1,-1,-1,-1,-1,-1,-1,-1,-1,-1,-1,-1,-1,-1,-1,-1,-1,-1,-1,-1,-1,-1,-1,-1,-1,-1,-1,-1,-1,-1,-1,-1,-1,-1,-1,-1,-1,-1,-1,-1,-1,-1,-1,-1,-1,-1,-1,-1,-1,-1,-1,-1,-1,-1,-1,-1,-1,-1],"split_conditions":[6.025111E0,5.8267716E-2,1.0130128E-1,1E0,1.05220206E-1,2.5332422E1,1.0876914E1,1E0,1.0408404E-1,1E0,2.6731718E1,2.4233062E-2,1.0599874E-2,1.2064339E0,4.147558E-3,1.5885556E-1,1.1904332E-1,1.0237555E-1,7.111871E-1,8.1125826E-2,2.1573734E0,2.3736247E-1,9.968258E-2,1E0,1.3111013E-1,3.7465116E-3,1E0,1.7375234E0,6.1483426E0,1E0,2.0314164E-3,1.6925037E1,2.3656595E-3,3.0488122E-1,-4.2226455E-1,2.2438722E0,1.2627085E-1,8.1151515E-2,1.1452809E-1,1E0,3.6554436E1,3.6250073E-2,7.430104E-2,8.855012E-1,7.173262E0,7.9716675E-2,2.8326798E-2,1.7974235E-1,6.0215138E-2,8.8775425E0,4.0776234E1,2.6647078E-3,5.9910897E-2,2.051901E-1,1.8028328E-2,4.439141E1,8.8608526E-2,3.988415E-2,7.4532366E-1,1.9617079E-1,-1.6863333E0,1.1773067E-1,7.4604406E0,-6.312621E-2,-2.8753453E-1,5.409312E-1,-1.660405E-1,-3.364243E-1,1.592127E0,3.4361476E-1,-4.824066E-1,-3.9188626E-1,1.7923256E0,-3.3566475E-1,7.1718045E-2,-5.0815E-1,4.6729046E-1,-8.922626E-2,3.616135E-1,-2.2636193E-1,3.28579E-2,-2.3631963E-1,5.229786E-3,-3.9589536E-1,1.4300077E-1,-3.211481E-1,2.1383284E-1,2.0456621E-1,-1.3033693E-1,-7.118945E-2,4.0788743E-1,2.5155827E-1,-1.5540965E-1,-7.310994E-2,4.7091372E-2,1.9664328E-1,-2.2375636E-1,7.945892E-2,2.0299892E-1,-1.2661879E-1,3.2329807E-1,-5.216287E-1,2.4755104E-1,-4.7762755E-1,1.3029876E-2,-2.1805489E-1,-3.779973E-2,2.3145293E-1,-4.04487E-1,-4.52921E-1,1.3860445E-1,1.5820773E-1,-5.1081973E-1,-2.750203E-1,8.557132E-1,-2.5677696E-1,4.4850278E-1,-4.9994013E-1,-9.2044926E-1,6.174318E-1,-4.798841E-1,-1.0961473E0,-3.7429434E-1],"split_indices":[2,21,32,94,12,7,1,83,41,70,8,13,29,43,31,38,25,41,38,35,2,33,39,90,23,15,91,4,2,77,12,3,20,14,0,0,16,13,37,87,3,12,35,21,45,32,32,41,32,1,8,29,20,36,32,8,23,12,23,4,0,33,44,0,0,0,0,0,0,0,0,0,0,0,0,0,0,0,0,0,0,0,0,0,0,0,0,0,0,0,0,0,0,0,0,0,0,0,0,0,0,0,0,0,0,0,0,0,0,0,0,0,0,0,0,0,0,0,0,0,0,0,0],"split_type":[0,0,0,0,0,0,0,0,0,0,0,0,0,0,0,0,0,0,0,0,0,0,0,0,0,0,0,0,0,0,0,0,0,0,0,0,0,0,0,0,0,0,0,0,0,0,0,0,0,0,0,0,0,0,0,0,0,0,0,0,0,0,0,0,0,0,0,0,0,0,0,0,0,0,0,0,0,0,0,0,0,0,0,0,0,0,0,0,0,0,0,0,0,0,0,0,0,0,0,0,0,0,0,0,0,0,0,0,0,0,0,0,0,0,0,0,0,0,0,0,0,0,0],"sum_hessian":[1.1737341E6,3.3459838E5,8.391358E5,9.7502516E4,2.3709588E5,8.0828625E5,3.084952E4,8.3835164E4,1.3667352E4,1.850304E5,5.2065457E4,7.0522825E5,1.03058055E5,2.9043229E4,1.8062896E3,8.362782E4,2.0734265E2,6.9809946E3,6.686357E3,1.26755125E5,5.8275285E4,1.4717075E4,3.734838E4,4.0529325E5,2.9993497E5,2.8099447E4,7.495861E4,1.6794885E4,1.2248344E4,3.678694E2,1.4384202E3,7.488792E4,8.7399E3,1.4318492E2,6.4157745E1,6.5864224E3,3.9457245E2,5.707955E3,9.784019E2,2.8554629E4,9.82005E4,1.9429238E4,3.8846047E4,5.8113174E3,8.905758E3,2.6512205E4,1.0836176E4,3.4009772E5,6.5195527E4,2.607611E5,3.917389E4,2.0104871E4,7.994576E3,6.2922504E4,1.2036106E4,1.5459108E4,1.3357767E3,9.8617816E2,1.1262166E4,3.5478308E2,1.3086301E1,1.1916649E3,2.4675523E2,3.5364114E3,7.135151E4,6.40852E2,8.0990483E3,4.578551E0,1.3860637E2,5.8163965E3,7.700255E2,4.0928123E1,3.5364432E2,4.659454E3,1.048501E3,6.2339237E1,9.160627E2,1.8298559E4,1.0256071E4,8.3755914E4,1.4444579E4,7.6231177E3,1.1806121E4,1.8937733E3,3.6952273E4,5.6206724E3,1.9064503E2,4.2497637E3,4.655994E3,2.966225E3,2.3545979E4,3.5313677E3,7.3048086E3,1.5853284E5,1.8156488E5,6.0191156E4,5.0043706E3,1.4607377E5,1.1468733E5,3.3792203E4,5.381688E3,7.6525073E2,1.933962E4,1.9854607E3,6.0091157E3,5.2799297E4,1.0123207E4,8.916352E3,3.1197546E3,1.5041613E4,4.1749548E2,8.327266E2,5.0305017E2,4.6173093E2,5.244472E2,1.0677953E4,5.8421265E2,3.1787006E2,3.6913033E1,1.150911E3,4.0753857E1,1.8634184E1,2.2812105E2],"tree_param":{"num_deleted":"0","num_feature":"95","num_nodes":"123","size_leaf_vector":"0"}},{"base_weights":[-7.202265E-3,-5.5771556E-2,3.609863E-1,-3.6434747E-2,-8.6721355E-1,-5.2156943E-1,5.4610384E-1,-3.1261376E-1,1.9561462E-2,-1.1533053E0,-6.711429E-1,6.810391E-1,-1.0103335E0,-5.4237086E-1,6.405157E-1,-4.0743846E-1,3.1999108E-1,1.5488502E-1,-1.6333453E-1,-1.175338E0,1.6074963E0,-3.426162E-1,-1.1058248E0,-2.4028962E0,9.2234117E-1,-2.2320719E0,-7.933664E-1,-2.188782E0,1.4082608E-1,6.8419456E-1,-1.0243679E0,-9.0627384E-1,-3.1850713E-1,-1.1395997E0,5.9755754E-1,-1.0709118E0,1.8462436E-1,-3.3450907E-1,3.500016E-1,-1.2143294E0,-4.3965995E-1,-3.44174E-1,8.1020826E-1,-1.0431343E0,4.545165E-2,-1.1806961E0,1.6823065E-1,-1.5811168E0,-4.722406E0,-1.7693542E0,1.027581E0,-1.7529539E0,-4.0175276E0,-1.1240221E0,-3.9194863E-2,-1.8803296E0,-7.3760138E0,9.0357596E-1,-9.55134E-1,7.0379376E-1,-3.0671647E0,7.935929E-1,-2.0537004E0,-2.2272219E-1,-4.235188E-1,-2.5049472E-1,-6.535045E-2,-6.949397E-2,-5.6654185E-1,2.914608E-1,-1.342564E-1,-2.5532162E-1,-5.147205E-1,6.175377E-2,-2.9524636E-1,-4.8274588E-2,-1.9979684E-1,-1.1040258E-1,1.6927904E-1,-4.273496E-1,-3.4717804E-1,-4.1912666E-1,1.0983398E0,-3.7105492E-1,1.057192E-1,2.3818183E-1,-1.2266357E-1,5.539527E-3,-3.632723E-1,-3.8001883E-1,8.702364E-1,-5.8460087E-1,7.597084E-1,-1.1595614E0,-2.0465047E0,-4.8807168E-1,-1.0265132E0,3.2839733E-1,-6.009388E-1,2.7152905E-1,-5.9929055E-1,-1.6066355E0,-8.237548E-1,-2.6296183E-1,-7.440926E-1,2.0818579E-1,-4.5045638E-1,-2.0291711E-1,-7.025573E-1,-2.9284072E0,-1.0700597E0,-1.9182152E0,2.8843585E-1,-1.9620687E-1,-1.375814E0,-5.979326E-1,2.1876775E-1,-1.4960425E0,-6.367079E-1,-3.132191E0,2.7199396E-1,-1.1321294E0,-3.9155993E-1],"categories":[],"categories_nodes":[],"categories_segments":[],"categories_sizes":[],"default_left":[0,0,0,0,0,0,0,0,0,0,0,0,0,0,0,0,0,0,0,0,0,0,0,0,0,0,0,0,0,0,0,0,0,0,0,0,0,0,0,0,0,0,0,0,0,0,0,0,0,0,0,0,0,0,0,0,0,0,0,0,0,0,0,0,0,0,0,0,0,0,0,0,0,0,0,0,0,0,0,0,0,0,0,0,0,0,0,0,0,0,0,0,0,0,0,0,0,0,0,0,0,0,0,0,0,0,0,0,0,0,0,0,0,0,0,0,0,0,0,0,0,0,0],"id":9,"left_children":[1,3,5,7,9,11,13,15,17,19,21,23,25,27,29,31,33,35,37,39,41,43,45,47,49,51,53,55,57,59,61,63,65,67,69,71,73,75,77,79,81,-1,-1,83,85,87,89,91,93,95,97,99,101,103,105,107,109,111,113,115,117,119,121,-1,-1,-1,-1,-1,-1,-1,-1,-1,-1,-1,-1,-1,-1,-1,-1,-1,-1,-1,-1,-1,-1,-1,-1,-1,-1,-1,-1,-1,-1,-1,-1,-1,-1,-1,-1,-1,-1,-1,-1,-1,-1,-1,-1,-1,-1,-1,-1,-1,-1,-1,-1,-1,-1,-1,-1,-1,-1,-1,-1],"loss_changes":[1.9768441E4,1.5323857E4,2.1048148E4,1.4751931E4,1.2743242E3,1.3130574E4,1.0944162E4,9.646078E3,1.962915E4,5.6408105E2,1.926065E3,4.8062266E3,4.208458E3,9.561659E3,7.1268867E3,6.203342E3,8.493096E3,1.6617125E4,2.9635566E4,2.6249902E2,2.2473457E2,2.08911E3,5.540737E2,8.860127E2,1.6980234E3,2.0415098E3,3.3638018E3,3.9748408E3,5.0235405E3,7.0229062E3,4.690324E3,1.7514043E3,6.170759E3,2.2771616E3,6.884372E3,1.5291191E3,1.1038463E4,1.455398E4,1.2975209E4,1.0279199E2,1.8233632E3,0E0,0E0,7.410288E2,1.6823071E3,1.9870996E2,1.2708065E3,5.3050696E2,1.933916E2,4.7550964E1,1.1737979E3,1.2309155E3,8.460034E2,3.1455303E3,4.410146E3,1.3066123E3,1.2333906E3,1.5026958E3,2.6932314E3,6.5168984E3,8.898862E2,1.1608196E3,2.0551191E3,0E0,0E0,0E0,0E0,0E0,0E0,0E0,0E0,0E0,0E0,0E0,0E0,0E0,0E0,0E0,0E0,0E0,0E0,0E0,0E0,0E0,0E0,0E0,0E0,0E0,0E0,0E0,0E0,0E0,0E0,0E0,0E0,0E0,0E0,0E0,0E0,0E0,0E0,0E0,0E0,0E0,0E0,0E0,0E0,0E0,0E0,0E0,0E0,0E0,0E0,0E0,0E0,0E0,0E0,0E0,0E0,0E0,0E0,0E0,0E0],"parents":[2147483647,0,0,1,1,2,2,3,3,4,4,5,5,6,6,7,7,8,8,9,9,10,10,11,11,12,12,13,13,14,14,15,15,16,16,17,17,18,18,19,19,20,20,21,21,22,22,23,23,24,24,25,25,26,26,27,27,28,28,29,29,30,30,31,31,32,32,33,33,34,34,35,35,36,36,37,37,38,38,39,39,40,40,43,43,44,44,45,45,46,46,47,47,48,48,49,49,50,50,51,51,52,52,53,53,54,54,55,55,56,56,57,57,58,58,59,59,60,60,61,61,62,62],"right_children":[2,4,6,8,10,12,14,16,18,20,22,24,26,28,30,32,34,36,38,40,42,44,46,48,50,52,54,56,58,60,62,64,66,68,70,72,74,76,78,80,82,-1,-1,84,86,88,90,92,94,96,98,100,102,104,106,108,110,112,114,116,118,120,122,-1,-1,-1,-1,-1,-1,-1,-1,-1,-1,-1,-1,-1,-1,-1,-1,-1,-1,-1,-1,-1,-1,-1,-1,-1,-1,-1,-1,-1,-1,-1,-1,-1,-1,-1,-1,-1,-1,-1,-1,-1,-1,-1,-1,-1,-1,-1,-1,-1,-1,-1,-1,-1,-1,-1,-1,-1,-1,-1,-1],"split_conditions":[1.3487323E1,1E0,6.914022E-3,8.961033E-1,1.7640819E-1,9.0826955E-3,3.0413287E-2,7.6527925E0,2.0420688E-1,1.373479E0,4.06561E-1,7.309181E0,6.435667E-2,7.2892632E0,4.08367E-2,5.7870764E-2,1.9484979E-1,4.7499545E-2,1E0,1.3073593E1,2.6937838E1,9.008909E0,3.9102694E-1,1E0,1.5835695E-2,6.2899336E-2,2.5834475E-2,1.1759731E-1,8.7897256E-2,5.86105E-2,2.9552927E-2,1.3433668E1,3.600213E-2,2.4000673E-2,3.0065468E1,7.9545436E0,1E0,8.24902E-2,1.816337E-2,4.0970482E-12,1.4428289E-1,-3.44174E-1,8.1020826E-1,5.282622E-1,1.0064152E1,4.7100326E-3,2.7344844E-1,3.9850477E-2,3.1503635E-3,1E0,9.508969E-3,1.0590365E-2,1.4099686E-2,1E0,6.2154415E-3,3.0536791E-3,2.5298563E1,5.5753584E-3,3.828044E-2,1.9162744E-2,4.2137064E-2,4.781186E-2,9.057126E0,-2.2272219E-1,-4.235188E-1,-2.5049472E-1,-6.535045E-2,-6.949397E-2,-5.6654185E-1,2.914608E-1,-1.342564E-1,-2.5532162E-1,-5.147205E-1,6.175377E-2,-2.9524636E-1,-4.8274588E-2,-1.9979684E-1,-1.1040258E-1,1.6927904E-1,-4.273496E-1,-3.4717804E-1,-4.1912666E-1,1.0983398E0,-3.7105492E-1,1.057192E-1,2.3818183E-1,-1.2266357E-1,5.539527E-3,-3.632723E-1,-3.8001883E-1,8.702364E-1,-5.8460087E-1,7.597084E-1,-1.1595614E0,-2.0465047E0,-4.8807168E-1,-1.0265132E0,3.2839733E-1,-6.009388E-1,2.7152905E-1,-5.9929055E-1,-1.6066355E0,-8.237548E-1,-2.6296183E-1,-7.440926E-1,2.0818579E-1,-4.5045638E-1,-2.0291711E-1,-7.025573E-1,-2.9284072E0,-1.0700597E0,-1.9182152E0,2.8843585E-1,-1.9620687E-1,-1.375814E0,-5.979326E-1,2.1876775E-1,-1.4960425E0,-6.367079E-1,-3.132191E0,2.7199396E-1,-1.1321294E0,-3.9155993E-1],"split_indices":[2,80,16,9,34,36,14,1,26,23,24,44,34,44,27,6,26,19,78,2,10,45,35,77,32,14,13,37,34,32,18,7,21,16,8,2,74,14,29,6,14,0,0,34,45,20,12,32,16,77,31,36,27,77,28,15,7,13,32,21,16,35,1,0,0,0,0,0,0,0,0,0,0,0,0,0,0,0,0,0,0,0,0,0,0,0,0,0,0,0,0,0,0,0,0,0,0,0,0,0,0,0,0,0,0,0,0,0,0,0,0,0,0,0,0,0,0,0,0,0,0,0,0],"split_type":[0,0,0,0,0,0,0,0,0,0,0,0,0,0,0,0,0,0,0,0,0,0,0,0,0,0,0,0,0,0,0,0,0,0,0,0,0,0,0,0,0,0,0,0,0,0,0,0,0,0,0,0,0,0,0,0,0,0,0,0,0,0,0,0,0,0,0,0,0,0,0,0,0,0,0,0,0,0,0,0,0,0,0,0,0,0,0,0,0,0,0,0,0,0,0,0,0,0,0,0,0,0,0,0,0,0,0,0,0,0,0,0,0,0,0,0,0,0,0,0,0,0,0],"sum_hessian":[1.105451E6,9.766217E5,1.2882939E5,9.538913E5,2.2730352E4,2.2336648E4,1.0649274E5,1.608008E5,7.930905E5,9.241283E3,1.3489069E4,6.4546147E3,1.5882034E4,8.499315E3,9.799342E4,1.3983978E5,2.096102E4,4.5582712E5,3.3726338E5,9.168686E3,7.259713E1,7.683656E3,5.8054136E3,4.6774112E2,5.9868735E3,2.3937236E3,1.348831E4,2.4919216E3,6.007394E3,9.548882E4,2.5046E3,2.1156898E4,1.1868288E5,3.3486975E3,1.7612322E4,1.07961455E4,4.4503097E5,2.529247E5,8.433868E4,8.706582E3,4.6210434E2,2.061076E1,5.198637E1,2.7385295E3,4.9451265E3,5.483257E3,3.2215643E2,3.4661905E2,1.2112207E2,2.2467206E2,5.7622017E3,1.8888439E3,5.048799E2,9.376728E3,4.111583E3,2.3533452E3,1.3857632E2,3.542272E3,2.465122E3,9.4993336E4,4.954851E2,9.055273E2,1.5990728E3,1.5979032E4,5.177867E3,1.9358979E4,9.932391E4,1.5141781E3,1.8345194E3,1.2970821E4,4.6415005E3,8.0529663E3,2.7431797E3,4.3709544E5,7.935528E3,1.6599556E5,8.692914E4,1.9383191E4,6.4955484E4,1.8541906E3,6.852391E3,3.7517096E2,8.6933395E1,2.4048267E3,3.33703E2,1.8675981E3,3.077528E3,1.3475981E2,5.348497E3,2.1158322E2,1.1057321E2,3.1867102E2,2.794803E1,8.802137E1,3.31007E1,2.0866756E2,1.60045E1,5.6380566E3,1.2414491E2,1.5898965E2,1.7298541E3,2.4446686E2,2.6041306E2,7.9311665E3,1.4455604E3,2.7389277E3,1.3726552E3,6.528335E2,1.7005117E3,8.425316E1,5.4323162E1,2.7010965E1,3.5152612E3,2.2774348E3,1.8768724E2,8.8670514E2,9.410663E4,1.6201894E2,3.3346616E2,8.111685E0,8.9741565E2,4.8363394E2,1.1154387E3],"tree_param":{"num_deleted":"0","num_feature":"95","num_nodes":"123","size_leaf_vector":"0"}},{"base_weights":[-5.029498E-3,-1.9713719E-1,6.458982E-2,-4.2647216E-1,2.3706281E-1,1.1976356E-1,-1.8802696E-1,1.3275126E-1,-7.28321E-1,5.114203E-1,-9.199666E-2,-3.0738236E-2,2.631309E-1,-4.8006363E-2,-5.155047E-1,-6.321737E-1,5.9984463E-1,-6.8605936E-1,-1.5972373E0,1.0396389E0,2.3849717E-1,1.234188E0,-1.6635662E-1,-3.2542762E-1,1.2682389E-1,3.912281E-1,-1.5088382E-1,1.13871366E-1,-4.6247712E-1,-7.295289E-1,6.437507E-2,2.4279604E0,-7.068914E-1,-5.38208E-1,1.0005047E0,-7.1318406E-1,6.27002E-1,-1.7679409E0,-1.0670446E0,-1.7478625E0,1.1162717E0,-7.4005765E-1,3.3618024E-1,-1.6653844E0,1.4359924E0,-6.1850462E-2,-9.974759E-1,4.1712743E-1,-4.8525682E-1,2.9032812E-1,-3.8605314E-1,4.3808785E-1,-6.1280245E-1,3.469246E-1,-5.100705E-1,3.8753387E-1,-2.5858998E-1,-6.7144257E-1,3.0207056E-1,-2.2035049E-1,-9.9158096E-1,-8.659883E-1,7.3207396E-1,2.2491071E0,-3.421216E-1,-6.9994435E-2,-2.811097E-1,1.489347E-1,-3.0256182E-1,-1.2849405E-1,3.7014985E-1,-2.1991815E-1,1.8154788E-1,5.65047E-1,-1.9392355E-1,-8.0723715E-1,-4.7627345E-1,1.6231238E0,-3.4364596E-1,-4.776404E-1,-7.045693E-1,-7.2935545E-1,3.4059164E-1,-4.499289E-1,-7.6218724E-2,1.2997201E-1,-1.8256879E-1,-5.8590025E-1,-4.3953222E-1,-5.139269E-1,4.5046714E-1,-3.4138504E-2,4.754505E-1,-4.420957E-1,-2.2244196E-2,2.1004672E-1,-2.087455E-1,-2.7053994E-1,-3.0078076E-2,1.09435275E-1,-2.2695722E-1,-3.309062E-1,-5.3349487E-2,1.7401433E-1,4.278337E-2,-3.6264735E-1,2.0476423E-2,2.5942433E-1,-2.6375877E-2,-7.2410256E-1,-1.3801529E-1,1.3064146E-1,-5.70963E-1,2.863328E-1,-1.191273E-1,-2.6431194E-1,1.2078191E-1,2.908317E-1,-1.5058264E-1,-3.4191325E-1,9.545954E-2,-5.897236E-1,-2.652922E-1,-4.9488315E-1,-1.12480186E-1,-4.2087385E-1,3.0899987E-1],"categories":[],"categories_nodes":[],"categories_segments":[],"categories_sizes":[],"default_left":[0,0,0,0,0,0,0,0,0,0,0,0,0,0,0,0,0,0,0,0,0,0,0,0,0,0,0,0,0,0,0,0,0,0,0,0,0,0,0,0,0,0,0,0,0,0,0,0,0,0,0,0,0,0,0,0,0,0,0,0,0,0,0,0,0,0,0,0,0,0,0,0,0,0,0,0,0,0,0,0,0,0,0,0,0,0,0,0,0,0,0,0,0,0,0,0,0,0,0,0,0,0,0,0,0,0,0,0,0,0,0,0,0,0,0,0,0,0,0,0,0,0,0,0,0,0,0],"id":10,"left_children":[1,3,5,7,9,11,13,15,17,19,21,23,25,27,29,31,33,35,37,39,41,43,45,47,49,51,53,55,57,59,61,63,65,67,69,71,73,75,77,79,81,83,85,87,89,91,93,95,97,99,101,103,105,107,109,111,113,115,117,119,121,123,125,-1,-1,-1,-1,-1,-1,-1,-1,-1,-1,-1,-1,-1,-1,-1,-1,-1,-1,-1,-1,-1,-1,-1,-1,-1,-1,-1,-1,-1,-1,-1,-1,-1,-1,-1,-1,-1,-1,-1,-1,-1,-1,-1,-1,-1,-1,-1,-1,-1,-1,-1,-1,-1,-1,-1,-1,-1,-1,-1,-1,-1,-1,-1,-1],"loss_changes":[1.4194341E4,2.8111473E4,1.0857566E4,3.1183516E4,8.808965E3,1.3795471E4,6.403057E3,2.313844E4,4.4046484E3,7.6706025E3,4.3752456E3,1.4483029E4,1.736557E4,6.56306E3,5.19076E3,5.6156025E3,1.8334234E4,4.0754336E3,5.0167773E2,3.8740215E3,3.3538728E3,1.3807671E3,3.6488242E3,1.2897523E4,1.7044055E4,1.176566E4,1.3834863E4,7.1703145E3,4.3896123E3,4.0759766E3,7.005337E3,1.0597931E4,2.6120684E3,5.0956562E3,9.914908E3,2.9378555E3,3.7072034E3,6.960215E2,6.96006E2,4.166626E1,1.1939707E3,1.1754386E3,2.925418E3,5.994568E0,4.573955E2,3.1923015E3,2.0629556E3,6.063596E3,1.4340631E4,1.2012873E4,7.334704E3,1.0021555E4,4.5266E3,7.302244E3,4.278375E3,4.4538867E3,5.0061323E3,4.8577754E3,3.1652344E3,5.1403896E3,2.1059297E3,1.8124824E3,4.177384E3,0E0,0E0,0E0,0E0,0E0,0E0,0E0,0E0,0E0,0E0,0E0,0E0,0E0,0E0,0E0,0E0,0E0,0E0,0E0,0E0,0E0,0E0,0E0,0E0,0E0,0E0,0E0,0E0,0E0,0E0,0E0,0E0,0E0,0E0,0E0,0E0,0E0,0E0,0E0,0E0,0E0,0E0,0E0,0E0,0E0,0E0,0E0,0E0,0E0,0E0,0E0,0E0,0E0,0E0,0E0,0E0,0E0,0E0,0E0,0E0,0E0,0E0,0E0,0E0],"parents":[2147483647,0,0,1,1,2,2,3,3,4,4,5,5,6,6,7,7,8,8,9,9,10,10,11,11,12,12,13,13,14,14,15,15,16,16,17,17,18,18,19,19,20,20,21,21,22,22,23,23,24,24,25,25,26,26,27,27,28,28,29,29,30,30,31,31,32,32,33,33,34,34,35,35,36,36,37,37,38,38,39,39,40,40,41,41,42,42,43,43,44,44,45,45,46,46,47,47,48,48,49,49,50,50,51,51,52,52,53,53,54,54,55,55,56,56,57,57,58,58,59,59,60,60,61,61,62,62],"right_children":[2,4,6,8,10,12,14,16,18,20,22,24,26,28,30,32,34,36,38,40,42,44,46,48,50,52,54,56,58,60,62,64,66,68,70,72,74,76,78,80,82,84,86,88,90,92,94,96,98,100,102,104,106,108,110,112,114,116,118,120,122,124,126,-1,-1,-1,-1,-1,-1,-1,-1,-1,-1,-1,-1,-1,-1,-1,-1,-1,-1,-1,-1,-1,-1,-1,-1,-1,-1,-1,-1,-1,-1,-1,-1,-1,-1,-1,-1,-1,-1,-1,-1,-1,-1,-1,-1,-1,-1,-1,-1,-1,-1,-1,-1,-1,-1,-1,-1,-1,-1,-1,-1,-1,-1,-1,-1],"split_conditions":[5.0867925E0,1E0,3.920823E1,1.2026172E-1,1.5585323E-1,1.9208169E-1,3.3570867E-2,8.241414E-2,1.242757E1,3.1478324E0,4.612513E-2,1.9783217E-2,2.1481161E-1,2.1593909E-1,1E0,1.497288E-2,2.498258E1,8.5519505E-1,1E0,1.5519418E1,1.1866475E-1,1.0433501E-1,1.509342E-1,3.235E1,4.2640522E-2,1E0,8.235385E-2,1.9165449E-1,6.0694233E-2,2.0290182E1,3.9169785E-2,5.0248872E-2,4.072258E-2,6.779323E-2,8.0477394E-2,1.0031502E3,2.0600412E-2,6.362864E0,1.0232974E1,1.2682833E1,2.5178676E-2,1.459229E-1,1.5302299E-1,1.670078E-1,1.9472557E-1,1.0031502E3,1.8765138E-1,1.9899651E-1,7.622584E0,6.822476E-2,1.0292348E-1,1.4140558E-1,6.825108E-2,8.591931E0,2.209733E0,9.923574E0,2.946185E-3,2.7307692E-1,1.4402033E-1,3.6554436E1,6.9095893E0,2.0318975E-1,7.48817E-2,2.2491071E0,-3.421216E-1,-6.9994435E-2,-2.811097E-1,1.489347E-1,-3.0256182E-1,-1.2849405E-1,3.7014985E-1,-2.1991815E-1,1.8154788E-1,5.65047E-1,-1.9392355E-1,-8.0723715E-1,-4.7627345E-1,1.6231238E0,-3.4364596E-1,-4.776404E-1,-7.045693E-1,-7.2935545E-1,3.4059164E-1,-4.499289E-1,-7.6218724E-2,1.2997201E-1,-1.8256879E-1,-5.8590025E-1,-4.3953222E-1,-5.139269E-1,4.5046714E-1,-3.4138504E-2,4.754505E-1,-4.420957E-1,-2.2244196E-2,2.1004672E-1,-2.087455E-1,-2.7053994E-1,-3.0078076E-2,1.09435275E-1,-2.2695722E-1,-3.309062E-1,-5.3349487E-2,1.7401433E-1,4.278337E-2,-3.6264735E-1,2.0476423E-2,2.5942433E-1,-2.6375877E-2,-7.2410256E-1,-1.3801529E-1,1.3064146E-1,-5.70963E-1,2.863328E-1,-1.191273E-1,-2.6431194E-1,1.2078191E-1,2.908317E-1,-1.5058264E-1,-3.4191325E-1,9.545954E-2,-5.897236E-1,-2.652922E-1,-4.9488315E-1,-1.12480186E-1,-4.2087385E-1,3.0899987E-1],"split_indices":[1,70,8,26,18,18,32,32,2,43,4,11,33,26,70,19,8,38,77,7,25,35,38,3,27,93,30,25,27,10,11,14,11,18,21,43,11,44,7,7,13,19,13,34,25,43,19,26,44,16,39,35,36,2,0,1,20,26,35,3,44,42,21,0,0,0,0,0,0,0,0,0,0,0,0,0,0,0,0,0,0,0,0,0,0,0,0,0,0,0,0,0,0,0,0,0,0,0,0,0,0,0,0,0,0,0,0,0,0,0,0,0,0,0,0,0,0,0,0,0,0,0,0,0,0,0,0],"split_type":[0,0,0,0,0,0,0,0,0,0,0,0,0,0,0,0,0,0,0,0,0,0,0,0,0,0,0,0,0,0,0,0,0,0,0,0,0,0,0,0,0,0,0,0,0,0,0,0,0,0,0,0,0,0,0,0,0,0,0,0,0,0,0,0,0,0,0,0,0,0,0,0,0,0,0,0,0,0,0,0,0,0,0,0,0,0,0,0,0,0,0,0,0,0,0,0,0,0,0,0,0,0,0,0,0,0,0,0,0,0,0,0,0,0,0,0,0,0,0,0,0,0,0,0,0,0,0],"sum_hessian":[1.0613042E6,2.823062E5,7.789981E5,1.8473383E5,9.757237E4,6.393573E5,1.3964077E5,6.4758633E4,1.19975195E5,5.3208527E4,4.436384E4,3.11918E5,3.274393E5,9.781771E4,4.1823055E4,2.4551715E4,4.0206918E4,1.144123E5,5.5629004E3,1.812547E4,3.5083055E4,2.354608E3,4.200923E4,1.0867027E5,2.0324772E5,2.5006778E5,7.737154E4,7.034439E4,2.7473324E4,3.054802E4,1.1275036E4,5.84428E2,2.3967287E4,1.0469251E4,2.9737666E4,1.120971E5,2.3151985E3,4.2062876E3,1.3566127E3,4.8438202E2,1.764109E4,3.1836633E3,3.1899393E4,1.5274072E2,2.2018672E3,3.73179E4,4.6913325E3,1.924726E4,8.9423016E4,1.541162E5,4.913152E4,2.3891767E5,1.1150116E4,3.2428234E4,4.4943305E4,4.055035E4,2.9794035E4,2.1576246E4,5.897078E3,1.0380365E4,2.0167654E4,4.7107866E3,6.5642495E3,2.4098885E2,3.4343915E2,7.83882E3,1.6128467E4,3.27178E3,7.197471E3,4.174385E3,2.5563281E4,1.1043257E5,1.6645277E3,1.1651027E3,1.1500958E3,6.8540533E2,3.5208823E3,1.5418676E1,1.341194E3,3.8756012E2,9.682189E1,9.347051E1,1.754762E4,1.2412544E3,1.9424088E3,2.892797E4,2.971422E3,5.9106636E1,9.363409E1,4.439598E1,2.1574712E3,3.617761E4,1.1402886E3,3.0947307E3,1.5966016E3,1.5345249E4,3.9020117E3,4.2951137E4,4.647188E4,1.4388333E5,1.023288E4,1.1056491E4,3.8075027E4,1.6138183E5,7.7535836E4,5.945864E3,5.2042524E3,1.480139E4,1.7626846E4,1.1494957E3,4.379381E4,3.9719957E4,8.303962E2,3.0525981E3,2.6741438E4,1.805337E4,3.5228777E3,3.2222517E3,2.6748267E3,3.834075E3,6.54629E3,1.9988208E3,1.8168834E4,1.8138674E3,2.8969194E3,8.033799E2,5.7608696E3],"tree_param":{"num_deleted":"0","num_feature":"95","num_nodes":"127","size_leaf_vector":"0"}},{"base_weights":[-4.9032066E-3,2.560323E-2,-3.709727E-1,-2.3602147E-1,6.831693E-2,-7.589927E-1,-6.192463E-2,2.9173768E-1,-3.921977E-1,8.493144E-2,-7.2761023E-1,-2.2423266E-1,-9.1846585E-1,4.6918777E-1,-2.8953278E-1,-3.822548E-1,7.840818E-1,-5.9475E-1,2.0930001E-1,1.01435006E-1,-7.441697E-1,-9.869586E-1,-6.305815E-2,2.7929065E-3,-2.6172252E0,-1.2001913E0,-4.2169705E-1,6.6322464E-1,-1.1914978E0,-5.97312E-1,3.4317032E-1,-7.616863E-1,2.518204E-1,8.767384E-1,-2.5222323E0,5.6609625E-1,-6.850108E-1,3.8084584E-1,-1.3419611E0,1.3796398E-1,-2.0935309E-1,-8.05735E-1,2.5026412E0,-1.0872082E0,3.5059667E-1,-1.107797E0,4.4123578E-1,-6.2689364E-1,7.8357387E-1,-2.1463144E0,-4.6086965E0,-1.5143003E0,-8.6811006E-1,-6.840329E-1,7.335605E-1,8.562479E-1,-4.739667E-1,-1.4844843E0,-2.766447E-1,-8.5551506E-1,1.16616614E-1,-7.082532E-1,6.387678E-1,-2.823269E-1,4.609177E-1,2.5854187E0,5.878661E-2,3.150046E-1,-9.2257254E-2,-9.9136794E-1,-4.5904642E-1,-3.4381706E-1,3.9007023E-1,-2.1946356E-1,3.066866E-1,1.6155718E-1,-4.4441438E-1,3.121386E-1,-4.9961084E-1,2.9609485E-2,1.1789406E-1,-1.6829348E-1,1.9820593E-2,-9.760284E-2,-3.1882256E-1,1.2956717E0,-3.762593E-1,-3.2372075E-1,-1.3379363E0,1.0967517E0,-3.1331447E-1,-4.497787E-1,1.0364761E-1,2.7619892E-1,-2.9051098E-1,-4.8847463E-2,-5.2968603E-1,2.9496136E-1,-6.613274E-1,-6.902522E-1,-4.749129E-1,-1.1671041E0,-2.3046846E0,-6.144717E-1,-3.4210315E-1,1.1542374E0,-2.7583292E-1,7.5888727E-3,-3.1322724E-1,3.309897E-1,-3.8929266E-1,-5.107041E-1,2.7750224E-1,-3.8678512E-1,2.3399417E-1,-1.6854258E-1,-4.6478465E-1,5.0686014E-1,-3.4332553E-1,-5.3635323E-3,-3.033946E-1,6.7038035E-1,-5.3530615E-2,1.3952451E0,-2.882876E-1,-3.7878945E-1,2.353728E-1],"categories":[],"categories_nodes":[],"categories_segments":[],"categories_sizes":[],"default_left":[0,0,0,0,0,0,0,0,0,0,0,0,0,0,0,0,0,0,0,0,0,0,0,0,0,0,0,0,0,0,0,0,0,0,0,0,0,0,0,0,0,0,0,0,0,0,0,0,0,0,0,0,0,0,0,0,0,0,0,0,0,0,0,0,0,0,0,0,0,0,0,0,0,0,0,0,0,0,0,0,0,0,0,0,0,0,0,0,0,0,0,0,0,0,0,0,0,0,0,0,0,0,0,0,0,0,0,0,0,0,0,0,0,0,0,0,0,0,0,0,0,0,0,0,0,0,0],"id":11,"left_children":[1,3,5,7,9,11,13,15,17,19,21,23,25,27,29,31,33,35,37,39,41,43,45,47,49,51,53,55,57,59,61,63,65,67,69,71,73,75,77,79,81,83,85,87,89,91,93,95,97,99,101,103,105,107,109,111,113,115,117,119,121,123,125,-1,-1,-1,-1,-1,-1,-1,-1,-1,-1,-1,-1,-1,-1,-1,-1,-1,-1,-1,-1,-1,-1,-1,-1,-1,-1,-1,-1,-1,-1,-1,-1,-1,-1,-1,-1,-1,-1,-1,-1,-1,-1,-1,-1,-1,-1,-1,-1,-1,-1,-1,-1,-1,-1,-1,-1,-1,-1,-1,-1,-1,-1,-1,-1],"loss_changes":[1.1240979E4,1.0383242E4,9.285219E3,1.0748627E4,1.0562633E4,2.9273848E3,5.210624E3,9.881955E3,1.2260145E4,1.0705949E4,2.8148574E3,4.2848525E3,3.7002695E3,4.1675137E3,5.8758687E3,3.0246543E3,5.2740938E3,7.8880156E3,6.7465977E3,8.709254E3,3.0544307E3,1.5756299E3,2.4165312E3,3.5426655E3,6.3102686E2,1.7587227E3,2.9011118E3,2.5419556E3,3.6228467E2,3.7419893E3,3.069564E3,3.2440742E3,2.1983005E3,3.435504E3,3.592334E2,6.828668E3,5.5500625E3,6.7035596E3,1.9468169E3,6.8737695E3,7.813963E3,1.8500098E3,1.9460574E3,2.951797E2,3.783965E3,8.5001965E2,2.0915396E3,2.1075864E3,1.9210363E3,4.4629883E1,2.56761E2,1.7287793E3,1.9895034E3,1.9922073E3,1.3319626E3,1.7430518E3,1.7193706E3,6.039258E1,5.6406E2,1.9454834E3,3.370192E3,2.9398174E3,2.1380786E3,0E0,0E0,0E0,0E0,0E0,0E0,0E0,0E0,0E0,0E0,0E0,0E0,0E0,0E0,0E0,0E0,0E0,0E0,0E0,0E0,0E0,0E0,0E0,0E0,0E0,0E0,0E0,0E0,0E0,0E0,0E0,0E0,0E0,0E0,0E0,0E0,0E0,0E0,0E0,0E0,0E0,0E0,0E0,0E0,0E0,0E0,0E0,0E0,0E0,0E0,0E0,0E0,0E0,0E0,0E0,0E0,0E0,0E0,0E0,0E0,0E0,0E0,0E0,0E0],"parents":[2147483647,0,0,1,1,2,2,3,3,4,4,5,5,6,6,7,7,8,8,9,9,10,10,11,11,12,12,13,13,14,14,15,15,16,16,17,17,18,18,19,19,20,20,21,21,22,22,23,23,24,24,25,25,26,26,27,27,28,28,29,29,30,30,31,31,32,32,33,33,34,34,35,35,36,36,37,37,38,38,39,39,40,40,41,41,42,42,43,43,44,44,45,45,46,46,47,47,48,48,49,49,50,50,51,51,52,52,53,53,54,54,55,55,56,56,57,57,58,58,59,59,60,60,61,61,62,62],"right_children":[2,4,6,8,10,12,14,16,18,20,22,24,26,28,30,32,34,36,38,40,42,44,46,48,50,52,54,56,58,60,62,64,66,68,70,72,74,76,78,80,82,84,86,88,90,92,94,96,98,100,102,104,106,108,110,112,114,116,118,120,122,124,126,-1,-1,-1,-1,-1,-1,-1,-1,-1,-1,-1,-1,-1,-1,-1,-1,-1,-1,-1,-1,-1,-1,-1,-1,-1,-1,-1,-1,-1,-1,-1,-1,-1,-1,-1,-1,-1,-1,-1,-1,-1,-1,-1,-1,-1,-1,-1,-1,-1,-1,-1,-1,-1,-1,-1,-1,-1,-1,-1,-1,-1,-1,-1,-1],"split_conditions":[1E0,9.270369E-2,1.3881004E-1,6.075797E0,6.77684E0,1.26152905E-2,5.5450216E-2,1.9935805E0,8.827361E0,1.041832E0,1E0,1.0367621E1,6.5890044E-2,3.6026325E-2,1E0,2.1267264E-1,8.246541E0,-1.3893547E0,9.5791675E-2,2.4429785E-1,1.6796114E1,1E0,2.5919536E-1,2.2086082E1,1E0,2.645953E0,2.1723112E-1,3.9884108E-1,1.9156048E-1,1.4244276E-1,1.1858962E-1,1.2932543E-1,4.538083E-2,1.3273226E-1,5.4301955E-2,3.1778454E1,1.5051172E1,8.962087E-2,1.70028E-3,6.907533E-2,1.48423E-1,1.6036397E-1,8.5888356E-2,1.1615342E1,1.518242E-3,3.9469635E0,1.6489825E-1,3.464519E1,1.622198E-2,2.5187075E1,1.0591441E1,7.4577713E0,1.70028E-3,5.998425E-2,2.7495794E-2,3.428458E-2,1.2627204E1,1.0317232E-1,1.9374532E-1,2.1834509E1,9.391769E-3,1.0333027E0,9.82621E-3,-2.823269E-1,4.609177E-1,2.5854187E0,5.878661E-2,3.150046E-1,-9.2257254E-2,-9.9136794E-1,-4.5904642E-1,-3.4381706E-1,3.9007023E-1,-2.1946356E-1,3.066866E-1,1.6155718E-1,-4.4441438E-1,3.121386E-1,-4.9961084E-1,2.9609485E-2,1.1789406E-1,-1.6829348E-1,1.9820593E-2,-9.760284E-2,-3.1882256E-1,1.2956717E0,-3.762593E-1,-3.2372075E-1,-1.3379363E0,1.0967517E0,-3.1331447E-1,-4.497787E-1,1.0364761E-1,2.7619892E-1,-2.9051098E-1,-4.8847463E-2,-5.2968603E-1,2.9496136E-1,-6.613274E-1,-6.902522E-1,-4.749129E-1,-1.1671041E0,-2.3046846E0,-6.144717E-1,-3.4210315E-1,1.1542374E0,-2.7583292E-1,7.5888727E-3,-3.1322724E-1,3.309897E-1,-3.8929266E-1,-5.107041E-1,2.7750224E-1,-3.8678512E-1,2.3399417E-1,-1.6854258E-1,-4.6478465E-1,5.0686014E-1,-3.4332553E-1,-5.3635323E-3,-3.033946E-1,6.7038035E-1,-5.3530615E-2,1.3952451E0,-2.882876E-1,-3.7878945E-1,2.353728E-1],"split_indices":[85,19,33,44,4,27,14,0,1,17,70,1,27,32,78,33,1,2,38,35,45,93,40,7,77,43,41,40,23,21,19,32,30,30,43,8,2,30,4,12,21,42,41,2,28,2,19,3,11,7,2,44,4,37,31,30,45,42,23,3,20,10,29,0,0,0,0,0,0,0,0,0,0,0,0,0,0,0,0,0,0,0,0,0,0,0,0,0,0,0,0,0,0,0,0,0,0,0,0,0,0,0,0,0,0,0,0,0,0,0,0,0,0,0,0,0,0,0,0,0,0,0,0,0,0,0,0],"split_type":[0,0,0,0,0,0,0,0,0,0,0,0,0,0,0,0,0,0,0,0,0,0,0,0,0,0,0,0,0,0,0,0,0,0,0,0,0,0,0,0,0,0,0,0,0,0,0,0,0,0,0,0,0,0,0,0,0,0,0,0,0,0,0,0,0,0,0,0,0,0,0,0,0,0,0,0,0,0,0,0,0,0,0,0,0,0,0,0,0,0,0,0,0,0,0,0,0,0,0,0,0,0,0,0,0,0,0,0,0,0,0,0,0,0,0,0,0,0,0,0,0,0,0,0,0,0,0],"sum_hessian":[1.00658006E6,9.291501E5,7.742989E4,1.3040501E5,7.987451E5,3.4328223E4,4.3101668E4,2.9777709E4,1.006273E5,7.824136E5,1.633153E4,7.886131E3,2.644209E4,1.2929728E4,3.0171941E4,1.2570119E4,1.720759E4,7.527778E4,2.5349518E4,7.671442E5,1.5269406E4,1.1746752E4,4.5847783E3,7.2037065E3,6.8242395E2,1.687219E4,9.569901E3,1.1577586E4,1.3521414E3,2.0298006E4,9.873936E3,7.8640557E3,4.706064E3,1.6739223E4,4.683675E2,5.430516E3,6.9847266E4,2.2826059E4,2.5234597E3,6.864605E5,8.0683695E4,1.4985997E4,2.8340918E2,1.0927895E4,8.1885675E2,1.4922036E3,3.0925747E3,3.9878062E3,3.2159006E3,5.5359625E2,1.288277E2,8.668895E3,8.203296E3,7.7992544E3,1.7706467E3,9.897811E3,1.6797756E3,1.0236799E3,3.2846146E2,1.4906608E4,5.391398E3,2.1664827E3,7.7074526E3,7.2951387E3,5.689167E2,3.0199362E1,4.6758643E3,1.4602721E4,2.1365012E3,2.6056305E2,2.0780444E2,1.6295425E3,3.8009734E3,6.799456E4,1.8526979E3,2.1044863E4,1.7811948E3,3.0134576E2,2.222114E3,5.9486806E5,9.159246E4,3.543875E4,4.5244945E4,5.2238823E3,9.762115E3,1.909458E2,9.246338E1,1.0902903E4,2.499199E1,2.4254745E2,5.763093E2,1.1755264E3,3.166773E2,2.3079534E3,7.8462134E2,2.834E3,1.153806E3,3.0151284E3,2.0077231E2,4.3199838E2,1.2159785E2,1.0625891E2,2.256879E1,3.568822E3,5.1000723E3,8.754191E1,8.1157534E3,2.6262869E3,5.1729673E3,1.4983584E3,2.7228833E2,2.584104E2,9.639399E3,1.01790515E3,6.618704E2,6.780828E1,9.558716E2,1.0028696E2,2.281745E2,2.3379702E3,1.2568639E4,6.584248E2,4.732973E3,9.677575E1,2.0697068E3,5.484021E2,7.1590503E3],"tree_param":{"num_deleted":"0","num_feature":"95","num_nodes":"127","size_leaf_vector":"0"}},{"base_weights":[-5.429563E-3,8.528992E-3,-7.151622E-1,-2.3151359E-2,2.767705E-1,-7.690424E-1,2.687922E-1,-6.2677085E-2,2.131025E-1,6.1539364E-1,-2.7482191E-2,-1.0967312E0,-5.8209205E-1,7.4416757E-1,-1.190888E0,-1.18723005E-1,1.7321745E-1,4.080928E-1,-4.8273006E-1,6.6940826E-1,-4.23754E0,-2.7660263E0,6.5396056E-2,-1.1971076E0,-9.8491654E-2,1.23848235E-2,-7.72458E-1,-1.3431506E0,9.5690167E-1,-3.9138535E-1,-3.2497874E-1,-3.2262334E-1,7.883374E-2,4.2161182E-1,-1.4833982E-1,6.8630856E-1,1.2427195E-2,1.446693E-1,-7.11465E-1,-1.1121559E0,8.0023336E-1,-5.456758E0,-2.2234387E0,-4.065175E0,-1.6851594E0,9.622649E-1,-9.6898876E-2,-1.2283287E0,-6.328547E-1,-1.2391852E0,1.3967651E0,-3.6310205E-1,1.3185736E0,2.5835687E-1,-9.0894896E-1,-4.3244818E-1,-3.2631302E-1,1.0830706E0,-1.5754966E0,-6.949644E-2,-2.3953775E-1,5.8172043E-2,-5.9456468E-2,2.1902387E-1,6.317689E-2,-1.3583004E-1,4.0135548E-2,2.5899795E-1,-4.594444E-2,1.2735838E-1,-2.1438693E-1,-3.4952703E-1,1.6419858E-1,-3.0680662E-1,-1.1099939E-1,8.043748E-2,-5.137404E-1,2.4495251E-1,-1.4170606E0,-2.5964262E0,-1.3111659E0,-6.1581355E-1,-1.5006707E0,-1.894518E0,-9.4312507E-1,-5.5693305E-1,1.0133563E-1,2.9599327E-1,-2.5778925E0,1.8243246E-1,-9.052181E-2,-4.089686E-1,-3.4701678E-1,-3.4201336E-1,2.6802945E-1,-4.4236824E-1,-3.6116117E-1,6.9586545E-1,-3.4532055E-1,3.109533E-1,-2.6476404E-1,5.277873E-1,-4.1844672E-1,-6.357001E-2,1.140484E0,-3.0531612E-1,5.4926258E-2,3.5685843E-1,-3.8953593E-1,-5.665365E-1,-3.5416147E-1],"categories":[],"categories_nodes":[],"categories_segments":[],"categories_sizes":[],"default_left":[0,0,0,0,0,0,0,0,0,0,0,0,0,0,0,0,0,0,0,0,0,0,0,0,0,0,0,0,0,0,0,0,0,0,0,0,0,0,0,0,0,0,0,0,0,0,0,0,0,0,0,0,0,0,0,0,0,0,0,0,0,0,0,0,0,0,0,0,0,0,0,0,0,0,0,0,0,0,0,0,0,0,0,0,0,0,0,0,0,0,0,0,0,0,0,0,0,0,0,0,0,0,0,0,0,0,0,0,0,0,0],"id":12,"left_children":[1,3,5,7,9,11,13,15,17,19,21,23,25,27,29,31,33,35,37,39,41,43,45,47,49,51,53,55,57,-1,-1,59,61,63,65,67,69,71,73,75,77,79,81,83,85,87,89,91,93,95,97,99,101,103,105,-1,-1,107,109,-1,-1,-1,-1,-1,-1,-1,-1,-1,-1,-1,-1,-1,-1,-1,-1,-1,-1,-1,-1,-1,-1,-1,-1,-1,-1,-1,-1,-1,-1,-1,-1,-1,-1,-1,-1,-1,-1,-1,-1,-1,-1,-1,-1,-1,-1,-1,-1,-1,-1,-1,-1],"loss_changes":[9.69762E3,8.158078E3,1.0011758E3,8.017693E3,1.0447334E4,1.0959873E3,6.81562E2,9.724561E3,1.6696727E4,1.258274E4,1.3585969E4,6.513374E2,1.2901426E3,3.3013455E2,1.5411682E0,2.3940955E4,1.1278742E4,1.0581176E4,3.8656782E3,1.1063428E4,1.2854541E3,2.453502E3,7.5199277E3,1.0329199E2,1.0167743E3,1.357142E3,1.2151553E3,1.632309E-1,2.1663007E2,0E0,0E0,1.2659785E4,9.622783E3,5.18567E3,5.285631E3,8.386707E3,1.189084E4,3.7964746E3,2.0974248E3,2.6912349E3,3.9789707E3,1.1031787E3,8.5061646E1,1.6282793E3,3.32614E2,1.8525762E3,6.317875E3,5.2484375E1,2.4238388E2,1.0352783E0,6.0926074E2,1.5634896E3,7.412915E2,1.6844681E3,9.0596875E2,0E0,0E0,1.6414282E2,1.7668304E0,0E0,0E0,0E0,0E0,0E0,0E0,0E0,0E0,0E0,0E0,0E0,0E0,0E0,0E0,0E0,0E0,0E0,0E0,0E0,0E0,0E0,0E0,0E0,0E0,0E0,0E0,0E0,0E0,0E0,0E0,0E0,0E0,0E0,0E0,0E0,0E0,0E0,0E0,0E0,0E0,0E0,0E0,0E0,0E0,0E0,0E0,0E0,0E0,0E0,0E0,0E0,0E0],"parents":[2147483647,0,0,1,1,2,2,3,3,4,4,5,5,6,6,7,7,8,8,9,9,10,10,11,11,12,12,13,13,14,14,15,15,16,16,17,17,18,18,19,19,20,20,21,21,22,22,23,23,24,24,25,25,26,26,27,27,28,28,31,31,32,32,33,33,34,34,35,35,36,36,37,37,38,38,39,39,40,40,41,41,42,42,43,43,44,44,45,45,46,46,47,47,48,48,49,49,50,50,51,51,52,52,53,53,54,54,57,57,58,58],"right_children":[2,4,6,8,10,12,14,16,18,20,22,24,26,28,30,32,34,36,38,40,42,44,46,48,50,52,54,56,58,-1,-1,60,62,64,66,68,70,72,74,76,78,80,82,84,86,88,90,92,94,96,98,100,102,