{"learner":{"attributes":{"best_iteration":"99","best_ntree_limit":"100","scikit_learn":"{\"use_label_encoder\": false, \"n_estimators\": 100, \"objective\": \"binary:logistic\", \"max_depth\": null, \"max_leaves\": null, \"max_bin\": null, \"grow_policy\": null, \"learning_rate\": null, \"verbosity\": null, \"booster\": null, \"tree_method\": null, \"gamma\": null, \"min_child_weight\": null, \"max_delta_step\": null, \"subsample\": null, \"sampling_method\": null, \"colsample_bytree\": null, \"colsample_bylevel\": null, \"colsample_bynode\": null, \"reg_alpha\": null, \"reg_lambda\": null, \"scale_pos_weight\": null, \"base_score\": null, \"missing\": NaN, \"num_parallel_tree\": null, \"random_state\": null, \"n_jobs\": -6, \"monotone_constraints\": null, \"interaction_constraints\": null, \"importance_type\": null, \"gpu_id\": null, \"validate_parameters\": null, \"predictor\": null, \"enable_categorical\": false, \"max_cat_to_onehot\": null, \"eval_metric\": null, \"early_stopping_rounds\": null, \"callbacks\": null, \"kwargs\": {\"seed\": 15}, \"classes_\": [0, 1], \"n_classes_\": 2, \"_estimator_type\": \"classifier\"}"},"feature_names":[],"feature_types":[],"gradient_booster":{"model":{"gbtree_model_param":{"num_parallel_tree":"1","num_trees":"100","size_leaf_vector":"0"},"tree_info":[0,0,0,0,0,0,0,0,0,0,0,0,0,0,0,0,0,0,0,0,0,0,0,0,0,0,0,0,0,0,0,0,0,0,0,0,0,0,0,0,0,0,0,0,0,0,0,0,0,0,0,0,0,0,0,0,0,0,0,0,0,0,0,0,0,0,0,0,0,0,0,0,0,0,0,0,0,0,0,0,0,0,0,0,0,0,0,0,0,0,0,0,0,0,0,0,0,0,0,0],"trees":[{"base_weights":[-0E0,2.3496501E-1,-2.8808725E-1,4.6094778E-1,-1.3173857E-1,2.3097648E-1,-4.933773E-1,5.4562706E-1,-6.201327E-1,-5.080335E-1,1.9715191E-1,-4.3181023E-1,6.661425E-1,-9.4275784E-1,-3.2179087E-1,-1.6734199E-1,6.786919E-1,-8.5634434E-1,-2.6841613E-2,-7.001392E-1,-1.3305741E-2,6.769243E-1,-3.2022578E-1,-2.2257051E-1,-1.1723105E0,-3.202628E-1,9.319145E-1,-1.1618776E0,-3.571982E-1,-1.979494E-1,-1.099453E0,2.3997429E-1,-7.5670016E-1,7.793328E-1,-1.6483243E-1,2.256691E-1,-1.030305E0,5.745909E-1,-7.7046853E-1,-1.0704021E0,-3.5603306E-1,4.9803615E-1,-4.2300493E-1,-7.3689766E-2,1.1385398E0,-5.942816E-1,5.658705E-1,-5.693035E-1,2.619578E-1,-2.4556772E-1,-1.4881022E0,-7.6346564E-1,6.5806264E-1,1.2043488E0,-2.8197575E-1,-1.499787E0,-9.438379E-1,1.3591665E-1,-9.05779E-1,-5.961591E-1,3.2043036E-2,-1.4931759E0,-4.5405895E-1,2.0492314E-1,-1.2182149E-1,-3.3934587E-1,-3.2106455E-2,2.7236846E-1,2.562793E-2,2.0880844E-1,-1.8634138E-1,2.5698984E-1,-3.3676684E-1,-6.571053E-2,-3.6694413E-1,2.4246489E-1,-4.852036E-1,-2.7207748E-3,-4.7173053E-1,-3.6304107E-1,4.9319295E-3,-3.8927716E-1,-3.6218E-2,1.04517685E-2,3.648204E-1,-4.1690117E-1,-6.1686173E-2,8.394197E-2,-3.4026593E-1,3.9992929E-1,-2.3554754E-1,1.378692E-1,-2.4820852E-1,4.128294E-1,-9.365276E-2,-3.110368E-1,-2.1600699E-2,-2.2043177E-1,1.94268E-1,-2.657852E-1,3.2592797E-1,-1.2762485E-1,-4.9735335E-1,-9.4502784E-2,-4.738696E-1,-1.9170024E-1,4.1445327E-1,4.5640454E-1,1.3656405E-1,-4.2449832E-1,3.3539135E-2,-4.8108035E-1,-1.5429983E-1,-3.529177E-1,-1.3520028E-1,1.9103228E-1,-2.3758478E-1,-4.152527E-1,-3.556945E-2,-6.955983E-3,-3.1178123E-1,9.614592E-2,-1.3465257E-1,5.503697E-2,-4.7673222E-1,1.7115E-2,-3.4832987E-1],"categories":[],"categories_nodes":[],"categories_segments":[],"categories_sizes":[],"default_left":[0,0,0,0,0,0,0,0,0,0,0,0,0,0,0,0,0,0,0,0,0,0,0,0,0,0,0,0,0,0,0,0,0,0,0,0,0,0,0,0,0,0,0,0,0,0,0,0,0,0,0,0,0,0,0,0,0,0,0,0,0,0,0,0,0,0,0,0,0,0,0,0,0,0,0,0,0,0,0,0,0,0,0,0,0,0,0,0,0,0,0,0,0,0,0,0,0,0,0,0,0,0,0,0,0,0,0,0,0,0,0,0,0,0,0,0,0,0,0,0,0,0,0,0,0,0,0],"id":0,"left_children":[1,3,5,7,9,11,13,15,17,19,21,23,25,27,29,31,33,35,37,39,41,43,45,47,49,51,53,55,57,59,61,63,65,67,69,71,73,75,77,79,81,83,85,87,89,91,93,95,97,99,101,103,105,107,109,111,113,115,117,119,121,123,125,-1,-1,-1,-1,-1,-1,-1,-1,-1,-1,-1,-1,-1,-1,-1,-1,-1,-1,-1,-1,-1,-1,-1,-1,-1,-1,-1,-1,-1,-1,-1,-1,-1,-1,-1,-1,-1,-1,-1,-1,-1,-1,-1,-1,-1,-1,-1,-1,-1,-1,-1,-1,-1,-1,-1,-1,-1,-1,-1,-1,-1,-1,-1,-1],"loss_changes":[1.3611834E5,9.1782336E4,9.625795E4,6.273303E4,5.226369E4,7.384079E4,4.991283E4,6.028967E4,6.975873E3,1.871864E4,5.5935895E4,1.5721787E4,4.0515844E4,2.294964E4,4.5114883E4,2.3993938E4,4.5463688E4,6.7016094E3,6.3404253E3,1.8074922E4,1.1541155E4,4.0512805E4,2.6329883E4,1.3291875E4,6.541998E3,1.4223663E4,4.0261734E4,9.588453E3,1.3176355E4,3.700967E4,1.6351578E4,1.691974E4,9.937072E3,4.2682844E4,2.2424396E4,4.19652E3,4.7981914E3,4.0149553E3,3.870685E3,1.037818E4,1.6291299E4,8.150161E3,6.426731E3,1.6692262E4,2.7097484E4,2.0341467E4,1.8221781E4,1.0721029E4,1.268432E4,4.84827E3,3.0068594E3,8.261982E3,9.598176E3,2.3611312E4,9.956374E3,5.221414E3,9.0730625E3,1.1921609E4,8.683303E3,3.7562168E4,3.553098E4,6.4289062E3,8.81201E3,0E0,0E0,0E0,0E0,0E0,0E0,0E0,0E0,0E0,0E0,0E0,0E0,0E0,0E0,0E0,0E0,0E0,0E0,0E0,0E0,0E0,0E0,0E0,0E0,0E0,0E0,0E0,0E0,0E0,0E0,0E0,0E0,0E0,0E0,0E0,0E0,0E0,0E0,0E0,0E0,0E0,0E0,0E0,0E0,0E0,0E0,0E0,0E0,0E0,0E0,0E0,0E0,0E0,0E0,0E0,0E0,0E0,0E0,0E0,0E0,0E0,0E0,0E0,0E0],"parents":[2147483647,0,0,1,1,2,2,3,3,4,4,5,5,6,6,7,7,8,8,9,9,10,10,11,11,12,12,13,13,14,14,15,15,16,16,17,17,18,18,19,19,20,20,21,21,22,22,23,23,24,24,25,25,26,26,27,27,28,28,29,29,30,30,31,31,32,32,33,33,34,34,35,35,36,36,37,37,38,38,39,39,40,40,41,41,42,42,43,43,44,44,45,45,46,46,47,47,48,48,49,49,50,50,51,51,52,52,53,53,54,54,55,55,56,56,57,57,58,58,59,59,60,60,61,61,62,62],"right_children":[2,4,6,8,10,12,14,16,18,20,22,24,26,28,30,32,34,36,38,40,42,44,46,48,50,52,54,56,58,60,62,64,66,68,70,72,74,76,78,80,82,84,86,88,90,92,94,96,98,100,102,104,106,108,110,112,114,116,118,120,122,124,126,-1,-1,-1,-1,-1,-1,-1,-1,-1,-1,-1,-1,-1,-1,-1,-1,-1,-1,-1,-1,-1,-1,-1,-1,-1,-1,-1,-1,-1,-1,-1,-1,-1,-1,-1,-1,-1,-1,-1,-1,-1,-1,-1,-1,-1,-1,-1,-1,-1,-1,-1,-1,-1,-1,-1,-1,-1,-1,-1,-1,-1,-1,-1,-1],"split_conditions":[-4.5642257E-1,-8.431432E-2,-1.2494652E0,1.8536447E-1,-1.0825879E-1,3.0155924E-1,-2.4301423E-1,-2.820771E-1,5.60122E-1,9.2740077E-1,9.8265596E-2,-1.0479493E-1,-3.818963E-1,9.0208626E-1,7.5151795E-1,3.2803452E-1,4.320082E-1,-1.502324E0,-1.12658046E-1,-2.3280309E-1,-8.2915336E-1,1.0700032E-1,5.2763474E-1,5.1128316E-1,-8.293886E-1,1.3284512E-1,7.675758E-2,-9.491338E-2,-8.919436E-1,2.7943416E-2,-1.1313096E-1,-1.1446633E0,4.6753046E-1,4.0709856E-1,-1.1972139E0,-4.147546E-1,-1.4399576E0,6.126555E-1,-9.5173866E-2,1.3349646E0,-6.653455E-1,8.6693116E-2,-2.8605127E-1,1.434543E-1,-6.4097756E-1,-5.521504E-1,-1.1098663E0,-7.427339E-1,-6.2306836E-2,8.672976E-1,-1.1099236E0,-5.525348E-1,1.0179976E0,1.7731228E-1,-3.965597E-1,1.0387757E0,6.4289135E-1,-7.146768E-1,1.4353286E0,-1.5978338E-1,-5.9156835E-2,-8.6865985E-1,-1.3346879E-1,2.0492314E-1,-1.2182149E-1,-3.3934587E-1,-3.2106455E-2,2.7236846E-1,2.562793E-2,2.0880844E-1,-1.8634138E-1,2.5698984E-1,-3.3676684E-1,-6.571053E-2,-3.6694413E-1,2.4246489E-1,-4.852036E-1,-2.7207748E-3,-4.7173053E-1,-3.6304107E-1,4.9319295E-3,-3.8927716E-1,-3.6218E-2,1.04517685E-2,3.648204E-1,-4.1690117E-1,-6.1686173E-2,8.394197E-2,-3.4026593E-1,3.9992929E-1,-2.3554754E-1,1.378692E-1,-2.4820852E-1,4.128294E-1,-9.365276E-2,-3.110368E-1,-2.1600699E-2,-2.2043177E-1,1.94268E-1,-2.657852E-1,3.2592797E-1,-1.2762485E-1,-4.9735335E-1,-9.4502784E-2,-4.738696E-1,-1.9170024E-1,4.1445327E-1,4.5640454E-1,1.3656405E-1,-4.2449832E-1,3.3539135E-2,-4.8108035E-1,-1.5429983E-1,-3.529177E-1,-1.3520028E-1,1.9103228E-1,-2.3758478E-1,-4.152527E-1,-3.556945E-2,-6.955983E-3,-3.1178123E-1,9.614592E-2,-1.3465257E-1,5.503697E-2,-4.7673222E-1,1.7115E-2,-3.4832987E-1],"split_indices":[29,45,58,36,54,14,4,79,0,35,82,44,18,16,31,70,7,47,95,91,40,32,80,59,4,40,54,34,44,30,75,5,85,1,90,25,40,67,9,88,24,17,31,20,15,10,51,5,86,37,1,36,82,12,9,30,82,17,2,29,45,78,1,0,0,0,0,0,0,0,0,0,0,0,0,0,0,0,0,0,0,0,0,0,0,0,0,0,0,0,0,0,0,0,0,0,0,0,0,0,0,0,0,0,0,0,0,0,0,0,0,0,0,0,0,0,0,0,0,0,0,0,0,0,0,0,0],"split_type":[0,0,0,0,0,0,0,0,0,0,0,0,0,0,0,0,0,0,0,0,0,0,0,0,0,0,0,0,0,0,0,0,0,0,0,0,0,0,0,0,0,0,0,0,0,0,0,0,0,0,0,0,0,0,0,0,0,0,0,0,0,0,0,0,0,0,0,0,0,0,0,0,0,0,0,0,0,0,0,0,0,0,0,0,0,0,0,0,0,0,0,0,0,0,0,0,0,0,0,0,0,0,0,0,0,0,0,0,0,0,0,0,0,0,0,0,0,0,0,0,0,0,0,0,0,0,0],"sum_hessian":[2.010893E6,1.1075618E6,9.0333125E5,6.8526425E5,4.222975E5,2.5601425E5,6.47317E5,6.35488E5,4.977625E4,1.969545E5,2.25343E5,1.014695E5,1.5454475E5,1.7886625E5,4.6845075E5,9.995E4,5.35538E5,3.56015E4,1.417475E4,1.418665E5,5.5088E4,1.169205E5,1.084225E5,7.91155E4,2.2354E4,3.280175E4,1.21743E5,1.30159E5,4.870725E4,4.0409975E5,6.4351E4,5.910325E4,4.084675E4,4.7845375E5,5.708425E4,4.931E3,3.06705E4,7.83675E3,6.338E3,6.8335E4,7.35315E4,2.450425E4,3.058375E4,4.45235E4,7.2397E4,8.281075E4,2.561175E4,4.6115E4,3.30005E4,5.68175E3,1.667225E4,2.2575E4,1.022675E4,9.942825E4,2.231475E4,5.104525E4,7.911375E4,2.565075E4,2.30565E4,1.4794525E5,2.561545E5,3.99675E4,2.43835E4,3.5058E4,2.404525E4,2.59115E4,1.493525E4,4.0366525E5,7.47885E4,1.97755E4,3.730875E4,3.35925E3,1.57175E3,5.89075E3,2.477975E4,7.0825E3,7.5425E2,3.25175E3,3.08625E3,6.055E4,7.785E3,1.470125E4,5.883025E4,1.4896E4,9.60825E3,5.614E3,2.496975E4,3.33935E4,1.113E4,6.574775E4,6.64925E3,1.4998E4,6.781275E4,1.332E4,1.229175E4,2.37695E4,2.23455E4,9.20525E3,2.379525E4,3.83725E3,1.8445E3,2.29675E3,1.43755E4,1.457E4,8.005E3,3.66175E3,6.565E3,6.9864E4,2.956425E4,5.7545E3,1.656025E4,4.617975E4,4.8655E3,5.376125E4,2.53525E4,1.665875E4,8.992E3,1.434075E4,8.71575E3,6.4519E4,8.342625E4,1.60115E5,9.60395E4,2.163E3,3.78045E4,1.415325E4,1.023025E4],"tree_param":{"num_deleted":"0","num_feature":"100","num_nodes":"127","size_leaf_vector":"0"}},{"base_weights":[-2.7453416E-4,-4.993842E-1,8.139335E-2,-8.296564E-1,-2.931382E-1,-3.22973E-2,4.760325E-1,-7.946754E-2,-1.0158706E0,9.303166E-2,-5.879806E-1,-2.9413E-1,2.0151366E-1,6.4054537E-1,-3.5432693E-1,8.859923E-1,-6.642757E-1,-1.2125366E0,-6.372031E-1,-3.6979175E-1,5.8307314E-1,-7.726403E-1,1.6286728E-1,-4.040088E-2,-5.8247036E-1,-3.60676E-1,4.329561E-1,-2.5996368E-2,8.183132E-1,4.7717493E-2,-8.489551E-1,-1.2115347E0,1.3094634E0,2.1534558E-1,-1.0932819E0,-1.927563E-1,-1.3291355E0,-1.2858955E0,-3.297309E-1,-2.8072651E-2,-1.2924987E0,8.5578996E-1,-9.541379E-1,-1.1386166E0,-4.0822715E-1,-1.4608037E0,5.4244864E-1,-3.1335527E-1,3.789092E-1,-9.1687524E-1,-9.437747E-2,2.5042894E-1,-5.8314055E-1,7.295843E-1,-9.1024846E-2,-7.412102E-1,2.7603638E-1,1.0052233E0,1.9539833E-1,-1.1173615E0,3.121268E-1,1.5512677E-1,-1.0784413E0,2.2820604E-1,-5.858956E-1,-5.831283E-1,4.549683E-1,2.4829529E-1,-3.7897256E-1,-7.152155E-2,-4.159921E-1,1.453087E-1,-5.0299287E-1,-3.1590784E-1,-4.8023438E-1,7.602757E-2,-4.4635776E-1,1.275475E-2,-2.3976661E-1,1.6894937E-1,-2.1344106E-1,-4.3559727E-1,-4.981068E-2,-3.6021665E-1,3.0494726E-1,3.322733E-2,-4.4572106E-1,-3.881703E-1,-5.3893708E-2,3.9743923E-2,-2.7791843E-1,6.6133976E-2,-5.3020024E-1,2.7845407E-1,-3.2390925E-1,-2.3590792E-3,-2.0403177E-1,1.9906963E-1,-1.364757E-1,-3.5611176E-1,-1.6239443E-1,-1.33195E-1,1.7555009E-1,1.4526704E-1,-3.1989688E-1,-3.4289116E-1,-8.601044E-2,-2.4181935E-1,2.4413934E-1,1.6275176E-1,-1.1233886E-1,3.8444448E-1,-2.6162186E-1,1.4446327E-1,-1.697857E-1,1.5788435E-3,3.3213234E-1,1.169152E-1,-2.421067E-1,9.305466E-2,-4.2481768E-1,1.9835402E-1,-1.9067718E-1,-1.8011454E-1,3.2954538E-1,-3.624401E-1,1.7730104E-2],"categories":[],"categories_nodes":[],"categories_segments":[],"categories_sizes":[],"default_left":[0,0,0,0,0,0,0,0,0,0,0,0,0,0,0,0,0,0,0,0,0,0,0,0,0,0,0,0,0,0,0,0,0,0,0,0,0,0,0,0,0,0,0,0,0,0,0,0,0,0,0,0,0,0,0,0,0,0,0,0,0,0,0,0,0,0,0,0,0,0,0,0,0,0,0,0,0,0,0,0,0,0,0,0,0,0,0,0,0,0,0,0,0,0,0,0,0,0,0,0,0,0,0,0,0,0,0,0,0,0,0,0,0,0,0,0,0,0,0,0,0,0,0,0,0,0,0],"id":1,"left_children":[1,3,5,7,9,11,13,15,17,19,21,23,25,27,29,31,33,35,37,39,41,43,45,47,49,51,53,55,57,59,61,63,65,67,69,71,73,75,77,79,81,83,85,87,89,91,93,95,97,99,101,103,105,107,109,111,113,115,117,119,121,123,125,-1,-1,-1,-1,-1,-1,-1,-1,-1,-1,-1,-1,-1,-1,-1,-1,-1,-1,-1,-1,-1,-1,-1,-1,-1,-1,-1,-1,-1,-1,-1,-1,-1,-1,-1,-1,-1,-1,-1,-1,-1,-1,-1,-1,-1,-1,-1,-1,-1,-1,-1,-1,-1,-1,-1,-1,-1,-1,-1,-1,-1,-1,-1,-1],"loss_changes":[8.053426E4,1.8924602E4,7.6180625E4,1.4919516E4,1.9473139E4,8.0698125E4,5.1876023E4,1.1992634E4,6.371117E3,1.6794234E4,1.3446781E4,4.54931E4,9.0605734E4,3.7555938E4,1.248792E4,7.1187495E3,4.9919653E3,6.6956875E3,5.833579E3,1.2007336E4,1.5078704E4,1.0380629E4,1.17995625E4,3.7857215E4,4.7507227E4,2.7607871E4,7.666927E4,1.4416233E4,2.9132812E4,1.067183E4,6.488039E3,1.9704242E3,4.4948545E3,3.927839E3,2.2295508E3,5.8075947E3,3.7886484E3,2.9244053E3,3.4683271E3,1.122928E4,1.8487988E3,1.0096641E4,3.0683022E3,5.7828906E3,1.0928207E4,1.869958E3,9.710387E3,2.2446904E4,3.0955865E4,1.7524422E4,2.811433E4,1.6685156E4,2.4706688E4,4.073361E4,3.201842E4,5.2459844E3,8.1193516E3,1.9608828E4,1.124999E4,2.7327139E3,9.340486E3,3.7345234E3,3.3812422E3,0E0,0E0,0E0,0E0,0E0,0E0,0E0,0E0,0E0,0E0,0E0,0E0,0E0,0E0,0E0,0E0,0E0,0E0,0E0,0E0,0E0,0E0,0E0,0E0,0E0,0E0,0E0,0E0,0E0,0E0,0E0,0E0,0E0,0E0,0E0,0E0,0E0,0E0,0E0,0E0,0E0,0E0,0E0,0E0,0E0,0E0,0E0,0E0,0E0,0E0,0E0,0E0,0E0,0E0,0E0,0E0,0E0,0E0,0E0,0E0,0E0,0E0,0E0,0E0],"parents":[2147483647,0,0,1,1,2,2,3,3,4,4,5,5,6,6,7,7,8,8,9,9,10,10,11,11,12,12,13,13,14,14,15,15,16,16,17,17,18,18,19,19,20,20,21,21,22,22,23,23,24,24,25,25,26,26,27,27,28,28,29,29,30,30,31,31,32,32,33,33,34,34,35,35,36,36,37,37,38,38,39,39,40,40,41,41,42,42,43,43,44,44,45,45,46,46,47,47,48,48,49,49,50,50,51,51,52,52,53,53,54,54,55,55,56,56,57,57,58,58,59,59,60,60,61,61,62,62],"right_children":[2,4,6,8,10,12,14,16,18,20,22,24,26,28,30,32,34,36,38,40,42,44,46,48,50,52,54,56,58,60,62,64,66,68,70,72,74,76,78,80,82,84,86,88,90,92,94,96,98,100,102,104,106,108,110,112,114,116,118,120,122,124,126,-1,-1,-1,-1,-1,-1,-1,-1,-1,-1,-1,-1,-1,-1,-1,-1,-1,-1,-1,-1,-1,-1,-1,-1,-1,-1,-1,-1,-1,-1,-1,-1,-1,-1,-1,-1,-1,-1,-1,-1,-1,-1,-1,-1,-1,-1,-1,-1,-1,-1,-1,-1,-1,-1,-1,-1,-1,-1,-1,-1,-1,-1,-1,-1],"split_conditions":[-1.072887E0,1.7983022E-1,9.837881E-1,-1.0998707E0,-2.0286216E-1,-1.5903061E-2,-4.6767388E-2,-9.898298E-1,7.355825E-2,3.1471932E-1,5.031149E-1,-2.7411836E-1,-5.234199E-1,-9.352718E-1,-6.244384E-1,-3.5311157E-1,-1.1551824E0,-1.2227184E0,2.3687375E-1,3.8482305E-1,1.069023E0,1.01187535E-1,-9.683283E-2,5.388427E-1,7.040757E-1,-1.1239815E0,2.8548237E-2,2.2779702E-1,3.5858523E-2,-9.229911E-1,-8.2106245E-1,-1.9261171E0,-1.8246248E-1,-1.497661E-1,-9.0836066E-1,-2.170827E-1,-6.4657515E-1,-1.3777138E0,-1.2073669E-3,2.4182166E-1,1.1945634E0,-6.054512E-1,-1.0441555E0,8.746297E-1,-7.0400894E-1,-2.3885422E0,-3.3394352E-1,-2.2674141E-2,7.874949E-2,2.7659112E-1,5.4687667E-1,3.6736295E-1,3.9459422E-1,-5.3305686E-1,-8.190861E-1,-3.1637907E0,4.2245066E-1,-1.989506E-1,6.862675E-1,-1.7462393E0,2.09717E-1,1.158746E0,1.4333225E0,2.2820604E-1,-5.858956E-1,-5.831283E-1,4.549683E-1,2.4829529E-1,-3.7897256E-1,-7.152155E-2,-4.159921E-1,1.453087E-1,-5.0299287E-1,-3.1590784E-1,-4.8023438E-1,7.602757E-2,-4.4635776E-1,1.275475E-2,-2.3976661E-1,1.6894937E-1,-2.1344106E-1,-4.3559727E-1,-4.981068E-2,-3.6021665E-1,3.0494726E-1,3.322733E-2,-4.4572106E-1,-3.881703E-1,-5.3893708E-2,3.9743923E-2,-2.7791843E-1,6.6133976E-2,-5.3020024E-1,2.7845407E-1,-3.2390925E-1,-2.3590792E-3,-2.0403177E-1,1.9906963E-1,-1.364757E-1,-3.5611176E-1,-1.6239443E-1,-1.33195E-1,1.7555009E-1,1.4526704E-1,-3.1989688E-1,-3.4289116E-1,-8.601044E-2,-2.4181935E-1,2.4413934E-1,1.6275176E-1,-1.1233886E-1,3.8444448E-1,-2.6162186E-1,1.4446327E-1,-1.697857E-1,1.5788435E-3,3.3213234E-1,1.169152E-1,-2.421067E-1,9.305466E-2,-4.2481768E-1,1.9835402E-1,-1.9067718E-1,-1.8011454E-1,3.2954538E-1,-3.624401E-1,1.7730104E-2],"split_indices":[80,88,82,11,4,32,90,99,75,85,17,71,66,92,50,61,42,9,94,99,52,48,69,60,13,29,43,12,47,74,64,93,69,64,16,2,96,78,45,95,18,25,55,44,96,58,71,39,99,97,85,4,13,30,72,33,22,41,88,42,43,62,24,0,0,0,0,0,0,0,0,0,0,0,0,0,0,0,0,0,0,0,0,0,0,0,0,0,0,0,0,0,0,0,0,0,0,0,0,0,0,0,0,0,0,0,0,0,0,0,0,0,0,0,0,0,0,0,0,0,0,0,0,0,0,0,0],"split_type":[0,0,0,0,0,0,0,0,0,0,0,0,0,0,0,0,0,0,0,0,0,0,0,0,0,0,0,0,0,0,0,0,0,0,0,0,0,0,0,0,0,0,0,0,0,0,0,0,0,0,0,0,0,0,0,0,0,0,0,0,0,0,0,0,0,0,0,0,0,0,0,0,0,0,0,0,0,0,0,0,0,0,0,0,0,0,0,0,0,0,0,0,0,0,0,0,0,0,0,0,0,0,0,0,0,0,0,0,0,0,0,0,0,0,0,0,0,0,0,0,0,0,0,0,0,0,0],"sum_hessian":[1.9757541E6,2.7782625E5,1.6979279E6,1.06799586E5,1.7102666E5,1.318178E6,3.7974984E5,2.1238566E4,8.556102E4,7.404583E4,9.6980836E4,6.218266E5,6.9635144E5,3.169543E5,6.2795555E4,8.011638E3,1.3226929E4,5.6312285E4,2.9248738E4,3.8080582E4,3.5965246E4,7.783778E4,1.9143049E4,3.307658E5,2.910608E5,2.0307286E5,4.9327856E5,6.6734305E4,2.5022E5,3.4640176E4,2.8155377E4,1.3454629E3,6.6661753E3,4.3363354E3,8.890594E3,5.7782324E3,5.053405E4,9.404442E3,1.9844295E4,2.7789814E4,1.0290766E4,3.0546443E4,5.4188047E3,3.883454E4,3.9003242E4,3.626734E3,1.5516314E4,2.0034762E5,1.3041818E5,1.72723E5,1.1833781E5,5.419642E4,1.4887644E5,3.1497134E5,1.7830722E5,1.9813787E4,4.692052E4,1.9246797E5,5.7752027E4,6.40672E3,2.8233457E4,5.237931E3,2.2917447E4,3.6761066E2,9.7785223E2,3.9846338E2,6.267712E3,3.0667769E3,1.2695585E3,2.271889E3,6.6187046E3,3.9681724E3,1.81006E3,2.5063531E4,2.547052E4,1.0907491E3,8.313693E3,1.1068941E4,8.775354E3,1.489965E4,1.2890164E4,9.0141875E3,1.2765778E3,2.2135002E3,2.8332943E4,1.8046111E3,3.6141936E3,3.3422195E4,5.4123438E3,1.9086873E4,1.9916371E4,5.593122E2,3.0674219E3,1.2535835E4,2.9804792E3,1.09302836E5,9.104479E4,9.722668E4,3.3191504E4,1.0045636E5,7.226663E4,7.813828E4,4.0199527E4,4.6025117E4,8.171307E3,5.1539816E4,9.7336625E4,1.6374301E4,2.9859706E5,5.5115062E4,1.2319216E5,1.2034674E3,1.861032E4,3.771555E4,9.204971E3,1.7797068E4,1.746709E5,4.8375133E4,9.376896E3,1.1085701E3,5.29815E3,2.0634045E4,7.5994116E3,2.908755E3,2.3291763E3,2.0571953E4,2.3454941E3],"tree_param":{"num_deleted":"0","num_feature":"100","num_nodes":"127","size_leaf_vector":"0"}},{"base_weights":[-5.2652345E-4,8.602681E-2,-3.661693E-1,-3.7577555E-1,1.6232683E-1,4.015614E-2,-6.390042E-1,-5.809157E-1,5.8228475E-1,-4.16799E-1,2.2525406E-1,-2.7884367E-1,7.016451E-1,-1.725612E-1,-8.1748813E-1,-2.1447957E-1,-9.818849E-1,-9.605223E-1,8.4227186E-1,-7.0074546E-1,1.2510806E-1,3.7999964E-1,1.1864759E-2,-6.459202E-1,2.8292987E-1,1.0043062E0,-5.690212E-1,1.6341011E-1,-1.1445593E0,-9.2751735E-1,5.4656222E-2,8.028317E-1,-4.9402416E-1,-1.2942878E0,-5.131423E-1,-1.5114468E0,-3.321244E-1,-5.728711E-1,1.0685596E0,-9.7014934E-1,-2.378787E-1,-5.9266126E-1,7.333011E-1,2.2911794E-1,7.6636297E-1,5.39797E-1,-1.0442206E-1,8.0768806E-1,-7.5228643E-1,-1.1047784E0,5.5647326E-1,-3.9629066E-1,1.2824947E0,2.0079198E-1,-1.2886201E0,-4.316524E-1,7.321565E-1,-1.4074485E0,3.3467075E-1,-4.544218E-1,-1.0527865E0,-1.0922519E0,5.1759976E-1,-1.1779308E-1,3.5250223E-1,1.7984352E-1,-2.5311798E-1,-4.2807844E-1,-1.9370933E-1,1.6685182E-1,-2.4840926E-1,-1.8902603E-1,-5.476384E-1,-5.53416E-1,1.00025795E-1,-3.5651106E-1,3.1571612E-1,3.96211E-1,1.0271446E-2,-7.7692665E-2,-3.4755427E-1,1.2844966E-1,-1.8724951E-1,2.0768699E-1,-2.5349742E-1,-2.5461558E-1,3.2059076E-1,-9.2182286E-2,1.089003E-1,-1.8721577E-2,3.0539155E-1,-5.413596E-2,3.1440753E-1,-6.45635E-2,1.3409989E-1,3.970926E-1,-2.4651767E-1,-5.5877686E-2,-2.93678E-1,-3.940501E-1,5.62473E-1,-1.8108504E-1,2.568726E-1,-4.6895984E-1,7.113081E-2,-2.865086E-1,4.1404036E-1,-2.568335E-1,2.7225786E-1,8.026975E-2,-4.494283E-1,-2.0319232E-1,3.379866E-1,-1.3971826E-1,3.2571232E-1,-4.697512E-1,1.8998952E-1,-4.744013E-1,3.7817523E-1,1.2847158E-2,-3.326198E-1,2.811138E-1,-3.3130473E-1,2.770898E-1,-4.337894E-1,3.2623816E-1,-1.466625E-1],"categories":[],"categories_nodes":[],"categories_segments":[],"categories_sizes":[],"default_left":[0,0,0,0,0,0,0,0,0,0,0,0,0,0,0,0,0,0,0,0,0,0,0,0,0,0,0,0,0,0,0,0,0,0,0,0,0,0,0,0,0,0,0,0,0,0,0,0,0,0,0,0,0,0,0,0,0,0,0,0,0,0,0,0,0,0,0,0,0,0,0,0,0,0,0,0,0,0,0,0,0,0,0,0,0,0,0,0,0,0,0,0,0,0,0,0,0,0,0,0,0,0,0,0,0,0,0,0,0,0,0,0,0,0,0,0,0,0,0,0,0,0,0,0,0,0,0],"id":2,"left_children":[1,3,5,7,9,11,13,15,17,19,21,23,25,27,29,31,33,35,37,39,41,43,45,47,49,51,53,55,57,59,61,63,65,67,69,71,73,75,77,79,81,83,85,87,89,91,93,95,97,99,101,103,105,107,109,111,113,115,117,119,121,123,125,-1,-1,-1,-1,-1,-1,-1,-1,-1,-1,-1,-1,-1,-1,-1,-1,-1,-1,-1,-1,-1,-1,-1,-1,-1,-1,-1,-1,-1,-1,-1,-1,-1,-1,-1,-1,-1,-1,-1,-1,-1,-1,-1,-1,-1,-1,-1,-1,-1,-1,-1,-1,-1,-1,-1,-1,-1,-1,-1,-1,-1,-1,-1,-1],"loss_changes":[6.1073254E4,5.4982152E4,4.0948816E4,4.3485812E4,4.880275E4,3.1312182E4,1.8397703E4,2.6776035E4,1.5652667E4,2.0195934E4,3.9886418E4,2.0644408E4,1.8567328E4,1.997278E4,1.5337484E4,2.707969E4,1.2742039E4,1.9478662E3,1.069451E4,1.073925E4,1.9700549E4,4.0815984E4,3.1171363E4,9.362193E3,1.5019016E4,1.519257E4,5.145326E3,1.5382724E4,6.10966E3,8.410555E3,9.507832E3,9.132932E3,2.8564344E4,4.491242E3,1.1719138E4,8.287173E2,2.6485955E3,4.6072544E3,7.5085977E3,7.2922695E3,8.1526787E3,6.712091E3,1.2960591E4,3.616046E4,4.100365E4,3.354968E4,2.5420043E4,3.472271E3,7.237621E3,4.0542935E3,1.1493925E4,4.7764346E3,7.108211E3,3.3532559E3,1.5653125E3,8.503574E3,9.842835E3,4.3127324E3,4.2091216E3,9.667575E3,1.1514023E4,3.6731821E3,7.317591E3,0E0,0E0,0E0,0E0,0E0,0E0,0E0,0E0,0E0,0E0,0E0,0E0,0E0,0E0,0E0,0E0,0E0,0E0,0E0,0E0,0E0,0E0,0E0,0E0,0E0,0E0,0E0,0E0,0E0,0E0,0E0,0E0,0E0,0E0,0E0,0E0,0E0,0E0,0E0,0E0,0E0,0E0,0E0,0E0,0E0,0E0,0E0,0E0,0E0,0E0,0E0,0E0,0E0,0E0,0E0,0E0,0E0,0E0,0E0,0E0,0E0,0E0,0E0,0E0],"parents":[2147483647,0,0,1,1,2,2,3,3,4,4,5,5,6,6,7,7,8,8,9,9,10,10,11,11,12,12,13,13,14,14,15,15,16,16,17,17,18,18,19,19,20,20,21,21,22,22,23,23,24,24,25,25,26,26,27,27,28,28,29,29,30,30,31,31,32,32,33,33,34,34,35,35,36,36,37,37,38,38,39,39,40,40,41,41,42,42,43,43,44,44,45,45,46,46,47,47,48,48,49,49,50,50,51,51,52,52,53,53,54,54,55,55,56,56,57,57,58,58,59,59,60,60,61,61,62,62],"right_children":[2,4,6,8,10,12,14,16,18,20,22,24,26,28,30,32,34,36,38,40,42,44,46,48,50,52,54,56,58,60,62,64,66,68,70,72,74,76,78,80,82,84,86,88,90,92,94,96,98,100,102,104,106,108,110,112,114,116,118,120,122,124,126,-1,-1,-1,-1,-1,-1,-1,-1,-1,-1,-1,-1,-1,-1,-1,-1,-1,-1,-1,-1,-1,-1,-1,-1,-1,-1,-1,-1,-1,-1,-1,-1,-1,-1,-1,-1,-1,-1,-1,-1,-1,-1,-1,-1,-1,-1,-1,-1,-1,-1,-1,-1,-1,-1,-1,-1,-1,-1,-1,-1,-1,-1,-1,-1],"split_conditions":[6.2492393E-2,-4.7620133E-1,-7.6860005E-1,1.3523068E0,-1.2634568E0,8.765021E-1,-4.4472277E-1,-4.5527393E-1,-8.293886E-1,9.002108E-1,-1.2481784E-1,6.2368447E-1,8.7398183E-1,2.2747226E-1,1.245351E0,-8.8785124E-1,5.264796E-1,-2.146315E-1,-6.345586E-1,2.4407622E-1,3.5848632E-1,7.972367E-1,-7.17208E-1,-2.024378E0,-1.9026957E-1,3.957479E-1,-1.4582595E0,2.603533E-1,1.0151329E0,-7.4120456E-1,-8.467227E-1,-1.02641225E-1,-7.861017E-1,8.8596946E-1,-1.1271156E0,-2.5263062E-1,3.395779E-1,1.0791168E0,-3.0238834E-1,-1.4833127E0,-5.3732705E-1,-1.630167E0,-5.6075156E-1,-2.585554E-1,1.6114159E-1,-1.67234E-1,8.198934E-1,-4.2446584E-1,-7.7486855E-1,2.966519E0,-2.9712087E-1,8.225275E-1,-4.2900136E-1,-3.9541148E-2,-8.070534E-1,1.2024982E0,-1.293352E-1,1.058701E0,-3.3921626E-1,-4.219445E-2,-2.2164128E0,-2.427037E0,-6.976464E-1,-1.1779308E-1,3.5250223E-1,1.7984352E-1,-2.5311798E-1,-4.2807844E-1,-1.9370933E-1,1.6685182E-1,-2.4840926E-1,-1.8902603E-1,-5.476384E-1,-5.53416E-1,1.00025795E-1,-3.5651106E-1,3.1571612E-1,3.96211E-1,1.0271446E-2,-7.7692665E-2,-3.4755427E-1,1.2844966E-1,-1.8724951E-1,2.0768699E-1,-2.5349742E-1,-2.5461558E-1,3.2059076E-1,-9.2182286E-2,1.089003E-1,-1.8721577E-2,3.0539155E-1,-5.413596E-2,3.1440753E-1,-6.45635E-2,1.3409989E-1,3.970926E-1,-2.4651767E-1,-5.5877686E-2,-2.93678E-1,-3.940501E-1,5.62473E-1,-1.8108504E-1,2.568726E-1,-4.6895984E-1,7.113081E-2,-2.865086E-1,4.1404036E-1,-2.568335E-1,2.7225786E-1,8.026975E-2,-4.494283E-1,-2.0319232E-1,3.379866E-1,-1.3971826E-1,3.2571232E-1,-4.697512E-1,1.8998952E-1,-4.744013E-1,3.7817523E-1,1.2847158E-2,-3.326198E-1,2.811138E-1,-3.3130473E-1,2.770898E-1,-4.337894E-1,3.2623816E-1,-1.466625E-1],"split_indices":[29,69,44,14,92,39,3,83,4,12,45,21,35,1,65,97,46,1,0,18,80,65,2,42,25,16,58,84,54,18,92,32,70,0,71,89,48,84,47,40,33,54,99,59,57,58,11,67,47,86,91,38,28,50,89,60,72,61,80,19,96,42,55,0,0,0,0,0,0,0,0,0,0,0,0,0,0,0,0,0,0,0,0,0,0,0,0,0,0,0,0,0,0,0,0,0,0,0,0,0,0,0,0,0,0,0,0,0,0,0,0,0,0,0,0,0,0,0,0,0,0,0,0,0,0,0,0],"split_type":[0,0,0,0,0,0,0,0,0,0,0,0,0,0,0,0,0,0,0,0,0,0,0,0,0,0,0,0,0,0,0,0,0,0,0,0,0,0,0,0,0,0,0,0,0,0,0,0,0,0,0,0,0,0,0,0,0,0,0,0,0,0,0,0,0,0,0,0,0,0,0,0,0,0,0,0,0,0,0,0,0,0,0,0,0,0,0,0,0,0,0,0,0,0,0,0,0,0,0,0,0,0,0,0,0,0,0,0,0,0,0,0,0,0,0,0,0,0,0,0,0,0,0,0,0,0,0],"sum_hessian":[1.929789E6,1.5604152E6,3.6937378E5,2.2125792E5,1.3391572E6,1.483866E5,2.209872E5,1.8223756E5,3.902036E4,1.3124945E5,1.2079079E6,1.00109734E5,4.827685E4,6.1158918E4,1.598283E5,9.5219914E4,8.701764E4,5.6268716E3,3.339349E4,8.612283E4,4.5126617E4,7.0016306E5,5.0774475E5,6.0546816E4,3.956292E4,3.899E4,9.286851E3,4.544996E4,1.5708956E4,1.4192327E5,1.7905018E4,2.0524785E4,7.469513E4,5.221569E4,3.480195E4,2.9975105E3,2.629361E3,4.603417E3,2.8790072E4,5.443737E4,3.1685459E4,2.0698709E4,2.4427906E4,5.0352806E5,1.96635E5,9.165143E4,4.1609334E5,4.1279087E3,5.6418906E4,6.51397E3,3.304895E4,6.460893E3,3.2529107E4,4.4872246E3,4.7996265E3,2.221124E4,2.323872E4,1.3338484E4,2.3704722E3,2.971295E4,1.1221032E5,5.148538E3,1.2756479E4,4.872771E3,1.5652015E4,1.8099176E4,5.6595953E4,4.3349312E4,8.866377E3,7.9168223E3,2.6885127E4,7.882097E2,2.2093008E3,8.028759E2,1.8264851E3,3.3391292E3,1.2642877E3,2.3147074E4,5.642998E3,1.1399771E4,4.30376E4,1.1630962E4,2.0054496E4,3.3972102E3,1.73015E4,4.2720376E3,2.015587E4,1.0057613E5,4.0295194E5,4.5794457E4,1.5084053E5,3.791695E4,5.373448E4,3.4648038E5,6.9612945E4,3.1353025E3,9.9260614E2,1.6131857E4,4.028705E4,6.088071E3,4.258994E2,6.7860933E3,2.6262857E4,2.2725947E3,4.1882983E3,1.359767E3,3.1169342E4,1.7980593E3,2.689165E3,5.6938446E2,4.230242E3,1.9187049E4,3.0241914E3,5.2957183E3,1.7943002E4,1.23780205E4,9.604641E2,7.720819E2,1.5983903E3,1.6883336E4,1.2829612E4,2.8338328E3,1.0937649E5,7.6828827E2,4.38025E3,8.144835E3,4.611644E3],"tree_param":{"num_deleted":"0","num_feature":"100","num_nodes":"127","size_leaf_vector":"0"}},{"base_weights":[-5.5681245E-4,6.660154E-2,-3.8570517E-1,1.350518E-1,-4.209152E-1,7.929228E-2,-5.9127533E-1,-1.9880974E-1,2.331635E-1,1.7723304E-1,-5.8386755E-1,5.373566E-1,-1.9303404E-1,6.5148205E-1,-7.037043E-1,2.4507232E-1,-5.075396E-1,-6.200932E-2,3.6154386E-1,-3.0588558E-1,7.8717595E-1,-6.566108E-2,-7.5538516E-1,-1.413439E0,6.9671553E-1,-7.54052E-1,2.0799367E-1,-1.4695363E0,9.320666E-1,7.0473814E-1,-7.6855594E-1,5.174515E-1,-2.595302E-1,-6.87617E-1,-1.3980512E-1,-1.3014214E-1,8.6037207E-1,1.6173342E-1,5.968811E-1,8.326942E-1,-6.379588E-1,-6.941881E-1,1.1212256E0,7.517689E-1,-5.2643085E-1,1.5673289E-1,-8.4282804E-1,-7.618225E-2,-1.6820685E0,1.2552476E-1,1.2157099E0,-1.0686965E0,3.2945144E-1,-6.096052E-1,6.240238E-1,7.670383E-1,-1.7298071E0,1.6268533E0,3.16E-1,-1.5633719E0,1.1060437E0,-1.011205E0,-4.522713E-1,2.0547059E-1,-1.10458404E-1,9.319302E-2,-1.8041712E-1,-1.4262526E-1,-2.9645917E-1,-2.089601E-1,8.251675E-2,-1.1093904E-1,4.4032563E-2,4.0240872E-1,-1.2544584E-2,1.11879505E-1,-1.4514275E-1,2.445836E-1,9.1663316E-2,-3.8766494E-1,3.556455E-1,-2.7128297E-1,1.9530304E-1,7.024938E-2,-4.2641646E-1,4.0026578E-1,-2.8395104E-1,-3.6589252E-3,3.6476547E-1,3.624463E-1,-2.0836005E-1,3.1257695E-1,-3.2390496E-1,-2.8651887E-1,7.514103E-3,-5.206831E-1,4.2869598E-1,-2.8346926E-1,-5.1857394E-1,-1.6873704E-1,1.8352681E-1,4.0401027E-1,-4.0630895E-1,-2.8979842E-2,-4.1926065E-1,-4.6616068E-1,2.0276015E-1,1.7361084E-1,-2.6533502E-1,3.510809E-1,-1.24584734E-1,5.426065E-1,-5.4888755E-1,1.3354415E-1,-5.3223586E-1,-5.579111E-1,5.10422E-1,-4.8546863E-1,1.8728116E-1,-1.322841E-1,-5.494674E-1,3.908246E-1,-4.5902568E-1,-3.5824984E-1,-1.390946E-1,-5.9399873E-2,-3.3775E-1],"categories":[],"categories_nodes":[],"categories_segments":[],"categories_sizes":[],"default_left":[0,0,0,0,0,0,0,0,0,0,0,0,0,0,0,0,0,0,0,0,0,0,0,0,0,0,0,0,0,0,0,0,0,0,0,0,0,0,0,0,0,0,0,0,0,0,0,0,0,0,0,0,0,0,0,0,0,0,0,0,0,0,0,0,0,0,0,0,0,0,0,0,0,0,0,0,0,0,0,0,0,0,0,0,0,0,0,0,0,0,0,0,0,0,0,0,0,0,0,0,0,0,0,0,0,0,0,0,0,0,0,0,0,0,0,0,0,0,0,0,0,0,0,0,0,0,0],"id":3,"left_children":[1,3,5,7,9,11,13,15,17,19,21,23,25,27,29,31,33,35,37,39,41,43,45,47,49,51,53,55,57,59,61,63,65,67,69,71,73,75,77,79,81,83,85,87,89,91,93,95,97,99,101,103,105,107,109,111,113,115,117,119,121,123,125,-1,-1,-1,-1,-1,-1,-1,-1,-1,-1,-1,-1,-1,-1,-1,-1,-1,-1,-1,-1,-1,-1,-1,-1,-1,-1,-1,-1,-1,-1,-1,-1,-1,-1,-1,-1,-1,-1,-1,-1,-1,-1,-1,-1,-1,-1,-1,-1,-1,-1,-1,-1,-1,-1,-1,-1,-1,-1,-1,-1,-1,-1,-1,-1],"loss_changes":[4.8566188E4,5.3353887E4,2.664921E4,4.5922902E4,1.918666E4,1.0661423E4,2.7011773E4,4.363689E4,4.106073E4,1.241954E4,1.3750082E4,9.907504E3,1.2059489E4,9.546516E3,1.6193633E4,1.7953236E4,1.2436379E4,2.0640129E4,3.5508117E4,8.892732E3,9.218903E3,1.449063E4,9.2705E3,8.644873E2,8.733264E3,7.6177295E3,1.0632728E4,1.0923547E3,6.062877E3,7.1051826E3,1.3006539E4,1.2580898E4,8.925863E3,8.0405312E3,1.42591045E4,2.029698E4,9.803404E3,5.5679066E4,2.206171E4,3.9828704E3,6.25118E3,2.3147964E3,6.6959023E3,4.9174565E3,7.1750347E3,1.1130592E4,1.03311875E4,1.0107236E3,6.708447E1,4.692332E3,5.198248E3,5.535037E3,3.2820774E3,3.4435496E3,1.1761963E4,5.336261E2,1.6262402E2,1.7336074E3,4.4786113E3,3.5248633E2,3.4407256E3,9.607211E3,1.2601363E4,0E0,0E0,0E0,0E0,0E0,0E0,0E0,0E0,0E0,0E0,0E0,0E0,0E0,0E0,0E0,0E0,0E0,0E0,0E0,0E0,0E0,0E0,0E0,0E0,0E0,0E0,0E0,0E0,0E0,0E0,0E0,0E0,0E0,0E0,0E0,0E0,0E0,0E0,0E0,0E0,0E0,0E0,0E0,0E0,0E0,0E0,0E0,0E0,0E0,0E0,0E0,0E0,0E0,0E0,0E0,0E0,0E0,0E0,0E0,0E0,0E0,0E0,0E0,0E0],"parents":[2147483647,0,0,1,1,2,2,3,3,4,4,5,5,6,6,7,7,8,8,9,9,10,10,11,11,12,12,13,13,14,14,15,15,16,16,17,17,18,18,19,19,20,20,21,21,22,22,23,23,24,24,25,25,26,26,27,27,28,28,29,29,30,30,31,31,32,32,33,33,34,34,35,35,36,36,37,37,38,38,39,39,40,40,41,41,42,42,43,43,44,44,45,45,46,46,47,47,48,48,49,49,50,50,51,51,52,52,53,53,54,54,55,55,56,56,57,57,58,58,59,59,60,60,61,61,62,62],"right_children":[2,4,6,8,10,12,14,16,18,20,22,24,26,28,30,32,34,36,38,40,42,44,46,48,50,52,54,56,58,60,62,64,66,68,70,72,74,76,78,80,82,84,86,88,90,92,94,96,98,100,102,104,106,108,110,112,114,116,118,120,122,124,126,-1,-1,-1,-1,-1,-1,-1,-1,-1,-1,-1,-1,-1,-1,-1,-1,-1,-1,-1,-1,-1,-1,-1,-1,-1,-1,-1,-1,-1,-1,-1,-1,-1,-1,-1,-1,-1,-1,-1,-1,-1,-1,-1,-1,-1,-1,-1,-1,-1,-1,-1,-1,-1,-1,-1,-1,-1,-1,-1,-1,-1,-1,-1,-1],"split_conditions":[4.7529224E-1,6.4469856E-1,-4.1623816E-1,-3.586582E-1,-6.6164404E-1,-4.51338E-1,-2.0269198E0,-7.8113765E-2,-5.787457E-1,5.880351E-1,-1.2005937E0,-5.197416E-1,5.194543E-1,-1.5859476E-1,-2.127844E0,-2.514177E-1,6.2535E-1,1.4251816E0,5.873455E-1,-1.1323353E0,-5.8221215E-1,-7.3582304E-1,-8.8956237E-1,-1.8409395E0,2.730406E-1,9.337243E-1,3.950736E-2,-2.943763E0,-2.0690858E0,2.09382E-1,4.2279622E-1,2.0642798E-2,-1.1490791E0,-1.1673736E-1,3.01088E-1,-2.2851996E-1,-1.7192258E0,-1.1806166E-1,1.0276099E-1,3.4835014E-1,1.6446755E0,-5.10954E-1,-2.5353208E-3,2.3017651E-1,-3.0048926E0,-9.442281E-1,1.1594743E0,-1.4535065E-1,-1.6247382E0,6.6764164E-1,8.3816755E-1,-4.482937E-1,-4.4297424E-1,-1.6207795E0,2.4306023E-1,-2.3759096E0,-3.9767793E-1,-5.250715E-1,-5.304727E-1,-1.1314338E0,7.839906E-1,6.4039737E-1,1.1473221E-1,2.0547059E-1,-1.10458404E-1,9.319302E-2,-1.8041712E-1,-1.4262526E-1,-2.9645917E-1,-2.089601E-1,8.251675E-2,-1.1093904E-1,4.4032563E-2,4.0240872E-1,-1.2544584E-2,1.11879505E-1,-1.4514275E-1,2.445836E-1,9.1663316E-2,-3.8766494E-1,3.556455E-1,-2.7128297E-1,1.9530304E-1,7.024938E-2,-4.2641646E-1,4.0026578E-1,-2.8395104E-1,-3.6589252E-3,3.6476547E-1,3.624463E-1,-2.0836005E-1,3.1257695E-1,-3.2390496E-1,-2.8651887E-1,7.514103E-3,-5.206831E-1,4.2869598E-1,-2.8346926E-1,-5.1857394E-1,-1.6873704E-1,1.8352681E-1,4.0401027E-1,-4.0630895E-1,-2.8979842E-2,-4.1926065E-1,-4.6616068E-1,2.0276015E-1,1.7361084E-1,-2.6533502E-1,3.510809E-1,-1.24584734E-1,5.426065E-1,-5.4888755E-1,1.3354415E-1,-5.3223586E-1,-5.579111E-1,5.10422E-1,-4.8546863E-1,1.8728116E-1,-1.322841E-1,-5.494674E-1,3.908246E-1,-4.5902568E-1,-3.5824984E-1,-1.390946E-1,-5.9399873E-2,-3.3775E-1],"split_indices":[7,1,3,0,64,4,42,70,66,91,55,16,22,27,47,99,59,49,13,49,50,93,94,66,55,39,84,44,99,77,41,66,36,67,21,92,53,71,22,77,19,59,45,76,15,87,12,58,20,75,12,25,71,98,88,66,3,44,32,69,99,90,54,0,0,0,0,0,0,0,0,0,0,0,0,0,0,0,0,0,0,0,0,0,0,0,0,0,0,0,0,0,0,0,0,0,0,0,0,0,0,0,0,0,0,0,0,0,0,0,0,0,0,0,0,0,0,0,0,0,0,0,0,0,0,0,0],"split_type":[0,0,0,0,0,0,0,0,0,0,0,0,0,0,0,0,0,0,0,0,0,0,0,0,0,0,0,0,0,0,0,0,0,0,0,0,0,0,0,0,0,0,0,0,0,0,0,0,0,0,0,0,0,0,0,0,0,0,0,0,0,0,0,0,0,0,0,0,0,0,0,0,0,0,0,0,0,0,0,0,0,0,0,0,0,0,0,0,0,0,0,0,0,0,0,0,0,0,0,0,0,0,0,0,0,0,0,0,0,0,0,0,0,0,0,0,0,0,0,0,0,0,0,0,0,0,0],"sum_hessian":[1.8776104E6,1.5988241E6,2.7878625E5,1.4019786E6,1.9684547E5,8.5465305E4,1.9332095E5,3.1842344E5,1.0835552E6,4.214478E4,1.5470069E5,3.1865395E4,5.3599906E4,1.6037894E4,1.7728306E5,1.3062094E5,1.878025E5,3.284293E5,7.551259E5,2.3517627E4,1.8627152E4,3.8470656E4,1.1623003E5,2.405881E3,2.9459514E4,2.2342697E4,3.1257209E4,1.8732471E3,1.4164646E4,7.8032344E3,1.6947983E5,8.483037E4,4.579058E4,1.2606723E5,6.1735273E4,3.05839E5,2.2590307E4,4.0838925E5,3.4673666E5,5.3099365E3,1.8207691E4,3.4273367E3,1.5199816E4,1.3867805E4,2.460285E4,1.016788E4,1.0606216E5,4.026656E2,2.0032156E3,1.4025109E4,1.5434403E4,1.7314623E4,5.028074E3,1.0541052E4,2.0716158E4,1.9506407E2,1.678183E3,6.65624E3,7.5084062E3,1.1726606E3,6.6305737E3,9.590256E4,7.3577266E4,7.1341875E4,1.3488486E4,1.7163846E4,2.8626732E4,7.389936E4,5.2167875E4,2.636018E4,3.5375094E4,1.639501E5,1.4188889E5,1.4734369E4,7.8559385E3,3.077161E5,1.0067317E5,1.98175E5,1.4856166E5,7.556833E2,4.5542534E3,1.5090165E4,3.1175254E3,1.5057522E3,1.9215845E3,1.3780647E4,1.419169E3,5.2412827E3,8.626521E3,2.1731172E3,2.2429732E4,5.925663E3,4.242217E3,9.3916625E4,1.2145531E4,1.9144595E2,2.1121965E2,1.2015519E2,1.8830604E3,5.8076104E3,8.217499E3,1.4686349E4,7.4805457E2,4.376963E3,1.293766E4,7.8062897E2,4.2474453E3,1.9798684E3,8.561184E3,1.3579056E4,7.137102E3,1.3943376E2,5.563031E1,3.3327747E1,1.6448553E3,1.3884962E2,6.5173906E3,1.0315768E3,6.476829E3,2.2666315E2,9.459975E2,6.170634E3,4.5993964E2,7.1882484E4,2.4020076E4,5.341444E4,2.0162824E4],"tree_param":{"num_deleted":"0","num_feature":"100","num_nodes":"127","size_leaf_vector":"0"}},{"base_weights":[-6.769023E-4,-4.2505583E-1,4.934358E-2,-7.1645135E-1,-7.731132E-2,2.0098196E-1,-8.440357E-2,1.11511275E-2,-8.763761E-1,-3.7028793E-1,5.9167916E-1,-1.2405002E-1,3.3791026E-1,-2.887812E-1,2.0095347E-1,-7.341756E-1,3.9593807E-1,-2.7928784E-1,-1.0332834E0,1.0833278E-1,-7.2240514E-1,1.0045334E0,-4.7976106E-1,-4.2559284E-1,8.649027E-2,5.4919563E-2,5.1305056E-1,1.5830989E-1,-4.6972272E-1,-3.7750036E-1,3.9988184E-1,-1.066022E0,1.268122E0,-8.8171035E-1,6.4953655E-1,5.0557333E-1,-7.1925473E-1,-5.452645E-1,-1.2395173E0,-6.367865E-1,5.223962E-1,7.6005465E-1,-8.9369977E-1,1.2642668E0,-1.6877554E-1,7.622925E-1,-8.73564E-1,-7.8115827E-1,-3.792355E-2,-3.443335E-1,3.2702085E-1,-1.1051434E-1,6.598414E-1,1.9982487E-1,6.9733375E-1,5.419497E-1,-3.3984658E-1,-6.768177E-1,-1.2433113E-1,4.8220193E-1,-6.7192096E-1,6.221581E-1,-1.6180326E-1,3.4356305E-1,-3.6570355E-1,-4.8812926E-1,6.218213E-1,2.2629704E-1,-4.6377546E-1,-1.6552278E-1,2.7612406E-1,3.179139E-1,-3.3298478E-1,-4.284071E-2,-3.585748E-1,-2.8887022E-1,2.3500745E-1,-4.3073407E-1,-2.6162553E-1,-3.8148668E-1,9.173006E-2,-1.5502836E-1,2.4975589E-1,-3.6690873E-1,4.5513552E-1,-7.281724E-2,-3.432022E-1,-3.1761158E-1,4.176931E-1,-3.5142922E-1,2.7885085E-1,-4.099364E-1,4.162383E-1,-4.412032E-1,-3.5477553E-2,1.9256301E-1,-2.8501675E-1,1.0084066E-1,-2.974554E-1,1.1111604E-1,-1.8223655E-1,-1.4836559E-2,2.1182376E-1,-1.5328564E-1,5.280513E-2,-2.1321543E-1,2.6915178E-1,-1.6354686E-1,1.1643865E-1,2.3975058E-1,2.1751923E-3,2.207527E-1,-2.1769892E-1,1.6776568E-1,-1.7846067E-1,-2.405841E-1,1.6519003E-2,-1.4141756E-1,3.57581E-2,-8.625157E-2,3.0241215E-1,-2.7287424E-1,-4.3819167E-2,2.0735966E-1,-2.900435E-1,-1.0738375E-1,3.2554486E-1],"categories":[],"categories_nodes":[],"categories_segments":[],"categories_sizes":[],"default_left":[0,0,0,0,0,0,0,0,0,0,0,0,0,0,0,0,0,0,0,0,0,0,0,0,0,0,0,0,0,0,0,0,0,0,0,0,0,0,0,0,0,0,0,0,0,0,0,0,0,0,0,0,0,0,0,0,0,0,0,0,0,0,0,0,0,0,0,0,0,0,0,0,0,0,0,0,0,0,0,0,0,0,0,0,0,0,0,0,0,0,0,0,0,0,0,0,0,0,0,0,0,0,0,0,0,0,0,0,0,0,0,0,0,0,0,0,0,0,0,0,0,0,0,0,0,0,0],"id":4,"left_children":[1,3,5,7,9,11,13,15,17,19,21,23,25,27,29,31,33,35,37,39,41,43,45,47,49,51,53,55,57,59,61,63,65,67,69,71,73,75,77,79,81,83,85,87,89,91,93,95,97,99,101,103,105,107,109,111,113,115,117,119,121,123,125,-1,-1,-1,-1,-1,-1,-1,-1,-1,-1,-1,-1,-1,-1,-1,-1,-1,-1,-1,-1,-1,-1,-1,-1,-1,-1,-1,-1,-1,-1,-1,-1,-1,-1,-1,-1,-1,-1,-1,-1,-1,-1,-1,-1,-1,-1,-1,-1,-1,-1,-1,-1,-1,-1,-1,-1,-1,-1,-1,-1,-1,-1,-1,-1],"loss_changes":[3.878643E4,1.9521973E4,3.3149855E4,1.2197074E4,1.7216014E4,3.4092625E4,5.065096E4,5.4174204E3,8.0505234E3,1.0294855E4,1.1834108E4,1.441504E4,2.6712824E4,4.093817E4,4.1706668E4,4.274911E3,4.0370955E3,6.175954E3,6.84825E3,7.988898E3,8.937729E3,5.88524E3,3.640559E3,1.2867852E4,1.3855279E4,2.0619883E4,1.9216953E4,2.7864033E4,2.5768398E4,2.3476062E4,3.3671367E4,1.8680522E3,2.1345532E3,2.243686E3,3.3831465E3,5.7526934E3,3.1444233E3,1.1218518E4,3.4482188E3,5.5349033E3,5.364324E3,5.4755176E3,5.1404453E3,4.704381E3,3.8563225E3,2.386705E3,2.5482964E3,1.1703678E4,1.593099E4,9.008826E3,1.2244381E4,1.8564383E4,1.4393525E4,1.7299934E4,1.4729828E4,2.024466E4,1.4544227E4,2.0625164E4,1.1413271E4,9.5768125E3,8.634129E3,2.119857E4,1.8702826E4,0E0,0E0,0E0,0E0,0E0,0E0,0E0,0E0,0E0,0E0,0E0,0E0,0E0,0E0,0E0,0E0,0E0,0E0,0E0,0E0,0E0,0E0,0E0,0E0,0E0,0E0,0E0,0E0,0E0,0E0,0E0,0E0,0E0,0E0,0E0,0E0,0E0,0E0,0E0,0E0,0E0,0E0,0E0,0E0,0E0,0E0,0E0,0E0,0E0,0E0,0E0,0E0,0E0,0E0,0E0,0E0,0E0,0E0,0E0,0E0,0E0,0E0,0E0,0E0],"parents":[2147483647,0,0,1,1,2,2,3,3,4,4,5,5,6,6,7,7,8,8,9,9,10,10,11,11,12,12,13,13,14,14,15,15,16,16,17,17,18,18,19,19,20,20,21,21,22,22,23,23,24,24,25,25,26,26,27,27,28,28,29,29,30,30,31,31,32,32,33,33,34,34,35,35,36,36,37,37,38,38,39,39,40,40,41,41,42,42,43,43,44,44,45,45,46,46,47,47,48,48,49,49,50,50,51,51,52,52,53,53,54,54,55,55,56,56,57,57,58,58,59,59,60,60,61,61,62,62],"right_children":[2,4,6,8,10,12,14,16,18,20,22,24,26,28,30,32,34,36,38,40,42,44,46,48,50,52,54,56,58,60,62,64,66,68,70,72,74,76,78,80,82,84,86,88,90,92,94,96,98,100,102,104,106,108,110,112,114,116,118,120,122,124,126,-1,-1,-1,-1,-1,-1,-1,-1,-1,-1,-1,-1,-1,-1,-1,-1,-1,-1,-1,-1,-1,-1,-1,-1,-1,-1,-1,-1,-1,-1,-1,-1,-1,-1,-1,-1,-1,-1,-1,-1,-1,-1,-1,-1,-1,-1,-1,-1,-1,-1,-1,-1,-1,-1,-1,-1,-1,-1,-1,-1,-1,-1,-1,-1],"split_conditions":[-9.373449E-1,5.250994E-1,-8.952271E-1,-1.0378929E0,6.2733054E-1,-1.9521183E-1,-8.3226435E-2,9.995012E-2,-5.509783E-1,-1.2969725E0,3.6092076E-1,9.9592566E-1,-2.1933223E-1,-1.1406227E-1,1.4862646E-1,2.3375015E0,-4.2971998E-1,-3.3728477E-1,-1.6485323E-1,-4.0576237E-1,-1.8295214E0,-4.2956363E-2,-4.670032E-1,3.8222224E-1,2.8048E-1,4.5688462E-1,3.623085E-1,-1.9266069E-1,6.4595747E-1,-4.0856647E-1,-2.349667E-1,-2.3840292E0,5.9984744E-1,-2.2358806E0,-4.5085067E-1,-9.471348E-2,2.0876923E-1,5.1046443E-1,-3.8436454E-2,3.221941E-1,-6.1103547E-1,5.195607E-1,-4.8028514E-1,1.1037177E-1,4.116762E-1,-4.3645412E-1,9.983316E-1,-7.3935103E-1,2.888366E-1,-2.1938045E-1,1.1140263E0,-3.488912E-1,3.9037088E-1,-3.463052E-1,6.58514E-1,-2.1147132E-1,-1.2183019E0,8.4614944E-1,3.5653487E-1,-1.4047092E-1,3.1607166E-1,9.1662633E-1,1.1180663E0,3.4356305E-1,-3.6570355E-1,-4.8812926E-1,6.218213E-1,2.2629704E-1,-4.6377546E-1,-1.6552278E-1,2.7612406E-1,3.179139E-1,-3.3298478E-1,-4.284071E-2,-3.585748E-1,-2.8887022E-1,2.3500745E-1,-4.3073407E-1,-2.6162553E-1,-3.8148668E-1,9.173006E-2,-1.5502836E-1,2.4975589E-1,-3.6690873E-1,4.5513552E-1,-7.281724E-2,-3.432022E-1,-3.1761158E-1,4.176931E-1,-3.5142922E-1,2.7885085E-1,-4.099364E-1,4.162383E-1,-4.412032E-1,-3.5477553E-2,1.9256301E-1,-2.8501675E-1,1.0084066E-1,-2.974554E-1,1.1111604E-1,-1.8223655E-1,-1.4836559E-2,2.1182376E-1,-1.5328564E-1,5.280513E-2,-2.1321543E-1,2.6915178E-1,-1.6354686E-1,1.1643865E-1,2.3975058E-1,2.1751923E-3,2.207527E-1,-2.1769892E-1,1.6776568E-1,-1.7846067E-1,-2.405841E-1,1.6519003E-2,-1.4141756E-1,3.57581E-2,-8.625157E-2,3.0241215E-1,-2.7287424E-1,-4.3819167E-2,2.0735966E-1,-2.900435E-1,-1.0738375E-1,3.2554486E-1],"split_indices":[75,46,58,53,51,49,5,34,79,15,97,38,18,10,78,70,62,53,10,24,56,1,73,59,12,50,65,19,82,86,29,6,18,15,7,63,10,18,58,43,71,37,64,77,93,68,73,94,97,89,96,42,2,91,70,50,93,0,41,19,51,99,60,0,0,0,0,0,0,0,0,0,0,0,0,0,0,0,0,0,0,0,0,0,0,0,0,0,0,0,0,0,0,0,0,0,0,0,0,0,0,0,0,0,0,0,0,0,0,0,0,0,0,0,0,0,0,0,0,0,0,0,0,0,0,0,0],"split_type":[0,0,0,0,0,0,0,0,0,0,0,0,0,0,0,0,0,0,0,0,0,0,0,0,0,0,0,0,0,0,0,0,0,0,0,0,0,0,0,0,0,0,0,0,0,0,0,0,0,0,0,0,0,0,0,0,0,0,0,0,0,0,0,0,0,0,0,0,0,0,0,0,0,0,0,0,0,0,0,0,0,0,0,0,0,0,0,0,0,0,0,0,0,0,0,0,0,0,0,0,0,0,0,0,0,0,0,0,0,0,0,0,0,0,0,0,0,0,0,0,0,0,0,0,0,0,0],"sum_hessian":[1.8271644E6,1.9265467E5,1.6345096E6,1.0481934E5,8.7835336E4,7.660197E5,8.6848994E5,1.8887705E4,8.593163E4,6.1084523E4,2.6750812E4,2.2705372E5,5.38966E5,5.0604897E5,3.62441E5,6.430674E3,1.2457031E4,1.7883041E4,6.804859E4,2.5891625E4,3.51929E4,1.931016E4,7.440652E3,9.335153E4,1.3370219E5,2.0604342E5,3.3292256E5,1.4579703E5,3.6025194E5,9.274668E4,2.696943E5,5.516823E3,9.1385095E2,2.0626694E3,1.0394361E4,6.423661E3,1.145938E4,2.0215525E4,4.783307E4,9.248372E3,1.6643254E4,3.6448982E3,3.1548002E4,1.5810204E4,3.499956E3,1.7909774E3,5.649675E3,4.8691387E4,4.4660145E4,4.7902215E4,8.579997E4,1.6179623E5,4.4247188E4,1.23319266E5,2.0960331E5,8.236562E4,6.3431418E4,2.2521389E5,1.3503805E5,2.3659822E4,6.908685E4,1.932279E5,7.646641E4,3.5657605E2,5.160247E3,1.9851593E2,7.15335E2,5.955683E2,1.4671011E3,1.9123734E3,8.481988E3,4.783291E3,1.64037E3,5.18337E3,6.2760103E3,1.53809795E4,4.8345454E3,3.1177041E4,1.665603E4,5.5260654E3,3.7223066E3,3.8251902E3,1.2818063E4,1.0068634E3,2.638035E3,8.762169E3,2.2785832E4,8.25561E2,1.4984643E4,1.8295929E3,1.6703633E3,4.0630194E2,1.3846754E3,3.154729E3,2.4949456E3,5.165659E3,4.3525727E4,3.207786E4,1.2582284E4,1.2889611E4,3.5012605E4,4.3047047E4,4.2752926E4,6.748408E4,9.4312164E4,6.5307686E3,3.7716418E4,2.488109E4,9.843817E4,1.8264973E5,2.6953588E4,7.1438836E4,1.0926785E4,1.4016372E4,4.9415047E4,1.9233106E5,3.288282E4,5.5681832E4,7.935621E4,9.603277E3,1.4056545E4,4.7581695E4,2.1505156E4,1.851823E5,8.0456025E3,6.607387E4,1.0392542E4],"tree_param":{"num_deleted":"0","num_feature":"100","num_nodes":"127","size_leaf_vector":"0"}},{"base_weights":[-9.68197E-4,-2.8407067E-1,6.1044846E-2,-5.0074744E-1,-3.5926357E-2,-7.865626E-2,1.8274763E-1,-6.450161E-1,1.6288297E-1,-3.765939E-1,4.037779E-1,2.0765714E-1,-3.091865E-1,-2.6670462E-1,2.5873685E-1,-6.2297627E-2,-8.1223845E-1,6.667447E-1,-6.920637E-1,-6.1504954E-1,2.1210392E-1,-2.2203602E-1,7.7610993E-1,7.3207535E-2,7.2943807E-1,1.9131124E-1,-4.6237037E-1,-4.7764418E-1,2.7239227E-1,1.1235906E-1,5.0035053E-1,4.2424217E-1,-4.8452657E-1,-3.9399797E-1,-9.508868E-1,-5.725362E-1,1.0221853E0,-1.4189401E-1,-1.2457954E0,3.1681735E-2,-8.119499E-1,-5.008225E-1,7.35574E-1,7.1887845E-1,-5.5293226E-1,9.7146916E-1,-5.862908E-1,2.6938957E-1,-5.548033E-1,1.056765E0,-2.499847E-1,4.5456332E-1,-3.057086E-1,-5.511581E-1,1.3860108E-1,-3.7653375E-2,-8.1273067E-1,4.4603455E-1,-9.950608E-1,-8.236768E-2,5.211595E-1,-3.3287317E-2,6.30076E-1,-1.0004548E-1,2.9276058E-1,2.0212857E-2,-3.7690774E-1,-1.7369563E-2,-2.6603013E-1,2.0689623E-1,-3.0174327E-1,-4.0199977E-1,1.1799223E-1,-3.718869E-1,3.5854906E-1,1.1642363E-1,-3.9343095E-1,-4.2055386E-1,2.6564622E-1,-1.2727407E-1,2.208383E-1,1.2606957E-2,-2.880149E-1,-3.119288E-1,6.7365654E-2,3.1754902E-1,-9.069424E-2,-1.263941E-1,3.8330364E-1,1.5930592E-1,-2.3157717E-1,-3.3273208E-1,3.1846967E-1,-3.6542818E-1,1.01921104E-1,1.1350272E-1,-1.6662198E-1,-2.2363654E-1,3.3686396E-2,3.4827358E-1,-2.4821864E-1,-2.9464912E-1,9.184325E-2,-1.3968989E-1,1.9750516E-1,2.1456185E-1,-2.0415844E-1,-2.2182247E-1,-5.4665368E-2,1.5445045E-1,-2.277565E-1,5.7481695E-2,-2.4650407E-1,8.775756E-2,-2.7465463E-1,-7.366646E-2,2.0431025E-1,-4.117565E-1,1.9925904E-2,1.0530309E-1,-8.1377976E-2,-2.5799092E-2,2.4640384E-1,1.6621423E-1,-1.4220414E-1,2.2696963E-1,-1.7993267E-3],"categories":[],"categories_nodes":[],"categories_segments":[],"categories_sizes":[],"default_left":[0,0,0,0,0,0,0,0,0,0,0,0,0,0,0,0,0,0,0,0,0,0,0,0,0,0,0,0,0,0,0,0,0,0,0,0,0,0,0,0,0,0,0,0,0,0,0,0,0,0,0,0,0,0,0,0,0,0,0,0,0,0,0,0,0,0,0,0,0,0,0,0,0,0,0,0,0,0,0,0,0,0,0,0,0,0,0,0,0,0,0,0,0,0,0,0,0,0,0,0,0,0,0,0,0,0,0,0,0,0,0,0,0,0,0,0,0,0,0,0,0,0,0,0,0,0,0],"id":5,"left_children":[1,3,5,7,9,11,13,15,17,19,21,23,25,27,29,31,33,35,37,39,41,43,45,47,49,51,53,55,57,59,61,63,65,67,69,71,73,75,77,79,81,83,85,87,89,91,93,95,97,99,101,103,105,107,109,111,113,115,117,119,121,123,125,-1,-1,-1,-1,-1,-1,-1,-1,-1,-1,-1,-1,-1,-1,-1,-1,-1,-1,-1,-1,-1,-1,-1,-1,-1,-1,-1,-1,-1,-1,-1,-1,-1,-1,-1,-1,-1,-1,-1,-1,-1,-1,-1,-1,-1,-1,-1,-1,-1,-1,-1,-1,-1,-1,-1,-1,-1,-1,-1,-1,-1,-1,-1,-1],"loss_changes":[3.107058E4,1.7098477E4,2.4683258E4,1.6254008E4,2.2205744E4,4.461295E4,2.6498822E4,1.3588801E4,1.3060251E4,1.1725667E4,1.50793955E4,2.1149836E4,2.870716E4,1.2759943E4,2.3471723E4,6.388403E3,6.283117E3,8.40321E3,3.42477E3,7.570295E3,8.987151E3,7.5165522E3,1.0799873E4,2.9534027E4,1.9802516E4,1.148087E4,1.5297445E4,1.1890641E4,6.945747E3,3.289937E4,1.7333023E4,6.0395405E3,7.0921836E3,4.4682817E3,7.3333984E3,3.1525547E3,5.801383E3,3.496605E3,1.864707E3,4.4569688E3,5.7638613E3,3.9861663E3,4.6542144E3,4.0026365E3,4.240085E3,6.653242E3,2.977898E3,1.6414387E4,7.2570156E3,9.085574E3,6.3006895E3,1.075726E4,1.1626937E4,1.734821E4,1.2465816E4,6.2675684E3,5.201367E3,4.5111313E3,1.5237432E3,2.2916516E4,2.43037E4,1.2674999E4,1.6205375E4,0E0,0E0,0E0,0E0,0E0,0E0,0E0,0E0,0E0,0E0,0E0,0E0,0E0,0E0,0E0,0E0,0E0,0E0,0E0,0E0,0E0,0E0,0E0,0E0,0E0,0E0,0E0,0E0,0E0,0E0,0E0,0E0,0E0,0E0,0E0,0E0,0E0,0E0,0E0,0E0,0E0,0E0,0E0,0E0,0E0,0E0,0E0,0E0,0E0,0E0,0E0,0E0,0E0,0E0,0E0,0E0,0E0,0E0,0E0,0E0,0E0,0E0,0E0,0E0],"parents":[2147483647,0,0,1,1,2,2,3,3,4,4,5,5,6,6,7,7,8,8,9,9,10,10,11,11,12,12,13,13,14,14,15,15,16,16,17,17,18,18,19,19,20,20,21,21,22,22,23,23,24,24,25,25,26,26,27,27,28,28,29,29,30,30,31,31,32,32,33,33,34,34,35,35,36,36,37,37,38,38,39,39,40,40,41,41,42,42,43,43,44,44,45,45,46,46,47,47,48,48,49,49,50,50,51,51,52,52,53,53,54,54,55,55,56,56,57,57,58,58,59,59,60,60,61,61,62,62],"right_children":[2,4,6,8,10,12,14,16,18,20,22,24,26,28,30,32,34,36,38,40,42,44,46,48,50,52,54,56,58,60,62,64,66,68,70,72,74,76,78,80,82,84,86,88,90,92,94,96,98,100,102,104,106,108,110,112,114,116,118,120,122,124,126,-1,-1,-1,-1,-1,-1,-1,-1,-1,-1,-1,-1,-1,-1,-1,-1,-1,-1,-1,-1,-1,-1,-1,-1,-1,-1,-1,-1,-1,-1,-1,-1,-1,-1,-1,-1,-1,-1,-1,-1,-1,-1,-1,-1,-1,-1,-1,-1,-1,-1,-1,-1,-1,-1,-1,-1,-1,-1,-1,-1,-1,-1,-1,-1],"split_conditions":[-5.003924E-1,6.4305745E-2,4.3289682E-1,1.2483971E0,4.7390687E-1,-4.752508E-1,-6.9873327E-1,-3.7690902E-1,-1.392933E-1,5.701653E-2,2.862927E-1,6.1298406E-1,-4.931655E-1,9.922062E-1,4.380242E-1,-1.0833563E0,-5.5390143E-1,-3.7697408E-1,-1.8691774E-1,-1.1337416E0,3.2082254E-1,-1.8464574E0,6.536083E-1,2.3219252E-1,5.680058E-1,1.8407664E-1,1.2317964E0,-4.2365816E-1,2.3772538E-1,3.809078E-1,-1.4636943E-1,2.947936E-1,4.2804398E-2,4.8993623E-1,-2.0980263E0,3.4668365E-1,-2.45715E-1,-3.188806E-1,2.835009E0,1.1316257E0,-8.024005E-1,5.6860334E-1,1.2155099E0,-1.9949445E-1,-1.2673987E0,-1.0637876E0,6.457807E-1,8.006523E-1,1.2583064E0,7.043884E-1,6.705835E-1,-2.8358808E-1,-9.845901E-1,6.466932E-2,4.6167192E-1,9.723557E-1,-2.0260417E0,1.4604013E-1,1.1019636E0,-2.4595897E-1,3.4361157E-1,-1.0008018E0,-2.0966206E-1,-1.0004548E-1,2.9276058E-1,2.0212857E-2,-3.7690774E-1,-1.7369563E-2,-2.6603013E-1,2.0689623E-1,-3.0174327E-1,-4.0199977E-1,1.1799223E-1,-3.718869E-1,3.5854906E-1,1.1642363E-1,-3.9343095E-1,-4.2055386E-1,2.6564622E-1,-1.2727407E-1,2.208383E-1,1.2606957E-2,-2.880149E-1,-3.119288E-1,6.7365654E-2,3.1754902E-1,-9.069424E-2,-1.263941E-1,3.8330364E-1,1.5930592E-1,-2.3157717E-1,-3.3273208E-1,3.1846967E-1,-3.6542818E-1,1.01921104E-1,1.1350272E-1,-1.6662198E-1,-2.2363654E-1,3.3686396E-2,3.4827358E-1,-2.4821864E-1,-2.9464912E-1,9.184325E-2,-1.3968989E-1,1.9750516E-1,2.1456185E-1,-2.0415844E-1,-2.2182247E-1,-5.4665368E-2,1.5445045E-1,-2.277565E-1,5.7481695E-2,-2.4650407E-1,8.775756E-2,-2.7465463E-1,-7.366646E-2,2.0431025E-1,-4.117565E-1,1.9925904E-2,1.0530309E-1,-8.1377976E-2,-2.5799092E-2,2.4640384E-1,1.6621423E-1,-1.4220414E-1,2.2696963E-1,-1.7993267E-3],"split_indices":[34,91,13,9,0,71,4,77,33,17,25,32,86,94,85,53,85,66,62,98,69,53,21,99,73,95,48,93,29,56,81,32,0,22,55,72,46,93,16,39,3,97,38,11,63,14,90,64,22,62,35,31,47,5,8,52,42,73,48,70,46,29,50,0,0,0,0,0,0,0,0,0,0,0,0,0,0,0,0,0,0,0,0,0,0,0,0,0,0,0,0,0,0,0,0,0,0,0,0,0,0,0,0,0,0,0,0,0,0,0,0,0,0,0,0,0,0,0,0,0,0,0,0,0,0,0,0],"split_type":[0,0,0,0,0,0,0,0,0,0,0,0,0,0,0,0,0,0,0,0,0,0,0,0,0,0,0,0,0,0,0,0,0,0,0,0,0,0,0,0,0,0,0,0,0,0,0,0,0,0,0,0,0,0,0,0,0,0,0,0,0,0,0,0,0,0,0,0,0,0,0,0,0,0,0,0,0,0,0,0,0,0,0,0,0,0,0,0,0,0,0,0,0,0,0,0,0,0,0,0,0,0,0,0,0,0,0,0,0,0,0,0,0,0,0,0,0,0,0,0,0,0,0,0,0,0,0],"sum_hessian":[1.7697918E6,3.1800934E5,1.4517825E6,1.6976844E5,1.4824089E5,6.7591194E5,7.7587056E5,1.3945247E5,3.0315965E4,8.3527125E4,6.471376E4,3.0148025E5,3.744317E5,1.1220587E5,6.636647E5,3.1095533E4,1.08356945E5,1.9074596E4,1.1241369E4,5.9447504E4,2.4079621E4,2.4139912E4,4.0573848E4,2.3971339E5,6.1766875E4,8.7744336E4,2.8668734E5,8.064927E4,3.1556594E4,4.1328438E5,2.5038031E5,1.4447495E4,1.6648037E4,2.6978523E4,8.137842E4,4.251319E3,1.4823277E4,5.6394517E3,5.6019175E3,1.3875013E4,4.5572492E4,1.0194937E4,1.3884685E4,6.280352E3,1.785956E4,3.548572E4,5.088131E3,1.8265502E5,5.7058363E4,4.629487E4,1.5472006E4,5.7361996E4,3.0382336E4,2.4978423E5,3.690312E4,3.4867305E4,4.578197E4,2.7754807E4,3.8017869E3,2.799396E5,1.3334475E5,4.8963816E4,2.0141648E5,6.0868496E3,8.3606455E3,9.707531E3,6.9405063E3,1.6039616E4,1.0938907E4,2.6358538E3,7.874256E4,2.3687297E3,1.882589E3,1.0526743E3,1.3770604E4,3.881318E3,1.7581333E3,5.220052E3,3.818657E2,8.423553E3,5.45146E3,6.735418E3,3.8837074E4,5.848887E3,4.3460493E3,1.058981E4,3.2948745E3,2.0656948E3,4.214657E3,3.0014973E3,1.4858063E4,1.472407E3,3.4013312E4,3.024371E3,2.06376E3,1.6134273E5,2.1312297E4,4.4375832E4,1.2682534E4,4.3870324E4,2.4245466E3,6.6785303E3,8.793476E3,1.0399956E4,4.696204E4,8.1588257E3,2.222351E4,1.6539245E5,8.439178E4,2.6005504E4,1.0897617E4,2.6979055E4,7.8882495E3,3.8951465E3,4.1886824E4,7.039105E3,2.0715701E4,2.804292E3,9.9749475E2,8.497636E4,1.9496325E5,4.4116184E4,8.922857E4,2.0990518E4,2.7973299E4,1.6800656E5,3.3409926E4],"tree_param":{"num_deleted":"0","num_feature":"100","num_nodes":"127","size_leaf_vector":"0"}},{"base_weights":[-7.481283E-4,-2.5280815E-1,5.155842E-2,-3.6586815E-1,4.4124508E-1,-2.5533202E-1,9.1141924E-2,-4.3684107E-1,3.8296667E-1,-5.074897E-1,7.006651E-1,2.564873E-2,-4.2014992E-1,2.7676296E-1,1.2875304E-2,-5.728819E-1,6.623753E-2,6.461742E-1,-1.2655336E0,-9.779247E-1,1.7848845E-1,8.295616E-1,-8.7041926E-1,4.709265E-1,-2.788144E-1,-6.393235E-1,2.644017E-3,5.003491E-2,5.723268E-1,-1.3340275E-1,3.0083603E-1,-7.026865E-1,-1.6740313E-1,-3.022877E-1,8.620029E-1,8.2117116E-1,-1.0637407E0,-6.1935323E-1,-1.5315043E0,5.8685136E-1,-1.1589183E0,5.5045414E-1,-1.712049E0,9.8320735E-1,-2.2329038E-1,5.168286E-1,-1.2097776E0,7.3694456E-1,-3.5014477E-1,4.3472874E-1,-5.895039E-1,-3.1658375E-1,-8.702825E-1,-2.8095105E-1,6.5071523E-1,4.0675348E-1,-1.9736592E-1,1.7861454E-1,9.064046E-1,-2.0980856E-1,2.9145452E-1,-1.8667555E-1,5.1326025E-1,-2.6638135E-1,-1.3057454E-1,5.1322956E-2,-2.2201607E-1,-1.7863426E-1,1.5721418E-1,3.3205435E-1,-3.0572897E-1,-1.3888359E-1,3.1091666E-1,4.680236E-1,-3.811127E-1,-4.880886E-1,8.04608E-2,-4.719611E-1,-4.430799E-1,5.915026E-1,-3.1303662E-1,3.3315115E-2,-4.2491814E-1,2.5062788E-1,-5.1983523E-1,-5.5041605E-1,-4.9662432E-1,-3.1045577E-1,3.2040542E-1,2.9516566E-1,-2.3270619E-1,-4.7070056E-1,7.05918E-1,3.2607757E-2,-4.4401738E-1,-2.4862054E-1,2.648925E-1,2.2717457E-1,-3.0672908E-1,-1.3801934E-1,3.623007E-1,4.7947317E-2,-2.6968434E-1,1.3728313E-2,-2.9016256E-1,1.1576965E-2,-3.1587982E-1,-1.975145E-1,3.9341915E-2,-2.1560958E-1,2.52775E-1,-1.9018331E-1,1.7890918E-1,1.4406699E-1,-9.991903E-2,1.7387432E-1,-1.5912485E-1,-3.4224965E-2,3.140296E-1,-1.094115E-1,2.3997352E-3,1.2616266E-1,-2.7352226E-1,-1.0127077E-1,3.4221336E-1,2.222564E-1,1.4521348E-2],"categories":[],"categories_nodes":[],"categories_segments":[],"categories_sizes":[],"default_left":[0,0,0,0,0,0,0,0,0,0,0,0,0,0,0,0,0,0,0,0,0,0,0,0,0,0,0,0,0,0,0,0,0,0,0,0,0,0,0,0,0,0,0,0,0,0,0,0,0,0,0,0,0,0,0,0,0,0,0,0,0,0,0,0,0,0,0,0,0,0,0,0,0,0,0,0,0,0,0,0,0,0,0,0,0,0,0,0,0,0,0,0,0,0,0,0,0,0,0,0,0,0,0,0,0,0,0,0,0,0,0,0,0,0,0,0,0,0,0,0,0,0,0,0,0,0,0],"id":6,"left_children":[1,3,5,7,9,11,13,15,17,19,21,23,25,27,29,31,33,35,37,39,41,43,45,47,49,51,53,55,57,59,61,63,65,67,69,71,73,75,77,79,81,83,85,87,89,91,93,95,97,99,101,103,105,107,109,111,113,115,117,119,121,123,125,-1,-1,-1,-1,-1,-1,-1,-1,-1,-1,-1,-1,-1,-1,-1,-1,-1,-1,-1,-1,-1,-1,-1,-1,-1,-1,-1,-1,-1,-1,-1,-1,-1,-1,-1,-1,-1,-1,-1,-1,-1,-1,-1,-1,-1,-1,-1,-1,-1,-1,-1,-1,-1,-1,-1,-1,-1,-1,-1,-1,-1,-1,-1,-1],"loss_changes":[2.2574805E4,2.3090205E4,1.7225395E4,1.344827E4,1.0145324E4,7.502342E3,1.8246844E4,1.5818426E4,9.506008E3,2.8565918E3,6.5556924E3,8.1200825E3,9.461725E3,2.4963037E4,3.721393E4,9.5755625E3,1.4428207E4,5.6536416E3,5.1747754E2,1.4877705E3,2.5336702E3,4.8395E3,1.1562747E3,5.312891E3,7.8863506E3,5.012248E3,6.4072935E3,1.8604176E4,2.1269465E4,1.9018172E4,3.0820098E4,6.8273906E3,8.551832E3,8.1463438E3,7.173587E3,4.736748E3,9.5311414E2,7.885374E2,2.5375977E0,1.2325846E3,1.5391865E3,1.9601078E3,1.0782471E0,4.469199E3,2.5417458E3,1.8543041E3,7.031116E2,4.2010996E3,4.4324585E3,7.4639243E3,5.746576E3,6.6131807E3,6.5068047E3,3.7718606E3,2.788838E3,1.7035629E4,1.1445408E4,2.1103838E4,1.25303125E4,1.6752912E4,1.3870544E4,1.8091344E4,2.1930582E4,0E0,0E0,0E0,0E0,0E0,0E0,0E0,0E0,0E0,0E0,0E0,0E0,0E0,0E0,0E0,0E0,0E0,0E0,0E0,0E0,0E0,0E0,0E0,0E0,0E0,0E0,0E0,0E0,0E0,0E0,0E0,0E0,0E0,0E0,0E0,0E0,0E0,0E0,0E0,0E0,0E0,0E0,0E0,0E0,0E0,0E0,0E0,0E0,0E0,0E0,0E0,0E0,0E0,0E0,0E0,0E0,0E0,0E0,0E0,0E0,0E0,0E0,0E0,0E0],"parents":[2147483647,0,0,1,1,2,2,3,3,4,4,5,5,6,6,7,7,8,8,9,9,10,10,11,11,12,12,13,13,14,14,15,15,16,16,17,17,18,18,19,19,20,20,21,21,22,22,23,23,24,24,25,25,26,26,27,27,28,28,29,29,30,30,31,31,32,32,33,33,34,34,35,35,36,36,37,37,38,38,39,39,40,40,41,41,42,42,43,43,44,44,45,45,46,46,47,47,48,48,49,49,50,50,51,51,52,52,53,53,54,54,55,55,56,56,57,57,58,58,59,59,60,60,61,61,62,62],"right_children":[2,4,6,8,10,12,14,16,18,20,22,24,26,28,30,32,34,36,38,40,42,44,46,48,50,52,54,56,58,60,62,64,66,68,70,72,74,76,78,80,82,84,86,88,90,92,94,96,98,100,102,104,106,108,110,112,114,116,118,120,122,124,126,-1,-1,-1,-1,-1,-1,-1,-1,-1,-1,-1,-1,-1,-1,-1,-1,-1,-1,-1,-1,-1,-1,-1,-1,-1,-1,-1,-1,-1,-1,-1,-1,-1,-1,-1,-1,-1,-1,-1,-1,-1,-1,-1,-1,-1,-1,-1,-1,-1,-1,-1,-1,-1,-1,-1,-1,-1,-1,-1,-1,-1,-1,-1,-1],"split_conditions":[-3.6468408E-1,1.2304835E0,-6.6784745E-1,1.8616165E0,-4.0816388E-1,7.171825E-2,-7.1647E-1,9.749421E-1,6.6810685E-1,7.89548E-1,2.097679E-1,-4.150874E-1,9.301081E-1,2.0892209E-1,6.6997546E-1,7.6063454E-1,5.977949E-1,2.3644026E-1,1.9230735E-1,-1.6328101E0,-4.027086E-1,7.3917043E-1,-1.060056E0,-2.0809446E-2,-4.2537943E-1,3.1265E-1,8.842011E-1,-6.259656E-1,5.9440815E-1,8.6450195E-1,5.1096562E-2,1.7931354E-1,-3.441117E-1,1.3108933E0,-7.6134706E-1,4.0091538E-1,-2.9434106E0,-3.7070262E-1,4.0574086E-1,-1.5010592E0,-1.7412672E0,7.330867E-1,-8.7025225E-1,-8.277295E-1,-3.3193636E-1,-5.8088735E-2,-1.7168593E0,-1.1762838E0,-7.3704916E-1,3.5321987E-1,2.0718648E-1,3.5278533E-2,-1.1777111E0,-3.7309745E-1,1.0208994E-1,-2.7110165E-1,-1.2274357E0,-7.214264E-1,-4.4874588E-1,-1.4693488E-1,2.2069822E-1,2.0280836E0,8.315761E-2,-2.6638135E-1,-1.3057454E-1,5.1322956E-2,-2.2201607E-1,-1.7863426E-1,1.5721418E-1,3.3205435E-1,-3.0572897E-1,-1.3888359E-1,3.1091666E-1,4.680236E-1,-3.811127E-1,-4.880886E-1,8.04608E-2,-4.719611E-1,-4.430799E-1,5.915026E-1,-3.1303662E-1,3.3315115E-2,-4.2491814E-1,2.5062788E-1,-5.1983523E-1,-5.5041605E-1,-4.9662432E-1,-3.1045577E-1,3.2040542E-1,2.9516566E-1,-2.3270619E-1,-4.7070056E-1,7.05918E-1,3.2607757E-2,-4.4401738E-1,-2.4862054E-1,2.648925E-1,2.2717457E-1,-3.0672908E-1,-1.3801934E-1,3.623007E-1,4.7947317E-2,-2.6968434E-1,1.3728313E-2,-2.9016256E-1,1.1576965E-2,-3.1587982E-1,-1.975145E-1,3.9341915E-2,-2.1560958E-1,2.52775E-1,-1.9018331E-1,1.7890918E-1,1.4406699E-1,-9.991903E-2,1.7387432E-1,-1.5912485E-1,-3.4224965E-2,3.140296E-1,-1.094115E-1,2.3997352E-3,1.2616266E-1,-2.7352226E-1,-1.0127077E-1,3.4221336E-1,2.222564E-1,1.4521348E-2],"split_indices":[69,49,34,21,67,10,67,14,86,12,90,33,75,51,65,48,40,40,23,9,15,24,79,57,81,27,97,93,47,39,57,42,45,13,58,52,87,29,1,32,84,60,47,94,41,29,99,68,49,44,52,49,51,11,96,79,71,50,5,17,90,49,91,0,0,0,0,0,0,0,0,0,0,0,0,0,0,0,0,0,0,0,0,0,0,0,0,0,0,0,0,0,0,0,0,0,0,0,0,0,0,0,0,0,0,0,0,0,0,0,0,0,0,0,0,0,0,0,0,0,0,0,0,0,0,0,0],"split_type":[0,0,0,0,0,0,0,0,0,0,0,0,0,0,0,0,0,0,0,0,0,0,0,0,0,0,0,0,0,0,0,0,0,0,0,0,0,0,0,0,0,0,0,0,0,0,0,0,0,0,0,0,0,0,0,0,0,0,0,0,0,0,0,0,0,0,0,0,0,0,0,0,0,0,0,0,0,0,0,0,0,0,0,0,0,0,0,0,0,0,0,0,0,0,0,0,0,0,0,0,0,0,0,0,0,0,0,0,0,0,0,0,0,0,0,0,0,0,0,0,0,0,0,0,0,0,0],"sum_hessian":[1.7122354E6,2.9425347E5,1.4179819E6,2.53035E5,4.121846E4,1.6199911E5,1.2559828E6,2.3112947E5,2.1905523E4,8.8503955E3,3.2368066E4,5.989361E4,1.0210549E5,3.72512E5,8.8347075E5,1.8193192E5,4.9197547E4,1.8890055E4,3.0154697E3,5.2497554E3,3.6006401E3,2.9914281E4,2.4537856E3,2.4322041E4,3.5571566E4,6.7245414E4,3.486008E4,2.1080439E5,1.6170762E5,5.858644E5,2.9760634E5,1.3781342E5,4.4118504E4,3.3625797E4,1.5571752E4,1.7136756E4,1.7532982E3,8.802401E2,2.1352297E3,5.440388E2,4.7057163E3,3.009271E3,5.913692E2,2.6104799E4,3.8094822E3,4.8218008E2,1.9716055E3,1.8370352E4,5.95169E3,1.0790114E4,2.4781451E4,2.805042E4,3.9194996E4,2.424922E4,1.0610859E4,8.632899E4,1.2447539E5,7.4229445E4,8.747819E4,4.965635E5,8.9300875E4,9.032089E4,2.0728547E5,8.1415484E4,5.6397934E4,2.7729172E4,1.6389332E4,2.4820484E4,8.8053125E3,1.3778718E4,1.7930334E3,2.4596821E3,1.4677074E4,1.2751986E2,1.6257784E3,4.1184964E2,4.6839044E2,1.1945875E3,9.406422E2,2.940532E2,2.4998561E2,7.933206E2,3.9123958E3,2.6759219E3,3.33349E2,1.7687035E2,4.144988E2,1.0523798E3,2.505242E4,1.1956963E3,2.613786E3,2.2581526E2,2.5636484E2,3.3551376E2,1.6360918E3,1.5668231E3,1.680353E4,2.2482424E3,3.7034475E3,5.001055E3,5.7890596E3,7.2429355E3,1.7538516E4,1.8017227E4,1.0033193E4,6.5588384E3,3.2636156E4,1.2656571E4,1.1592649E4,1.3036458E3,9.307214E3,1.3304335E4,7.3024664E4,2.0768387E4,1.03707E5,4.741551E4,2.6813932E4,1.0577196E4,7.690099E4,2.9019053E5,2.0637298E5,8.0648914E4,8.651961E3,8.1102164E4,9.218727E3,1.3915452E5,6.813095E4],"tree_param":{"num_deleted":"0","num_feature":"100","num_nodes":"127","size_leaf_vector":"0"}},{"base_weights":[-1.0571394E-4,2.6342493E-2,-3.719324E-1,-4.8472392E-3,4.234986E-1,-2.3647126E-2,-6.294152E-1,2.2480018E-2,-5.0260085E-1,6.4702827E-1,-4.357612E-2,-6.9123966E-1,2.745522E-1,-9.720806E-1,-3.719556E-1,1.1717717E-1,-1.1236686E-1,-8.224716E-1,-9.222731E-2,-2.2033967E-1,7.871757E-1,-3.2514465E-1,6.439658E-1,4.4238254E-1,-8.9759225E-1,6.6420895E-1,-2.5077975E-1,-1.0654643E0,1.9093452E-1,-2.1240397E-1,-1.084754E0,-2.048234E-1,2.1037789E-1,-2.2528887E-1,2.3302102E-1,-4.042276E-1,-1.1452218E0,-7.166086E-1,3.196901E-1,-1.6170506E0,6.597021E-2,9.014331E-1,-2.9519135E-1,-6.1519486E-1,4.785368E-1,-9.4612974E-1,9.5257E-1,1.1075126E0,-1.052704E0,-2.5486928E-1,-1.1602029E0,8.5655844E-1,-8.581026E-1,-8.9210397E-1,1.4183734E-1,-1.1686755E0,-1.7888595E-1,1.1017647E0,-1.2301862E0,-5.492022E-1,2.3709098E-1,-2.8216788E-1,-1.3406478E0,-1.119081E-1,8.6410195E-2,-3.9557125E-2,9.1342956E-2,-1.4405376E-1,-5.409166E-3,-5.9534818E-2,1.698916E-1,8.490777E-2,-2.6286328E-1,-3.6886093E-1,8.62551E-2,2.2823393E-1,-2.930656E-1,-2.9976815E-1,1.6950706E-1,3.1753987E-1,-5.298844E-1,-8.265425E-2,3.1009746E-1,-1.561464E-1,2.916084E-1,2.0869988E-1,-2.4544542E-1,-3.8311908E-1,-9.2692755E-2,2.3873682E-1,-3.9593083E-1,-4.2453474E-1,4.9047208E-1,3.2068035E-1,-5.2791935E-1,5.1584315E-1,-1.3095434E-1,-5.026318E-1,7.221944E-2,-3.0757496E-1,1.4288068E-1,-4.5407426E-1,-2.1374755E-1,2.912371E-1,-3.577248E-1,1.489572E-1,-5.011274E-1,7.5390145E-2,-3.856483E-1,3.0317962E-1,-8.855057E-2,-4.010968E-1,-1.563899E-1,-4.813307E-1,1.3592273E-1,4.6647626E-1,-4.988701E-1,2.6947558E-1,-4.824977E-1,1.702684E-3,-2.9198557E-1,-1.6139439E-1,2.16201E-1,2.6733077E-1,-3.747389E-1,-4.1613945E-1,1.6022943E-1],"categories":[],"categories_nodes":[],"categories_segments":[],"categories_sizes":[],"default_left":[0,0,0,0,0,0,0,0,0,0,0,0,0,0,0,0,0,0,0,0,0,0,0,0,0,0,0,0,0,0,0,0,0,0,0,0,0,0,0,0,0,0,0,0,0,0,0,0,0,0,0,0,0,0,0,0,0,0,0,0,0,0,0,0,0,0,0,0,0,0,0,0,0,0,0,0,0,0,0,0,0,0,0,0,0,0,0,0,0,0,0,0,0,0,0,0,0,0,0,0,0,0,0,0,0,0,0,0,0,0,0,0,0,0,0,0,0,0,0,0,0,0,0,0,0,0,0],"id":7,"left_children":[1,3,5,7,9,11,13,15,17,19,21,23,25,27,29,31,33,35,37,39,41,43,45,47,49,51,53,55,57,59,61,63,65,67,69,71,73,75,77,79,81,83,85,87,89,91,93,95,97,99,101,103,105,107,109,111,113,115,117,119,121,123,125,-1,-1,-1,-1,-1,-1,-1,-1,-1,-1,-1,-1,-1,-1,-1,-1,-1,-1,-1,-1,-1,-1,-1,-1,-1,-1,-1,-1,-1,-1,-1,-1,-1,-1,-1,-1,-1,-1,-1,-1,-1,-1,-1,-1,-1,-1,-1,-1,-1,-1,-1,-1,-1,-1,-1,-1,-1,-1,-1,-1,-1,-1,-1,-1],"loss_changes":[1.632796E4,1.9201082E4,9.887607E3,1.954927E4,1.178399E4,9.330113E3,5.5922695E3,1.7397484E4,9.818391E3,9.27949E3,7.072663E3,3.3854854E3,6.631693E3,2.953795E3,4.116503E3,2.401929E4,2.1921303E4,5.673627E3,8.427193E3,4.246653E3,8.1274375E3,6.0422983E3,5.209687E3,2.217873E3,2.0660889E3,5.4472246E3,3.474157E3,2.3033496E3,2.6188643E3,4.4780234E3,1.3592842E3,1.4893779E4,1.998896E4,2.2376549E4,1.9914473E4,5.9395E3,2.8663418E3,5.008885E3,6.3885728E3,7.23167E2,2.9127686E3,5.9673867E3,3.25248E3,3.859815E3,3.9228967E3,2.0913083E3,2.807706E3,1.4589698E3,5.53648E2,2.001456E3,1.3739551E3,3.8664639E3,2.297436E3,2.3569736E3,3.2496755E3,2.456287E3,2.366688E3,1.5471559E3,6.375228E2,3.979018E3,4.749342E3,1.8183336E3,4.3816895E2,0E0,0E0,0E0,0E0,0E0,0E0,0E0,0E0,0E0,0E0,0E0,0E0,0E0,0E0,0E0,0E0,0E0,0E0,0E0,0E0,0E0,0E0,0E0,0E0,0E0,0E0,0E0,0E0,0E0,0E0,0E0,0E0,0E0,0E0,0E0,0E0,0E0,0E0,0E0,0E0,0E0,0E0,0E0,0E0,0E0,0E0,0E0,0E0,0E0,0E0,0E0,0E0,0E0,0E0,0E0,0E0,0E0,0E0,0E0,0E0,0E0,0E0,0E0,0E0],"parents":[2147483647,0,0,1,1,2,2,3,3,4,4,5,5,6,6,7,7,8,8,9,9,10,10,11,11,12,12,13,13,14,14,15,15,16,16,17,17,18,18,19,19,20,20,21,21,22,22,23,23,24,24,25,25,26,26,27,27,28,28,29,29,30,30,31,31,32,32,33,33,34,34,35,35,36,36,37,37,38,38,39,39,40,40,41,41,42,42,43,43,44,44,45,45,46,46,47,47,48,48,49,49,50,50,51,51,52,52,53,53,54,54,55,55,56,56,57,57,58,58,59,59,60,60,61,61,62,62],"right_children":[2,4,6,8,10,12,14,16,18,20,22,24,26,28,30,32,34,36,38,40,42,44,46,48,50,52,54,56,58,60,62,64,66,68,70,72,74,76,78,80,82,84,86,88,90,92,94,96,98,100,102,104,106,108,110,112,114,116,118,120,122,124,126,-1,-1,-1,-1,-1,-1,-1,-1,-1,-1,-1,-1,-1,-1,-1,-1,-1,-1,-1,-1,-1,-1,-1,-1,-1,-1,-1,-1,-1,-1,-1,-1,-1,-1,-1,-1,-1,-1,-1,-1,-1,-1,-1,-1,-1,-1,-1,-1,-1,-1,-1,-1,-1,-1,-1,-1,-1,-1,-1,-1,-1,-1,-1,-1],"split_conditions":[1.3338265E0,1.4585338E0,-4.8141652E-1,1.207205E0,3.3902133E-1,-6.100917E-1,-3.1732398E-1,8.0291994E-2,7.0764846E-1,-1.2614275E0,-8.2475766E-5,-1.0434015E0,-8.1683457E-1,7.5140303E-1,1.3433983E0,-2.4392822E-1,8.258305E-1,-2.0856026E-1,3.0659446E-1,7.508882E-2,8.196112E-1,7.659373E-1,2.6123273E-1,-7.285763E-1,-5.6527144E-1,1.3355102E-1,4.5435604E-2,7.397126E-1,-2.5360268E-1,2.0704279E-2,-1.969223E0,7.874535E-1,-4.147449E-1,4.6810368E-1,-2.6555017E-1,-1.5185559E-1,2.2923768E0,-1.539985E0,-9.0966433E-1,-2.4896643E0,1.7282252E0,-8.866386E-2,-9.320854E-1,-6.078313E-1,2.741389E-1,2.0342996E0,7.573133E-1,-1.430065E0,1.8629751E0,4.366644E-1,-1.06446505E-1,8.313934E-1,-8.660425E-1,-1.3126906E0,-5.071727E-1,9.9640983E-1,4.643327E-1,2.0350498E-1,-3.768783E0,-9.790709E-1,7.1960056E-1,-1.788792E0,2.748666E0,-1.119081E-1,8.6410195E-2,-3.9557125E-2,9.1342956E-2,-1.4405376E-1,-5.409166E-3,-5.9534818E-2,1.698916E-1,8.490777E-2,-2.6286328E-1,-3.6886093E-1,8.62551E-2,2.2823393E-1,-2.930656E-1,-2.9976815E-1,1.6950706E-1,3.1753987E-1,-5.298844E-1,-8.265425E-2,3.1009746E-1,-1.561464E-1,2.916084E-1,2.0869988E-1,-2.4544542E-1,-3.8311908E-1,-9.2692755E-2,2.3873682E-1,-3.9593083E-1,-4.2453474E-1,4.9047208E-1,3.2068035E-1,-5.2791935E-1,5.1584315E-1,-1.3095434E-1,-5.026318E-1,7.221944E-2,-3.0757496E-1,1.4288068E-1,-4.5407426E-1,-2.1374755E-1,2.912371E-1,-3.577248E-1,1.489572E-1,-5.011274E-1,7.5390145E-2,-3.856483E-1,3.0317962E-1,-8.855057E-2,-4.010968E-1,-1.563899E-1,-4.813307E-1,1.3592273E-1,4.6647626E-1,-4.988701E-1,2.6947558E-1,-4.824977E-1,1.702684E-3,-2.9198557E-1,-1.6139439E-1,2.16201E-1,2.6733077E-1,-3.747389E-1,-4.1613945E-1,1.6022943E-1],"split_indices":[64,14,7,3,70,51,11,43,41,92,55,89,72,36,38,30,78,76,30,19,88,0,89,66,86,45,49,53,70,24,58,12,32,13,5,19,27,9,40,91,62,68,85,66,67,95,85,7,77,20,98,60,48,61,59,28,94,14,87,61,13,36,61,0,0,0,0,0,0,0,0,0,0,0,0,0,0,0,0,0,0,0,0,0,0,0,0,0,0,0,0,0,0,0,0,0,0,0,0,0,0,0,0,0,0,0,0,0,0,0,0,0,0,0,0,0,0,0,0,0,0,0,0,0,0,0,0],"split_type":[0,0,0,0,0,0,0,0,0,0,0,0,0,0,0,0,0,0,0,0,0,0,0,0,0,0,0,0,0,0,0,0,0,0,0,0,0,0,0,0,0,0,0,0,0,0,0,0,0,0,0,0,0,0,0,0,0,0,0,0,0,0,0,0,0,0,0,0,0,0,0,0,0,0,0,0,0,0,0,0,0,0,0,0,0,0,0,0,0,0,0,0,0,0,0,0,0,0,0,0,0,0,0,0,0,0,0,0,0,0,0,0,0,0,0,0,0,0,0,0,0,0,0,0,0,0,0],"sum_hessian":[1.6603309E6,1.5500742E6,1.10256586E5,1.4372075E6,1.1286676E5,4.6865227E4,6.339136E4,1.3624105E6,7.479698E4,7.633463E4,3.6532125E4,1.446977E4,3.2395457E4,2.7194336E4,3.6197023E4,8.003555E5,5.6205506E5,4.2032906E4,3.276407E4,1.0618228E4,6.571641E4,2.5918336E4,1.061379E4,2.2281304E3,1.2241639E4,1.8599389E4,1.3796068E4,2.5173156E4,2.02118E3,2.9577697E4,6.6193257E3,1.7965645E5,6.2069906E5,4.2357175E5,1.384833E5,1.8308994E4,2.3723914E4,1.3023066E4,1.9741004E4,1.8055468E3,8.812682E3,5.9441754E4,6.2746533E3,1.904514E4,6.8731943E3,1.7247716E3,8.889019E3,1.5422692E3,6.8586127E2,3.5515103E3,8.690129E3,1.6513309E4,2.0860786E3,5.238279E3,8.55779E3,2.2547914E4,2.6252405E3,1.23187E3,7.893101E2,1.6908357E4,1.2669341E4,1.6007701E3,5.018555E3,1.3394397E5,4.5712484E4,1.3385833E5,4.8684072E5,1.8995728E5,2.3361445E5,6.0351953E4,7.8131336E4,7.4546694E3,1.0854324E4,2.2405523E4,1.3183905E3,1.9503765E3,1.107269E4,3.095651E3,1.6645354E4,9.506457E1,1.7104822E3,6.514511E3,2.2981702E3,2.8112466E3,5.6630508E4,2.1675134E3,4.10714E3,6.023229E3,1.3021912E4,5.842953E3,1.0302413E3,1.4599448E3,2.6482684E2,8.523927E3,3.650915E2,1.1044244E3,4.378447E2,4.6276425E2,2.2309702E2,1.7291497E3,1.8223605E3,4.8553906E3,3.834738E3,1.5641794E4,8.7151495E2,7.821521E2,1.3039265E3,1.3409927E3,3.8972861E3,2.8636274E3,5.694162E3,1.7894412E4,4.6535034E3,8.058663E2,1.8193743E3,1.0587654E3,1.7310458E2,1.18866905E2,6.704432E2,7.325078E3,9.583278E3,4.86757E3,7.8017705E3,7.232671E2,8.775031E2,4.8973867E3,1.21168564E2],"tree_param":{"num_deleted":"0","num_feature":"100","num_nodes":"127","size_leaf_vector":"0"}},{"base_weights":[-5.746102E-4,-2.5582996E-1,2.8229572E-2,3.2905997E-3,-5.280562E-1,2.3854737E-1,-2.0093126E-2,7.538353E-1,-9.1122575E-2,-8.266286E-1,-8.415478E-2,7.4150085E-2,5.186904E-1,-1.7093787E-1,9.2185594E-2,1.277177E0,-8.4661484E-1,1.7806944E-1,-4.296939E-1,-9.3864256E-1,-1.3746648E-1,1.16087735E-1,-1.0761051E0,2.701302E-1,-3.2614058E-1,8.798659E-1,5.155785E-2,-2.6081613E-1,2.647986E-1,1.4997251E-1,-3.8400814E-1,1.4474845E0,-4.335223E-1,1.0638503E0,-1.2449478E0,4.9146667E-1,-2.4193732E-1,-5.929248E-1,7.494054E-1,-1.0882118E0,-3.4688646E-1,-1.4342451E0,4.0532383E-1,4.417103E-1,-4.523891E-1,-1.3147025E0,6.031167E-1,-6.0942835E-1,3.2905403E-1,-5.3981316E-1,3.5137156E-1,-4.3058994E-1,1.045994E0,-1.4944324E-1,6.3574314E-1,7.538709E-2,-3.6169556E-1,-5.552917E-1,5.089369E-1,-3.0433409E-2,2.8963813E-1,-5.4506415E-1,4.471034E-2,4.7068694E-1,-4.2383465E-1,-4.2765424E-1,6.10504E-1,-4.1524005E-1,4.012267E-1,2.1528839E-1,-1.9452155E-1,7.649765E-2,-2.1877922E-1,7.698643E-2,-2.2302932E-1,-3.5882133E-1,3.422948E-1,-3.398424E-1,6.1157387E-2,3.4577288E-2,-3.6336154E-1,-8.053434E-2,-4.4194183E-1,-2.9209062E-1,2.677391E-1,1.6445132E-1,-4.267145E-1,-2.5459343E-1,2.1413498E-1,-4.1674116E-1,3.0584562E-1,5.2908325E-1,-3.4847453E-1,1.03088185E-1,-2.7405068E-1,1.976667E-1,4.4482216E-2,-3.888373E-2,-2.4140367E-1,-2.4387269E-1,3.0783594E-1,-2.5466117E-1,3.12801E-1,-1.02543406E-1,3.425992E-1,-1.5924543E-1,1.5913883E-1,2.4064858E-1,-2.8184095E-1,-1.9186895E-1,7.553303E-2,-1.3970315E-1,1.209045E-2,1.781643E-1,-2.095875E-1,2.3026566E-1,4.3809703E-3,1.1550822E-1,-4.520567E-2,-7.28013E-2,1.17711075E-1,-3.879433E-2,-2.2127166E-1,-2.4862355E-1,1.5720342E-1],"categories":[],"categories_nodes":[],"categories_segments":[],"categories_sizes":[],"default_left":[0,0,0,0,0,0,0,0,0,0,0,0,0,0,0,0,0,0,0,0,0,0,0,0,0,0,0,0,0,0,0,0,0,0,0,0,0,0,0,0,0,0,0,0,0,0,0,0,0,0,0,0,0,0,0,0,0,0,0,0,0,0,0,0,0,0,0,0,0,0,0,0,0,0,0,0,0,0,0,0,0,0,0,0,0,0,0,0,0,0,0,0,0,0,0,0,0,0,0,0,0,0,0,0,0,0,0,0,0,0,0,0,0,0,0,0,0,0,0,0,0,0,0,0,0],"id":8,"left_children":[1,3,5,7,9,11,13,15,17,19,21,23,25,27,29,31,33,35,37,39,41,43,45,47,49,51,53,55,57,59,61,63,-1,65,67,69,71,73,75,77,79,81,83,85,87,89,91,93,95,97,99,101,103,105,107,109,111,113,115,117,119,121,123,-1,-1,-1,-1,-1,-1,-1,-1,-1,-1,-1,-1,-1,-1,-1,-1,-1,-1,-1,-1,-1,-1,-1,-1,-1,-1,-1,-1,-1,-1,-1,-1,-1,-1,-1,-1,-1,-1,-1,-1,-1,-1,-1,-1,-1,-1,-1,-1,-1,-1,-1,-1,-1,-1,-1,-1,-1,-1,-1,-1,-1,-1],"loss_changes":[1.1943481E4,1.1619264E4,1.4835198E4,5.98023E3,1.064643E4,1.2560122E4,2.0103598E4,7.8993823E3,6.832311E3,3.7072617E3,6.4166543E3,1.3482881E4,1.7016129E4,1.9836457E4,1.8725414E4,3.2968447E3,1.7701185E3,5.4971084E3,6.39094E3,3.656004E3,4.7276597E3,4.975729E3,2.1747212E3,5.9799404E3,8.1778726E3,1.2383199E4,5.1641333E3,1.4241193E4,1.7341162E4,1.5290304E4,5.084798E3,2.3261387E3,0E0,9.73671E2,6.9330347E2,6.165943E3,4.3219053E3,3.7294512E3,3.0775728E3,1.9003398E3,3.3300122E3,8.946484E1,3.1815574E3,3.3924111E3,4.524379E3,8.2690625E2,1.3858813E3,2.099785E3,6.447749E3,4.6658438E3,1.0641387E4,3.944838E3,6.7260156E3,8.484855E3,2.952066E3,1.2221891E4,1.3500793E4,3.2731978E3,8.532527E3,1.3229526E4,1.8704736E4,4.2843066E3,8.419861E3,0E0,0E0,0E0,0E0,0E0,0E0,0E0,0E0,0E0,0E0,0E0,0E0,0E0,0E0,0E0,0E0,0E0,0E0,0E0,0E0,0E0,0E0,0E0,0E0,0E0,0E0,0E0,0E0,0E0,0E0,0E0,0E0,0E0,0E0,0E0,0E0,0E0,0E0,0E0,0E0,0E0,0E0,0E0,0E0,0E0,0E0,0E0,0E0,0E0,0E0,0E0,0E0,0E0,0E0,0E0,0E0,0E0,0E0,0E0,0E0,0E0,0E0],"parents":[2147483647,0,0,1,1,2,2,3,3,4,4,5,5,6,6,7,7,8,8,9,9,10,10,11,11,12,12,13,13,14,14,15,15,16,16,17,17,18,18,19,19,20,20,21,21,22,22,23,23,24,24,25,25,26,26,27,27,28,28,29,29,30,30,31,31,33,33,34,34,35,35,36,36,37,37,38,38,39,39,40,40,41,41,42,42,43,43,44,44,45,45,46,46,47,47,48,48,49,49,50,50,51,51,52,52,53,53,54,54,55,55,56,56,57,57,58,58,59,59,60,60,61,61,62,62],"right_children":[2,4,6,8,10,12,14,16,18,20,22,24,26,28,30,32,34,36,38,40,42,44,46,48,50,52,54,56,58,60,62,64,-1,66,68,70,72,74,76,78,80,82,84,86,88,90,92,94,96,98,100,102,104,106,108,110,112,114,116,118,120,122,124,-1,-1,-1,-1,-1,-1,-1,-1,-1,-1,-1,-1,-1,-1,-1,-1,-1,-1,-1,-1,-1,-1,-1,-1,-1,-1,-1,-1,-1,-1,-1,-1,-1,-1,-1,-1,-1,-1,-1,-1,-1,-1,-1,-1,-1,-1,-1,-1,-1,-1,-1,-1,-1,-1,-1,-1,-1,-1,-1,-1,-1,-1],"split_conditions":[-9.373449E-1,3.3036646E-2,-8.913783E-1,-1.5426168E0,7.055911E-1,1.1064845E0,2.4761881E-1,-5.1518206E-2,3.6321443E-2,5.201425E-1,-4.36311E-1,1.347315E-1,9.168931E-2,8.571561E-1,5.43026E-1,8.0576557E-1,-1.1520461E0,3.1799173E-1,1.1820459E0,5.8865756E-1,-4.242377E-1,3.998707E-1,1.7869419E0,-6.5460455E-1,1.7814621E-1,-4.2752364E-1,4.384552E-1,-9.0492445E-1,-3.614463E-1,3.6075473E-1,4.5543635E-1,4.2585653E-1,-4.335223E-1,8.7938195E-1,3.0196671E0,3.1103832E-1,1.0855806E-1,-4.3563583E-1,4.9925682E-1,1.4279047E0,-1.7895375E-1,-3.1993036E0,-2.5305253E-1,7.575892E-1,1.0180174E0,2.4035912E0,-1.0166521E0,-6.8059975E-1,-1.515638E-1,3.1010348E-3,4.5171377E-1,1.0888907E0,-4.7770676E-1,8.529561E-1,-1.7199385E-1,-2.848218E-1,1.2769737E0,-1.3291137E0,-3.683034E-1,-9.0604377E-1,-1.1952896E0,-9.153179E-1,6.4564633E-1,4.7068694E-1,-4.2383465E-1,-4.2765424E-1,6.10504E-1,-4.1524005E-1,4.012267E-1,2.1528839E-1,-1.9452155E-1,7.649765E-2,-2.1877922E-1,7.698643E-2,-2.2302932E-1,-3.5882133E-1,3.422948E-1,-3.398424E-1,6.1157387E-2,3.4577288E-2,-3.6336154E-1,-8.053434E-2,-4.4194183E-1,-2.9209062E-1,2.677391E-1,1.6445132E-1,-4.267145E-1,-2.5459343E-1,2.1413498E-1,-4.1674116E-1,3.0584562E-1,5.2908325E-1,-3.4847453E-1,1.03088185E-1,-2.7405068E-1,1.976667E-1,4.4482216E-2,-3.888373E-2,-2.4140367E-1,-2.4387269E-1,3.0783594E-1,-2.5466117E-1,3.12801E-1,-1.02543406E-1,3.425992E-1,-1.5924543E-1,1.5913883E-1,2.4064858E-1,-2.8184095E-1,-1.9186895E-1,7.553303E-2,-1.3970315E-1,1.209045E-2,1.781643E-1,-2.095875E-1,2.3026566E-1,4.3809703E-3,1.1550822E-1,-4.520567E-2,-7.28013E-2,1.17711075E-1,-3.879433E-2,-2.2127166E-1,-2.4862355E-1,1.5720342E-1],"split_indices":[75,85,71,91,77,52,41,4,55,93,15,45,82,39,45,64,30,97,51,55,56,97,13,75,67,54,50,93,20,82,56,7,0,81,64,33,81,95,94,60,19,32,32,57,55,51,91,64,16,97,61,11,47,78,58,0,96,97,51,67,15,83,82,0,0,0,0,0,0,0,0,0,0,0,0,0,0,0,0,0,0,0,0,0,0,0,0,0,0,0,0,0,0,0,0,0,0,0,0,0,0,0,0,0,0,0,0,0,0,0,0,0,0,0,0,0,0,0,0,0,0,0,0,0,0],"split_type":[0,0,0,0,0,0,0,0,0,0,0,0,0,0,0,0,0,0,0,0,0,0,0,0,0,0,0,0,0,0,0,0,0,0,0,0,0,0,0,0,0,0,0,0,0,0,0,0,0,0,0,0,0,0,0,0,0,0,0,0,0,0,0,0,0,0,0,0,0,0,0,0,0,0,0,0,0,0,0,0,0,0,0,0,0,0,0,0,0,0,0,0,0,0,0,0,0,0,0,0,0,0,0,0,0,0,0,0,0,0,0,0,0,0,0,0,0,0,0,0,0,0,0,0,0],"sum_hessian":[1.6244262E6,1.6471912E5,1.4597071E6,8.439148E4,8.032766E4,2.7272138E5,1.1869858E6,9.428881E3,7.496259E4,4.8024832E4,3.2302826E4,1.7186597E5,1.0085542E5,5.0650434E5,6.804813E5,7.1055825E3,2.3232988E3,4.1760242E4,3.3202348E4,4.131008E4,6.714755E3,2.687793E4,5.4248965E3,1.1537791E5,5.648806E4,5.6877918E4,4.3977504E4,4.1989425E5,8.661012E4,6.068409E5,7.3640484E4,6.687662E3,4.1792038E2,4.0054645E2,1.9227523E3,2.3915215E4,1.784503E4,2.9165293E4,4.0370557E3,3.297472E4,8.335357E3,1.9807969E3,4.733958E3,1.7089383E4,9.788547E3,4.7501714E3,6.747253E2,7.243568E3,1.08134336E5,4.29445E4,1.3543559E4,6.3990684E3,5.0478848E4,3.2720188E4,1.1257316E4,9.691238E4,3.2298188E5,1.986841E4,6.67417E4,2.647999E5,3.4204094E5,5.3530496E4,2.0109986E4,6.415649E3,2.720131E2,1.1227813E2,2.8826834E2,1.8248593E3,9.789307E1,1.9956105E4,3.9591084E3,8.835699E3,9.00933E3,4.3892227E3,2.477607E4,6.7607117E2,3.3609846E3,3.1874678E4,1.1000425E3,5.4318555E3,2.9035017E3,6.420652E1,1.9165903E3,1.2355254E3,3.4984326E3,1.6166783E4,9.2260034E2,7.3062246E3,2.482322E3,4.603767E3,1.4640424E2,4.0704593E2,2.6767935E2,1.7520392E3,5.4915283E3,3.8283344E4,6.985099E4,1.6850074E4,2.6094428E4,4.9691196E3,8.574439E3,4.984358E3,1.4147102E3,3.2658438E3,4.7213004E4,2.0962219E4,1.1757971E4,1.0182086E4,1.0752307E3,1.9177732E4,7.773465E4,2.5660706E5,6.63748E4,2.2029707E3,1.766544E4,4.381757E4,2.2924135E4,5.9439473E4,2.0536042E5,5.5332535E4,2.867084E5,1.6942447E4,3.658805E4,7.1249985E3,1.2984988E4],"tree_param":{"num_deleted":"0","num_feature":"100","num_nodes":"125","size_leaf_vector":"0"}},{"base_weights":[-8.525543E-4,-2.7913195E-1,2.5307829E-2,-6.2854576E-1,4.4304583E-2,1.1694615E-1,-6.0273416E-2,-8.7005097E-1,1.6856818E-1,-3.059265E-1,4.9436665E-1,-1.7686415E-1,2.0935172E-1,1.4422223E-1,-1.5687011E-1,-1.0995564E0,-3.090623E-1,5.382773E-1,-1.1141367E0,-5.626253E-1,6.45435E-1,7.0293653E-1,-8.700339E-1,1.5854038E-1,-3.6625865E-1,2.7144533E-1,-2.6954263E-1,3.9357606E-1,-7.1336746E-2,1.7547189E-1,-2.7566227E-1,-8.037341E-1,-1.4190603E0,-5.992462E-1,8.831067E-1,8.479032E-1,-8.350631E-1,2.331168E-1,-1.3300393E0,-9.0926206E-1,-1.780446E-1,8.690821E-1,-1.3793437E0,-3.2862827E-1,9.152792E-1,-1.3454252E0,-4.106101E-2,4.2864034E-1,-3.6679953E-1,2.3879048E-1,-5.3642E-1,-2.6141655E-1,3.3295017E-1,-5.700445E-1,2.8799856E-1,5.211095E-2,6.892271E-1,2.6626945E-1,-5.102095E-1,4.4545522E-1,-2.0650984E-1,1.24599956E-1,-3.7063468E-1,-1.4772208E-1,-4.0971628E-1,-1.8901052E-1,-4.8134288E-1,-2.9001194E-1,3.210969E-2,3.3444256E-1,-4.858474E-1,-3.0167922E-1,3.1268865E-1,-4.7556815E-1,7.386004E-2,2.5107512E-1,-5.3080064E-1,-1.4731924E-1,-4.7302765E-1,-3.8909352E-1,-1.5755883E-1,6.800185E-2,-2.9362425E-1,-3.8774955E-1,3.143903E-1,2.9449895E-1,-4.8048785E-1,9.004979E-2,-4.600639E-1,1.7332805E-2,3.2380477E-1,3.380481E-1,-4.3722916E-1,-5.343335E-1,1.3018921E-1,2.886443E-1,3.2701124E-2,8.427617E-3,-2.5314516E-1,3.912675E-1,1.6882085E-3,-1.9872959E-1,3.9111506E-3,4.09563E-2,-2.1091811E-1,7.498926E-2,2.138437E-1,8.845249E-4,-2.58698E-1,1.9975983E-1,-1.962512E-1,-1.5895864E-1,1.5379983E-1,2.6178643E-1,-1.1168809E-1,-1.976143E-1,1.13461435E-1,-2.0541248E-1,2.6925476E-2,2.0388037E-1,-4.391924E-2,-1.0670089E-1,1.3882956E-1,-8.359039E-2,1.5059105E-1,-1.5257111E-1,-2.722396E-2],"categories":[],"categories_nodes":[],"categories_segments":[],"categories_sizes":[],"default_left":[0,0,0,0,0,0,0,0,0,0,0,0,0,0,0,0,0,0,0,0,0,0,0,0,0,0,0,0,0,0,0,0,0,0,0,0,0,0,0,0,0,0,0,0,0,0,0,0,0,0,0,0,0,0,0,0,0,0,0,0,0,0,0,0,0,0,0,0,0,0,0,0,0,0,0,0,0,0,0,0,0,0,0,0,0,0,0,0,0,0,0,0,0,0,0,0,0,0,0,0,0,0,0,0,0,0,0,0,0,0,0,0,0,0,0,0,0,0,0,0,0,0,0,0,0,0,0],"id":9,"left_children":[1,3,5,7,9,11,13,15,17,19,21,23,25,27,29,31,33,35,37,39,41,43,45,47,49,51,53,55,57,59,61,63,65,67,69,71,73,75,77,79,81,83,85,87,89,91,93,95,97,99,101,103,105,107,109,111,113,115,117,119,121,123,125,-1,-1,-1,-1,-1,-1,-1,-1,-1,-1,-1,-1,-1,-1,-1,-1,-1,-1,-1,-1,-1,-1,-1,-1,-1,-1,-1,-1,-1,-1,-1,-1,-1,-1,-1,-1,-1,-1,-1,-1,-1,-1,-1,-1,-1,-1,-1,-1,-1,-1,-1,-1,-1,-1,-1,-1,-1,-1,-1,-1,-1,-1,-1,-1],"loss_changes":[1.151398E4,1.5359351E4,1.1337987E4,1.257668E4,1.1125084E4,1.8954533E4,1.4767019E4,6.4551133E3,7.204957E3,9.693619E3,8.790327E3,1.0610973E4,1.5793305E4,1.2891174E4,2.0044936E4,3.3619375E3,5.0370005E3,5.01554E3,9.890869E2,4.16687E3,3.820645E3,5.869048E3,1.6141221E3,8.55399E3,1.0991332E4,1.5408609E4,1.021359E4,1.12261E4,1.9059383E4,1.3787867E4,1.4218506E4,3.2322725E3,2.501414E3,3.038959E3,1.6546001E3,3.4687183E3,1.7607087E3,5.701875E2,6.057002E2,2.4473623E3,4.8025586E3,2.938601E3,4.42073E2,3.4662058E3,3.1259453E3,7.224624E2,1.2355552E3,6.789287E3,3.8560222E3,5.8214854E3,5.769158E3,8.550445E3,1.3286859E4,6.633924E3,7.601376E3,1.3831443E4,1.1602676E4,7.528097E3,5.8554453E3,1.0855228E4,5.527159E3,1.0915216E4,1.1670891E4,0E0,0E0,0E0,0E0,0E0,0E0,0E0,0E0,0E0,0E0,0E0,0E0,0E0,0E0,0E0,0E0,0E0,0E0,0E0,0E0,0E0,0E0,0E0,0E0,0E0,0E0,0E0,0E0,0E0,0E0,0E0,0E0,0E0,0E0,0E0,0E0,0E0,0E0,0E0,0E0,0E0,0E0,0E0,0E0,0E0,0E0,0E0,0E0,0E0,0E0,0E0,0E0,0E0,0E0,0E0,0E0,0E0,0E0,0E0,0E0,0E0,0E0,0E0,0E0],"parents":[2147483647,0,0,1,1,2,2,3,3,4,4,5,5,6,6,7,7,8,8,9,9,10,10,11,11,12,12,13,13,14,14,15,15,16,16,17,17,18,18,19,19,20,20,21,21,22,22,23,23,24,24,25,25,26,26,27,27,28,28,29,29,30,30,31,31,32,32,33,33,34,34,35,35,36,36,37,37,38,38,39,39,40,40,41,41,42,42,43,43,44,44,45,45,46,46,47,47,48,48,49,49,50,50,51,51,52,52,53,53,54,54,55,55,56,56,57,57,58,58,59,59,60,60,61,61,62,62],"right_children":[2,4,6,8,10,12,14,16,18,20,22,24,26,28,30,32,34,36,38,40,42,44,46,48,50,52,54,56,58,60,62,64,66,68,70,72,74,76,78,80,82,84,86,88,90,92,94,96,98,100,102,104,106,108,110,112,114,116,118,120,122,124,126,-1,-1,-1,-1,-1,-1,-1,-1,-1,-1,-1,-1,-1,-1,-1,-1,-1,-1,-1,-1,-1,-1,-1,-1,-1,-1,-1,-1,-1,-1,-1,-1,-1,-1,-1,-1,-1,-1,-1,-1,-1,-1,-1,-1,-1,-1,-1,-1,-1,-1,-1,-1,-1,-1,-1,-1,-1,-1,-1,-1,-1,-1,-1,-1],"split_conditions":[-9.608721E-1,-8.577796E-2,1.2546557E-1,1.8559313E0,1.0280045E0,-2.5233015E-1,-7.0733774E-1,-2.813486E-2,3.5722396E-1,1.7364538E0,9.662763E-1,-1.3130724E0,5.6167245E-1,7.131327E-2,-9.4738674E-1,2.0358306E-1,1.1736838E0,1.7986364E0,-1.2542868E0,-5.2629215E-1,7.047042E-1,1.7450887E-1,5.6720513E-1,-8.564422E-2,-5.693672E-1,-4.7359043E-1,8.6978966E-1,1.4550726E-1,-2.634253E-1,-8.6495644E-1,-5.5390394E-1,4.0416962E-1,2.755381E-2,3.735062E-1,7.96044E-1,-1.3148575E-1,-4.525472E-1,-6.269471E-1,1.120571E-1,4.6963522E-1,1.4004901E-1,5.1396024E-1,-2.1757653E0,8.301014E-1,-1.4963664E-1,-7.225838E-2,-4.149672E-1,-1.01546E0,-1.777783E-1,-7.741298E-1,4.068844E-1,4.7412577E-1,7.7022696E-1,-6.45477E-1,-7.1005994E-1,1.8723592E-1,1.7323539E-1,-8.1696117E-1,2.835653E-1,1.5437143E-1,9.9553025E-1,1.0854135E-1,5.142792E-1,-1.4772208E-1,-4.0971628E-1,-1.8901052E-1,-4.8134288E-1,-2.9001194E-1,3.210969E-2,3.3444256E-1,-4.858474E-1,-3.0167922E-1,3.1268865E-1,-4.7556815E-1,7.386004E-2,2.5107512E-1,-5.3080064E-1,-1.4731924E-1,-4.7302765E-1,-3.8909352E-1,-1.5755883E-1,6.800185E-2,-2.9362425E-1,-3.8774955E-1,3.143903E-1,2.9449895E-1,-4.8048785E-1,9.004979E-2,-4.600639E-1,1.7332805E-2,3.2380477E-1,3.380481E-1,-4.3722916E-1,-5.343335E-1,1.3018921E-1,2.886443E-1,3.2701124E-2,8.427617E-3,-2.5314516E-1,3.912675E-1,1.6882085E-3,-1.9872959E-1,3.9111506E-3,4.09563E-2,-2.1091811E-1,7.498926E-2,2.138437E-1,8.845249E-4,-2.58698E-1,1.9975983E-1,-1.962512E-1,-1.5895864E-1,1.5379983E-1,2.6178643E-1,-1.1168809E-1,-1.976143E-1,1.13461435E-1,-2.0541248E-1,2.6925476E-2,2.0388037E-1,-4.391924E-2,-1.0670089E-1,1.3882956E-1,-8.359039E-2,1.5059105E-1,-1.5257111E-1,-2.722396E-2],"split_indices":[31,20,31,96,13,57,83,72,26,48,89,15,1,89,67,69,54,38,71,36,81,25,76,54,19,94,10,37,11,50,86,68,16,32,23,28,55,57,2,46,34,2,91,96,18,20,77,40,37,77,66,52,4,93,55,76,20,14,93,45,12,33,69,0,0,0,0,0,0,0,0,0,0,0,0,0,0,0,0,0,0,0,0,0,0,0,0,0,0,0,0,0,0,0,0,0,0,0,0,0,0,0,0,0,0,0,0,0,0,0,0,0,0,0,0,0,0,0,0,0,0,0,0,0,0,0,0],"split_type":[0,0,0,0,0,0,0,0,0,0,0,0,0,0,0,0,0,0,0,0,0,0,0,0,0,0,0,0,0,0,0,0,0,0,0,0,0,0,0,0,0,0,0,0,0,0,0,0,0,0,0,0,0,0,0,0,0,0,0,0,0,0,0,0,0,0,0,0,0,0,0,0,0,0,0,0,0,0,0,0,0,0,0,0,0,0,0,0,0,0,0,0,0,0,0,0,0,0,0,0,0,0,0,0,0,0,0,0,0,0,0,0,0,0,0,0,0,0,0,0,0,0,0,0,0,0,0],"sum_hessian":[1.5816112E6,1.3590636E5,1.445705E6,6.5329207E4,7.057716E4,6.981463E5,7.475586E5,5.013844E4,1.5190766E4,3.969076E4,3.0886395E4,1.6703747E5,5.311089E5,2.3983222E5,5.0772638E5,3.558099E4,1.4557455E4,1.1792452E4,3.3983135E3,3.1257258E4,8.433504E3,2.6791396E4,4.0949976E3,6.028214E4,1.0675533E5,4.7014956E5,6.095932E4,1.1119894E5,1.2863328E5,1.3369384E5,3.7403253E5,1.847701E4,1.7103977E4,1.1708104E4,2.8493525E3,9.623232E3,2.169219E3,4.693628E2,2.9289507E3,1.6438902E4,1.4818355E4,7.5951514E3,8.3835236E2,4.573363E3,2.2218033E4,2.6021304E3,1.4928673E3,3.9812832E4,2.0469312E4,2.343307E4,8.332226E4,4.8650562E4,4.21499E5,3.961027E4,2.1349049E4,5.160194E4,5.9596992E4,7.270489E4,5.5928395E4,7.833018E4,5.5363664E4,7.17291E4,3.0230344E5,1.1891359E4,6.5856514E3,3.255368E3,1.3848609E4,7.7010547E3,4.0070486E3,2.608409E3,2.409436E2,9.1307056E2,8.710162E3,1.2804182E3,8.8880084E2,3.6107098E2,1.08291824E2,6.66271E2,2.2626797E3,8.1793926E3,8.25951E3,9.843599E3,4.9747563E3,5.800339E2,7.0151177E3,7.1843124E1,7.665092E2,3.0056143E3,1.5677483E3,3.5685496E3,1.8649484E4,1.123872E2,2.4897432E3,3.1955713E2,1.1733102E3,1.4915413E4,2.4897416E4,1.1199185E4,9.270128E3,4.206582E3,1.9226488E4,6.777793E4,1.5544327E4,2.5591951E4,2.3058613E4,3.4592803E5,7.557097E4,1.3380326E4,2.6229943E4,1.52379795E4,6.111069E3,2.2796E4,2.8805943E4,5.0817633E4,8.779361E3,7.847959E3,6.485693E4,4.3326684E4,1.260171E4,5.6125805E4,2.2204375E4,4.5274016E4,1.0089647E4,3.4676348E4,3.705275E4,2.025038E5,9.979964E4],"tree_param":{"num_deleted":"0","num_feature":"100","num_nodes":"127","size_leaf_vector":"0"}},{"base_weights":[-8.968155E-4,-1.8056025E-1,3.3364683E-2,3.2940954E-2,-5.166763E-1,-3.0305746E-1,5.957227E-2,-2.7241924E-1,3.601482E-1,3.113141E-1,-8.3473545E-1,-8.591486E-1,-8.382811E-2,1.367331E-1,-9.297549E-2,-5.340204E-1,5.1244374E-2,-2.7507521E-2,6.6865164E-1,-3.6423543E-1,7.4083734E-1,-9.4512336E-2,-9.537405E-1,-1.0360625E0,-1.0139479E-1,1.2516955E-1,-4.221169E-1,3.7828643E-2,3.378624E-1,2.5781617E-1,-1.9241114E-1,-6.978124E-1,1.1754087E-1,2.2305395E-1,-6.8669945E-1,-5.028612E-1,4.157783E-1,-1.3804259E0,7.481713E-1,1.255822E0,-5.7921535E-1,-3.6623147E-1,9.682268E-1,-1.298866E0,1.8138847E-1,-1.0865914E0,-3.0696863E-1,4.2104453E-1,-1.1390882E0,6.139397E-1,-7.791706E-1,-4.6477157E-1,3.63382E-1,-7.172996E-1,4.2971388E-1,-6.0282934E-2,2.8426963E-1,9.1408454E-2,5.251272E-1,-1.6878857E-1,4.9366605E-1,-9.923693E-2,-5.777423E-1,-2.6386905E-1,1.7128676E-2,-2.6198667E-1,1.7714305E-1,-8.304716E-2,1.6052064E-1,1.308429E-1,-3.4899205E-1,-2.3019661E-1,1.41206E-1,2.7153727E-1,-1.1909546E-1,-7.803582E-2,-4.7467616E-1,-6.993499E-2,2.6423284E-1,5.8480006E-1,-4.7860438E-1,-2.504397E-1,1.520874E-1,2.5670707E-1,-4.3228838E-1,-4.5530677E-2,3.5116765E-1,7.9228145E-1,-4.178312E-1,-1.273467E-1,2.2314045E-1,-1.8633644E-1,-3.6874545E-1,1.9970627E-1,-2.1950516E-1,-4.5725873E-1,3.0277067E-1,1.4770202E-2,-3.6953714E-1,3.7965533E-1,-1.6421306E-1,2.2456436E-1,-3.5865068E-1,1.2115284E-1,-2.362221E-1,9.594104E-3,2.619151E-1,-3.7196776E-1,-1.21126674E-1,-1.639083E-1,3.659898E-1,-8.943017E-2,5.2987877E-2,-2.3927896E-1,1.05850525E-1,-1.2335236E-1,8.972072E-2,1.953746E-1,-5.658594E-2,-2.5499454E-1,3.270699E-2,2.1820542E-1,1.810591E-2,1.850539E-1,-5.2173834E-2,-2.4143209E-1,-9.990886E-3],"categories":[],"categories_nodes":[],"categories_segments":[],"categories_sizes":[],"default_left":[0,0,0,0,0,0,0,0,0,0,0,0,0,0,0,0,0,0,0,0,0,0,0,0,0,0,0,0,0,0,0,0,0,0,0,0,0,0,0,0,0,0,0,0,0,0,0,0,0,0,0,0,0,0,0,0,0,0,0,0,0,0,0,0,0,0,0,0,0,0,0,0,0,0,0,0,0,0,0,0,0,0,0,0,0,0,0,0,0,0,0,0,0,0,0,0,0,0,0,0,0,0,0,0,0,0,0,0,0,0,0,0,0,0,0,0,0,0,0,0,0,0,0,0,0,0,0],"id":10,"left_children":[1,3,5,7,9,11,13,15,17,19,21,23,25,27,29,31,33,35,37,39,41,43,45,47,49,51,53,55,57,59,61,63,65,67,69,71,73,75,77,79,81,83,85,87,89,91,93,95,97,99,101,103,105,107,109,111,113,115,117,119,121,123,125,-1,-1,-1,-1,-1,-1,-1,-1,-1,-1,-1,-1,-1,-1,-1,-1,-1,-1,-1,-1,-1,-1,-1,-1,-1,-1,-1,-1,-1,-1,-1,-1,-1,-1,-1,-1,-1,-1,-1,-1,-1,-1,-1,-1,-1,-1,-1,-1,-1,-1,-1,-1,-1,-1,-1,-1,-1,-1,-1,-1,-1,-1,-1,-1],"loss_changes":[9.462745E3,1.7667947E4,1.138313E4,1.5044088E4,2.5186855E4,1.1375112E4,1.4098535E4,6.5945073E3,8.692466E3,7.7021475E3,6.0866953E3,3.5367676E3,4.731726E3,1.58230625E4,1.4034086E4,4.5966875E3,4.4139907E3,6.787571E3,6.595912E3,3.5941233E3,4.0851729E3,3.1805793E3,5.114465E3,3.2114375E3,2.422209E3,5.813698E3,6.426602E3,1.2892573E4,1.2101391E4,8.940648E3,1.1254781E4,4.722547E3,4.0554177E3,4.4046426E3,3.5190684E3,4.0022988E3,6.6296377E3,3.4154712E2,5.070135E3,2.3937808E3,2.5292964E3,3.6332659E3,3.050791E3,6.6372485E2,2.65415E3,3.2761602E3,4.191413E3,1.6184926E3,2.20075E3,1.8399739E3,1.6324872E3,3.3351602E3,4.9775156E3,3.10958E3,5.074412E3,2.1487766E4,1.1263173E4,1.1815827E4,1.3412492E4,5.987164E3,5.7943535E3,1.3499135E4,7.5448496E3,0E0,0E0,0E0,0E0,0E0,0E0,0E0,0E0,0E0,0E0,0E0,0E0,0E0,0E0,0E0,0E0,0E0,0E0,0E0,0E0,0E0,0E0,0E0,0E0,0E0,0E0,0E0,0E0,0E0,0E0,0E0,0E0,0E0,0E0,0E0,0E0,0E0,0E0,0E0,0E0,0E0,0E0,0E0,0E0,0E0,0E0,0E0,0E0,0E0,0E0,0E0,0E0,0E0,0E0,0E0,0E0,0E0,0E0,0E0,0E0,0E0,0E0,0E0,0E0],"parents":[2147483647,0,0,1,1,2,2,3,3,4,4,5,5,6,6,7,7,8,8,9,9,10,10,11,11,12,12,13,13,14,14,15,15,16,16,17,17,18,18,19,19,20,20,21,21,22,22,23,23,24,24,25,25,26,26,27,27,28,28,29,29,30,30,31,31,32,32,33,33,34,34,35,35,36,36,37,37,38,38,39,39,40,40,41,41,42,42,43,43,44,44,45,45,46,46,47,47,48,48,49,49,50,50,51,51,52,52,53,53,54,54,55,55,56,56,57,57,58,58,59,59,60,60,61,61,62,62],"right_children":[2,4,6,8,10,12,14,16,18,20,22,24,26,28,30,32,34,36,38,40,42,44,46,48,50,52,54,56,58,60,62,64,66,68,70,72,74,76,78,80,82,84,86,88,90,92,94,96,98,100,102,104,106,108,110,112,114,116,118,120,122,124,126,-1,-1,-1,-1,-1,-1,-1,-1,-1,-1,-1,-1,-1,-1,-1,-1,-1,-1,-1,-1,-1,-1,-1,-1,-1,-1,-1,-1,-1,-1,-1,-1,-1,-1,-1,-1,-1,-1,-1,-1,-1,-1,-1,-1,-1,-1,-1,-1,-1,-1,-1,-1,-1,-1,-1,-1,-1,-1,-1,-1,-1,-1,-1,-1],"split_conditions":[-8.687553E-1,-4.7352526E-1,-1.0925857E0,1.688807E-1,-6.8201697E-1,-6.024934E-1,-2.9423434E-2,1.9913933E-1,3.1730294E-1,2.0739472E-1,-8.708846E-1,1.1556402E0,1.4951222E-1,1.8786669E-1,-6.150641E-1,9.592789E-1,2.6147527E-1,3.6781743E-1,-1.055659E0,-1.3938904E0,-4.9669138E-1,-6.1357737E-1,3.5194167E-1,-2.144135E0,-1.0301423E-1,-5.067957E-2,3.722576E-1,6.943717E-1,-4.5071942E-1,-1.1997008E-1,8.6199373E-1,6.9461286E-1,6.595931E-1,-3.773292E-1,-8.252937E-1,1.1497799E0,-2.623966E-1,-1.2434955E0,-1.9205582E-1,-9.5939493E-1,1.3082029E0,-1.099958E0,-7.2342455E-2,-6.6503304E-1,5.7392406E-1,-1.9509298E-1,-1.0009084E0,2.315634E-2,-2.9655066E0,-1.7006125E0,-1.9173136E0,-1.421466E0,-1.1587598E-1,1.3192575E-1,2.13049E-1,2.3438485E-1,-4.4133162E-1,4.209155E-1,2.1385294E-1,-7.1814245E-1,-1.4656958E-2,-7.0234114E-1,9.822335E-1,-2.6386905E-1,1.7128676E-2,-2.6198667E-1,1.7714305E-1,-8.304716E-2,1.6052064E-1,1.308429E-1,-3.4899205E-1,-2.3019661E-1,1.41206E-1,2.7153727E-1,-1.1909546E-1,-7.803582E-2,-4.7467616E-1,-6.993499E-2,2.6423284E-1,5.8480006E-1,-4.7860438E-1,-2.504397E-1,1.520874E-1,2.5670707E-1,-4.3228838E-1,-4.5530677E-2,3.5116765E-1,7.9228145E-1,-4.178312E-1,-1.273467E-1,2.2314045E-1,-1.8633644E-1,-3.6874545E-1,1.9970627E-1,-2.1950516E-1,-4.5725873E-1,3.0277067E-1,1.4770202E-2,-3.6953714E-1,3.7965533E-1,-1.6421306E-1,2.2456436E-1,-3.5865068E-1,1.2115284E-1,-2.362221E-1,9.594104E-3,2.619151E-1,-3.7196776E-1,-1.21126674E-1,-1.639083E-1,3.659898E-1,-8.943017E-2,5.2987877E-2,-2.3927896E-1,1.05850525E-1,-1.2335236E-1,8.972072E-2,1.953746E-1,-5.658594E-2,-2.5499454E-1,3.270699E-2,2.1820542E-1,1.810591E-2,1.850539E-1,-5.2173834E-2,-2.4143209E-1,-9.990886E-3],"split_indices":[26,50,1,32,64,99,90,84,85,49,3,18,23,18,3,39,56,37,51,59,47,43,66,78,8,69,66,59,92,84,73,5,82,24,49,62,4,79,25,66,13,88,12,64,21,82,14,66,87,90,80,66,55,46,56,95,13,13,42,58,1,77,41,0,0,0,0,0,0,0,0,0,0,0,0,0,0,0,0,0,0,0,0,0,0,0,0,0,0,0,0,0,0,0,0,0,0,0,0,0,0,0,0,0,0,0,0,0,0,0,0,0,0,0,0,0,0,0,0,0,0,0,0,0,0,0,0],"split_type":[0,0,0,0,0,0,0,0,0,0,0,0,0,0,0,0,0,0,0,0,0,0,0,0,0,0,0,0,0,0,0,0,0,0,0,0,0,0,0,0,0,0,0,0,0,0,0,0,0,0,0,0,0,0,0,0,0,0,0,0,0,0,0,0,0,0,0,0,0,0,0,0,0,0,0,0,0,0,0,0,0,0,0,0,0,0,0,0,0,0,0,0,0,0,0,0,0,0,0,0,0,0,0,0,0,0,0,0,0,0,0,0,0,0,0,0,0,0,0,0,0,0,0,0,0,0,0],"sum_hessian":[1.5372714E6,2.4620355E5,1.2910679E6,1.5056528E5,9.563828E4,9.330591E4,1.197762E6,7.7882766E4,7.268251E4,2.6542164E4,6.909611E4,2.638232E4,6.6923586E4,7.954248E5,4.0233712E5,4.307043E4,3.4812336E4,3.220971E4,4.0472797E4,1.0316554E4,1.6225611E4,9.570214E3,5.95259E4,2.1388375E4,4.993944E3,4.136721E4,2.5556379E4,5.3321825E5,2.6220656E5,8.8858445E4,3.134787E5,3.4418188E4,8.652245E3,2.8238492E4,6.5738447E3,1.5542603E4,1.6667107E4,1.5113623E3,3.8961434E4,1.2080469E3,9.108507E3,2.7647131E3,1.3460898E4,1.7830763E3,7.7871377E3,4.9381883E4,1.0144018E4,1.4122081E3,1.9976168E4,2.4296985E3,2.564245E3,1.1898709E4,2.9468502E4,1.897959E4,6.5767896E3,3.8138453E5,1.5183373E5,1.1321237E5,1.489942E5,3.163586E4,5.7222582E4,2.5243934E5,6.1039332E4,2.7739484E4,6.678701E3,2.795227E3,5.857018E3,1.0852253E4,1.738624E4,1.9589133E3,4.6149316E3,1.2222591E4,3.3200115E3,1.0403367E4,6.2637407E3,2.3106346E2,1.2802988E3,4.6381245E3,3.432331E4,9.719488E2,2.3609808E2,7.3736665E3,1.7348401E3,1.2938569E3,1.4708561E3,2.059717E3,1.1401182E4,4.08785E1,1.7421978E3,3.7488328E3,4.038305E3,1.1579443E4,3.7802438E4,3.0829868E3,7.061031E3,3.2750528E2,1.0847029E3,1.4456248E3,1.8530543E4,1.5563757E3,8.733229E2,5.4897986E2,2.0152653E3,3.2225513E3,8.676157E3,1.7857852E4,1.161065E4,7.116072E3,1.1863518E4,2.942584E3,3.6342056E3,1.9032723E5,1.9105731E5,9.048619E3,1.4278511E5,3.310068E4,8.011169E4,1.2662009E5,2.2374107E4,9.16392E3,2.247194E4,3.7174E4,2.0048582E4,2.383859E4,2.2860077E5,4.3076105E4,1.7963225E4],"tree_param":{"num_deleted":"0","num_feature":"100","num_nodes":"127","size_leaf_vector":"0"}},{"base_weights":[-1.4868423E-3,-1.5932436E-1,3.037008E-2,-4.763257E-1,-3.6425408E-2,9.674689E-2,-7.866734E-2,1.5766905E-1,-6.901049E-1,1.6138215E-1,-1.92964E-1,-5.725967E-2,2.6279318E-1,-2.1792197E-1,1.58859E-1,-2.2249569E-1,8.3114785E-1,1.1655375E0,-7.331585E-1,-2.0206504E-1,3.509968E-1,-3.0087864E-1,4.731051E-1,-2.2941986E-1,1.4328678E-1,-6.65505E-1,3.0150744E-1,1.650754E-1,-3.0116108E-1,-4.899185E-1,2.7172446E-1,-5.635105E-1,4.4386813E-1,1.0458989E0,-8.96711E-1,-4.191552E-1,1.5253376E0,-8.6938643E-1,-3.2125258E-1,3.3387816E-1,-4.3170208E-1,1.6109606E-2,6.077421E-1,-5.046653E-1,1.7828034E-2,-5.848114E-2,9.0739024E-1,-3.324863E-1,5.552587E-1,2.617229E-2,5.280308E-1,5.170167E-2,-1.0244602E0,4.3326205E-1,4.4604715E-2,6.6938347E-1,-2.0578164E-1,-1.5206522E-1,-5.505332E-1,-8.7502277E-1,6.476995E-2,4.010153E-1,-3.2141152E-1,1.5188374E-1,-3.0974802E-1,-1.6938585E-1,2.821807E-1,-2.3673138E-1,3.5522974E-1,-4.4325998E-1,3.7558663E-1,-4.0508378E-1,4.9916083E-1,-2.9918152E-1,-6.538639E-2,3.303918E-2,-2.6544347E-1,-1.5372244E-1,2.1513708E-1,4.013681E-2,-2.1888824E-1,1.6924736E-1,-1.6868104E-1,2.2454384E-1,-2.0150074E-1,-7.323994E-5,-2.3441975E-1,-9.605923E-2,1.6076781E-1,-4.568654E-1,6.0235303E-2,3.105291E-1,-5.24065E-1,-1.9018683E-1,-4.0731926E-2,2.467969E-1,-1.325671E-1,-6.25083E-2,1.0404929E-1,2.1877106E-1,-2.3173748E-2,2.563035E-1,-1.806107E-1,-3.3968782E-1,3.0860993E-1,1.6650678E-1,2.251038E-2,7.696295E-2,-8.802235E-2,-9.848491E-2,2.9870072E-1,7.940254E-2,-2.2331183E-1,-9.184355E-2,8.215198E-2,-2.3645413E-1,-4.0272787E-2,-1.5603283E-1,-4.1133952E-1,-2.8340262E-1,1.2859541E-1,1.5177579E-1,-8.865174E-2,-2.2404827E-1,8.432026E-2],"categories":[],"categories_nodes":[],"categories_segments":[],"categories_sizes":[],"default_left":[0,0,0,0,0,0,0,0,0,0,0,0,0,0,0,0,0,0,0,0,0,0,0,0,0,0,0,0,0,0,0,0,0,0,0,0,0,0,0,0,0,0,0,0,0,0,0,0,0,0,0,0,0,0,0,0,0,0,0,0,0,0,0,0,0,0,0,0,0,0,0,0,0,0,0,0,0,0,0,0,0,0,0,0,0,0,0,0,0,0,0,0,0,0,0,0,0,0,0,0,0,0,0,0,0,0,0,0,0,0,0,0,0,0,0,0,0,0,0,0,0,0,0,0,0],"id":11,"left_children":[1,3,5,7,9,11,13,15,17,19,21,23,25,27,29,31,33,35,37,39,41,43,45,47,49,51,53,55,57,59,61,63,65,67,69,-1,71,73,75,77,79,81,83,85,87,89,91,93,95,97,99,101,103,105,107,109,111,113,115,117,119,121,123,-1,-1,-1,-1,-1,-1,-1,-1,-1,-1,-1,-1,-1,-1,-1,-1,-1,-1,-1,-1,-1,-1,-1,-1,-1,-1,-1,-1,-1,-1,-1,-1,-1,-1,-1,-1,-1,-1,-1,-1,-1,-1,-1,-1,-1,-1,-1,-1,-1,-1,-1,-1,-1,-1,-1,-1,-1,-1,-1,-1,-1,-1],"loss_changes":[7.5365444E3,9.806541E3,9.026227E3,9.531404E3,5.6167305E3,1.9824104E4,1.5609477E4,4.5406665E3,4.2024316E3,5.522455E3,7.278504E3,1.3886152E4,1.3406258E4,9.484507E3,1.2771721E4,2.5762822E3,2.375274E3,1.1020632E3,2.8838594E3,3.3814336E3,4.527768E3,5.6596826E3,3.2594944E3,1.7502312E4,8.371091E3,3.8448657E3,1.212084E4,9.934E3,9.08634E3,5.5212275E3,1.1393607E4,3.7629329E3,1.9232024E3,1.4443857E3,8.853182E2,0E0,4.1914087E2,3.2174883E3,3.106001E3,2.6733542E3,3.240456E3,7.244442E3,5.3677285E3,7.4197734E3,5.9522026E3,2.410876E3,2.6357837E3,1.1343857E4,6.699747E3,1.07113545E4,5.2799355E3,2.6148542E3,2.2047607E3,1.0324387E4,8.696573E3,7.3272227E3,7.755726E3,1.0036924E4,9.046365E3,2.6853857E3,3.891132E3,8.913117E3,6.815323E3,0E0,0E0,0E0,0E0,0E0,0E0,0E0,0E0,0E0,0E0,0E0,0E0,0E0,0E0,0E0,0E0,0E0,0E0,0E0,0E0,0E0,0E0,0E0,0E0,0E0,0E0,0E0,0E0,0E0,0E0,0E0,0E0,0E0,0E0,0E0,0E0,0E0,0E0,0E0,0E0,0E0,0E0,0E0,0E0,0E0,0E0,0E0,0E0,0E0,0E0,0E0,0E0,0E0,0E0,0E0,0E0,0E0,0E0,0E0,0E0,0E0,0E0],"parents":[2147483647,0,0,1,1,2,2,3,3,4,4,5,5,6,6,7,7,8,8,9,9,10,10,11,11,12,12,13,13,14,14,15,15,16,16,17,17,18,18,19,19,20,20,21,21,22,22,23,23,24,24,25,25,26,26,27,27,28,28,29,29,30,30,31,31,32,32,33,33,34,34,36,36,37,37,38,38,39,39,40,40,41,41,42,42,43,43,44,44,45,45,46,46,47,47,48,48,49,49,50,50,51,51,52,52,53,53,54,54,55,55,56,56,57,57,58,58,59,59,60,60,61,61,62,62],"right_children":[2,4,6,8,10,12,14,16,18,20,22,24,26,28,30,32,34,36,38,40,42,44,46,48,50,52,54,56,58,60,62,64,66,68,70,-1,72,74,76,78,80,82,84,86,88,90,92,94,96,98,100,102,104,106,108,110,112,114,116,118,120,122,124,-1,-1,-1,-1,-1,-1,-1,-1,-1,-1,-1,-1,-1,-1,-1,-1,-1,-1,-1,-1,-1,-1,-1,-1,-1,-1,-1,-1,-1,-1,-1,-1,-1,-1,-1,-1,-1,-1,-1,-1,-1,-1,-1,-1,-1,-1,-1,-1,-1,-1,-1,-1,-1,-1,-1,-1,-1,-1,-1,-1,-1,-1],"split_conditions":[-3.5611328E-1,-5.4807886E-2,-1.1843804E-1,-9.732711E-1,-9.162639E-1,2.5834644E-1,8.363605E-1,1.7656475E0,-3.0410733E0,-1.3760451E-2,1.2225296E0,8.3968633E-1,-1.1210015E0,-6.912812E-1,-4.6355918E-2,1.1626657E0,4.296868E-1,1.6411464E0,1.4756542E-1,-4.005757E-1,1.6728649E-1,5.114515E-1,8.45427E-2,7.54539E-1,9.276111E-1,3.0704612E-1,-1.9472028E-1,-1.2095561E-2,5.549666E-3,-7.000379E-2,6.399766E-1,-8.9011294E-1,-4.8443E-1,-3.5014534E-1,2.879061E0,-4.191552E-1,-9.0543E-1,1.458889E0,-3.8439912E-1,-1.4187433E-1,-1.4206761E0,-3.5262993E-1,5.0800157E-1,-8.689179E-1,3.8923362E-1,-1.0099102E0,7.8165394E-1,4.7872663E-2,1.2070724E-1,5.531312E-1,-4.459232E-2,-7.515112E-1,2.3853233E0,2.0479457E-1,1.9088423E-1,1.5640453E-1,1.7104065E-1,6.178981E-1,5.2790236E-1,7.4088377E-1,6.892968E-2,4.9308798E-1,2.930437E-1,1.5188374E-1,-3.0974802E-1,-1.6938585E-1,2.821807E-1,-2.3673138E-1,3.5522974E-1,-4.4325998E-1,3.7558663E-1,-4.0508378E-1,4.9916083E-1,-2.9918152E-1,-6.538639E-2,3.303918E-2,-2.6544347E-1,-1.5372244E-1,2.1513708E-1,4.013681E-2,-2.1888824E-1,1.6924736E-1,-1.6868104E-1,2.2454384E-1,-2.0150074E-1,-7.323994E-5,-2.3441975E-1,-9.605923E-2,1.6076781E-1,-4.568654E-1,6.0235303E-2,3.105291E-1,-5.24065E-1,-1.9018683E-1,-4.0731926E-2,2.467969E-1,-1.325671E-1,-6.25083E-2,1.0404929E-1,2.1877106E-1,-2.3173748E-2,2.563035E-1,-1.806107E-1,-3.3968782E-1,3.0860993E-1,1.6650678E-1,2.251038E-2,7.696295E-2,-8.802235E-2,-9.848491E-2,2.9870072E-1,7.940254E-2,-2.2331183E-1,-9.184355E-2,8.215198E-2,-2.3645413E-1,-4.0272787E-2,-1.5603283E-1,-4.1133952E-1,-2.8340262E-1,1.2859541E-1,1.5177579E-1,-8.865174E-2,-2.2404827E-1,8.432026E-2],"split_indices":[69,2,67,40,29,25,82,21,85,30,49,38,19,9,73,13,79,52,58,48,22,48,17,18,78,52,61,19,99,50,25,7,68,99,81,0,24,22,61,40,55,97,45,92,31,45,60,47,32,65,40,43,46,54,62,6,12,33,23,96,57,1,61,0,0,0,0,0,0,0,0,0,0,0,0,0,0,0,0,0,0,0,0,0,0,0,0,0,0,0,0,0,0,0,0,0,0,0,0,0,0,0,0,0,0,0,0,0,0,0,0,0,0,0,0,0,0,0,0,0,0,0,0,0,0],"split_type":[0,0,0,0,0,0,0,0,0,0,0,0,0,0,0,0,0,0,0,0,0,0,0,0,0,0,0,0,0,0,0,0,0,0,0,0,0,0,0,0,0,0,0,0,0,0,0,0,0,0,0,0,0,0,0,0,0,0,0,0,0,0,0,0,0,0,0,0,0,0,0,0,0,0,0,0,0,0,0,0,0,0,0,0,0,0,0,0,0,0,0,0,0,0,0,0,0,0,0,0,0,0,0,0,0,0,0,0,0,0,0,0,0,0,0,0,0,0,0,0,0,0,0,0,0],"sum_hessian":[1.4988481E6,2.5171302E5,1.2471351E6,7.032256E4,1.8139045E5,7.7521875E5,4.719163E5,1.7732979E4,5.2589582E4,8.013238E4,1.0125808E5,4.0219078E5,3.73028E5,2.9750062E5,1.7441569E5,1.1335177E4,6.3978013E3,1.1918978E3,5.1397684E4,2.7472984E4,5.2659395E4,8.714038E4,1.4117691E4,2.1641123E5,1.8577955E5,1.4933496E4,3.580945E5,5.3113824E4,2.4438681E5,2.5845615E4,1.4857008E5,7.4981284E3,3.837048E3,5.69089E3,7.0691125E2,1.4638303E2,1.0455148E3,3.8622965E4,1.2774718E4,8.24043E3,1.9232555E4,2.2852574E4,2.9806822E4,5.31529E4,3.398749E4,6.3481323E3,7.769559E3,1.9128658E5,2.5124648E4,1.4242656E5,4.3352984E4,4.981373E3,9.952123E3,2.367002E5,1.2139428E5,2.2506996E4,3.0606828E4,1.5294494E5,9.1441875E4,1.5254368E4,1.0591247E4,1.2198114E5,2.6588932E4,2.2852349E3,5.2128936E3,1.2662089E3,2.5708394E3,3.9825146E2,5.2926387E3,5.567298E2,1.5018146E2,4.765038E1,9.9786444E2,3.2284527E4,6.338438E3,7.236361E3,5.5383564E3,2.56844E3,5.67199E3,6.6364595E3,1.2596096E4,1.1733977E4,1.1118597E4,2.6853326E4,2.953496E3,1.8830426E4,3.4322473E4,2.0567826E4,1.3419661E4,9.5412054E2,5.3940117E3,7.41348E3,3.5607938E2,7.5530805E4,1.1575578E5,1.9811996E4,5.312652E3,8.22606E4,6.0165965E4,3.2536873E4,1.081611E4,2.2358914E3,2.7454817E3,9.455943E3,4.9618005E2,1.7665506E5,6.004514E4,7.461187E4,4.6782414E4,5.5468066E3,1.696019E4,1.6337024E4,1.4269804E4,1.1231349E5,4.0631438E4,5.8210457E4,3.3231418E4,8.893826E3,6.360542E3,2.8058706E3,7.7853765E3,1.0601444E5,1.5966699E4,1.5584402E4,1.100453E4],"tree_param":{"num_deleted":"0","num_feature":"100","num_nodes":"125","size_leaf_vector":"0"}},{"base_weights":[-1.7556336E-3,1.2161375E-2,-3.836585E-1,-5.007372E-1,2.1600569E-2,-5.045623E-1,2.3979402E-1,-9.072528E-1,-1.0909446E-1,2.6354766E-1,-9.548543E-4,-9.0549755E-1,-2.7862102E-1,7.199666E-1,-7.0334774E-1,3.6723214E-1,-1.0258944E0,-9.355089E-1,2.5200513E-1,4.5776185E-1,-9.422502E-2,2.1096118E-1,-3.7973072E-2,1.5650407E0,-9.8152184E-1,-2.1423148E-2,-7.978178E-1,-4.806998E-1,8.952143E-1,-1.2106347E0,2.563954E-1,1.4185687E0,-1.2932469E0,-1.2414219E0,-5.0482196E-1,-1.1427398E0,1.75868E-1,-3.697502E-1,8.7093467E-1,5.34503E-1,-5.3697336E-1,3.5059658E-1,-4.6408588E-1,-4.3237898E-1,2.8466272E-1,-1.9174254E-1,1.816872E-2,-4.510068E-1,2.818511E0,-1.1236328E0,-8.886016E-2,-3.4990457E-1,4.717716E-1,-1.1456808E0,3.8791895E-2,1.0725601E0,-8.825051E-1,-1.4628924E0,-3.3715993E-1,9.6033967E-1,-1.4239528E0,-4.2155576E-1,5.545827E-1,1.7589022E-1,-4.405467E-1,-4.0482074E-1,9.553798E-2,-3.5386407E-1,9.646345E-2,-4.2880893E-1,-1.4182855E-1,4.6036565E-1,-3.841015E-1,-6.8911365E-3,-4.1477457E-1,3.5239038E-1,-1.6373646E-1,1.7435096E-1,-2.433152E-1,-3.6467725E-1,6.810451E-2,-2.5084832E-1,1.6472693E-1,3.4546126E-2,-2.0068474E-1,-2.6695967E-1,9.471428E-2,1.2541784E-1,-8.9770155E-3,-1.7205161E-1,-1.740568E-2,-1.266327E-2,8.19673E-2,-4.5856398E-1,1.0585914E0,-4.075341E-1,-1.0166865E-1,-1.5310279E-1,4.2198128E-1,-2.7189097E-1,7.117733E-2,-8.197584E-2,2.6673397E-1,-2.50896E-3,-3.8542956E-1,-3.558627E-1,2.5869983E-1,-4.8679808E-1,3.4889638E-1,7.694292E-2,-4.810213E-1,-4.5797703E-1,-4.081525E-2,