{"learner":{"attributes":{"best_iteration":"99","best_ntree_limit":"100","scikit_learn":"{\"use_label_encoder\": false, \"n_estimators\": 100, \"objective\": \"binary:logistic\", \"max_depth\": null, \"max_leaves\": null, \"max_bin\": null, \"grow_policy\": null, \"learning_rate\": null, \"verbosity\": null, \"booster\": null, \"tree_method\": null, \"gamma\": null, \"min_child_weight\": null, \"max_delta_step\": null, \"subsample\": null, \"sampling_method\": null, \"colsample_bytree\": null, \"colsample_bylevel\": null, \"colsample_bynode\": null, \"reg_alpha\": null, \"reg_lambda\": null, \"scale_pos_weight\": null, \"base_score\": null, \"missing\": NaN, \"num_parallel_tree\": null, \"random_state\": null, \"n_jobs\": -6, \"monotone_constraints\": null, \"interaction_constraints\": null, \"importance_type\": null, \"gpu_id\": null, \"validate_parameters\": null, \"predictor\": null, \"enable_categorical\": false, \"max_cat_to_onehot\": null, \"eval_metric\": null, \"early_stopping_rounds\": null, \"callbacks\": null, \"kwargs\": {\"seed\": 15}, \"classes_\": [0, 1], \"n_classes_\": 2, \"_estimator_type\": \"classifier\"}"},"feature_names":[],"feature_types":[],"gradient_booster":{"model":{"gbtree_model_param":{"num_parallel_tree":"1","num_trees":"100","size_leaf_vector":"0"},"tree_info":[0,0,0,0,0,0,0,0,0,0,0,0,0,0,0,0,0,0,0,0,0,0,0,0,0,0,0,0,0,0,0,0,0,0,0,0,0,0,0,0,0,0,0,0,0,0,0,0,0,0,0,0,0,0,0,0,0,0,0,0,0,0,0,0,0,0,0,0,0,0,0,0,0,0,0,0,0,0,0,0,0,0,0,0,0,0,0,0,0,0,0,0,0,0,0,0,0,0,0,0],"trees":[{"base_weights":[-0E0,8.47202E-1,-9.7528505E-1,1.2068652E0,-4.5987713E-1,-1.2284806E0,2.381353E-1,1.3483697E0,1.0750386E-1,-7.275772E-1,2.1363544E-1,2.093028E-1,-1.5725925E0,7.660036E-1,-6.696947E-1,-1.0691693E0,1.3892757E0,6.5400124E-1,-1.0049523E0,4.6274918E-1,-9.012486E-1,6.006563E-1,-1.2045197E0,-1.693938E-1,1.9589088E0,-1.7412956E0,-8.002342E-1,1.0970148E0,-8.6962724E-1,-1.0162663E0,-8.362812E-2,-2.8733653E-1,-1.6630715E0,1.4873804E0,3.3153185E-1,1.3403745E0,2.9331677E-2,-1.2822366E0,2.2733517E-1,1.3360705E0,-1.2917837E0,-1.0733167E0,-1.0199116E-1,1.032104E0,-9.395394E-1,-1.6101992E0,-2.761623E-1,1.0391523E0,-5.652193E-1,-5.962675E-1,1.9828508E0,-1.1228182E0,-1.8253399E0,-1.6125442E0,8.4216714E-2,-1.8057922E-1,1.3201705E0,-3.0697674E-1,-1.6234589E0,-4.6056485E-1,-1.4852254E0,9.921145E-2,-1.729644E0,-4.5506245E-1,1.3645725E-1,1.2440368E-1,-5.37091E-1,-1.009322E-1,4.6244982E-1,2.4501051E-1,-4.1875914E-1,-4.6683013E-1,5.273834E-1,-1.1927324E-1,4.4277182E-1,-4.2908663E-1,8.10559E-2,3.1940228E-1,-5.996232E-1,4.6730506E-1,-4.5256975E-1,-4.395925E-1,2.216509E-1,-3.660494E-1,-2.3689738E-2,-1.8346038E-1,3.0272064E-1,-5.9962976E-1,3.4748894E-1,-1.5340418E-1,-5.622398E-1,3.7850073E-1,-5.150638E-1,3.4991056E-1,-3.5863185E-1,3.990457E-1,-4.8383543E-1,-2.5226244E-1,1.13966964E-1,5.9546626E-1,-5.5862075E-1,4.2280295E-1,-4.3667486E-1,-5.532882E-1,-1.9772609E-1,-2.7066357E-2,-5.123486E-1,9.478993E-2,-5.618074E-1,2.1354954E-1,-3.150411E-1,-1.8509634E-1,4.3849525E-1,5.6779955E-2,-3.8927814E-1,5.018978E-1,-5.105889E-1,-2.532311E-1,1.7277658E-1,-4.94638E-1,-2.3149106E-1,-4.4015655E-1,7.998048E-2,2.7058825E-1,-5.470174E-1],"categories":[],"categories_nodes":[],"categories_segments":[],"categories_sizes":[],"default_left":[0,0,0,0,0,0,0,0,0,0,0,0,0,0,0,0,0,0,0,0,0,0,0,0,0,0,0,0,0,0,0,0,0,0,0,0,0,0,0,0,0,0,0,0,0,0,0,0,0,0,0,0,0,0,0,0,0,0,0,0,0,0,0,0,0,0,0,0,0,0,0,0,0,0,0,0,0,0,0,0,0,0,0,0,0,0,0,0,0,0,0,0,0,0,0,0,0,0,0,0,0,0,0,0,0,0,0,0,0,0,0,0,0,0,0,0,0,0,0,0,0,0,0,0,0],"id":0,"left_children":[1,3,5,7,9,11,13,15,17,19,21,23,25,27,29,31,33,35,37,39,41,43,45,47,49,51,53,55,57,59,61,63,65,67,69,71,73,75,77,79,81,83,85,87,89,91,93,95,97,-1,99,101,103,105,107,109,111,113,115,117,119,121,123,-1,-1,-1,-1,-1,-1,-1,-1,-1,-1,-1,-1,-1,-1,-1,-1,-1,-1,-1,-1,-1,-1,-1,-1,-1,-1,-1,-1,-1,-1,-1,-1,-1,-1,-1,-1,-1,-1,-1,-1,-1,-1,-1,-1,-1,-1,-1,-1,-1,-1,-1,-1,-1,-1,-1,-1,-1,-1,-1,-1,-1,-1],"loss_changes":[1.6614795E6,5.0587356E5,2.8718825E5,1.3127662E5,4.186666E4,3.8263738E5,7.7334625E4,7.393675E4,5.8506395E4,3.4350305E4,3.624975E4,9.8957125E4,8.130925E4,5.5248402E4,1.205159E4,5.776048E3,7.6291E4,2.7668793E4,1.0832672E4,3.2420363E4,1.9942023E4,3.447978E4,5.3324297E3,5.8734785E4,2.514914E3,2.661975E4,8.0373664E4,2.4196453E4,7.2844883E3,9.715961E3,6.636269E3,4.902712E3,1.8696699E3,6.6408125E4,5.229965E4,3.7191555E4,2.0865324E4,5.9484023E3,1.0857965E4,8.907814E3,2.4788086E3,1.7422531E4,1.454373E4,1.5504793E4,4.542949E3,3.0210742E3,5.7131763E3,2.3378898E4,2.4095719E4,0E0,2.1053906E2,5.1631953E4,9.96575E3,8.458469E3,2.4289945E4,9.794291E3,1.980214E4,4.835618E3,1.902457E3,6.784783E3,2.3588672E3,5.204142E3,5.455078E2,0E0,0E0,0E0,0E0,0E0,0E0,0E0,0E0,0E0,0E0,0E0,0E0,0E0,0E0,0E0,0E0,0E0,0E0,0E0,0E0,0E0,0E0,0E0,0E0,0E0,0E0,0E0,0E0,0E0,0E0,0E0,0E0,0E0,0E0,0E0,0E0,0E0,0E0,0E0,0E0,0E0,0E0,0E0,0E0,0E0,0E0,0E0,0E0,0E0,0E0,0E0,0E0,0E0,0E0,0E0,0E0,0E0,0E0,0E0,0E0,0E0,0E0],"parents":[2147483647,0,0,1,1,2,2,3,3,4,4,5,5,6,6,7,7,8,8,9,9,10,10,11,11,12,12,13,13,14,14,15,15,16,16,17,17,18,18,19,19,20,20,21,21,22,22,23,23,24,24,25,25,26,26,27,27,28,28,29,29,30,30,31,31,32,32,33,33,34,34,35,35,36,36,37,37,38,38,39,39,40,40,41,41,42,42,43,43,44,44,45,45,46,46,47,47,48,48,50,50,51,51,52,52,53,53,54,54,55,55,56,56,57,57,58,58,59,59,60,60,61,61,62,62],"right_children":[2,4,6,8,10,12,14,16,18,20,22,24,26,28,30,32,34,36,38,40,42,44,46,48,50,52,54,56,58,60,62,64,66,68,70,72,74,76,78,80,82,84,86,88,90,92,94,96,98,-1,100,102,104,106,108,110,112,114,116,118,120,122,124,-1,-1,-1,-1,-1,-1,-1,-1,-1,-1,-1,-1,-1,-1,-1,-1,-1,-1,-1,-1,-1,-1,-1,-1,-1,-1,-1,-1,-1,-1,-1,-1,-1,-1,-1,-1,-1,-1,-1,-1,-1,-1,-1,-1,-1,-1,-1,-1,-1,-1,-1,-1,-1,-1,-1,-1,-1,-1,-1,-1,-1,-1],"split_conditions":[1.6083118E0,5.3764176E-2,1E0,2.3179045E-3,8.5834496E-2,4.030084E-1,1.7082658E-1,1.0080826E-2,1.2591484E-1,1.8464984E-2,4.052209E1,1.5299228E-1,1E0,8.4252216E-2,3.6738786E-1,2.01581E1,5.0419386E-2,8.874441E0,9.370086E0,3.021595E0,1E0,8.171813E-2,6.30886E-2,8.867978E-2,5.028604E-2,5.660659E-4,1.2346713E1,4.0806454E-2,1.5719954E-2,1.1531803E-1,2.2957675E-1,1.8934925E-1,3.4238618E-2,3.3822544E-2,1.2624577E-1,1.8645576E1,7.7743546E1,1.7078675E-1,1.5558447E-1,8.203494E-4,3.778363E-1,1E0,9.366473E-3,1.0365598E-1,3.5478182E-2,2.0678395E-2,1.3305592E-2,7.5879245E0,1E0,-5.962675E-1,1.6409552E-2,1.1320523E-1,3.7717216E1,1.3136908E-2,7.0131734E-2,1.1504253E-1,7.763877E0,1.3546501E-1,6.1833028E-2,1.0690306E-1,3.4190643E-1,1.2635486E-1,4.033396E-2,-4.5506245E-1,1.3645725E-1,1.2440368E-1,-5.37091E-1,-1.009322E-1,4.6244982E-1,2.4501051E-1,-4.1875914E-1,-4.6683013E-1,5.273834E-1,-1.1927324E-1,4.4277182E-1,-4.2908663E-1,8.10559E-2,3.1940228E-1,-5.996232E-1,4.6730506E-1,-4.5256975E-1,-4.395925E-1,2.216509E-1,-3.660494E-1,-2.3689738E-2,-1.8346038E-1,3.0272064E-1,-5.9962976E-1,3.4748894E-1,-1.5340418E-1,-5.622398E-1,3.7850073E-1,-5.150638E-1,3.4991056E-1,-3.5863185E-1,3.990457E-1,-4.8383543E-1,-2.5226244E-1,1.13966964E-1,5.9546626E-1,-5.5862075E-1,4.2280295E-1,-4.3667486E-1,-5.532882E-1,-1.9772609E-1,-2.7066357E-2,-5.123486E-1,9.478993E-2,-5.618074E-1,2.1354954E-1,-3.150411E-1,-1.8509634E-1,4.3849525E-1,5.6779955E-2,-3.8927814E-1,5.018978E-1,-5.105889E-1,-2.532311E-1,1.7277658E-1,-4.94638E-1,-2.3149106E-1,-4.4015655E-1,7.998048E-2,2.7058825E-1,-5.470174E-1],"split_indices":[6,55,72,52,20,4,25,16,17,27,8,12,80,20,40,10,48,1,1,0,80,48,48,33,21,52,10,32,50,39,34,24,48,48,42,7,43,38,38,54,4,79,52,22,16,29,49,46,80,0,5,17,3,49,27,23,7,25,38,23,40,9,55,0,0,0,0,0,0,0,0,0,0,0,0,0,0,0,0,0,0,0,0,0,0,0,0,0,0,0,0,0,0,0,0,0,0,0,0,0,0,0,0,0,0,0,0,0,0,0,0,0,0,0,0,0,0,0,0,0,0,0,0,0,0],"split_type":[0,0,0,0,0,0,0,0,0,0,0,0,0,0,0,0,0,0,0,0,0,0,0,0,0,0,0,0,0,0,0,0,0,0,0,0,0,0,0,0,0,0,0,0,0,0,0,0,0,0,0,0,0,0,0,0,0,0,0,0,0,0,0,0,0,0,0,0,0,0,0,0,0,0,0,0,0,0,0,0,0,0,0,0,0,0,0,0,0,0,0,0,0,0,0,0,0,0,0,0,0,0,0,0,0,0,0,0,0,0,0,0,0,0,0,0,0,0,0,0,0,0,0,0,0],"sum_hessian":[2.010833E6,1.0760765E6,9.347565E5,8.43872E5,2.322045E5,7.7338075E5,1.6137575E5,7.4763925E5,9.623275E4,1.6616075E5,6.604375E4,1.49352E5,6.2402875E5,1.0204225E5,5.93335E4,1.24395E4,7.3519975E5,6.453175E4,3.1701E4,2.115625E4,1.450045E5,5.188475E4,1.4159E4,1.22778E5,2.6574E4,5.1215875E5,1.1187E5,8.48675E4,1.717475E4,3.72845E4,2.2049E4,5.37075E3,7.06875E3,6.72798E5,6.240175E4,3.074675E4,3.3785E4,2.5878E4,5.823E3,1.41255E4,7.03075E3,1.19317E5,2.56875E4,4.053125E4,1.13535E4,9.85275E3,4.30625E3,3.0291E4,9.2487E4,1.5975E2,2.641425E4,6.12725E4,4.5088625E5,5.831275E4,5.355725E4,1.26195E4,7.2248E4,9.83525E3,7.3395E3,1.7065E4,2.02195E4,1.98455E4,2.2035E3,2.02125E3,3.3495E3,4.0775E2,6.661E3,1.938875E4,6.5340925E5,4.871875E4,1.3683E4,3.87375E3,2.6873E4,2.6087E4,7.698E3,2.3625E4,2.253E3,4.23175E3,1.59125E3,1.3105E4,1.0205E3,6.4775E3,5.5325E2,1.0396325E5,1.535375E4,1.761125E4,8.07625E3,1.6195E3,3.891175E4,7.78725E3,3.56625E3,3.525E2,9.50025E3,1.676E3,2.63025E3,2.729625E4,2.99475E3,7.1603E4,2.0884E4,2.640075E4,1.35E1,7.1165E3,5.4156E4,4.43675E5,7.21125E3,3.435E3,5.487775E4,4.7887E4,5.67025E3,6.228E3,6.3915E3,4.91725E3,6.733075E4,6.55325E3,3.282E3,1.7025E2,7.16925E3,1.2456E4,4.609E3,1.6448E4,3.7715E3,1.91525E3,1.793025E4,7.55E1,2.128E3],"tree_param":{"num_deleted":"0","num_feature":"87","num_nodes":"125","size_leaf_vector":"0"}},{"base_weights":[-8.2166283E-4,6.286289E-1,-7.2540754E-1,8.938012E-1,-3.3140022E-1,-9.163832E-1,1.7271012E-1,9.712173E-1,-6.5216625E-1,8.848746E-1,-4.2815265E-1,-1.0839766E-1,-1.2773011E0,5.535496E-1,-5.085483E-1,-2.0869988E-1,1.0549852E0,5.114208E-1,-1.3675891E0,-1.7423322E0,1.4762049E0,-6.197889E-1,3.385881E-1,1.0948408E0,-3.965208E-1,-1.43084E0,-8.1463E-1,8.726352E-1,-3.4126633E-1,-5.999556E-1,9.466955E-1,-1.1442143E0,1.2415555E0,1.1112978E0,-1.9795968E-1,-3.7818328E-1,1.2247804E0,7.112071E-1,-1.446812E0,-1.6794562E0,-2.042394E0,-1.791069E0,1.6021484E0,-7.597607E-1,3.450764E-1,-8.205889E-1,6.3099474E-1,-1.1108971E0,1.468608E0,-1.1218361E0,1.6264254E-1,-1.4405515E0,-1.4349876E-1,-1.1569166E0,2.088179E-1,5.011556E-1,1.4197387E0,4.4714534E-1,-8.7502503E-1,-4.3489832E-1,-1.3013402E0,-1.4305773E0,1.3737047E0,3.9297727E-1,-4.4804367E-1,4.3619037E-1,-4.0938133E-1,2.7204677E-1,4.309656E-1,-3.9372945E-1,1.0976728E-1,2.221606E-1,-3.3705318E-1,-7.227408E-1,4.2229155E-1,-6.7808497E-1,4.2791244E-1,-2.0003015E-1,-4.6688065E-1,-6.419122E-1,-4.9970588E-1,-4.958288E-1,-6.303819E-1,-5.003012E-1,-6.6347873E-1,-5.8307946E-1,4.9366698E-1,-2.6595274E-1,2.2286402E-2,-4.640239E-1,1.7477201E-1,-4.31702E-1,1.2578405E-1,-9.322459E-2,2.7069762E-1,-4.6600533E-1,3.6680827E-1,4.6303728E-1,-3.4134442E-1,-4.1637436E-1,-1.8207106E-1,2.166052E-1,-9.399424E-2,-4.3301737E-1,6.301444E-1,-4.01598E-1,3.627217E-1,7.280514E-3,-3.8173148E-1,4.144521E-1,-1.0812246E-1,2.2299825E-1,-1.7877096E-1,-6.3528985E-2,4.4822934E-1,2.245006E-1,-2.894417E-1,4.778699E-2,-3.2824224E-1,-2.909198E-2,-2.5054064E-1,1.9380027E-1,-4.151725E-1,-4.8459002E-1,5.1449525E-1,-6.1063874E-1,4.4557866E-1],"categories":[],"categories_nodes":[],"categories_segments":[],"categories_sizes":[],"default_left":[0,0,0,0,0,0,0,0,0,0,0,0,0,0,0,0,0,0,0,0,0,0,0,0,0,0,0,0,0,0,0,0,0,0,0,0,0,0,0,0,0,0,0,0,0,0,0,0,0,0,0,0,0,0,0,0,0,0,0,0,0,0,0,0,0,0,0,0,0,0,0,0,0,0,0,0,0,0,0,0,0,0,0,0,0,0,0,0,0,0,0,0,0,0,0,0,0,0,0,0,0,0,0,0,0,0,0,0,0,0,0,0,0,0,0,0,0,0,0,0,0,0,0,0,0,0,0],"id":1,"left_children":[1,3,5,7,9,11,13,15,17,19,21,23,25,27,29,31,33,35,37,39,41,43,45,47,49,51,53,55,57,59,61,63,65,67,69,71,73,75,77,79,81,83,85,87,89,91,93,95,97,99,101,103,105,107,109,111,113,115,117,119,121,123,125,-1,-1,-1,-1,-1,-1,-1,-1,-1,-1,-1,-1,-1,-1,-1,-1,-1,-1,-1,-1,-1,-1,-1,-1,-1,-1,-1,-1,-1,-1,-1,-1,-1,-1,-1,-1,-1,-1,-1,-1,-1,-1,-1,-1,-1,-1,-1,-1,-1,-1,-1,-1,-1,-1,-1,-1,-1,-1,-1,-1,-1,-1,-1,-1],"loss_changes":[8.7340506E5,2.6087766E5,1.5268884E5,9.610256E4,2.6100312E4,2.1407962E5,4.050117E4,7.5580625E4,3.1877824E4,2.5392824E4,3.0188E4,7.858285E4,3.6046688E4,2.8589438E4,7.446324E3,6.877489E4,5.0377125E4,9.253369E3,3.906336E3,5.3229492E1,5.4926836E3,2.219886E4,1.3925361E4,3.6105066E4,7.417075E4,4.763125E3,4.4293953E4,1.500016E4,1.1076668E4,6.0966504E3,3.3604846E3,2.6414055E4,1.1005699E4,4.5441312E4,1.929878E4,5.411822E3,5.3804844E3,1.8546426E3,1.949332E3,1.2207031E1,8.356689E0,2.2032227E1,1.9804727E3,1.517482E4,9.3574E3,6.3462964E3,8.383289E3,6.554145E3,7.30725E3,1.0906992E4,2.7494355E4,3.8055E3,4.6149624E3,1.2929109E4,2.1154346E4,1.1680147E4,3.6214297E3,4.5197026E3,3.5572832E3,5.7663945E3,1.6140176E3,2.9578406E2,1.0699004E3,0E0,0E0,0E0,0E0,0E0,0E0,0E0,0E0,0E0,0E0,0E0,0E0,0E0,0E0,0E0,0E0,0E0,0E0,0E0,0E0,0E0,0E0,0E0,0E0,0E0,0E0,0E0,0E0,0E0,0E0,0E0,0E0,0E0,0E0,0E0,0E0,0E0,0E0,0E0,0E0,0E0,0E0,0E0,0E0,0E0,0E0,0E0,0E0,0E0,0E0,0E0,0E0,0E0,0E0,0E0,0E0,0E0,0E0,0E0,0E0,0E0,0E0,0E0,0E0],"parents":[2147483647,0,0,1,1,2,2,3,3,4,4,5,5,6,6,7,7,8,8,9,9,10,10,11,11,12,12,13,13,14,14,15,15,16,16,17,17,18,18,19,19,20,20,21,21,22,22,23,23,24,24,25,25,26,26,27,27,28,28,29,29,30,30,31,31,32,32,33,33,34,34,35,35,36,36,37,37,38,38,39,39,40,40,41,41,42,42,43,43,44,44,45,45,46,46,47,47,48,48,49,49,50,50,51,51,52,52,53,53,54,54,55,55,56,56,57,57,58,58,59,59,60,60,61,61,62,62],"right_children":[2,4,6,8,10,12,14,16,18,20,22,24,26,28,30,32,34,36,38,40,42,44,46,48,50,52,54,56,58,60,62,64,66,68,70,72,74,76,78,80,82,84,86,88,90,92,94,96,98,100,102,104,106,108,110,112,114,116,118,120,122,124,126,-1,-1,-1,-1,-1,-1,-1,-1,-1,-1,-1,-1,-1,-1,-1,-1,-1,-1,-1,-1,-1,-1,-1,-1,-1,-1,-1,-1,-1,-1,-1,-1,-1,-1,-1,-1,-1,-1,-1,-1,-1,-1,-1,-1,-1,-1,-1,-1,-1,-1,-1,-1,-1,-1,-1,-1,-1,-1,-1,-1,-1,-1,-1,-1],"split_conditions":[1.3251555E0,5.379826E-2,1E0,3.257307E0,1.48826E-1,1.6766993E-2,1.7256795E-1,5.202059E0,2.6886317E-1,1.5157744E1,1E0,9.7239606E-2,5.286993E0,7.063325E-2,1.8793952E-1,1E0,2.233865E-1,7.3548895E-3,1.610673E-2,3.1595697E0,1.4540176E-1,2.0582134E-1,9.640396E0,2.4868066E0,1.4271799E-1,1E0,1E0,7.81617E-4,7.58122E-2,2.202253E-1,2.8893769E-2,6.6909015E-2,2.1740109E-1,1.9653228E-1,3.7451065E1,6.5219246E-2,1.2402929E-1,7.86669E-4,6.347709E0,4.6603274E-2,1.03532866E-1,3.0640652E1,2.293401E0,1E0,6.6819496E0,1.6696766E-1,1.8611933E-1,9.8914996E-2,2.3936634E1,8.727105E0,8.354759E-3,1E0,2.568317E1,1.0871869E1,5.5048246E0,1.0440209E-1,3.4442686E-2,8.4204445E0,6.698769E-2,8.677792E-4,1.637195E-2,1.9499542E-1,1.7006336E-1,3.9297727E-1,-4.4804367E-1,4.3619037E-1,-4.0938133E-1,2.7204677E-1,4.309656E-1,-3.9372945E-1,1.0976728E-1,2.221606E-1,-3.3705318E-1,-7.227408E-1,4.2229155E-1,-6.7808497E-1,4.2791244E-1,-2.0003015E-1,-4.6688065E-1,-6.419122E-1,-4.9970588E-1,-4.958288E-1,-6.303819E-1,-5.003012E-1,-6.6347873E-1,-5.8307946E-1,4.9366698E-1,-2.6595274E-1,2.2286402E-2,-4.640239E-1,1.7477201E-1,-4.31702E-1,1.2578405E-1,-9.322459E-2,2.7069762E-1,-4.6600533E-1,3.6680827E-1,4.6303728E-1,-3.4134442E-1,-4.1637436E-1,-1.8207106E-1,2.166052E-1,-9.399424E-2,-4.3301737E-1,6.301444E-1,-4.01598E-1,3.627217E-1,7.280514E-3,-3.8173148E-1,4.144521E-1,-1.0812246E-1,2.2299825E-1,-1.7877096E-1,-6.3528985E-2,4.4822934E-1,2.245006E-1,-2.894417E-1,4.778699E-2,-3.2824224E-1,-2.909198E-2,-2.5054064E-1,1.9380027E-1,-4.151725E-1,-4.8459002E-1,5.1449525E-1,-6.1063874E-1,4.4557866E-1],"split_indices":[6,55,72,0,18,5,25,1,24,7,80,19,1,20,38,72,19,5,27,1,25,38,47,1,22,78,80,65,38,34,29,39,18,35,3,14,39,58,9,32,22,3,0,79,46,38,42,13,3,1,31,86,8,6,1,38,16,47,26,51,32,37,19,0,0,0,0,0,0,0,0,0,0,0,0,0,0,0,0,0,0,0,0,0,0,0,0,0,0,0,0,0,0,0,0,0,0,0,0,0,0,0,0,0,0,0,0,0,0,0,0,0,0,0,0,0,0,0,0,0,0,0,0,0,0,0,0],"split_type":[0,0,0,0,0,0,0,0,0,0,0,0,0,0,0,0,0,0,0,0,0,0,0,0,0,0,0,0,0,0,0,0,0,0,0,0,0,0,0,0,0,0,0,0,0,0,0,0,0,0,0,0,0,0,0,0,0,0,0,0,0,0,0,0,0,0,0,0,0,0,0,0,0,0,0,0,0,0,0,0,0,0,0,0,0,0,0,0,0,0,0,0,0,0,0,0,0,0,0,0,0,0,0,0,0,0,0,0,0,0,0,0,0,0,0,0,0,0,0,0,0,0,0,0,0,0,0],"sum_hessian":[1.9149779E6,1.0247627E6,8.902152E5,8.029717E5,2.2179097E5,7.341134E5,1.5610181E5,7.646799E5,3.829183E4,1.6342409E4,2.0544856E5,2.266698E5,5.074436E5,1.0012806E5,5.597375E4,5.068943E4,7.1399044E5,1.4579516E4,2.3712314E4,3.0021746E3,1.3340234E4,1.6436739E5,4.1081164E4,4.379086E4,1.8287894E5,3.81004E5,1.2643958E5,7.380846E4,2.63196E4,5.2666246E4,3.3075037E3,3.0813084E4,1.9876346E4,6.83281E5,3.070943E4,6.4884644E3,8.0910513E3,8.702091E2,2.2842105E4,2.487526E3,5.146486E2,4.9464902E2,1.2845586E4,1.4354388E5,2.0823516E4,8.275016E3,3.280615E4,6.3449585E3,3.7445902E4,7.961101E4,1.0326794E5,3.7815116E5,2.8528376E3,9.475061E4,3.1688963E4,4.396109E4,2.9847371E4,1.0625258E4,1.5694342E4,4.263463E4,1.0031616E4,5.032771E2,2.8042266E3,3.838535E3,2.6974549E4,1.837884E4,1.4975062E3,4.1953722E5,2.6374378E5,1.031672E4,2.0392709E4,2.5943752E3,3.894089E3,3.8705127E2,7.704E3,1.6839108E2,7.01818E2,2.811684E3,2.003042E4,6.777594E1,2.41975E3,7.137777E1,4.4327084E2,3.862689E2,1.08380135E2,1.5482843E2,1.2690757E4,1.246075E5,1.8936379E4,2.3219683E3,1.8501549E4,5.5210728E3,2.7539426E3,7.337782E3,2.5468365E4,5.333962E3,1.0109966E3,3.640097E4,1.044931E3,5.248765E4,2.7123357E4,4.747351E4,5.5794426E4,3.7784875E5,3.0241342E2,1.5145546E3,1.338283E3,8.441256E3,8.630936E4,1.0354909E4,2.1334053E4,3.6011914E4,7.9491787E3,1.3009763E3,2.8546396E4,8.757603E3,1.8676558E3,2.7436196E3,1.2950722E4,2.3117492E4,1.9517139E4,4.0776578E2,9.623851E3,4.75821E2,2.7456068E1,8.830807E1,2.7159185E3],"tree_param":{"num_deleted":"0","num_feature":"87","num_nodes":"127","size_leaf_vector":"0"}},{"base_weights":[-1.952299E-3,5.1367533E-1,-5.508462E-1,7.8333485E-1,-1.3218705E-1,-7.2108835E-1,1.916176E-1,8.2679665E-1,-1.1989297E0,-3.623573E-1,8.684352E-1,-5.6862716E-2,-1.0711325E0,4.3660346E-1,-4.0715432E-1,-1.424921E-1,9.156022E-1,-3.5008654E-1,-1.501883E0,6.8734336E-1,-5.559364E-1,1.1419617E0,-4.6157685E-1,8.5581654E-1,-3.0219787E-1,-1.2180017E0,-6.76984E-1,-4.1704205E-1,6.4648706E-1,-4.93854E-1,1.3453683E0,-6.49298E-1,9.8648465E-1,9.554169E-1,-7.499301E-1,-2.391646E0,2.4474248E-1,-1.5476396E0,2.298073E0,1.025766E0,-9.2352927E-1,-8.788739E-1,-1.337163E-1,1.2616212E0,7.8098334E-2,4.3220466E-1,-1.2875848E0,-1.081395E0,1.1794711E0,-8.793146E-1,1.22664645E-1,-1.276983E0,-1.0200566E0,-9.687117E-1,1.1864899E-1,1.8962562E-1,-1.0155139E0,7.3477596E-1,-1.0338264E0,4.1476756E-1,-6.11978E-1,-1.9594303E0,1.4303669E0,2.5109985E-1,-2.4162127E-1,-5.59568E-1,3.438313E-1,-9.97348E-2,3.028972E-1,-3.6580744E-1,5.557171E-1,-8.513976E-1,-5.644992E-1,-5.6677383E-1,2.4554409E-1,-5.2998155E-1,-2.5032374E-1,8.306153E-1,-5.8018786E-1,3.3403614E-1,-5.3776866E-1,-1.1895487E-1,-5.987496E-1,-3.935746E-1,-1.5812567E-1,4.1434056E-1,-7.895071E-2,-6.9335264E-1,3.8705024E-1,-1.9627447E-1,3.3883685E-1,-5.3275806E-1,2.996462E-1,6.419222E-1,-4.459343E-1,-4.229582E-1,2.263431E-1,3.6788183E-1,-4.313241E-1,-3.5181454E-1,-1.1805294E-1,1.20071225E-1,-1.5421267E-1,3.220695E-2,-3.8600686E-1,-2.3452428E-1,-3.836191E-1,7.892603E-1,-2.9684228E-1,-2.699485E-1,2.0026155E-1,-2.0729241E-1,2.069153E-1,6.0811676E-2,-3.51682E-1,1.0149134E-1,3.143877E-1,-3.456542E-1,4.5209226E-1,-3.5959408E-1,2.5687912E-1,-1.975596E-1,5.7013744E-1,-7.546448E-1,-4.8164836E-1,-4.980802E-1,4.472481E-1],"categories":[],"categories_nodes":[],"categories_segments":[],"categories_sizes":[],"default_left":[0,0,0,0,0,0,0,0,0,0,0,0,0,0,0,0,0,0,0,0,0,0,0,0,0,0,0,0,0,0,0,0,0,0,0,0,0,0,0,0,0,0,0,0,0,0,0,0,0,0,0,0,0,0,0,0,0,0,0,0,0,0,0,0,0,0,0,0,0,0,0,0,0,0,0,0,0,0,0,0,0,0,0,0,0,0,0,0,0,0,0,0,0,0,0,0,0,0,0,0,0,0,0,0,0,0,0,0,0,0,0,0,0,0,0,0,0,0,0,0,0,0,0,0,0,0,0],"id":2,"left_children":[1,3,5,7,9,11,13,15,17,19,21,23,25,27,29,31,33,35,37,39,41,43,45,47,49,51,53,55,57,59,61,63,65,67,69,71,73,75,77,79,81,83,85,87,89,91,93,95,97,99,101,103,105,107,109,111,113,115,117,119,121,123,125,-1,-1,-1,-1,-1,-1,-1,-1,-1,-1,-1,-1,-1,-1,-1,-1,-1,-1,-1,-1,-1,-1,-1,-1,-1,-1,-1,-1,-1,-1,-1,-1,-1,-1,-1,-1,-1,-1,-1,-1,-1,-1,-1,-1,-1,-1,-1,-1,-1,-1,-1,-1,-1,-1,-1,-1,-1,-1,-1,-1,-1,-1,-1,-1],"loss_changes":[4.9508353E5,1.5708828E5,1.0709731E5,5.4819688E4,6.1186805E4,1.6025753E5,2.318354E4,5.359628E4,3.5102441E3,4.3888492E4,1.8074688E4,5.326372E4,2.6128812E4,2.009469E4,6.973075E3,2.9901936E4,3.7824594E4,4.362842E3,1.752877E3,1.8334172E4,2.4864293E4,5.245742E3,6.2576875E3,3.1599176E4,4.5969566E4,3.8379375E3,2.8442105E4,8.0364727E3,1.3355824E4,4.6933545E3,6.1051196E2,8.369329E3,7.372384E3,3.8914188E4,1.6270785E4,1.7916797E2,3.408426E3,1.5511602E3,2.4458368E2,6.8701504E3,3.298935E3,1.573993E4,1.5498477E4,3.7808633E3,3.2094531E3,5.0956577E3,3.0054468E3,4.351872E3,5.291164E3,1.133059E4,1.9084764E4,3.4044062E3,4.6528906E3,6.703633E3,1.8379588E4,4.841408E3,2.128079E3,1.0619605E4,1.3532476E3,3.5847817E3,4.527256E3,6.7206726E0,3.9670166E2,0E0,0E0,0E0,0E0,0E0,0E0,0E0,0E0,0E0,0E0,0E0,0E0,0E0,0E0,0E0,0E0,0E0,0E0,0E0,0E0,0E0,0E0,0E0,0E0,0E0,0E0,0E0,0E0,0E0,0E0,0E0,0E0,0E0,0E0,0E0,0E0,0E0,0E0,0E0,0E0,0E0,0E0,0E0,0E0,0E0,0E0,0E0,0E0,0E0,0E0,0E0,0E0,0E0,0E0,0E0,0E0,0E0,0E0,0E0,0E0,0E0,0E0,0E0,0E0],"parents":[2147483647,0,0,1,1,2,2,3,3,4,4,5,5,6,6,7,7,8,8,9,9,10,10,11,11,12,12,13,13,14,14,15,15,16,16,17,17,18,18,19,19,20,20,21,21,22,22,23,23,24,24,25,25,26,26,27,27,28,28,29,29,30,30,31,31,32,32,33,33,34,34,35,35,36,36,37,37,38,38,39,39,40,40,41,41,42,42,43,43,44,44,45,45,46,46,47,47,48,48,49,49,50,50,51,51,52,52,53,53,54,54,55,55,56,56,57,57,58,58,59,59,60,60,61,61,62,62],"right_children":[2,4,6,8,10,12,14,16,18,20,22,24,26,28,30,32,34,36,38,40,42,44,46,48,50,52,54,56,58,60,62,64,66,68,70,72,74,76,78,80,82,84,86,88,90,92,94,96,98,100,102,104,106,108,110,112,114,116,118,120,122,124,126,-1,-1,-1,-1,-1,-1,-1,-1,-1,-1,-1,-1,-1,-1,-1,-1,-1,-1,-1,-1,-1,-1,-1,-1,-1,-1,-1,-1,-1,-1,-1,-1,-1,-1,-1,-1,-1,-1,-1,-1,-1,-1,-1,-1,-1,-1,-1,-1,-1,-1,-1,-1,-1,-1,-1,-1,-1,-1,-1,-1,-1,-1,-1,-1],"split_conditions":[6.36265E-1,1.3119055E-1,1E0,2.6095805E-1,1E0,1.8509697E-2,1.844501E-1,1.753093E-1,1.6324494E-2,1.8454043E-2,1.3539284E-1,1.12741634E-1,3.1415442E1,2.2043911E1,2.2221138E-1,7.521683E1,2.238432E-1,1.9977465E-1,1.7019512E1,1.4377856E-1,6.0459167E-2,4.814597E-2,3.5447383E0,2.5811888E1,1.4493051E-1,1.2007526E1,1E0,1.1587652E-3,3.396913E1,1.686574E-1,6.1158232E-2,3.552399E-3,2.1652946E-2,2.2921248E-1,1.768067E-1,3.254117E0,3.696469E1,6.0144834E-2,1.9359113E-1,8.7115884E-2,9.899011E-2,7.3551445E1,7.4205294E-2,1.5739442E1,8.109172E0,8.890769E0,1.2362825E1,9.823906E-2,1.6639242E-1,8.563183E0,1.1044887E1,7.4619246E-3,4.116766E-1,-1.4368858E1,1.869696E-1,2.1034567E0,4.619594E-2,8.700733E-4,6.860855E-2,6.976009E-2,1.4853531E-1,6.0492215E0,1.0331737E1,2.5109985E-1,-2.4162127E-1,-5.59568E-1,3.438313E-1,-9.97348E-2,3.028972E-1,-3.6580744E-1,5.557171E-1,-8.513976E-1,-5.644992E-1,-5.6677383E-1,2.4554409E-1,-5.2998155E-1,-2.5032374E-1,8.306153E-1,-5.8018786E-1,3.3403614E-1,-5.3776866E-1,-1.1895487E-1,-5.987496E-1,-3.935746E-1,-1.5812567E-1,4.1434056E-1,-7.895071E-2,-6.9335264E-1,3.8705024E-1,-1.9627447E-1,3.3883685E-1,-5.3275806E-1,2.996462E-1,6.419222E-1,-4.459343E-1,-4.229582E-1,2.263431E-1,3.6788183E-1,-4.313241E-1,-3.5181454E-1,-1.1805294E-1,1.20071225E-1,-1.5421267E-1,3.220695E-2,-3.8600686E-1,-2.3452428E-1,-3.836191E-1,7.892603E-1,-2.9684228E-1,-2.699485E-1,2.0026155E-1,-2.0729241E-1,2.069153E-1,6.0811676E-2,-3.51682E-1,1.0149134E-1,3.143877E-1,-3.456542E-1,4.5209226E-1,-3.5959408E-1,2.5687912E-1,-1.975596E-1,5.7013744E-1,-7.546448E-1,-4.8164836E-1,-4.980802E-1,4.472481E-1],"split_indices":[44,42,72,25,79,5,25,18,29,27,17,19,3,8,38,43,19,19,9,17,55,48,9,8,22,7,80,52,3,18,48,50,27,9,39,0,8,55,41,36,37,43,21,10,46,2,10,13,17,1,9,49,24,9,42,2,42,53,49,48,28,2,9,0,0,0,0,0,0,0,0,0,0,0,0,0,0,0,0,0,0,0,0,0,0,0,0,0,0,0,0,0,0,0,0,0,0,0,0,0,0,0,0,0,0,0,0,0,0,0,0,0,0,0,0,0,0,0,0,0,0,0,0,0,0,0,0],"split_type":[0,0,0,0,0,0,0,0,0,0,0,0,0,0,0,0,0,0,0,0,0,0,0,0,0,0,0,0,0,0,0,0,0,0,0,0,0,0,0,0,0,0,0,0,0,0,0,0,0,0,0,0,0,0,0,0,0,0,0,0,0,0,0,0,0,0,0,0,0,0,0,0,0,0,0,0,0,0,0,0,0,0,0,0,0,0,0,0,0,0,0,0,0,0,0,0,0,0,0,0,0,0,0,0,0,0,0,0,0,0,0,0,0,0,0,0,0,0,0,0,0,0,0,0,0,0,0],"sum_hessian":[1.749256E6,9.019601E5,8.472958E5,6.36295E5,2.6566512E5,6.892543E5,1.5804152E5,6.226439E5,1.3651095E4,2.1598367E5,4.9681465E4,2.3787542E5,4.513789E5,1.121542E5,4.588731E4,5.2258266E4,5.703856E5,3.5911714E3,1.0059924E4,3.3628336E4,1.8235534E5,4.1207074E4,8.474389E3,5.0395395E4,1.8748003E5,3.2884225E5,1.2253667E5,2.2133031E4,9.002118E4,4.3724895E4,2.1624111E3,3.6067656E4,1.6190609E4,5.5706925E5,1.3316368E4,8.095681E2,2.7816033E3,9.940815E3,1.19107994E2,2.7790328E4,5.83801E3,1.03325305E5,7.903003E4,3.7040688E4,4.1663877E3,4.0704438E3,4.4039453E3,7.214023E3,4.318137E4,7.9495445E4,1.07984586E5,2.5334739E5,7.549485E4,8.966119E4,3.2875484E4,1.0991594E4,1.1141437E4,8.5527836E4,4.493337E3,5.0301304E3,3.8694766E4,5.366914E1,2.108742E3,3.4277207E3,3.2639934E4,8.576388E2,1.5332971E4,2.2513414E4,5.345558E5,1.1281796E4,2.034572E3,4.2928506E2,3.8028308E2,5.889057E2,2.1926975E3,7.604658E3,2.3361575E3,1.0749882E2,1.1609177E1,2.6952354E4,8.3797485E2,3.915163E3,1.9228466E3,4.6312812E4,5.701249E4,6.2211123E3,7.280892E4,2.929713E2,3.6747715E4,2.4559905E3,1.7103969E3,8.3078723E2,3.2396565E3,2.4098024E2,4.162965E3,6.119401E3,1.0946223E3,4.242328E4,7.580891E2,4.9561496E4,2.9933945E4,7.520102E4,3.2783562E4,1.7639381E3,2.5158345E5,3.9296273E4,3.619858E4,5.134826E2,8.91477E4,1.1512722E4,2.1362764E4,3.981059E3,7.0105347E3,1.2701859E3,9.871251E3,3.774586E4,4.778198E4,4.293869E3,1.9946808E2,1.0803516E3,3.9497788E3,3.7991543E4,7.032228E2,1.8499014E1,3.5170124E1,3.995277E1,2.068789E3],"tree_param":{"num_deleted":"0","num_feature":"87","num_nodes":"127","size_leaf_vector":"0"}},{"base_weights":[-2.9433707E-3,4.0049195E-1,-4.601241E-1,8.130324E-1,1.20410495E-1,-8.200583E-1,-2.1077725E-1,-2.6399213E-1,9.0182805E-1,-1.035412E-1,5.907757E-1,-1.0168786E0,-1.0928648E-2,-6.898597E-1,-6.6945165E-2,-1.1052142E0,1.128068E0,-2.0894568E0,9.282057E-1,-3.0244154E-1,4.4947124E-1,-3.4279996E-1,8.1951994E-1,9.0220225E-1,-1.079902E0,2.405778E-1,-5.721501E-1,-7.7128667E-1,8.205933E-1,1.2816077E-1,-4.711676E-1,8.487338E-1,-1.2219747E0,-2.124737E0,1.2430071E0,-2.6608236E0,9.419482E-1,-8.2204217E-1,9.6841204E-1,8.397022E-1,-4.0360406E-1,-4.2888013E-1,7.486714E-1,-1.243004E0,4.755969E-1,-1.5089157E-1,9.202368E-1,1.1705608E0,-1.1324459E0,-1.1025983E0,1.9265972E0,4.5916164E-1,-8.391509E-1,-8.2875556E-1,1.9544953E-1,-8.4856415E-1,4.0653148E-1,-1.3116763E0,1.547854E0,-1.5350923E-1,3.7439457E-1,6.4684606E-1,-6.2784857E-1,3.3035997E-1,-8.938969E-1,-4.376653E-2,-4.363759E-1,-7.052423E-1,1.2081374E-1,1.0988863E0,3.6202878E-1,-1.0573207E0,-4.598919E-1,-1.1451987E0,3.9551333E-1,-4.6132216E-1,3.2836673E-1,3.031054E-1,-7.597602E-2,-5.016882E-1,3.0370885E-1,8.263834E-2,-1.6424568E-1,-2.069413E-1,3.089532E-1,2.5668374E-1,-3.5152E-1,-6.79903E-2,-5.5554354E-1,-5.4043907E-1,2.53495E-1,-3.1052846E-1,2.7117237E-1,2.877128E-1,-4.3863052E-1,-4.4132486E-1,3.7922597E-1,-4.4484156E-1,2.3897602E-1,1.3082794E-2,-3.3614418E-1,1.0624396E-1,7.8040224E-1,-1.4696206E-1,2.2198029E-1,-3.3671427E-1,1.7129113E-1,-1.0624961E-1,-3.6869606E-1,1.8700619E-1,-1.9362755E-1,-2.669029E-1,2.4089113E-1,-4.3173048E-1,2.7692604E-1,-4.7711968E-1,-1.4542808E-1,5.160096E-1,-4.376894E-1,5.396908E-2,-1.8853058E-1,1.4968577E-1,-3.276718E-1,3.9785105E-1,-1.5756227E-2,-2.465481E-1,1.7171822E-2],"categories":[],"categories_nodes":[],"categories_segments":[],"categories_sizes":[],"default_left":[0,0,0,0,0,0,0,0,0,0,0,0,0,0,0,0,0,0,0,0,0,0,0,0,0,0,0,0,0,0,0,0,0,0,0,0,0,0,0,0,0,0,0,0,0,0,0,0,0,0,0,0,0,0,0,0,0,0,0,0,0,0,0,0,0,0,0,0,0,0,0,0,0,0,0,0,0,0,0,0,0,0,0,0,0,0,0,0,0,0,0,0,0,0,0,0,0,0,0,0,0,0,0,0,0,0,0,0,0,0,0,0,0,0,0,0,0,0,0,0,0,0,0,0,0,0,0],"id":3,"left_children":[1,3,5,7,9,11,13,15,17,19,21,23,25,27,29,31,33,35,37,39,41,43,45,47,49,51,53,55,57,59,61,63,65,67,69,71,73,75,77,79,81,83,85,87,89,91,93,95,97,99,101,103,105,107,109,111,113,115,117,119,121,123,125,-1,-1,-1,-1,-1,-1,-1,-1,-1,-1,-1,-1,-1,-1,-1,-1,-1,-1,-1,-1,-1,-1,-1,-1,-1,-1,-1,-1,-1,-1,-1,-1,-1,-1,-1,-1,-1,-1,-1,-1,-1,-1,-1,-1,-1,-1,-1,-1,-1,-1,-1,-1,-1,-1,-1,-1,-1,-1,-1,-1,-1,-1,-1,-1],"loss_changes":[2.91166E5,9.689642E4,6.641545E4,3.2431406E4,5.26161E4,4.8229953E4,3.0124195E4,3.024858E4,2.472111E4,3.7220234E4,3.4405566E4,2.946325E4,8.364122E3,1.2415793E4,2.651705E4,3.67433E3,3.6403955E3,4.746168E3,2.1854312E4,2.875552E4,2.3524107E4,2.3360143E4,1.2647758E4,4.2307583E3,1.609575E4,9.65776E3,3.6121099E3,8.718156E3,8.0097295E3,1.5728243E4,1.9173984E4,8.8134265E2,3.8028242E3,1.9089893E2,8.199131E2,2.239329E3,7.844957E2,9.568185E3,1.5554125E4,8.784563E3,2.2337723E4,8.657535E3,1.3713137E4,9.342623E3,1.3971635E4,1.1350099E4,1.0839828E4,1.6927197E3,6.1155396E2,4.7980625E3,1.874375E3,9.06827E3,2.752227E3,2.6100693E3,1.6537883E3,6.103621E3,5.624277E3,3.0204834E2,1.996209E3,1.6748992E4,2.2104525E4,6.3922314E3,1.2758059E4,0E0,0E0,0E0,0E0,0E0,0E0,0E0,0E0,0E0,0E0,0E0,0E0,0E0,0E0,0E0,0E0,0E0,0E0,0E0,0E0,0E0,0E0,0E0,0E0,0E0,0E0,0E0,0E0,0E0,0E0,0E0,0E0,0E0,0E0,0E0,0E0,0E0,0E0,0E0,0E0,0E0,0E0,0E0,0E0,0E0,0E0,0E0,0E0,0E0,0E0,0E0,0E0,0E0,0E0,0E0,0E0,0E0,0E0,0E0,0E0,0E0,0E0,0E0,0E0],"parents":[2147483647,0,0,1,1,2,2,3,3,4,4,5,5,6,6,7,7,8,8,9,9,10,10,11,11,12,12,13,13,14,14,15,15,16,16,17,17,18,18,19,19,20,20,21,21,22,22,23,23,24,24,25,25,26,26,27,27,28,28,29,29,30,30,31,31,32,32,33,33,34,34,35,35,36,36,37,37,38,38,39,39,40,40,41,41,42,42,43,43,44,44,45,45,46,46,47,47,48,48,49,49,50,50,51,51,52,52,53,53,54,54,55,55,56,56,57,57,58,58,59,59,60,60,61,61,62,62],"right_children":[2,4,6,8,10,12,14,16,18,20,22,24,26,28,30,32,34,36,38,40,42,44,46,48,50,52,54,56,58,60,62,64,66,68,70,72,74,76,78,80,82,84,86,88,90,92,94,96,98,100,102,104,106,108,110,112,114,116,118,120,122,124,126,-1,-1,-1,-1,-1,-1,-1,-1,-1,-1,-1,-1,-1,-1,-1,-1,-1,-1,-1,-1,-1,-1,-1,-1,-1,-1,-1,-1,-1,-1,-1,-1,-1,-1,-1,-1,-1,-1,-1,-1,-1,-1,-1,-1,-1,-1,-1,-1,-1,-1,-1,-1,-1,-1,-1,-1,-1,-1,-1,-1,-1,-1,-1,-1],"split_conditions":[1.0818161E0,8.758644E-2,1.1314047E1,1.2155573E-1,1E0,1E0,1.7011967E-2,1E0,7.4281413E-3,1E0,6.8929186E0,3.7930322E-1,1.0068715E-1,3.1476956E-2,7.557665E1,1.1314474E-2,1.3895538E-1,9.859672E-2,2.6926247E1,1.1183382E-2,6.49649E-2,1.0555632E-1,1.568019E-1,1.7387951E-3,3.774319E1,1.7250377E-1,1.0123428E1,8.33478E2,7.4526887E0,1.917027E1,5.9492495E-3,3.473093E-2,8.51172E-3,1.4952728E-1,3.7183766E-3,3.7163593E1,1.1996371E-1,2.0189415E-1,2.0943253E-1,1.427621E-1,1.0421936E-1,3.1883296E-2,8.723389E-4,1.4670075E-1,4.710814E-2,2.0348717E-2,2.2060849E-2,1.4470612E-1,8.100754E0,1.23426E-2,1.6015527E0,4.21487E-3,3.0729475E0,2.879554E-3,6.0224167E1,4.3177912E-1,3.2793798E-2,2.7920404E-2,2.3724822E-2,3.6448285E-1,9.580392E0,1.2331565E-1,1E0,3.3035997E-1,-8.938969E-1,-4.376653E-2,-4.363759E-1,-7.052423E-1,1.2081374E-1,1.0988863E0,3.6202878E-1,-1.0573207E0,-4.598919E-1,-1.1451987E0,3.9551333E-1,-4.6132216E-1,3.2836673E-1,3.031054E-1,-7.597602E-2,-5.016882E-1,3.0370885E-1,8.263834E-2,-1.6424568E-1,-2.069413E-1,3.089532E-1,2.5668374E-1,-3.5152E-1,-6.79903E-2,-5.5554354E-1,-5.4043907E-1,2.53495E-1,-3.1052846E-1,2.7117237E-1,2.877128E-1,-4.3863052E-1,-4.4132486E-1,3.7922597E-1,-4.4484156E-1,2.3897602E-1,1.3082794E-2,-3.3614418E-1,1.0624396E-1,7.8040224E-1,-1.4696206E-1,2.2198029E-1,-3.3671427E-1,1.7129113E-1,-1.0624961E-1,-3.6869606E-1,1.8700619E-1,-1.9362755E-1,-2.669029E-1,2.4089113E-1,-4.3173048E-1,2.7692604E-1,-4.7711968E-1,-1.4542808E-1,5.160096E-1,-4.376894E-1,5.396908E-2,-1.8853058E-1,1.4968577E-1,-3.276718E-1,3.9785105E-1,-1.5756227E-2,-2.465481E-1,1.7171822E-2],"split_indices":[44,42,7,41,79,72,29,72,49,80,46,4,37,11,44,32,25,36,3,32,36,26,25,58,3,25,7,44,2,44,15,29,49,26,31,3,33,34,25,4,42,13,65,25,55,29,61,14,1,31,4,50,0,52,43,42,20,61,16,24,46,35,72,0,0,0,0,0,0,0,0,0,0,0,0,0,0,0,0,0,0,0,0,0,0,0,0,0,0,0,0,0,0,0,0,0,0,0,0,0,0,0,0,0,0,0,0,0,0,0,0,0,0,0,0,0,0,0,0,0,0,0,0,0,0,0,0],"split_type":[0,0,0,0,0,0,0,0,0,0,0,0,0,0,0,0,0,0,0,0,0,0,0,0,0,0,0,0,0,0,0,0,0,0,0,0,0,0,0,0,0,0,0,0,0,0,0,0,0,0,0,0,0,0,0,0,0,0,0,0,0,0,0,0,0,0,0,0,0,0,0,0,0,0,0,0,0,0,0,0,0,0,0,0,0,0,0,0,0,0,0,0,0,0,0,0,0,0,0,0,0,0,0,0,0,0,0,0,0,0,0,0,0,0,0,0,0,0,0,0,0,0,0,0,0,0,0],"sum_hessian":[1.5786224E6,8.386037E5,7.4001875E5,3.3911262E5,4.9949106E5,3.0285E5,4.3716875E5,2.5828645E4,3.1328397E5,3.383809E5,1.6111014E5,2.4359534E5,5.925466E4,1.00942164E5,3.3622656E5,1.6099762E4,9.728883E3,2.7377644E3,3.1054622E5,2.4887077E5,8.951015E4,3.1706326E4,1.2940381E5,7.7449966E3,2.3585034E5,4.091813E4,1.833653E4,9.577929E4,5.1628735E3,2.267715E5,1.0945507E5,9.074598E2,1.5192303E4,3.3144415E2,9.397438E3,2.3036826E3,4.3408163E2,6.9731626E3,3.0357306E5,2.0248959E4,2.2862181E5,2.2743227E4,6.676692E4,1.509829E4,1.6608037E4,1.2167634E4,1.1723618E5,6.842884E3,9.02113E2,2.3408386E5,1.7664784E3,3.4029633E4,6.888497E3,1.3742415E4,4.594114E3,8.988233E4,5.896962E3,1.3128625E3,3.850011E3,1.0577476E5,1.2099674E5,1.3453445E4,9.6001625E4,8.519872E2,5.5472576E1,2.7006104E3,1.2491692E4,3.04296E2,2.7148165E1,1.3719547E2,9.260243E3,1.3034927E3,1.00019006E3,3.114669E1,4.0293497E2,5.0773647E3,1.8957981E3,2.9349756E5,1.0075492E4,1.3017305E3,1.8947229E4,3.9971387E4,1.8865042E5,1.9292818E4,3.4504082E3,6.324554E4,3.521382E3,5.656485E3,9.441805E3,2.3175796E3,1.4290457E4,6.61909E3,5.548544E3,1.1535772E5,1.878462E3,2.334801E2,6.6094033E3,7.636474E2,1.384656E2,3.5958875E3,2.3048797E5,5.3086145E2,1.235617E3,7.769003E3,2.626063E4,5.736497E3,1.1520001E3,6.2880254E3,7.4543896E3,3.044889E3,1.5492247E3,8.769966E4,2.1826724E3,1.289137E3,4.607825E3,9.8120984E2,3.3165265E2,3.6418948E3,2.0811617E2,6.2147074E4,4.3627684E4,1.11525766E5,9.470977E3,6.824058E3,6.629387E3,7.481735E4,2.1184273E4],"tree_param":{"num_deleted":"0","num_feature":"87","num_nodes":"127","size_leaf_vector":"0"}},{"base_weights":[-1.9944594E-3,-6.826186E-1,1.7995487E-1,-8.713471E-1,9.214671E-3,3.374213E-1,-3.323445E-1,5.3321487E-1,-9.408631E-1,1.7100573E-1,-5.102757E-1,9.454798E-2,5.986484E-1,-7.2752304E-2,-7.376095E-1,1.0405974E0,-1.0423249E0,-9.978788E-1,5.8496624E-1,-7.340542E-1,2.9360124E-1,1.0733175E0,-6.116242E-1,3.5726154E-1,-2.3359475E-1,6.521927E-1,-9.088992E-1,-3.9026555E-1,4.683781E-1,-9.1896963E-1,2.2007447E-1,-1.7414095E0,1.1481616E0,-2.1649659E0,1.5172407E-1,1.3255568E-1,-1.022776E0,1.1698532E0,-6.5086514E-1,1.283164E-1,-1.2470924E0,-3.2642367E-1,4.8638347E-1,-1.3177998E0,1.3146551E0,-7.0110744E-1,9.708072E-1,4.516815E-1,-6.992259E-1,-6.087092E-1,3.185833E-2,-2.716086E-1,7.1871346E-1,-1.1117129E0,5.323579E-1,-7.099424E-1,4.3973684E-2,5.7997966E-1,-1.3179988E0,-1.0294955E0,-4.779152E-2,-1.7565182E0,4.8691675E-1,-9.152719E-1,-3.9796403E-1,-4.6267182E-1,3.5838288E-1,-8.9386517E-1,-4.2098996E-1,2.6962015E-1,-4.5629102E-1,6.89285E-1,-1.8941008E-1,-1.4081484E-1,-3.1866744E-1,4.159578E-1,-2.80975E-1,-2.3151325E-1,1.2602801E0,2.2075833E-1,-4.46715E-1,-4.637638E-1,5.107424E-1,-1.889776E-1,1.8781312E-1,-4.8202768E-2,2.176283E-1,-5.358809E-1,2.5427553E-1,4.2980945E-1,-4.5312965E-1,-7.974365E-2,-3.3694166E-1,-5.5328816E-1,4.0337083E-1,1.6898449E-1,-5.2786417E-2,-9.843672E-2,-5.5739135E-1,-2.6526052E-1,-6.4226906E-3,-1.8679069E-1,5.632626E-2,-4.8723066E-1,6.4284876E-3,2.4896628E-1,7.104347E-2,2.9798707E-1,-3.8027006E-1,-4.0413633E-1,3.8707376E-1,-3.0056795E-1,-4.8704505E-2,6.0149424E-2,-3.062406E-1,2.1399356E-1,-2.0353857E-1,-4.58339E-1,2.9798517E-1,-3.23261E-1,1.0456055E-1,1.0642369E-1,-2.613867E-1,-5.455767E-1,-1.3715306E-1,-4.9556848E-1,2.0845427E-1],"categories":[],"categories_nodes":[],"categories_segments":[],"categories_sizes":[],"default_left":[0,0,0,0,0,0,0,0,0,0,0,0,0,0,0,0,0,0,0,0,0,0,0,0,0,0,0,0,0,0,0,0,0,0,0,0,0,0,0,0,0,0,0,0,0,0,0,0,0,0,0,0,0,0,0,0,0,0,0,0,0,0,0,0,0,0,0,0,0,0,0,0,0,0,0,0,0,0,0,0,0,0,0,0,0,0,0,0,0,0,0,0,0,0,0,0,0,0,0,0,0,0,0,0,0,0,0,0,0,0,0,0,0,0,0,0,0,0,0,0,0,0,0,0,0,0,0],"id":4,"left_children":[1,3,5,7,9,11,13,15,17,19,21,23,25,27,29,31,33,35,37,39,41,43,45,47,49,51,53,55,57,59,61,63,65,67,69,71,73,75,77,79,81,83,85,87,89,91,93,95,97,99,101,103,105,107,109,111,113,115,117,119,121,123,125,-1,-1,-1,-1,-1,-1,-1,-1,-1,-1,-1,-1,-1,-1,-1,-1,-1,-1,-1,-1,-1,-1,-1,-1,-1,-1,-1,-1,-1,-1,-1,-1,-1,-1,-1,-1,-1,-1,-1,-1,-1,-1,-1,-1,-1,-1,-1,-1,-1,-1,-1,-1,-1,-1,-1,-1,-1,-1,-1,-1,-1,-1,-1,-1],"loss_changes":[1.7747736E5,3.9471047E4,9.1223914E4,2.3190797E4,5.445814E3,5.4877594E4,2.7969973E4,8.955446E3,1.9688625E4,5.4821436E3,2.470217E3,3.864079E4,3.3639703E4,2.7844701E4,1.8029922E4,2.537583E3,3.6585896E3,6.140125E3,5.893583E3,2.6079531E3,5.20125E3,5.3603503E2,2.0485562E3,2.4832197E4,1.9845121E4,2.4731031E4,4.1788604E3,1.4177787E4,1.1948108E4,8.403805E3,8.718904E3,1.6752313E2,1.0213496E3,8.68563E2,1.6549811E3,7.7785176E3,4.6594062E3,2.527042E3,1.5391381E3,2.1623855E3,3.259668E3,2.9839502E3,5.134255E3,8.812836E1,2.8279272E2,2.5144502E3,8.173511E2,1.6005961E4,8.781448E3,1.3362699E4,1.1908269E4,1.0714067E4,2.011239E4,4.112377E3,2.5144539E3,9.404475E3,7.2180054E3,9.46467E3,1.7103477E3,5.127875E3,3.2579678E3,1.5774756E2,6.4780273E3,0E0,0E0,0E0,0E0,0E0,0E0,0E0,0E0,0E0,0E0,0E0,0E0,0E0,0E0,0E0,0E0,0E0,0E0,0E0,0E0,0E0,0E0,0E0,0E0,0E0,0E0,0E0,0E0,0E0,0E0,0E0,0E0,0E0,0E0,0E0,0E0,0E0,0E0,0E0,0E0,0E0,0E0,0E0,0E0,0E0,0E0,0E0,0E0,0E0,0E0,0E0,0E0,0E0,0E0,0E0,0E0,0E0,0E0,0E0,0E0,0E0,0E0,0E0,0E0],"parents":[2147483647,0,0,1,1,2,2,3,3,4,4,5,5,6,6,7,7,8,8,9,9,10,10,11,11,12,12,13,13,14,14,15,15,16,16,17,17,18,18,19,19,20,20,21,21,22,22,23,23,24,24,25,25,26,26,27,27,28,28,29,29,30,30,31,31,32,32,33,33,34,34,35,35,36,36,37,37,38,38,39,39,40,40,41,41,42,42,43,43,44,44,45,45,46,46,47,47,48,48,49,49,50,50,51,51,52,52,53,53,54,54,55,55,56,56,57,57,58,58,59,59,60,60,61,61,62,62],"right_children":[2,4,6,8,10,12,14,16,18,20,22,24,26,28,30,32,34,36,38,40,42,44,46,48,50,52,54,56,58,60,62,64,66,68,70,72,74,76,78,80,82,84,86,88,90,92,94,96,98,100,102,104,106,108,110,112,114,116,118,120,122,124,126,-1,-1,-1,-1,-1,-1,-1,-1,-1,-1,-1,-1,-1,-1,-1,-1,-1,-1,-1,-1,-1,-1,-1,-1,-1,-1,-1,-1,-1,-1,-1,-1,-1,-1,-1,-1,-1,-1,-1,-1,-1,-1,-1,-1,-1,-1,-1,-1,-1,-1,-1,-1,-1,-1,-1,-1,-1,-1,-1,-1,-1,-1,-1,-1],"split_conditions":[1.1952525E1,1E0,3.9173946E-1,3.8416103E-1,5.547438E-2,1.955494E-1,3.2146096E0,1.7391465E-3,3.4738125E1,1.2451153E-1,4.1288957E-2,1.1920512E-1,1E0,7.906355E1,1E0,4.0111545E-2,1.005139E-1,1.2338036E-2,1.349218E-1,9.963965E-2,1.0593717E-1,1.4432192E-1,1.4805306E-1,1.8839942E-1,2.6416796E-1,4.0700912E-2,2.0527425E-1,7.702876E-2,2.8756338E-1,1E0,9.756504E-3,6.334596E-2,6.663652E1,5.3770088E-2,1.5196593E-1,-4.0343084E0,4.653379E-2,1.3279125E-1,2.9069136E1,1.4003288E2,1.2745978E-1,1.7596838E-1,1.4842255E-3,3.6848113E-3,2.102202E-1,3.4351265E-3,8.069478E-4,2.810883E1,1.5912316E1,2.1217682E1,1.4034769E-2,1.91521E-2,1.492446E-1,3.0547073E1,3.422389E-1,1.618293E-1,6.351507E-2,1.3580878E-3,8.995544E-2,1.54164E1,7.435125E-4,2.8582336E2,8.1179895E-2,-9.152719E-1,-3.9796403E-1,-4.6267182E-1,3.5838288E-1,-8.9386517E-1,-4.2098996E-1,2.6962015E-1,-4.5629102E-1,6.89285E-1,-1.8941008E-1,-1.4081484E-1,-3.1866744E-1,4.159578E-1,-2.80975E-1,-2.3151325E-1,1.2602801E0,2.2075833E-1,-4.46715E-1,-4.637638E-1,5.107424E-1,-1.889776E-1,1.8781312E-1,-4.8202768E-2,2.176283E-1,-5.358809E-1,2.5427553E-1,4.2980945E-1,-4.5312965E-1,-7.974365E-2,-3.3694166E-1,-5.5328816E-1,4.0337083E-1,1.6898449E-1,-5.2786417E-2,-9.843672E-2,-5.5739135E-1,-2.6526052E-1,-6.4226906E-3,-1.8679069E-1,5.632626E-2,-4.8723066E-1,6.4284876E-3,2.4896628E-1,7.104347E-2,2.9798707E-1,-3.8027006E-1,-4.0413633E-1,3.8707376E-1,-3.0056795E-1,-4.8704505E-2,6.0149424E-2,-3.062406E-1,2.1399356E-1,-2.0353857E-1,-4.58339E-1,2.9798517E-1,-3.23261E-1,1.0456055E-1,1.0642369E-1,-2.613867E-1,-5.455767E-1,-1.3715306E-1,-4.9556848E-1,2.0845427E-1],"split_indices":[7,72,40,4,55,19,0,58,3,24,27,23,72,43,80,48,19,31,39,33,30,39,22,41,24,55,42,20,25,72,50,40,43,55,24,9,42,23,5,44,12,34,51,66,26,52,53,44,10,7,49,27,23,8,40,22,29,51,11,47,51,6,37,0,0,0,0,0,0,0,0,0,0,0,0,0,0,0,0,0,0,0,0,0,0,0,0,0,0,0,0,0,0,0,0,0,0,0,0,0,0,0,0,0,0,0,0,0,0,0,0,0,0,0,0,0,0,0,0,0,0,0,0,0,0,0,0],"split_type":[0,0,0,0,0,0,0,0,0,0,0,0,0,0,0,0,0,0,0,0,0,0,0,0,0,0,0,0,0,0,0,0,0,0,0,0,0,0,0,0,0,0,0,0,0,0,0,0,0,0,0,0,0,0,0,0,0,0,0,0,0,0,0,0,0,0,0,0,0,0,0,0,0,0,0,0,0,0,0,0,0,0,0,0,0,0,0,0,0,0,0,0,0,0,0,0,0,0,0,0,0,0,0,0,0,0,0,0,0,0,0,0,0,0,0,0,0,0,0,0,0,0,0,0,0,0,0],"sum_hessian":[1.4331265E6,3.0229994E5,1.1308265E6,2.3750858E5,6.4791367E4,8.6496194E5,2.6586462E5,1.1200333E4,2.2630825E5,4.9405195E4,1.5386175E4,4.4822788E5,4.1673406E5,1.6205903E5,1.0380561E5,8.472282E3,2.7280513E3,2.1815672E5,8.1515244E3,5.8932627E3,4.351193E4,9.248945E2,1.446128E4,2.489314E5,1.9929645E5,4.0244094E5,1.4293124E4,1.0213226E5,5.9926766E4,8.727758E4,1.6528033E4,3.148151E2,8.1574673E3,1.4056504E3,1.3224009E3,4.701149E3,2.1345558E5,5.5329673E3,2.618557E3,2.1985122E3,3.6947505E3,1.0320029E4,3.3191902E4,8.438333E1,8.405111E2,1.3687818E4,7.7346136E2,2.285097E5,2.0421705E4,8.25885E4,1.1670795E5,2.7032076E4,3.7540888E5,1.2530114E4,1.7630096E3,5.882559E4,4.3306668E4,5.6403695E4,3.5230715E3,7.74512E4,9.826372E3,1.96524E3,1.4562793E4,7.421251E1,2.4060258E2,1.3789603E2,8.0195713E3,6.778225E2,7.278279E2,9.1446985E2,4.079311E2,1.2256063E3,3.4755427E3,1.4204587E4,1.9925098E5,5.017226E3,5.157413E2,2.555741E3,6.281593E1,1.5985724E3,5.999399E2,3.3553357E3,3.3941486E2,7.826478E3,2.4935515E3,8.95427E3,2.4237633E4,6.951845E1,1.486488E1,8.07273E2,3.3238117E1,6.738827E3,6.948991E3,9.0195175E1,6.832662E2,1.9401242E5,3.4497273E4,1.5468875E4,4.9528296E3,5.6217383E4,2.6371117E4,2.2450701E4,9.425725E4,4.8130767E3,2.2219E4,3.050366E5,7.0372266E4,8.63402E2,1.1666712E4,5.064045E2,1.2566052E3,3.8368516E4,2.0457074E4,3.77571E4,5.549567E3,5.10006E4,5.4030938E3,3.2302014E3,2.9287027E2,7.484226E4,2.6089412E3,6.6005156E3,3.225856E3,1.8752577E3,8.99823E1,1.2897064E3,1.3273087E4],"tree_param":{"num_deleted":"0","num_feature":"87","num_nodes":"127","size_leaf_vector":"0"}},{"base_weights":[-4.434268E-3,-4.579846E-1,1.8343876E-1,-6.1443186E-1,8.705026E-2,3.426832E-1,-1.9048609E-1,-6.6716546E-1,7.8055257E-1,2.4086282E-1,-3.012177E-1,2.2714174E-1,7.36273E-1,-6.631522E-2,-8.2578266E-1,-8.14812E-1,-9.617324E-2,1.0965475E0,-1.020721E0,-1.6021632E0,2.8684807E-1,-7.616665E-1,-9.6791476E-2,2.6493704E-1,-1.0080084E0,8.517915E-1,-1.2337264E0,-2.8135177E-1,2.7263942E-1,-1.0038221E0,3.1405205E-1,1.8681417E-1,-9.25043E-1,-3.5866368E-1,5.956039E-1,-1.3534827E0,1.1412593E0,2.4117475E0,-1.1904916E0,6.278911E-2,-1.7688487E0,3.5953963E-1,-7.029566E-1,-1.0233425E0,1.5986058E-1,1.09744556E-1,-8.948624E-1,2.9335397E-1,-1.2592621E0,-1.2701737E0,3.114394E-1,8.8803846E-1,-3.8494332E0,-1.4647113E0,4.8811272E-1,-3.4984642E-1,9.911565E-1,-9.824168E-1,3.8773784E-1,-1.1071706E0,-1.4125536E-1,7.119154E-1,-1.218388E0,-1.4690645E-1,3.1330758E-1,-2.8541142E-1,2.594349E-1,6.609303E-1,-1.3745087E-1,-2.6761398E-2,3.43504E-1,-3.684008E-1,-6.1680627E-1,3.447192E-1,-8.184561E-1,-3.9019892E-1,1.081233E0,4.835841E-1,-4.6528345E-1,-5.722115E-1,-1.0858951E-1,-5.2471346E-1,1.16717026E-1,-3.2404295E-1,1.959426E-1,-4.6324855E-1,-1.6912377E-1,2.0432821E-1,-4.4403017E-1,7.925312E-2,-6.2231034E-1,-3.6536825E-1,4.384958E-1,1.3990846E-1,1.5714621E-2,-5.1633143E-1,1.4896051E-2,3.2919633E-1,-3.9980498E-1,-2.8340906E-1,3.0516365E-1,2.726154E-1,-1.1018822E0,-1.325139E0,-9.045679E-1,-3.1591845E-1,-5.2469945E-1,4.2268714E-1,-3.2317454E-1,-2.6776314E-1,-7.3764876E-2,4.4664356E-1,-2.2064525E-1,-3.758879E-2,-4.3109617E-1,1.3509347E-1,-4.1664177E-1,-1.8164548E-1,-3.9045396E-1,-4.5290223E-1,1.8575196E-1,-3.2910562E-1,2.850555E-1,-4.336673E-1,2.589562E-1],"categories":[],"categories_nodes":[],"categories_segments":[],"categories_sizes":[],"default_left":[0,0,0,0,0,0,0,0,0,0,0,0,0,0,0,0,0,0,0,0,0,0,0,0,0,0,0,0,0,0,0,0,0,0,0,0,0,0,0,0,0,0,0,0,0,0,0,0,0,0,0,0,0,0,0,0,0,0,0,0,0,0,0,0,0,0,0,0,0,0,0,0,0,0,0,0,0,0,0,0,0,0,0,0,0,0,0,0,0,0,0,0,0,0,0,0,0,0,0,0,0,0,0,0,0,0,0,0,0,0,0,0,0,0,0,0,0,0,0,0,0,0,0,0,0],"id":5,"left_children":[1,3,5,7,9,11,13,15,17,19,21,23,25,27,29,31,33,35,37,39,41,43,45,47,49,51,53,55,57,59,61,63,65,67,69,71,73,-1,75,77,79,81,83,85,87,89,91,93,95,97,99,101,103,105,107,109,111,113,115,117,119,121,123,-1,-1,-1,-1,-1,-1,-1,-1,-1,-1,-1,-1,-1,-1,-1,-1,-1,-1,-1,-1,-1,-1,-1,-1,-1,-1,-1,-1,-1,-1,-1,-1,-1,-1,-1,-1,-1,-1,-1,-1,-1,-1,-1,-1,-1,-1,-1,-1,-1,-1,-1,-1,-1,-1,-1,-1,-1,-1,-1,-1,-1,-1],"loss_changes":[1.1180983E5,3.2771984E4,5.524843E4,2.196768E4,5.1191177E3,2.9591664E4,2.1860803E4,2.4258055E4,6.1926616E3,5.2038604E3,2.2893142E3,2.3483777E4,3.360689E4,1.6896479E4,9.195041E3,2.5242672E4,1.0735275E4,1.0153623E3,2.5074204E3,4.1493652E2,4.3102188E3,1.8034375E3,2.7766748E3,2.1141832E4,5.1670225E3,2.3773656E4,3.254079E3,1.2362602E4,1.2998629E4,3.4932383E3,3.7333213E3,1.3150323E4,9.70625E3,1.0925854E4,6.118582E3,1.2137543E1,2.7763086E2,0E0,8.472029E2,3.4497098E2,2.6410938E2,3.473901E3,2.0971348E3,1.3932886E3,1.4154567E3,4.5145347E3,2.638118E3,1.9976785E4,5.400714E3,1.8455176E3,2.1965806E3,1.30595625E4,4.9220605E2,8.422422E2,1.3972894E3,7.593465E3,6.2263E3,2.944997E3,9.16319E3,3.411164E3,4.365214E3,2.096036E3,5.980834E2,0E0,0E0,0E0,0E0,0E0,0E0,0E0,0E0,0E0,0E0,0E0,0E0,0E0,0E0,0E0,0E0,0E0,0E0,0E0,0E0,0E0,0E0,0E0,0E0,0E0,0E0,0E0,0E0,0E0,0E0,0E0,0E0,0E0,0E0,0E0,0E0,0E0,0E0,0E0,0E0,0E0,0E0,0E0,0E0,0E0,0E0,0E0,0E0,0E0,0E0,0E0,0E0,0E0,0E0,0E0,0E0,0E0,0E0,0E0,0E0,0E0,0E0],"parents":[2147483647,0,0,1,1,2,2,3,3,4,4,5,5,6,6,7,7,8,8,9,9,10,10,11,11,12,12,13,13,14,14,15,15,16,16,17,17,18,18,19,19,20,20,21,21,22,22,23,23,24,24,25,25,26,26,27,27,28,28,29,29,30,30,31,31,32,32,33,33,34,34,35,35,36,36,38,38,39,39,40,40,41,41,42,42,43,43,44,44,45,45,46,46,47,47,48,48,49,49,50,50,51,51,52,52,53,53,54,54,55,55,56,56,57,57,58,58,59,59,60,60,61,61,62,62],"right_children":[2,4,6,8,10,12,14,16,18,20,22,24,26,28,30,32,34,36,38,40,42,44,46,48,50,52,54,56,58,60,62,64,66,68,70,72,74,-1,76,78,80,82,84,86,88,90,92,94,96,98,100,102,104,106,108,110,112,114,116,118,120,122,124,-1,-1,-1,-1,-1,-1,-1,-1,-1,-1,-1,-1,-1,-1,-1,-1,-1,-1,-1,-1,-1,-1,-1,-1,-1,-1,-1,-1,-1,-1,-1,-1,-1,-1,-1,-1,-1,-1,-1,-1,-1,-1,-1,-1,-1,-1,-1,-1,-1,-1,-1,-1,-1,-1,-1,-1,-1,-1,-1,-1,-1,-1],"split_conditions":[1.4405667E1,1E0,1.535586E-1,2.1133576E-1,5.6278117E-2,1.3536376E1,1.3687048E1,7.381465E0,1.5880193E-1,-4.461994E0,1.1145768E0,2.44553E-1,1.0738368E-2,1.647574E-1,1E0,4.695912E-2,2.1338822E-1,9.046578E0,-1.5863747E1,-4.6223587E-1,2.0811072E-1,2.019778E-1,3.347556E-3,1E0,1.25374084E2,4.1134933E1,3.5239357E-1,2.8696088E-2,3.972264E-3,1E0,2.584683E-1,1.1809937E1,3.7745247E1,7.435618E0,1.328188E0,1.2029699E1,3.910188E-2,2.4117475E0,3.0237153E0,4.6489906E-2,5.5193454E-3,3.8547075E0,3.6565378E0,1.1417447E-1,1.6287847E-1,1.1402599E0,1.6853935E-1,8.1113534E-4,1.4226274E-1,-3.477434E-1,2.1304373E1,2.0793067E-1,1.3048773E-1,1.103406E-1,3.9192744E-2,1.6509504E1,1.754703E-2,2.3078403E-2,1E0,1.4682331E1,1.7166229E-1,6.7113705E-2,1.0152657E-3,-1.4690645E-1,3.1330758E-1,-2.8541142E-1,2.594349E-1,6.609303E-1,-1.3745087E-1,-2.6761398E-2,3.43504E-1,-3.684008E-1,-6.1680627E-1,3.447192E-1,-8.184561E-1,-3.9019892E-1,1.081233E0,4.835841E-1,-4.6528345E-1,-5.722115E-1,-1.0858951E-1,-5.2471346E-1,1.16717026E-1,-3.2404295E-1,1.959426E-1,-4.6324855E-1,-1.6912377E-1,2.0432821E-1,-4.4403017E-1,7.925312E-2,-6.2231034E-1,-3.6536825E-1,4.384958E-1,1.3990846E-1,1.5714621E-2,-5.1633143E-1,1.4896051E-2,3.2919633E-1,-3.9980498E-1,-2.8340906E-1,3.0516365E-1,2.726154E-1,-1.1018822E0,-1.325139E0,-9.045679E-1,-3.1591845E-1,-5.2469945E-1,4.2268714E-1,-3.2317454E-1,-2.6776314E-1,-7.3764876E-2,4.4664356E-1,-2.2064525E-1,-3.758879E-2,-4.3109617E-1,1.3509347E-1,-4.1664177E-1,-1.8164548E-1,-3.9045396E-1,-4.5290223E-1,1.8575196E-1,-3.2910562E-1,2.850555E-1,-4.336673E-1,2.589562E-1],"split_indices":[7,72,23,30,13,2,9,2,33,9,2,34,12,22,72,42,18,47,9,10,34,30,52,82,43,3,24,61,50,80,41,7,3,2,4,7,49,0,2,37,63,6,0,37,25,9,39,52,23,9,10,19,37,22,48,10,59,29,82,9,22,30,65,0,0,0,0,0,0,0,0,0,0,0,0,0,0,0,0,0,0,0,0,0,0,0,0,0,0,0,0,0,0,0,0,0,0,0,0,0,0,0,0,0,0,0,0,0,0,0,0,0,0,0,0,0,0,0,0,0,0,0,0,0,0],"split_type":[0,0,0,0,0,0,0,0,0,0,0,0,0,0,0,0,0,0,0,0,0,0,0,0,0,0,0,0,0,0,0,0,0,0,0,0,0,0,0,0,0,0,0,0,0,0,0,0,0,0,0,0,0,0,0,0,0,0,0,0,0,0,0,0,0,0,0,0,0,0,0,0,0,0,0,0,0,0,0,0,0,0,0,0,0,0,0,0,0,0,0,0,0,0,0,0,0,0,0,0,0,0,0,0,0,0,0,0,0,0,0,0,0,0,0,0,0,0,0,0,0,0,0,0,0],"sum_hessian":[1.3121679E6,3.843338E5,9.278341E5,2.986181E5,8.571573E4,6.507131E5,2.7712097E5,2.8774134E5,1.087675E4,6.13946E4,2.4321125E4,5.0304253E5,1.4767061E5,2.3181336E5,4.530761E4,2.2862364E5,5.9117695E4,9.253766E3,1.6229839E3,1.4937391E3,5.990086E4,7.4770723E3,1.6844053E4,4.8810734E5,1.4935182E4,1.3949156E5,8.179057E3,1.4183306E5,8.99803E4,3.9186836E4,6.120771E3,2.266598E4,2.0595767E5,4.2856535E4,1.6261159E4,1.653255E2,9.08844E3,2.9000608E1,1.5939833E3,1.359923E2,1.3577468E3,5.5803285E4,4.097574E3,5.8233643E3,1.653708E3,1.3381787E4,3.4622646E3,4.791745E5,8.932846E3,1.2459583E4,2.4755981E3,1.384251E5,1.0664613E3,7.211749E3,9.67308E2,1.3458933E5,7.2437427E3,7.558069E3,8.242223E4,3.4993773E4,4.1930645E3,4.8596167E3,1.2611539E3,1.2670704E4,9.995276E3,2.029724E5,2.9852593E3,1.6016313E3,4.1254906E4,7.2389927E3,9.022167E3,1.4260315E2,2.272234E1,9.070848E3,1.7592663E1,1.5588915E3,3.5091843E1,6.938497E1,6.6607315E1,1.2357211E3,1.2202574E2,7.6957623E2,5.503371E4,3.2060452E3,8.9152875E2,2.7287542E3,3.0946104E3,1.255313E3,3.9839496E2,1.2498903E4,8.828836E2,3.0452976E3,4.16967E2,2.7892053E5,2.0025398E5,6.602781E3,2.330065E3,3.200849E2,1.2139498E4,8.9044434E2,1.5851538E3,1.3780111E5,6.23992E2,6.3204535E2,4.3441592E2,2.9478872E3,4.263862E3,6.0909796E2,3.5821002E2,2.1636672E4,1.1295266E5,5.6231626E3,1.62058E3,2.6197124E3,4.938356E3,7.961863E4,2.8035916E3,9.77199E3,2.5221783E4,1.4974192E3,2.6956453E3,5.6518066E2,4.294436E3,1.1373378E3,1.2381612E2],"tree_param":{"num_deleted":"0","num_feature":"87","num_nodes":"125","size_leaf_vector":"0"}},{"base_weights":[-5.4791463E-3,-5.030307E-1,1.06356554E-1,-6.764337E-1,-1.6126169E-2,4.111811E-1,-1.3473352E-2,5.186432E-1,-7.393005E-1,8.76751E-1,-7.924071E-2,6.1046964E-1,-1.0509277E-2,1.4866776E-2,-1.026185E0,9.591573E-1,-5.1588297E-1,-7.986715E-1,4.352704E-1,1.0778279E0,-1.0758688E0,-5.4452485E-1,9.269791E-2,-2.6537585E-1,7.12621E-1,-4.1778278E-1,9.0379584E-1,1.3479975E-1,-2.0342918E-1,-1.0809218E0,7.0612526E-1,-1.2579106E0,1.0763347E0,5.6616545E-1,-1.2932937E0,-8.32978E-1,1.3362446E-1,7.0678836E-1,-1.2961622E0,-3.397669E0,1.119072E0,3.7864947E-1,-1.5666059E0,-2.1972582E0,-3.9127946E-1,3.5338634E-1,-3.404714E-1,-9.386154E-1,9.239667E-1,-3.6661777E0,7.294273E-1,5.36687E-1,-8.5361046E-1,-1.0315404E0,9.647863E-1,2.4422479E-1,-2.3124352E-1,-7.310944E-1,-9.156808E-2,-1.1173573E0,1.2562214E0,-1.3032424E0,2.191613E0,-4.6281332E-1,-6.550824E-2,-8.3022696E-1,3.3474913E-1,-5.720971E-1,3.244369E-1,6.5350163E-1,-4.0620023E-1,-8.245076E-2,-2.6968065E-1,-1.10896885E-1,2.1416583E0,1.6055691E-1,8.116686E-1,-9.400559E-1,-3.6476517E-1,-1.0457565E0,-2.7310136E-1,-8.18432E-1,3.5042596E-1,-4.4951364E-1,5.801441E-1,-4.0437582E-1,-5.380726E-1,-8.9206207E-1,-2.4074574E-1,-5.5575714E-2,-4.3626472E-1,1.942898E-1,-4.578642E-2,-2.227418E-1,-1.0745298E-3,-4.4313374E-1,5.8326542E-2,-5.837963E-1,3.1097186E-1,-1.4757752E0,2.1656059E-1,2.2669299E-1,-5.603866E-1,2.2483104E-1,-4.983603E-1,-3.1744456E-1,-6.0815435E-2,-4.0380707E-1,5.479449E-1,3.0072442E-1,-6.901499E-1,1.1047964E-1,-3.614805E-2,-1.2559989E-1,1.35264E-1,-2.8484255E-1,-1.8423775E-3,-3.4703472E-1,-1.3341619E-2,-5.0485045E-1,-2.8963816E-1,1.4892951E0,-3.729626E-1,-3.5096908E-1,-4.2564532E-1,8.5053825E-1,-4.1822556E-1],"categories":[],"categories_nodes":[],"categories_segments":[],"categories_sizes":[],"default_left":[0,0,0,0,0,0,0,0,0,0,0,0,0,0,0,0,0,0,0,0,0,0,0,0,0,0,0,0,0,0,0,0,0,0,0,0,0,0,0,0,0,0,0,0,0,0,0,0,0,0,0,0,0,0,0,0,0,0,0,0,0,0,0,0,0,0,0,0,0,0,0,0,0,0,0,0,0,0,0,0,0,0,0,0,0,0,0,0,0,0,0,0,0,0,0,0,0,0,0,0,0,0,0,0,0,0,0,0,0,0,0,0,0,0,0,0,0,0,0,0,0,0,0,0,0,0,0],"id":6,"left_children":[1,3,5,7,9,11,13,15,17,19,21,23,25,27,29,31,33,35,37,39,41,43,45,47,49,51,53,55,57,59,61,63,65,67,69,71,73,75,77,79,81,83,85,87,89,91,93,95,97,99,101,103,105,107,109,111,113,115,117,119,121,123,125,-1,-1,-1,-1,-1,-1,-1,-1,-1,-1,-1,-1,-1,-1,-1,-1,-1,-1,-1,-1,-1,-1,-1,-1,-1,-1,-1,-1,-1,-1,-1,-1,-1,-1,-1,-1,-1,-1,-1,-1,-1,-1,-1,-1,-1,-1,-1,-1,-1,-1,-1,-1,-1,-1,-1,-1,-1,-1,-1,-1,-1,-1,-1,-1],"loss_changes":[6.748671E4,1.8792602E4,3.6170934E4,1.2331484E4,3.294087E3,2.3482816E4,2.0400807E4,3.7388208E3,1.0873961E4,1.5163569E3,4.3676353E3,1.6977258E4,3.339385E4,1.8103326E4,1.835582E3,1.496083E3,2.0620469E3,4.7473047E3,3.5282075E3,6.497351E2,2.5812915E2,3.7301494E3,4.5017046E3,1.5871351E4,1.2508422E4,2.5809047E4,3.2631191E3,1.787555E4,1.4472302E4,1.598748E3,1.7737919E3,8.531085E1,8.3278906E2,1.3085629E3,3.0353833E2,5.269875E3,1.8578088E4,2.2233638E3,1.462649E2,3.8899536E0,6.5716406E2,2.70947E2,1.0982727E1,1.3508027E3,2.9522788E3,3.7056252E3,2.0284601E3,7.7226396E3,2.3174663E3,3.5770576E3,1.1528555E4,9.095826E3,5.670385E3,7.617776E2,3.2942598E3,1.5543301E4,1.3131002E4,6.7896133E3,1.0149006E4,1.5848965E3,2.6792473E3,2.2362976E0,7.9192505E2,0E0,0E0,0E0,0E0,0E0,0E0,0E0,0E0,0E0,0E0,0E0,0E0,0E0,0E0,0E0,0E0,0E0,0E0,0E0,0E0,0E0,0E0,0E0,0E0,0E0,0E0,0E0,0E0,0E0,0E0,0E0,0E0,0E0,0E0,0E0,0E0,0E0,0E0,0E0,0E0,0E0,0E0,0E0,0E0,0E0,0E0,0E0,0E0,0E0,0E0,0E0,0E0,0E0,0E0,0E0,0E0,0E0,0E0,0E0,0E0,0E0,0E0,0E0,0E0],"parents":[2147483647,0,0,1,1,2,2,3,3,4,4,5,5,6,6,7,7,8,8,9,9,10,10,11,11,12,12,13,13,14,14,15,15,16,16,17,17,18,18,19,19,20,20,21,21,22,22,23,23,24,24,25,25,26,26,27,27,28,28,29,29,30,30,31,31,32,32,33,33,34,34,35,35,36,36,37,37,38,38,39,39,40,40,41,41,42,42,43,43,44,44,45,45,46,46,47,47,48,48,49,49,50,50,51,51,52,52,53,53,54,54,55,55,56,56,57,57,58,58,59,59,60,60,61,61,62,62],"right_children":[2,4,6,8,10,12,14,16,18,20,22,24,26,28,30,32,34,36,38,40,42,44,46,48,50,52,54,56,58,60,62,64,66,68,70,72,74,76,78,80,82,84,86,88,90,92,94,96,98,100,102,104,106,108,110,112,114,116,118,120,122,124,126,-1,-1,-1,-1,-1,-1,-1,-1,-1,-1,-1,-1,-1,-1,-1,-1,-1,-1,-1,-1,-1,-1,-1,-1,-1,-1,-1,-1,-1,-1,-1,-1,-1,-1,-1,-1,-1,-1,-1,-1,-1,-1,-1,-1,-1,-1,-1,-1,-1,-1,-1,-1,-1,-1,-1,-1,-1,-1,-1,-1,-1,-1,-1,-1],"split_conditions":[1.1980759E1,1E0,8.526437E-2,3.808827E-1,4.415955E-2,8.102285E-4,1E0,1.7427406E-3,3.473024E1,2.5129024E-2,6.374012E-2,4.2935774E-2,1E0,1.4348312E-1,1.3114137E1,4.0093787E-2,1.2625459E-1,1.14702955E-1,1.3641901E-1,3.2257887E-8,4.7495335E-2,5.977437E-2,5.4040086E-2,1E0,6.8587117E0,6.358929E-2,9.501139E-3,7.938559E0,1.405157E-1,8.240358E-4,2.1344425E-1,4.0767908E-2,1.1197026E-1,2.1470936E-1,9.467025E-3,1.5853157E-2,1.1580151E3,9.357468E-3,1.1861917E-1,2.3097776E1,3.3660453E-2,4.740321E-2,1.9181425E1,2.4797878E1,6.550638E-2,6.94667E-2,2.3428442E1,1.3021704E-2,1.183045E-2,2.0996507E-1,1.5601753E-1,2.0052703E-1,1.9251373E-1,5.4203723E-2,1.1847852E-1,4.8326086E-2,1E0,1E0,9.052273E-3,1.1955199E-1,1.5086554E-3,1.5191875E-1,2.1928445E-1,-4.6281332E-1,-6.550824E-2,-8.3022696E-1,3.3474913E-1,-5.720971E-1,3.244369E-1,6.5350163E-1,-4.0620023E-1,-8.245076E-2,-2.6968065E-1,-1.10896885E-1,2.1416583E0,1.6055691E-1,8.116686E-1,-9.400559E-1,-3.6476517E-1,-1.0457565E0,-2.7310136E-1,-8.18432E-1,3.5042596E-1,-4.4951364E-1,5.801441E-1,-4.0437582E-1,-5.380726E-1,-8.9206207E-1,-2.4074574E-1,-5.5575714E-2,-4.3626472E-1,1.942898E-1,-4.578642E-2,-2.227418E-1,-1.0745298E-3,-4.4313374E-1,5.8326542E-2,-5.837963E-1,3.1097186E-1,-1.4757752E0,2.1656059E-1,2.2669299E-1,-5.603866E-1,2.2483104E-1,-4.983603E-1,-3.1744456E-1,-6.0815435E-2,-4.0380707E-1,5.479449E-1,3.0072442E-1,-6.901499E-1,1.1047964E-1,-3.614805E-2,-1.2559989E-1,1.35264E-1,-2.8484255E-1,-1.8423775E-3,-3.4703472E-1,-1.3341619E-2,-5.0485045E-1,-2.8963816E-1,1.4892951E0,-3.729626E-1,-3.5096908E-1,-4.2564532E-1,8.5053825E-1,-4.1822556E-1],"split_indices":[7,72,42,4,22,52,82,58,3,59,48,55,72,17,47,48,24,32,35,52,55,37,55,72,47,14,28,46,33,62,39,32,33,18,28,49,6,58,17,3,28,55,8,3,12,20,3,12,31,35,38,19,25,55,14,27,80,72,13,42,66,35,18,0,0,0,0,0,0,0,0,0,0,0,0,0,0,0,0,0,0,0,0,0,0,0,0,0,0,0,0,0,0,0,0,0,0,0,0,0,0,0,0,0,0,0,0,0,0,0,0,0,0,0,0,0,0,0,0,0,0,0,0,0,0,0,0],"split_type":[0,0,0,0,0,0,0,0,0,0,0,0,0,0,0,0,0,0,0,0,0,0,0,0,0,0,0,0,0,0,0,0,0,0,0,0,0,0,0,0,0,0,0,0,0,0,0,0,0,0,0,0,0,0,0,0,0,0,0,0,0,0,0,0,0,0,0,0,0,0,0,0,0,0,0,0,0,0,0,0,0,0,0,0,0,0,0,0,0,0,0,0,0,0,0,0,0,0,0,0,0,0,0,0,0,0,0,0,0,0,0,0,0,0,0,0,0,0,0,0,0,0,0,0,0,0,0],"sum_hessian":[1.2128276E6,2.2257938E5,9.902482E5,1.6412764E5,5.8451727E4,2.794297E5,7.108185E5,8.20206E3,1.559256E5,3.85813E3,5.4593598E4,1.8975302E5,8.967667E4,6.914691E5,1.9349363E4,5.752603E3,2.4494568E3,1.4842355E5,7.502037E3,3.4983271E3,3.5980273E2,1.4730132E4,3.9863465E4,1.9819455E4,1.6993356E5,6.204121E4,2.763546E4,4.4628056E5,2.4518858E5,1.8757062E4,5.923E2,2.8828763E2,5.4643154E3,1.0241931E3,1.4252637E3,1.4315581E5,5.2677344E3,6.48558E3,1.0164571E3,3.120143E1,3.4671257E3,9.0826454E1,2.689763E2,1.2487858E3,1.3481346E4,2.4886527E4,1.49769375E4,1.2655749E4,7.1637056E3,6.4890094E2,1.6928466E5,1.9448484E4,4.2592727E4,8.4381396E2,2.6791648E4,3.4357312E5,1.0270747E5,4.288556E4,2.0230302E5,1.8469646E4,2.87416E2,2.5180914E2,3.404908E2,2.2591168E2,6.2375954E1,5.487391E1,5.4094414E3,1.7613353E2,8.480596E2,2.3895184E1,1.4013685E3,1.5129842E4,1.2802598E5,4.915532E3,3.5220184E2,5.9739707E3,5.116095E2,4.0959934E1,9.7549713E2,2.9745394E1,1.4560357E0,4.2929295E1,3.4241963E3,4.117101E1,4.965544E1,1.4052159E2,1.284547E2,8.015429E2,4.4724283E2,1.1293517E4,2.1878289E3,1.5735795E4,9.150732E3,6.8280303E3,8.148907E3,8.578401E3,4.0773484E3,2.6984988E2,6.893856E3,5.0466513E2,1.4423578E2,1.6759381E5,1.6908507E3,1.7732668E4,1.7158167E3,3.24081E4,1.0184626E4,7.606452E2,8.3168724E1,2.648711E4,3.04539E2,2.5637872E5,8.719439E4,8.057011E4,2.2137357E4,3.2957363E4,9.928194E3,8.564659E3,1.9373836E5,3.9086282E3,1.4561019E4,1.15329575E2,1.7208641E2,1.2208047E2,1.2972868E2,2.888594E2,5.1631405E1],"tree_param":{"num_deleted":"0","num_feature":"87","num_nodes":"127","size_leaf_vector":"0"}},{"base_weights":[-5.0430405E-3,-3.6034617E-1,1.0126306E-1,-5.130552E-1,3.5489522E-2,1.9694512E-1,-2.0527054E-1,2.5576362E-1,-5.897551E-1,3.9350018E-1,-9.525017E-2,1.1314075E-1,5.9298867E-1,3.7991073E-2,-5.2501017E-1,-9.159292E-1,6.7579854E-1,-7.4380654E-1,-1.1424877E-1,5.506258E-1,-7.2246474E-1,-4.2805424E-1,1.4609109E-1,1.2948452E-1,-1.6093715E0,-1.4915899E0,6.751444E-1,-3.4434494E-1,3.272487E-1,1.5346714E0,-5.779965E-1,-1.0669558E0,3.2265503E0,1.0115949E0,-2.9915854E-1,-8.326754E-1,6.3288003E-1,3.8851857E-2,-1.0532439E0,-1.7072142E0,6.25433E-1,9.1141707E-1,-1.1112618E0,-6.0146266E-1,3.7370598E-1,-5.035973E-1,3.5239697E-1,-4.948129E-1,1.7142433E-1,-1.3408627E-1,-2.1098788E0,-7.961961E-1,-3.1436372E0,7.6825845E-1,-6.214088E-1,-1.0146343E0,3.0172573E-2,4.77894E-1,-4.8081604E-1,-8.703194E-1,1.8259668E0,-7.1770287E-1,8.510588E-2,2.436835E-1,-3.3874705E-1,-3.2904068E-1,1.6437391E0,2.5738525E-1,2.1806736E0,-3.385138E-1,4.0811482E-1,3.6665648E-1,-2.5615802E-1,-2.9473028E-1,3.4684497E-1,5.5111676E-2,-2.862963E-1,1.7620858E0,-3.4139895E-1,-4.314608E-1,-1.0721412E0,-3.3813995E-1,2.0651756E-1,1.5167618E-1,1.2853262E0,-3.1286646E-3,-4.83634E-1,-7.173696E-2,-2.897055E-1,2.972881E-1,-1.3721462E-1,-4.5022905E-1,-7.443485E-2,1.2700376E-1,-4.158034E-1,-5.7110393E-1,-1.1132407E-1,4.0571265E-2,2.6579863E-1,3.2804283E-1,-5.7989013E-1,-6.724962E-1,1.1539409E0,1.1182501E-1,-5.696052E-1,-1.0707359E0,-4.6826848E-1,2.5073776E-1,-5.562257E-2,-3.783033E-1,2.4104258E-1,-3.1605095E-1,4.9862063E-1,-2.3861277E-1,1.2476637E-1,1.1134519E-1,4.7257453E-1,-2.5644523E-1,4.514099E-1,3.1516665E-1,-4.4566122E-1,1.205692E0,4.6133456E-1,-8.45612E-3,-2.672934E-1,3.95885E-1,-1.0035376E-1],"categories":[],"categories_nodes":[],"categories_segments":[],"categories_sizes":[],"default_left":[0,0,0,0,0,0,0,0,0,0,0,0,0,0,0,0,0,0,0,0,0,0,0,0,0,0,0,0,0,0,0,0,0,0,0,0,0,0,0,0,0,0,0,0,0,0,0,0,0,0,0,0,0,0,0,0,0,0,0,0,0,0,0,0,0,0,0,0,0,0,0,0,0,0,0,0,0,0,0,0,0,0,0,0,0,0,0,0,0,0,0,0,0,0,0,0,0,0,0,0,0,0,0,0,0,0,0,0,0,0,0,0,0,0,0,0,0,0,0,0,0,0,0,0,0,0,0],"id":7,"left_children":[1,3,5,7,9,11,13,15,17,19,21,23,25,27,29,31,33,35,37,39,41,43,45,47,49,51,53,55,57,59,61,63,65,67,69,71,73,75,77,79,81,83,85,87,89,91,93,95,97,99,101,103,105,107,109,111,113,115,117,119,121,123,125,-1,-1,-1,-1,-1,-1,-1,-1,-1,-1,-1,-1,-1,-1,-1,-1,-1,-1,-1,-1,-1,-1,-1,-1,-1,-1,-1,-1,-1,-1,-1,-1,-1,-1,-1,-1,-1,-1,-1,-1,-1,-1,-1,-1,-1,-1,-1,-1,-1,-1,-1,-1,-1,-1,-1,-1,-1,-1,-1,-1,-1,-1,-1,-1],"loss_changes":[4.2657457E4,1.5721777E4,2.5495973E4,1.1067492E4,3.389128E3,2.1988219E4,1.6084422E4,8.380023E3,1.2501016E4,3.3966677E3,4.26012E3,1.53936875E4,1.9816277E4,1.2988506E4,9.752203E3,2.8146016E3,4.1036685E3,1.5770492E4,6.0036E3,2.868855E3,1.5198616E3,3.0999592E3,4.1210513E3,1.4182151E4,3.7946426E3,5.037842E3,1.3439414E4,1.2698234E4,8.1391953E3,1.571706E3,8.0699727E3,5.0775977E2,1.5476959E3,8.956855E3,4.421271E3,5.271961E3,6.60819E3,5.1659727E3,3.4436646E3,2.6841113E2,1.8142227E3,6.2769763E2,1.0650977E3,2.4189365E3,2.0345847E3,1.8874619E3,2.878748E3,5.9432676E3,1.3124303E4,2.8794326E3,3.0206445E3,3.9816992E3,8.694551E2,6.689129E3,6.799078E3,1.888209E3,1.0334049E4,6.600543E3,7.803232E3,2.885023E2,1.2574321E3,8.596465E3,7.853722E3,0E0,0E0,0E0,0E0,0E0,0E0,0E0,0E0,0E0,0E0,0E0,0E0,0E0,0E0,0E0,0E0,0E0,0E0,0E0,0E0,0E0,0E0,0E0,0E0,0E0,0E0,0E0,0E0,0E0,0E0,0E0,0E0,0E0,0E0,0E0,0E0,0E0,0E0,0E0,0E0,0E0,0E0,0E0,0E0,0E0,0E0,0E0,0E0,0E0,0E0,0E0,0E0,0E0,0E0,0E0,0E0,0E0,0E0,0E0,0E0,0E0,0E0,0E0,0E0],"parents":[2147483647,0,0,1,1,2,2,3,3,4,4,5,5,6,6,7,7,8,8,9,9,10,10,11,11,12,12,13,13,14,14,15,15,16,16,17,17,18,18,19,19,20,20,21,21,22,22,23,23,24,24,25,25,26,26,27,27,28,28,29,29,30,30,31,31,32,32,33,33,34,34,35,35,36,36,37,37,38,38,39,39,40,40,41,41,42,42,43,43,44,44,45,45,46,46,47,47,48,48,49,49,50,50,51,51,52,52,53,53,54,54,55,55,56,56,57,57,58,58,59,59,60,60,61,61,62,62],"right_children":[2,4,6,8,10,12,14,16,18,20,22,24,26,28,30,32,34,36,38,40,42,44,46,48,50,52,54,56,58,60,62,64,66,68,70,72,74,76,78,80,82,84,86,88,90,92,94,96,98,100,102,104,106,108,110,112,114,116,118,120,122,124,126,-1,-1,-1,-1,-1,-1,-1,-1,-1,-1,-1,-1,-1,-1,-1,-1,-1,-1,-1,-1,-1,-1,-1,-1,-1,-1,-1,-1,-1,-1,-1,-1,-1,-1,-1,-1,-1,-1,-1,-1,-1,-1,-1,-1,-1,-1,-1,-1,-1,-1,-1,-1,-1,-1,-1,-1,-1,-1,-1,-1,-1,-1,-1,-1],"split_conditions":[1.3427996E1,1E0,3.9680037E-1,4.6006937E-2,6.783741E-2,9.041481E-2,3.062035E0,9.7767636E-2,5.3430643E0,1.4879237E2,8.214797E-4,1.0698427E1,4.703685E-2,7.251362E1,1.3623431E-1,1.1171394E-1,1.5348712E-1,1.0271686E-1,1.0070946E-1,6.5727584E-4,5.182257E0,3.1947427E0,-1.8644414E0,1.4112899E-1,5.1579427E-2,4.199999E-2,2.458667E-1,2.8402738E-2,8.017299E-1,1.114339E1,1.9422358E-1,3.8441043E-2,6.702958E-2,2.2932062E0,1.1781665E-1,4.2013727E-2,3.0313751E1,1.6958414E-1,4.562447E0,1.1983212E1,-4.3074107E0,7.754821E-2,1.10415384E-1,8.453168E-2,1.2611435E-1,4.6416476E-2,1.9423386E-2,1.886948E-1,1.4998796E1,4.516387E0,3.7958705E0,3.704604E1,4.816932E-2,1.3173507E-1,3.7426788E-3,1.5527899E1,6.395211E-2,1.6110687E-3,1.3143694E1,7.6986566E-2,1.0283276E-3,4.6533704E-1,1.1335893E-2,2.436835E-1,-3.3874705E-1,-3.2904068E-1,1.6437391E0,2.5738525E-1,2.1806736E0,-3.385138E-1,4.0811482E-1,3.6665648E-1,-2.5615802E-1,-2.9473028E-1,3.4684497E-1,5.5111676E-2,-2.862963E-1,1.7620858E0,-3.4139895E-1,-4.314608E-1,-1.0721412E0,-3.3813995E-1,2.0651756E-1,1.5167618E-1,1.2853262E0,-3.1286646E-3,-4.83634E-1,-7.173696E-2,-2.897055E-1,2.972881E-1,-1.3721462E-1,-4.5022905E-1,-7.443485E-2,1.2700376E-1,-4.158034E-1,-5.7110393E-1,-1.1132407E-1,4.0571265E-2,2.6579863E-1,3.2804283E-1,-5.7989013E-1,-6.724962E-1,1.1539409E0,1.1182501E-1,-5.696052E-1,-1.0707359E0,-4.6826848E-1,2.5073776E-1,-5.562257E-2,-3.783033E-1,2.4104258E-1,-3.1605095E-1,4.9862063E-1,-2.3861277E-1,1.2476637E-1,1.1134519E-1,4.7257453E-1,-2.5644523E-1,4.514099E-1,3.1516665E-1,-4.4566122E-1,1.205692E0,4.6133456E-1,-8.45612E-3,-2.672934E-1,3.95885E-1,-1.0035376E-1],"split_indices":[7,72,40,42,26,36,0,41,1,44,53,1,55,43,41,16,18,16,21,58,46,0,9,25,20,48,25,50,24,2,38,48,5,2,38,23,6,17,46,7,9,22,14,23,17,12,54,4,2,9,0,8,48,33,58,47,48,53,47,37,52,24,11,0,0,0,0,0,0,0,0,0,0,0,0,0,0,0,0,0,0,0,0,0,0,0,0,0,0,0,0,0,0,0,0,0,0,0,0,0,0,0,0,0,0,0,0,0,0,0,0,0,0,0,0,0,0,0,0,0,0,0,0,0,0,0,0],"split_type":[0,0,0,0,0,0,0,0,0,0,0,0,0,0,0,0,0,0,0,0,0,0,0,0,0,0,0,0,0,0,0,0,0,0,0,0,0,0,0,0,0,0,0,0,0,0,0,0,0,0,0,0,0,0,0,0,0,0,0,0,0,0,0,0,0,0,0,0,0,0,0,0,0,0,0,0,0,0,0,0,0,0,0,0,0,0,0,0,0,0,0,0,0,0,0,0,0,0,0,0,0,0,0,0,0,0,0,0,0,0,0,0,0,0,0,0,0,0,0,0,0,0,0,0,0,0,0],"sum_hessian":[1.129372E6,2.600877E5,8.692843E5,1.8768183E5,7.240587E4,6.6249275E5,2.0679155E5,1.7025053E4,1.7065678E5,1.936788E4,5.303799E4,5.4679094E5,1.1570181E5,1.1744154E5,8.935001E4,4.492364E3,1.2532688E4,1.28897E5,4.1759773E4,1.6977928E4,2.3899521E3,2.2294125E4,3.0743865E4,5.416525E5,5.138455E3,4.3863965E3,1.1131542E5,5.058238E4,6.685916E4,2.2402224E3,8.710978E4,4.3350586E3,1.5730522E2,9.321965E3,3.2107236E3,1.2108127E5,7.815731E3,3.5906305E4,5.853468E3,5.437767E2,1.6434152E4,4.591356E2,1.9308167E3,1.83299E4,3.964225E3,7.409328E3,2.3334537E4,3.4096484E4,5.07556E5,1.301993E3,3.8364622E3,3.0880364E3,1.2983604E3,1.0385716E5,7.458263E3,1.8130955E4,3.2451424E4,5.63537E4,1.0505461E4,2.4180945E2,1.9984128E3,7.1950695E4,1.5159089E4,1.3850304E2,4.1965557E3,5.4060524E1,1.032447E2,9.099666E3,2.222988E2,2.141169E3,1.0695548E3,1.2349757E3,1.198463E5,1.9121422E3,5.9035884E3,3.1336682E4,4.569623E3,6.992793E1,5.78354E3,4.7682712E2,6.694952E1,5.693178E2,1.5864834E4,4.1085287E2,4.8282715E1,6.0409125E2,1.3267253E3,9.189531E3,9.140368E3,2.2746418E3,1.6895833E3,1.5101606E3,5.8991675E3,2.2420264E4,9.142718E2,2.75158E3,3.1344904E4,4.8309278E5,2.4463236E4,7.741218E2,5.278712E2,3.7540334E3,8.242869E1,1.4991641E3,1.5888723E3,1.0222879E3,2.760725E2,9.698899E4,6.8681597E3,5.147685E3,2.3105781E3,1.787204E4,2.5891672E2,1.0333506E4,2.2117918E4,5.1359156E4,4.994543E3,8.840744E3,1.6647162E3,5.8487667E1,1.8332178E2,2.3060771E2,1.7678052E3,1.4450153E4,5.7500543E4,3.845004E3,1.1314085E4],"tree_param":{"num_deleted":"0","num_feature":"87","num_nodes":"127","size_leaf_vector":"0"}},{"base_weights":[-6.5198704E-3,-3.162843E-1,7.433292E-2,-9.99726E-1,-2.2298284E-1,9.723942E-2,-9.125167E-1,-2.430012E0,-9.228383E-1,-3.2442018E-1,1.9321215E-1,1.1667455E-1,-1.0292705E0,8.1772125E-1,-9.779922E-1,-5.9075695E-1,-2.9685369E0,-1.0451912E0,-5.241748E-1,-4.9318495E-1,7.082376E-2,6.236352E-1,-6.178891E-1,3.5812488E-1,3.1162769E-2,-1.3612437E0,-6.0531324E-1,1.5674081E1,4.314473E-1,1.2508899E-1,-1.0692306E0,-1.909678E0,1.0762867E0,-2.477583E0,-3.4496486E0,-1.0632902E0,8.753931E-1,5.4441117E-2,-1.128003E0,-5.7677406E-1,5.3550863E-1,1.21819295E-1,-1.5201957E0,-2.1089494E0,7.0393306E-1,-7.543545E-1,1.0416712E0,5.213424E-1,5.5044466E-3,5.7491805E-2,-7.9540485E-1,-1.4547886E0,9.5376545E-1,1.5251004E1,-6.632723E-1,-1.9635269E-1,5.095664E0,-1.1821964E0,1.8162084E0,6.9494205E0,-1.4581272E-1,-1.1416008E0,-1.1829589E-2,-1.1069539E0,-3.4760064E-1,4.259597E-1,-7.9931843E-1,-1.556276E0,-7.0603406E-1,-1.076269E0,-6.769641E-1,-6.278524E-1,-3.099165E-1,3.9829403E-1,-5.7308364E-1,-2.8725347E-1,2.586708E-1,-3.6689445E-1,8.443939E-1,4.540418E-1,-1.7931134E-1,2.9271895E-1,-3.329925E-1,4.681789E-2,-3.8006607E-1,-4.7783723E-1,7.231721E-1,4.473944E-1,-7.191363E-1,-1.3543385E-1,2.7359086E-1,-4.014772E-1,-9.543142E-2,-4.9938884E-1,5.5505145E-1,1.587008E-1,-3.0722687E0,-1.06275596E-1,2.2302108E-1,2.4803199E-2,-2.460907E-1,-1.5062378E-2,-3.5465848E-1,-4.5435148E-1,-1.3491034E-2,-4.5972788E-1,5.366514E-1,-2.352152E-1,5.1123543E0,-2.5548226E-1,2.5196198E-1,-4.7803447E-1,-3.3123815E-1,-4.106921E-1,6.5764165E-1,-2.9390073E-1,2.508288E0,2.6464856E-1,-3.8386437E-1,-4.663851E-1,-2.8220952E-1,2.3053241E-1,-3.7601027E-1],"categories":[],"categories_nodes":[],"categories_segments":[],"categories_sizes":[],"default_left":[0,0,0,0,0,0,0,0,0,0,0,0,0,0,0,0,0,0,0,0,0,0,0,0,0,0,0,0,0,0,0,0,0,0,0,0,0,0,0,0,0,0,0,0,0,0,0,0,0,0,0,0,0,0,0,0,0,0,0,0,0,0,0,0,0,0,0,0,0,0,0,0,0,0,0,0,0,0,0,0,0,0,0,0,0,0,0,0,0,0,0,0,0,0,0,0,0,0,0,0,0,0,0,0,0,0,0,0,0,0,0,0,0,0,0,0,0,0,0,0,0,0,0],"id":8,"left_children":[1,3,5,7,9,11,13,15,17,19,21,23,25,27,29,31,33,35,37,39,41,43,45,47,49,51,53,55,57,59,61,63,65,67,69,71,73,75,77,79,81,83,85,87,89,91,93,95,97,99,101,103,105,107,109,-1,-1,111,113,115,117,119,121,-1,-1,-1,-1,-1,-1,-1,-1,-1,-1,-1,-1,-1,-1,-1,-1,-1,-1,-1,-1,-1,-1,-1,-1,-1,-1,-1,-1,-1,-1,-1,-1,-1,-1,-1,-1,-1,-1,-1,-1,-1,-1,-1,-1,-1,-1,-1,-1,-1,-1,-1,-1,-1,-1,-1,-1,-1,-1,-1,-1],"loss_changes":[2.6668104E4,1.4053748E4,1.9087871E4,2.9091133E3,8.187177E3,1.8067832E4,2.170874E3,1.3353335E3,1.2249805E3,1.0400664E4,1.3267923E4,1.6749656E4,1.9690234E3,4.0044727E3,1.8577441E3,6.770211E2,2.3803809E2,6.691582E2,2.0621963E3,9.395986E3,3.785695E3,5.4493496E3,2.9847397E3,1.2211104E4,1.3037625E4,1.7011025E3,5.6605205E3,3.8983594E2,1.5267621E3,2.6094136E3,1.3045312E3,2.2533795E2,1.7887694E2,1.6280444E2,7.824365E1,5.906719E2,2.2932507E2,2.4654163E3,1.0849841E3,4.4221133E3,5.94974E3,2.1498706E3,4.173423E2,7.391714E2,5.798006E3,3.1009438E3,2.194496E3,1.1962289E4,1.7821848E4,1.2835482E4,5.330467E3,6.3508594E2,6.368816E2,6.573281E2,1.7352048E3,0E0,0E0,8.377075E0,4.4315308E2,6.113462E2,1.5838452E3,1.3224512E3,1.0598171E3,0E0,0E0,0E0,0E0,0E0,0E0,0E0,0E0,0E0,0E0,0E0,0E0,0E0,0E0,0E0,0E0,0E0,0E0,0E0,0E0,0E0,0E0,0E0,0E0,0E0,0E0,0E0,0E0,0E0,0E0,0E0,0E0,0E0,0E0,0E0,0E0,0E0,0E0,0E0,0E0,0E0,0E0,0E0,0E0,0E0,0E0,0E0,0E0,0E0,0E0,0E0,0E0,0E0,0E0,0E0,0E0,0E0,0E0,0E0,0E0],"parents":[2147483647,0,0,1,1,2,2,3,3,4,4,5,5,6,6,7,7,8,8,9,9,10,10,11,11,12,12,13,13,14,14,15,15,16,16,17,17,18,18,19,19,20,20,21,21,22,22,23,23,24,24,25,25,26,26,27,27,28,28,29,29,30,30,31,31,32,32,33,33,34,34,35,35,36,36,37,37,38,38,39,39,40,40,41,41,42,42,43,43,44,44,45,45,46,46,47,47,48,48,49,49,50,50,51,51,52,52,53,53,54,54,57,57,58,58,59,59,60,60,61,61,62,62],"right_children":[2,4,6,8,10,12,14,16,18,20,22,24,26,28,30,32,34,36,38,40,42,44,46,48,50,52,54,56,58,60,62,64,66,68,70,72,74,76,78,80,82,84,86,88,90,92,94,96,98,100,102,104,106,108,110,-1,-1,112,114,116,118,120,122,-1,-1,-1,-1,-1,-1,-1,-1,-1,-1,-1,-1,-1,-1,-1,-1,-1,-1,-1,-1,-1,-1,-1,-1,-1,-1,-1,-1,-1,-1,-1,-1,-1,-1,-1,-1,-1,-1,-1,-1,-1,-1,-1,-1,-1,-1,-1,-1,-1,-1,-1,-1,-1,-1,-1,-1,-1,-1,-1,-1],"split_conditions":[9.0812755E-1,1.1445895E-1,1E0,5.36242E-4,3.4398342E1,1E0,1.3089093E0,6.4352016E0,1E0,1E0,1.5140806E-1,8.509224E-2,2.0070346E-2,5.762702E-2,2.8443101E-3,1.4841859E1,1.4406113E1,3.8934757E1,8.72604E-2,1.0232723E-1,4.556876E0,9.0863995E-2,2.6850939E-2,8.135953E-4,2.8853512E-1,2.3286109E-1,5.762702E-2,1.4515456E2,2.0910667E-1,3.864255E-2,2.411427E1,6.325577E-2,-5.4858144E-2,3.7751988E-2,1.315733E-1,1.303417E-2,1.161027E1,1.0279003E-1,1.6374755E-1,7.5069233E-3,6.1963254E-1,1.2407581E1,8.332957E0,7.3960976E1,4.3728717E-2,1.3127004E-1,2.886317E-1,1.9012231E-3,1E0,1E0,7.609977E-3,1.3331978E0,9.68071E0,2.9812863E-2,1.0884302E1,-1.9635269E-1,5.095664E0,6.3554035E-4,1.5615727E-1,2.3122914E-1,1.9709612E1,1.19280055E-1,6.880539E-2,-1.1069539E0,-3.4760064E-1,4.259597E-1,-7.9931843E-1,-1.556276E0,-7.0603406E-1,-1.076269E0,-6.769641E-1,-6.278524E-1,-3.099165E-1,3.9829403E-1,-5.7308364E-1,-2.8725347E-1,2.586708E-1,-3.6689445E-1,8.443939E-1,4.540418E-1,-1.7931134E-1,2.9271895E-1,-3.329925E-1,4.681789E-2,-3.8006607E-1,-4.7783723E-1,7.231721E-1,4.473944E-1,-7.191363E-1,-1.3543385E-1,2.7359086E-1,-4.014772E-1,-9.543142E-2,-4.9938884E-1,5.5505145E-1,1.587008E-1,-3.0722687E0,-1.06275596E-1,2.2302108E-1,2.4803199E-2,-2.460907E-1,-1.5062378E-2,-3.5465848E-1,-4.5435148E-1,-1.3491034E-2,-4.5972788E-1,5.366514E-1,-2.352152E-1,5.1123543E0,-2.5548226E-1,2.5196198E-1,-4.7803447E-1,-3.3123815E-1,-4.106921E-1,6.5764165E-1,-2.9390073E-1,2.508288E0,2.6464856E-1,-3.8386437E-1,-4.663851E-1,-2.8220952E-1,2.3053241E-1,-3.7601027E-1],"split_indices":[9,17,82,52,3,76,9,46,72,72,19,42,15,14,15,10,7,3,22,16,2,38,29,52,18,35,14,6,18,55,7,20,9,42,42,49,2,41,14,49,4,10,5,43,36,23,44,60,72,71,12,5,1,16,47,0,0,52,35,24,10,26,20,0,0,0,0,0,0,0,0,0,0,0,0,0,0,0,0,0,0,0,0,0,0,0,0,0,0,0,0,0,0,0,0,0,0,0,0,0,0,0,0,0,0,0,0,0,0,0,0,0,0,0,0,0,0,0,0,0,0,0,0],"split_type":[0,0,0,0,0,0,0,0,0,0,0,0,0,0,0,0,0,0,0,0,0,0,0,0,0,0,0,0,0,0,0,0,0,0,0,0,0,0,0,0,0,0,0,0,0,0,0,0,0,0,0,0,0,0,0,0,0,0,0,0,0,0,0,0,0,0,0,0,0,0,0,0,0,0,0,0,0,0,0,0,0,0,0,0,0,0,0,0,0,0,0,0,0,0,0,0,0,0,0,0,0,0,0,0,0,0,0,0,0,0,0,0,0,0,0,0,0,0,0,0,0,0,0],"sum_hessian":[1.064792E6,2.203978E5,8.4439425E5,2.647275E4,1.9392505E5,8.2523994E5,1.9154354E4,1.3489327E3,2.5123816E4,1.5592289E5,3.8002164E4,8.112448E5,1.3995115E4,6.979889E2,1.8456365E4,3.0598416E2,1.0429486E3,1.9222625E4,5.9011914E3,1.0926689E5,4.6655992E4,2.4827377E4,1.3174788E4,2.1216742E5,5.990774E5,7.847803E3,6.1473125E3,1.668525E1,6.8130365E2,1.4099199E3,1.7046445E4,1.707476E2,1.3523656E2,5.192381E2,5.237105E2,1.904361E4,1.7901544E2,3.0139734E3,2.8872183E3,1.0105579E5,8.211104E3,4.5207906E4,1.4480854E3,7.080133E2,2.4119365E4,1.2174247E4,1.000541E3,1.450347E5,6.713273E4,5.805847E5,1.8492697E4,7.543363E3,3.0444052E2,2.1433544E1,6.125879E3,1.2777218E0,1.5407527E1,3.147158E2,3.6658783E2,5.2890606E1,1.3570293E3,1.5954419E4,1.0920265E3,4.950036E1,1.2124724E2,1.2442833E2,1.08082285E1,2.0956196E1,4.9828192E2,4.6764667E2,5.606383E1,5.4135925E2,1.850225E4,1.5446194E2,2.4553486E1,1.3378353E3,1.676138E3,2.8199749E3,6.7243416E1,1.0011696E3,1.0005462E5,6.4783413E3,1.732763E3,4.4120934E4,1.0869708E3,1.4224105E3,2.5674852E1,5.2161358E1,6.55852E2,3.6800688E3,2.0439295E4,5.2052124E3,6.969034E3,2.2990819E2,7.706329E2,1.449325E5,1.0220727E2,4.5130336E4,2.200239E4,5.643921E5,1.6192539E4,6.319179E3,1.2173518E4,7.236758E3,3.0660498E2,7.633616E1,2.2810437E2,2.2089994E0,1.9224545E1,5.444188E3,6.816909E2,4.7114758E1,2.6760104E2,3.8420147E1,3.281677E2,8.038967E0,4.485164E1,7.11827E2,6.4520233E2,5.218816E3,1.0735603E4,6.708178E2,4.2120868E2],"tree_param":{"num_deleted":"0","num_feature":"87","num_nodes":"123","size_leaf_vector":"0"}},{"base_weights":[-6.495465E-3,2.3652045E-1,-8.5822046E-2,-7.16034E-1,3.0085725E-1,-6.0247306E-2,-6.767018E-1,-9.93478E-1,1.4919405E-2,3.4621498E-1,-9.3555206E-1,-1.9286655E-1,8.1735685E-2,-1.717037E0,-5.021252E-1,-1.1448725E0,3.5379216E-1,-1.1406171E0,5.5798465E-1,4.000516E-1,-5.17705E-1,-1.1846105E0,1.327981E0,-3.1021404E-1,1.0050201E-1,-1.155795E0,1.12559386E-1,-1.3596616E0,-4.059195E0,6.2685475E0,-5.216015E-1,-1.2237025E0,1.0616832E0,-1.7278848E0,8.9813E-1,2.3666124E0,-1.2667588E0,9.1935414E-1,-1.4186376E0,-1.0847154E-1,5.2609557E-1,8.613492E-1,-9.09298E-1,-5.1525015E-1,-1.551556E0,-1.4588811E0,2.2362454E0,2.6150616E-2,-4.8864353E-1,5.2469516E-1,-2.879485E-2,-1.0535808E0,-7.006468E0,-3.9542747E-1,1.8350683E-1,-1.6798674E0,-5.298569E-1,-5.035781E-1,-5.6738386E0,-3.4350297E-1,1.0441198E1,-6.766843E-1,2.8598893E-1,-4.0129393E-2,-3.893455E-1,1.076762E-1,9.496441E-1,-4.4828936E-1,-5.6910115E-1,3.5370842E-1,-5.7950735E-1,-3.7974435E-1,8.117712E-1,-4.2075428E-1,8.650111E-3,3.7391686E-1,-3.906785E-1,-3.7998697E-1,-4.9478883E-1,-3.4831506E-1,4.0476315E-2,1.6891637E-1,-1.9078971E-1,-5.3545946E-1,3.2207853E-1,-3.0836195E-1,1.8923001E-1,-4.071439E-1,3.285821E-2,-6.365088E-1,-3.8468665E-1,-4.2248413E-1,-7.053845E-1,-4.48093E-1,7.491598E-1,-6.870521E-2,2.4873994E-1,-1.9132476E-1,-3.4145378E-3,1.9470963E-1,-3.5206538E-1,4.911294E-3,-3.095554E-1,-3.7594315E-1,1.0462863E-1,-4.2223502E-2,-2.422614E0,-5.471072E-2,-2.51544E-1,7.200888E-2,-1.5423131E-1,-1.0739089E-1,-5.6296617E-1,-3.207183E-1,7.928199E-1,2.7620178E-1,-1.4136252E0,-1.9488856E0,-6.872163E-1,-1.7132412E-1,3.2101111E0,9.22611E-2,-2.6551133E-1,-2.649687E-1,3.1328925E-1],"categories":[],"categories_nodes":[],"categories_segments":[],"categories_sizes":[],"default_left":[0,0,0,0,0,0,0,0,0,0,0,0,0,0,0,0,0,0,0,0,0,0,0,0,0,0,0,0,0,0,0,0,0,0,0,0,0,0,0,0,0,0,0,0,0,0,0,0,0,0,0,0,0,0,0,0,0,0,0,0,0,0,0,0,0,0,0,0,0,0,0,0,0,0,0,0,0,0,0,0,0,0,0,0,0,0,0,0,0,0,0,0,0,0,0,0,0,0,0,0,0,0,0,0,0,0,0,0,0,0,0,0,0,0,0,0,0,0,0,0,0,0,0,0,0],"id":9,"left_children":[1,3,5,7,9,11,13,15,17,19,21,23,25,27,29,31,33,35,37,39,41,43,45,47,49,51,53,55,57,59,61,63,65,67,69,71,73,75,77,79,81,83,85,87,89,91,93,95,97,99,101,103,105,107,109,111,113,115,117,-1,119,121,123,-1,-1,-1,-1,-1,-1,-1,-1,-1,-1,-1,-1,-1,-1,-1,-1,-1,-1,-1,-1,-1,-1,-1,-1,-1,-1,-1,-1,-1,-1,-1,-1,-1,-1,-1,-1,-1,-1,-1,-1,-1,-1,-1,-1,-1,-1,-1,-1,-1,-1,-1,-1,-1,-1,-1,-1,-1,-1,-1,-1,-1,-1],"loss_changes":[1.9652523E4,1.537522E4,1.1614241E4,3.2190376E3,1.3179744E4,1.3871521E4,5.790093E3,2.3472393E3,2.7418083E3,1.0543793E4,4.689998E3,1.3112987E4,1.3571533E4,3.8292021E3,3.6039053E3,1.8005205E3,1.3194757E3,6.2099414E2,2.1243823E3,1.3677887E4,7.182329E3,1.8395322E3,2.0910889E3,1.6329125E4,5.968994E3,5.163326E3,1.251101E4,1.0556592E3,3.4761855E3,2.4370708E3,3.4102695E3,8.06626E2,5.2715576E2,6.702881E0,7.3567944E2,6.3624695E1,2.3731592E2,1.8277886E3,1.4033203E1,1.0859394E4,7.3449453E3,1.6540479E3,1.8921377E3,1.3964436E3,7.401738E2,5.871216E0,6.096118E2,1.9322332E4,1.2650645E4,5.3689546E3,3.778718E3,2.3789492E3,1.0871099E3,4.0155835E3,1.2010635E4,7.451948E2,1.8993204E3,1.1452653E3,1.1444131E3,0E0,1.4955957E2,4.6843135E3,3.8905227E3,0E0,0E0,0E0,0E0,0E0,0E0,0E0,0E0,0E0,0E0,0E0,0E0,0E0,0E0,0E0,0E0,0E0,0E0,0E0,0E0,0E0,0E0,0E0,0E0,0E0,0E0,0E0,0E0,0E0,0E0,0E0,0E0,0E0,0E0,0E0,0E0,0E0,0E0,0E0,0E0,0E0,0E0,0E0,0E0,0E0,0E0,0E0,0E0,0E0,0E0,0E0,0E0,0E0,0E0,0E0,0E0,0E0,0E0,0E0,0E0,0E0,0E0],"parents":[2147483647,0,0,1,1,2,2,3,3,4,4,5,5,6,6,7,7,8,8,9,9,10,10,11,11,12,12,13,13,14,14,15,15,16,16,17,17,18,18,19,19,20,20,21,21,22,22,23,23,24,24,25,25,26,26,27,27,28,28,29,29,30,30,31,31,32,32,33,33,34,34,35,35,36,36,37,37,38,38,39,39,40,40,41,41,42,42,43,43,44,44,45,45,46,46,47,47,48,48,49,49,50,50,51,51,52,52,53,53,54,54,55,55,56,56,57,57,58,58,60,60,61,61,62,62],"right_children":[2,4,6,8,10,12,14,16,18,20,22,24,26,28,30,32,34,36,38,40,42,44,46,48,50,52,54,56,58,60,62,64,66,68,70,72,74,76,78,80,82,84,86,88,90,92,94,96,98,100,102,104,106,108,110,112,114,116,118,-1,120,122,124,-1,-1,-1,-1,-1,-1,-1,-1,-1,-1,-1,-1,-1,-1,-1,-1,-1,-1,-1,-1,-1,-1,-1,-1,-1,-1,-1,-1,-1,-1,-1,-1,-1,-1,-1,-1,-1,-1,-1,-1,-1,-1,-1,-1,-1,-1,-1,-1,-1,-1,-1,-1,-1,-1,-1,-1,-1,-1,-1,-1,-1,-1],"split_conditions":[1.5207644E-2,9.94069E-3,1.2604524E1,1.6944952E-1,2.9037303E-1,8.516566E0,5.0946303E-2,1.7769038E-3,3.8591393E1,1.4985673E1,1.1422028E1,1E0,4.3865585E1,2.7470358E-2,3.0071495E-2,5.8161967E-2,1.0703008E-1,4.1228123E-2,3.102172E-1,4.7026683E-2,1.8990338E-2,1.7007459E-2,3.810315E1,7.725677E-4,5.501217E0,1.3240046E1,1.9208297E-2,1.1788368E1,4.6130326E-2,3.8705832E-1,1E0,2.7626175E-2,1.6419436E-1,1.407613E-1,3.9268594E-2,7.932979E-2,2.023098E-1,5.0649296E-2,1E0,1.3051193E-2,2.3815586E-1,1.2360862E-2,2.6083344E-1,1.2222416E1,1.433134E-1,4.8733495E-2,2.958306E-1,6.0336787E-2,1E0,2.4632171E-1,2.2522837E-1,1E0,4.751873E-2,2.9981907E-2,1.1490025E1,5.292145E-2,2.732595E-1,1.3180886E-1,1.6351553E-2,-3.4350297E-1,1.6115147E1,1.4533682E-1,5.86516E-2,-4.0129393E-2,-3.893455E-1,1.076762E-1,9.496441E-1,-4.4828936E-1,-5.6910115E-1,3.5370842E-1,-5.7950735E-1,-3.7974435E-1,8.117712E-1,-4.2075428E-1,8.650111E-3,3.7391686E-1,-3.906785E-1,-3.7998697E-1,-4.9478883E-1,-3.4831506E-1,4.0476315E-2,1.6891637E-1,-1.9078971E-1,-5.3545946E-1,3.2207853E-1,-3.0836195E-1,1.8923001E-1,-4.071439E-1,3.285821E-2,-6.365088E-1,-3.8468665E-1,-4.2248413E-1,-7.053845E-1,-4.48093E-1,7.491598E-1,-6.870521E-2,2.4873994E-1,-1.9132476E-1,-3.4145378E-3,1.9470963E-1,-3.5206538E-1,4.911294E-3,-3.095554E-1,-3.7594315E-1,1.0462863E-1,-4.2223502E-2,-2.422614E0,-5.471072E-2,-2.51544E-1,7.200888E-2,-1.5423131E-1,-1.0739089E-1,-5.6296617E-1,-3.207183E-1,7.928199E-1,2.7620178E-1,-1.4136252E0,-1.9488856E0,-6.872163E-1,-1.7132412E-1,3.2101111E0,9.22611E-2,-2.6551133E-1,-2.649687E-1,3.1328925E-1],"split_indices":[16,16,9,17,25,2,55,52,8,9,47,72,43,12,20,29,22,36,18,55,29,13,8,52,44,2,16,47,55,5,72,4,17,33,48,4,35,55,80,50,19,16,34,9,23,29,41,55,80,18,34,72,55,50,47,20,18,38,28,0,7,23,48,0,0,0,0,0,0,0,0,0,0,0,0,0,0,0,0,0,0,0,0,0,0,0,0,0,0,0,0,0,0,0,0,0,0,0,0,0,0,0,0,0,0,0,0,0,0,0,0,0,0,0,0,0,0,0,0,0,0,0,0,0,0],"split_type":[0,0,0,0,0,0,0,0,0,0,0,0,0,0,0,0,0,0,0,0,0,0,0,0,0,0,0,0,0,0,0,0,0,0,0,0,0,0,0,0,0,0,0,0,0,0,0,0,0,0,0,0,0,0,0,0,0,0,0,0,0,0,0,0,0,0,0,0,0,0,0,0,0,0,0,0,0,0,0,0,0,0,0,0,0,0,0,0,0,0,0,0,0,0,0,0,0,0,0,0,0,0,0,0,0,0,0,0,0,0,0,0,0,0,0,0,0,0,0,0,0,0,0,0,0],"sum_hessian":[1.01944544E6,2.5087902E5,7.6856644E5,1.5872E4,2.3500702E5,7.366821E5,3.188433E4,1.1504819E4,4.3671807E3,2.2669155E5,8.315469E3,3.8090103E5,3.5578106E5,4.5803447E3,2.7303986E4,1.0342742E4,1.162077E3,1.3958931E3,2.9712876E3,2.1339408E5,1.329747E4,7.4916353E3,8.238341E2,2.720721E5,1.08828945E5,8.645347E3,3.4713572E5,3.9753508E3,6.049937E2,7.739597E1,2.722659E4,9.986419E3,3.5632346E2,2.4043236E2,9.2164465E2,4.784532E1,1.3480479E3,2.5124856E3,4.5880203E2,4.238646E4,1.7100761E5,2.9405781E3,1.0356892E4,2.6535642E3,4.838071E3,2.0234993E2,6.2148413E2,9.430146E4,1.7777062E5,2.542204E4,8.340691E4,8.498062E3,1.4728545E2,4.2540355E4,3.0459538E5,2.8677258E3,1.1076251E3,1.8934587E2,4.1564783E2,2.8134659E1,4.926131E1,2.284063E4,4.385959E3,6.3601776E2,9.350401E3,2.6797754E2,8.8345924E1,1.0510178E2,1.3533058E2,8.389508E2,8.269385E1,3.8539991E0,4.3991325E1,1.2201183E3,1.27929565E2,2.1904736E3,3.2201212E2,2.8045837E2,1.7834366E2,7.95977E3,3.442669E4,1.657369E5,5.270697E3,2.1779315E2,2.722785E3,9.616793E3,7.400987E2,1.129873E3,1.5236913E3,1.5497622E3,3.2883083E3,1.9393173E2,8.418207E0,4.032884E1,5.8115533E2,7.156165E4,2.2739809E4,1.354524E5,4.2318227E4,2.3688318E4,1.7337192E3,7.981401E4,3.592898E3,7.4394785E3,1.0585828E3,1.9993982E1,1.27291466E2,2.8727209E4,1.3813145E4,2.8176638E5,2.2828982E4,3.7179205E2,2.4959336E3,9.472896E2,1.6033551E2,1.4205319E2,4.729268E1,3.3362286E2,8.202496E1,1.105021E0,4.8156292E1,3.99038E3,1.8850252E4,1.7254163E3,2.660543E3],"tree_param":{"num_deleted":"0","num_feature":"87","num_nodes":"125","size_leaf_vector":"0"}},{"base_weights":[-6.0373554E-3,-1.9455987E-1,6.352457E-2,-3.814583E-1,1.1861099E-1,-4.034079E-1,1.05661936E-1,-8.4408276E-2,-6.1139876E-1,1.8993907E-1,-7.414637E-1,-2.3789163E-1,-1.2728065E0,-4.582731E-3,3.291264E-1,-2.9938278E-1,7.14392E-1,-6.445261E-1,1.8961776E0,6.956648E-1,4.758676E-2,-9.0152705E-1,4.8313987E-1,-4.9686915E-1,3.0906942E-1,-9.9391353E-1,-3.7850344E0,3.1358412E-1,-8.9470185E-2,-4.6945214E-1,4.350543E-1,6.561384E-2,-7.686531E-1,-9.4155955E-1,9.689435E-1,-6.807203E-1,1.3569978E0,2.8613818E-1,4.909723E0,7.694125E-1,-1.46111E0,-1.6576852E0,7.153393E-2,-1.2311286E0,3.479134E-2,1.0690006E0,-4.3853775E-1,-8.667634E-1,3.9481306E-1,-1.3520845E0,5.915837E-1,6.057615E-1,-1.2762693E0,-4.7708225E0,-1.4890674E0,-1.5653938E0,3.7751663E-1,5.084713E-2,-3.4279907E-1,4.5179003E-1,-7.078889E-1,-1.2187539E0,4.6821633E-1,-3.0894354E-1,7.035961E-2,-3.217783E-1,-9.1349244E-2,7.2536856E-1,-3.1817892E-1,2.4775532E-1,1.1250359E0,8.4632754E-2,-2.2613645E-1,-2.4304652E-1,1.0354414E0,-1.6270056E-1,4.975811E-1,4.4899087E0,1.1958681E0,-4.1204554E-1,2.4454847E-1,-4.0458545E-1,-5.2048E-1,-5.6391853E-1,7.033127E-1,8.631618E-2,-2.0270258E-2,1.6266793E-1,-3.9990827E-1,-3.0688545E-1,2.0389636E-1,-2.7869976E-1,5.403667E-1,-1.8766017E-1,-4.5451277E-1,1.862336E-1,-5.4279727E-1,-9.5687187E-1,-2.762325E-1,2.4269837E-1,-4.485552E-1,-4.195083E-1,6.7600083E-1,-4.9546862E-1,-2.5811574E-1,-1.8573807E0,-6.220466E-1,-2.8605518E-1,-2.8267365E0,-9.1612303E-1,-1.664323E-1,-4.655624E-1,1.2414111E-1,-1.3339602E-2,1.554724E-1,-1.6651526E-1,6.2296417E-2,-7.542005E-1,2.1633486E-1,-5.032189E-1,-1.4663425E-1,-6.040577E-1,-2.2841029E-1,1.5227404E-1,-2.2430007E-1],"categories":[],"categories_nodes":[],"categories_segments":[],"categories_sizes":[],"default_left":[0,0,0,0,0,0,0,0,0,0,0,0,0,0,0,0,0,0,0,0,0,0,0,0,0,0,0,0,0,0,0,0,0,0,0,0,0,0,0,0,0,0,0,0,0,0,0,0,0,0,0,0,0,0,0,0,0,0,0,0,0,0,0,0,0,0,0,0,0,0,0,0,0,0,0,0,0,0,0,0,0,0,0,0,0,0,0,0,0,0,0,0,0,0,0,0,0,0,0,0,0,0,0,0,0,0,0,0,0,0,0,0,0,0,0,0,0,0,0,0,0,0,0,0,0],"id":10,"left_children":[1,3,5,7,9,11,13,15,17,19,21,23,25,27,29,31,33,35,37,39,41,43,45,47,49,51,53,55,57,59,61,63,65,67,69,71,73,75,77,79,81,83,85,87,89,91,-1,93,95,97,99,101,103,105,107,109,111,113,115,117,119,121,123,-1,-1,-1,-1,-1,-1,-1,-1,-1,-1,-1,-1,-1,-1,-1,-1,-1,-1,-1,-1,-1,-1,-1,-1,-1,-1,-1,-1,-1,-1,-1,-1,-1,-1,-1,-1,-1,-1,-1,-1,-1,-1,-1,-1,-1,-1,-1,-1,-1,-1,-1,-1,-1,-1,-1,-1,-1,-1,-1,-1,-1,-1],"loss_changes":[1.2664585E4,1.5235414E4,1.3879711E4,1.113424E4,5.9683154E3,8.402202E3,1.5940461E4,1.2214343E4,7.634039E3,6.467325E3,1.4608191E3,6.9486826E3,6.5391514E3,1.170242E4,1.8082453E4,9.599613E3,6.358825E3,6.5706484E3,5.8126978E3,3.1397266E3,2.862909E3,2.033644E3,9.83657E2,1.0980828E4,7.398588E3,3.7978848E3,2.1040361E3,1.0962862E4,1.2158084E4,5.499255E3,1.0350988E4,5.8337466E3,3.4588926E3,8.06421E2,5.1998916E3,6.2669688E3,7.3158193E3,8.901771E2,3.8151416E3,1.8717109E3,1.776709E1,8.671575E2,2.079007E3,8.814419E2,1.1716218E3,9.7155524E2,0E0,3.6788906E3,4.863061E3,1.813169E3,6.1136807E3,4.169903E3,1.1138779E3,2.4856934E3,1.1876227E3,4.5152725E3,6.179418E3,9.805799E3,1.424459E4,4.113667E3,4.2237803E3,1.3471914E3,8.855609E3,0E0,0E0,0E0,0E0,0E0,0E0,0E0,0E0,0E0,0E0,0E0,0E0,0E0,0E0,0E0,0E0,0E0,0E0,0E0,0E0,0E0,0E0,0E0,0E0,0E0,0E0,0E0,0E0,0E0,0E0,0E0,0E0,0E0,0E0,0E0,0E0,0E0,0E0,0E0,0E0,0E0,0E0,0E0,0E0,0E0,0E0,0E0,0E0,0E0,0E0,0E0,0E0,0E0,0E0,0E0,0E0,0E0,0E0,0E0,0E0,0E0,0E0],"parents":[2147483647,0,0,1,1,2,2,3,3,4,4,5,5,6,6,7,7,8,8,9,9,10,10,11,11,12,12,13,13,14,14,15,15,16,16,17,17,18,18,19,19,20,20,21,21,22,22,23,23,24,24,25,25,26,26,27,27,28,28,29,29,30,30,31,31,32,32,33,33,34,34,35,35,36,36,37,37,38,38,39,39,40,40,41,41,42,42,43,43,44,44,45,45,47,47,48,48,49,49,50,50,51,51,52,52,53,53,54,54,55,55,56,56,57,57,58,58,59,59,60,60,61,61,62,62],"right_children":[2,4,6,8,10,12,14,16,18,20,22,24,26,28,30,32,34,36,38,40,42,44,46,48,50,52,54,56,58,60,62,64,66,68,70,72,74,76,78,80,82,84,86,88,90,92,-1,94,96,98,100,102,104,106,108,110,112,114,116,118,120,122,124,-1,-1,-1,-1,-1,-1,-1,-1,-1,-1,-1,-1,-1,-1,-1,-1,-1,-1,-1,-1,-1,-1,-1,-1,-1,-1,-1,-1,-1,-1,-1,-1,-1,-1,-1,-1,-1,-1,-1,-1,-1,-1,-1,-1,-1,-1,-1,-1,-1,-1,-1,-1,-1,-1,-1,-1,-1,-1,-1,-1,-1,-1],"split_conditions":[5.272174E0,1E0,1.5362023E-1,1.1735223E-1,2.2445937E-1,1.7971335E-1,1E0,4.5909584E-1,1E0,3.1931653E0,2.5078468E-3,1.599067E-1,3.2385737E-2,7.3564E-2,3.64461E-2,7.311462E-2,2.7900636E0,1.0072005E3,2.6585315E-3,1.0006452E1,4.4150814E-2,4.7161132E-2,2.4396704E-1,1.4147925E-1,1.4885451E-1,1.6064295E1,7.972005E-4,1.1424371E-1,9.005572E0,7.898902E-2,3.526914E-2,8.1450894E-2,1.8494922E-1,1.0889702E-1,6.292066E0,3.018491E-3,9.864186E-2,6.835911E-2,8.1318733E-4,2.5881823E1,3.0769672E1,4.0708094E0,3.1312108E-2,3.105324E-2,1.1408286E1,6.434423E-2,-4.3853775E-1,2.2034846E-2,8.470108E-2,7.2218885E-4,2.080789E-1,9.372659E0,7.78531E-3,1.2627218E1,8.306853E-2,7.7636894E1,1.1226632E-1,6.5071344E-2,6.1941773E-2,3.4984306E1,1.2598401E-1,7.560358E-3,1.6395897E-1,-3.0894354E-1,7.035961E-2,-3.217783E-1,-9.1349244E-2,7.2536856E-1,-3.1817892E-1,2.4775532E-1,1.1250359E0,8.4632754E-2,-2.2613645E-1,-2.4304652E-1,1.0354414E0,-1.6270056E-1,4.975811E-1,4.4899087E0,1.1958681E0,-4.1204554E-1,2.4454847E-1,-4.0458545E-1,-5.2048E-1,-5.6391853E-1,7.033127E-1,8.631618E-2,-2.0270258E-2,1.6266793E-1,-3.9990827E-1,-3.0688545E-1,2.0389636E-1,-2.7869976E-1,5.403667E-1,-1.8766017E-1,-4.5451277E-1,1.862336E-1,-5.4279727E-1,-9.5687187E-1,-2.762325E-1,2.4269837E-1,-4.485552E-1,-4.195083E-1,6.7600083E-1,-4.9546862E-1,-2.5811574E-1,-1.8573807E0,-6.220466E-1,-2.8605518E-1,-2.8267365E0,-9.1612303E-1,-1.664323E-1,-4.655624E-1,1.2414111E-1,-1.3339602E-2,1.554724E-1,-1.6651526E-1,6.2296417E-2,-7.542005E-1,2.1633486E-1,-5.032189E-1,-1.4663425E-1,-6.040577E-1,-2.2841029E-1,1.5227404E-1,-2.2430007E-1],"split_indices":[1,72,34,19,18,18,79,40,78,44,60,41,50,4,48,22,1,44,66,47,21,45,25,22,35,7,58,23,9,26,55,19,34,41,5,50,14,20,53,8,3,4,13,24,7,55,0,13,30,52,25,2,31,9,14,43,22,20,48,8,39,15,17,0,0,0,0,0,0,0,0,0,0,0,0,0,0,0,0,0,0,0,0,0,0,0,0,0,0,0,0,0,0,0,0,0,0,0,0,0,0,0,0,0,0,0,0,0,0,0,0,0,0,0,0,0,0,0,0,0,0,0,0,0,0],"split_type":[0,0,0,0,0,0,0,0,0,0,0,0,0,0,0,0,0,0,0,0,0,0,0,0,0,0,0,0,0,0,0,0,0,0,0,0,0,0,0,0,0,0,0,0,0,0,0,0,0,0,0,0,0,0,0,0,0,0,0,0,0,0,0,0,0,0,0,0,0,0,0,0,0,0,0,0,0,0,0,0,0,0,0,0,0,0,0,0,0,0,0,0,0,0,0,0,0,0,0,0,0,0,0,0,0,0,0,0,0,0,0,0,0,0,0,0,0,0,0,0,0,0,0,0,0],"sum_hessian":[9.65729E5,2.6029405E5,7.05435E5,1.6301028E5,9.728376E4,5.839044E4,6.4704456E5,7.112647E4,9.188382E4,8.983436E4,7.449402E3,4.9052996E4,9.337444E3,4.3328653E5,2.13758E5,5.6044344E4,1.5082125E4,9.068651E4,1.1973079E3,1.9731535E4,7.010282E4,6.588507E3,8.60895E2,3.329054E4,1.5762459E4,8.405689E3,9.317553E2,9.125411E4,3.4203244E5,2.5033076E4,1.8872492E5,3.1525104E4,2.4519242E4,2.0091517E3,1.3072973E4,8.9076375E4,1.6101373E3,7.810912E2,4.162167E2,1.9079773E4,6.517614E2,9.698773E2,6.9132945E4,4.8728555E3,1.715651E3,6.6195E2,1.9894499E2,2.3529771E4,9.760767E3,2.2905405E3,1.3471918E4,1.2609098E3,7.14478E3,6.5111633E2,2.8063895E2,3.0019924E3,8.825212E4,2.2011364E5,1.2191879E5,5.1467627E3,1.9886314E4,3.709203E3,1.8501572E5,4.211119E3,2.7313984E4,1.4816017E4,9.703225E3,6.809389E1,1.9410579E3,1.243451E4,6.3846295E2,6.2828643E3,8.279351E4,7.916401E2,8.184973E2,4.8745142E2,2.9363974E2,3.3727413E1,3.824893E2,3.9821527E2,1.8681559E4,4.6617346E2,1.8558798E2,9.1939746E2,5.0479877E1,2.7066328E4,4.2066617E4,2.645499E2,4.6083057E3,6.495819E2,1.0660691E3,1.774572E2,4.8449283E2,1.7150068E4,6.3797036E3,8.853804E3,9.069633E2,4.3422714E2,1.8563134E3,1.220133E4,1.2705884E3,5.689662E2,6.9194366E2,3.7541077E3,3.390672E3,4.256624E2,2.2545395E2,2.6394153E2,1.6697412E1,1.2132318E3,1.7887607E3,1.6283925E3,8.662373E4,1.8283106E5,3.728257E4,8.799025E4,3.392854E4,4.2777826E2,4.7189844E3,3.6645947E3,1.6221719E4,1.3536492E3,2.355554E3,1.792143E5,5.8014165E3],"tree_param":{"num_deleted":"0","num_feature":"87","num_nodes":"125","size_leaf_vector":"0"}},{"base_weights":[-6.147894E-3,8.953093E-3,-7.99457E-1,1.8301038E-1,-4.9079783E-2,-1.2023683E0,-5.814312E-1,-6.9365406E-1,2.2524606E-1,6.833264E-1,-6.438031E-2,-2.7935022E-1,-1.3059641E0,-9.3715656E-1,-2.2621958E-1,-9.536972E-1,-7.278923E-2,2.480542E-1,-1.3144125E0,8.9171183E-1,-1.2635113E0,2.153482E-2,-2.023209E-1,-1.1691444E0,2.242809E0,-1.3227694E0,4.224885E0,-1.0741171E0,3.443265E-1,1.283981E0,-4.9217197E-1,1.4899933E0,-1.0343392E0,-1.4259346E0,1.629095E-1,2.9529464E-1,-4.357182E-1,-5.496838E-1,-1.553346E0,9.8970705E-1,-2.1329093E0,1.59982E0,-1.5214651E0,4.9188554E-2,-1.1143142E0,-8.3743906E-1,-1.0572756E-1,6.1991215E-1,-1.6661241E0,2.8900328E0,-3.8599625E-1,-1.695395E0,-1.1771258E0,1.4221877E0,-2.604805E-1,-1.1940786E0,4.1885006E-1,-1.1599445E0,1.2322685E0,5.3322285E-1,5.7987776E0,-1.2892464E-2,-1.0573028E0,1.0384071E0,-3.9886177E-1,6.109504E-2,-3.3443606E-1,-4.0588093E-1,-6.0138166E-1,1.2002628E-1,-4.3392137E-1,2.917626E-2,1.3212875E-1,-1.410732E-2,-3.5858238E-1,-4.4952735E-1,1.5471107E-1,-4.9475363E-1,-1.6608647E-1,-5.04369E-1,3.2187134E-1,-3.8091537E-1,-1.1827714E0,-4.317532E-1,1.2679671E0,-5.8886236E-1,-3.9633775E-1,7.243344E-2,-3.3474483E-2,1.4460006E-1,-3.8153067E-1,-8.615228E-2,-3.5685715E-1,-1.2920074E-2,-2.1167193E-1,2.7884653E-1,-5.909718E-1,-1.4163041E0,-4.2120245E-1,7.2526765E-1,1.2580276E0,-5.5657476E-1,-3.7606847E-1,-1.524436E-1,-3.6067858E-1,-1.0162155E-1,-3.8211834E-1,3.8384676E-1,-1.4531697E-1,-3.2649544E-1,-3.791621E-1,4.4217658E-1,-3.677377E-1,-3.5411298E-1,3.262336E-1,1.8026531E0,-2.7194217E-1,-2.1270066E-1,2.8480577E-1,-3.6722273E-1,9.9286646E-2],"categories":[],"categories_nodes":[],"categories_segments":[],"categories_sizes":[],"default_left":[0,0,0,0,0,0,0,0,0,0,0,0,0,0,0,0,0,0,0,0,0,0,0,0,0,0,0,0,0,0,0,0,0,0,0,0,0,0,0,0,0,0,0,0,0,0,0,0,0,0,0,0,0,0,0,0,0,0,0,0,0,0,0,0,0,0,0,0,0,0,0,0,0,0,0,0,0,0,0,0,0,0,0,0,0,0,0,0,0,0,0,0,0,0,0,0,0,0,0,0,0,0,0,0,0,0,0,0,0,0,0,0,0,0,0,0,0,0,0,0,0],"id":11,"left_children":[1,3,5,7,9,11,13,15,17,19,21,23,25,27,29,31,33,35,37,39,41,43,45,47,49,51,53,55,57,59,61,63,65,67,69,71,73,75,77,79,81,83,85,87,89,91,93,95,97,99,-1,101,103,-1,-1,105,107,109,111,113,115,117,119,-1,-1,-1,-1,-1,-1,-1,-1,-1,-1,-1,-1,-1,-1,-1,-1,-1,-1,-1,-1,-1,-1,-1,-1,-1,-1,-1,-1,-1,-1,-1,-1,-1,-1,-1,-1,-1,-1,-1,-1,-1,-1,-1,-1,-1,-1,-1,-1,-1,-1,-1,-1,-1,-1,-1,-1,-1,-1],"loss_changes":[1.0985264E4,9.089508E3,1.5040137E3,8.331294E3,7.562591E3,5.746543E2,1.4044629E3,1.6696953E3,7.5386094E3,5.6036597E3,7.834169E3,1.3673181E3,5.0810156E2,9.7516406E2,2.2352273E3,1.4379624E3,9.7428705E2,6.8329277E3,5.717363E2,3.6997227E3,9.889646E2,1.2794757E4,1.5564381E4,4.0129132E2,3.6676367E2,2.905664E2,4.776184E1,8.99209E2,7.187474E2,2.8215708E3,1.2814875E3,1.3011738E3,7.030415E2,1.6430481E1,9.937177E2,5.686992E3,4.0358647E3,7.563936E2,2.2779053E2,2.687121E3,6.070453E2,8.911291E2,1.0580591E2,1.2291273E4,2.434038E3,6.4883496E3,8.277175E3,8.0879295E1,2.756917E2,7.275598E1,0E0,1.0451123E2,6.461914E1,0E0,0E0,3.1601953E2,2.9131534E2,1.12213135E-1,2.026864E2,6.809326E2,1.7266528E2,1.7161862E3,5.0308545E2,0E0,0E0,0E0,0E0,0E0,0E0,0E0,0E0,0E0,0E0,0E0,0E0,0E0,0E0,0E0,0E0,0E0,0E0,0E0,0E0,0E0,0E0,0E0,0E0,0E0,0E0,0E0,0E0,0E0,0E0,0E0,0E0,0E0,0E0,0E0,0E0,0E0,0E0,0E0,0E0,0E0,0E0,0E0,0E0,0E0,0E0,0E0,0E0,0E0,0E0,0E0,0E0,0E0,0E0,0E0,0E0,0E0,0E0],"parents":[2147483647,0,0,1,1,2,2,3,3,4,4,5,5,6,6,7,7,8,8,9,9,10,10,11,11,12,12,13,13,14,14,15,15,16,16,17,17,18,18,19,19,20,20,21,21,22,22,23,23,24,24,25,25,26,26,27,27,28,28,29,29,30,30,31,31,32,32,33,33,34,34,35,35,36,36,37,37,38,38,39,39,40,40,41,41,42,42,43,43,44,44,45,45,46,46,47,47,48,48,49,49,51,51,52,52,55,55,56,56,57,57,58,58,59,59,60,60,61,61,62,62],"right_children":[2,4,6,8,10,12,14,16,18,20,22,24,26,28,30,32,34,36,38,40,42,44,46,48,50,52,54,56,58,60,62,64,66,68,70,72,74,76,78,80,82,84,86,88,90,92,94,96,98,100,-1,102,104,-1,-1,106,108,110,112,114,116,118,120,-1,-1,-1,-1,-1,-1,-1,-1,-1,-1,-1,-1,-1,-1,-1,-1,-1,-1,-1,-1,-1,-1,-1,-1,-1,-1,-1,-1,-1,-1,-1,-1,-1,-1,-1,-1,-1,-1,-1,-1,-1,-1,-1,-1,-1,-1,-1,-1,-1,-1,-1,-1,-1,-1,-1,-1,-1,-1],"split_conditions":[1E0,1.5854362E-2,9.218214E0,8.406736E-3,1.8001022E-2,4.939544E-3,6.5299004E-2,2.6007655E-1,7.675903E-1,1.0416252E-1,1.773675E-1,9.999312E-3,2.8357107E1,1.29808655E1,8.7492816E-2,1.2186814E-1,2.2432121E1,2.4344681E-1,2.1165714E1,1.2476891E-1,1.2727752E-1,1.9805363E-1,1.169153E-1,8.350954E-3,5.9991956E-1,4.9617995E-2,8.924157E0,7.014807E-2,5.1563278E-2,9.712946E-3,1.4713761E-1,1.1789158E1,3.408166E0,3.8655632E1,2.2474876E2,4.9966473E-2,1.4623835E-3,8.180585E-2,2.4000815E-1,1.8621139E-1,1.12100495E-2,9.569508E-2,8.550036E-4,7.085479E-1,8.0318575E0,3.5400593E0,5.791656E-3,3.6139194E1,1.01828076E-1,3.272957E1,-3.8599625E-1,6.276238E-1,1.7027363E-2,1.4221877E0,-2.604805E-1,1.6194195E-2,7.29088E-2,2.1637652E-2,2.0986108E-1,7.601837E-2,4.2307585E-1,2.1689832E-1,2.7048037E1,1.0384071E0,-3.9886177E-1,6.109504E-2,-3.3443606E-1,-4.0588093E-1,-6.0138166E-1,1.2002628E-1,-4.3392137E-1,2.917626E-2,1.3212875E-1,-1.410732E-2,-3.5858238E-1,-4.4952735E-1,1.5471107E-1,-4.9475363E-1,-1.6608647E-1,-5.04369E-1,3.2187134E-1,-3.8091537E-1,-1.1827714E0,-4.317532E-1,1.2679671E0,-5.8886236E-1,-3.9633775E-1,7.243344E-2,-3.3474483E-2,1.4460006E-1,-3.8153067E-1,-8.615228E-2,-3.5685715E-1,-1.2920074E-2,-2.1167193E-1,2.7884653E-1,-5.909718E-1,-1.4163041E0,-4.2120245E-1,7.2526765E-1,1.2580276E0,-5.5657476E-1,-3.7606847E-1,-1.524436E-1,-3.6067858E-1,-1.0162155E-1,-3.8211834E-1,3.8384676E-1,-1.4531697E-1,-3.2649544E-1,-3.791621E-1,4.4217658E-1,-3.677377E-1,-3.5411298E-1,3.262336E-1,1.8026531E0,-2.7194217E-1,-2.1270066E-1,2.8480577E-1,-3.6722273E-1,9.9286646E-2],"split_indices":[82,16,47,16,32,28,36,25,24,37,41,12,10,47,37,17,7,41,10,33,25,35,26,49,40,48,1,16,27,54,23,9,9,8,43,55,52,30,38,35,31,18,58,44,47,9,58,3,40,8,0,44,27,0,0,27,32,29,25,36,40,18,7,0,0,0,0,0,0,0,0,0,0,0,0,0,0,0,0,0,0,0,0,0,0,0,0,0,0,0,0,0,0,0,0,0,0,0,0,0,0,0,0,0,0,0,0,0,0,0,0,0,0,0,0,0,0,0,0,0,0],"split_type":[0,0,0,0,0,0,0,0,0,0,0,0,0,0,0,0,0,0,0,0,0,0,0,0,0,0,0,0,0,0,0,0,0,0,0,0,0,0,0,0,0,0,0,0,0,0,0,0,0,0,0,0,0,0,0,0,0,0,0,0,0,0,0,0,0,0,0,0,0,0,0,0,0,0,0,0,0,0,0,0,0,0,0,0,0,0,0,0,0,0,0,0,0,0,0,0,0,0,0,0,0,0,0,0,0,0,0,0,0,0,0,0,0,0,0,0,0,0,0,0,0],"sum_hessian":[9.1698444E5,8.9985625E5,1.712817E4,2.2500361E5,6.748527E5,6.012523E3,1.1115647E4,1.0341199E4,2.146624E5,1.3808801E4,6.610439E5,6.070983E2,5.405425E3,5.5529893E3,5.5626577E3,7.28811E3,3.053089E3,2.1152969E5,3.1327131E3,1.2474138E4,1.3346633E3,4.073378E5,2.5370606E5,4.4917133E2,1.5792699E2,5.389809E3,1.5615889E1,5.016956E3,5.360331E2,8.323518E2,4.730306E3,2.3226671E2,7.055843E3,4.5216455E2,2.6009246E3,1.9786048E5,1.3669203E4,7.4656494E2,2.3861482E3,1.208332E4,3.9081686E2,1.098713E2,1.2247921E3,3.9765728E5,9.680531E3,3.3490766E4,2.202153E5,9.759518E1,3.5157617E2,1.3360756E2,2.4319433E1,1.5116497E3,3.8781592E3,1.4242851E1,1.3730373E0,4.6440054E3,3.7295056E2,1.9885114E2,3.3718195E2,7.146345E2,1.177173E2,2.560124E3,2.170182E3,1.3655936E2,9.5707344E1,4.304358E2,6.625407E3,4.0447836E2,4.7686184E1,2.267496E3,3.3342856E2,8.3679266E4,1.1418123E5,9.042748E3,4.626455E3,3.9468585E2,3.5187906E2,2.1768296E3,2.0931848E2,3.6443497E2,1.1718886E4,2.6575558E2,1.2506128E2,5.1147926E1,5.8723377E1,3.7960562E2,8.4518646E2,1.8109508E5,2.165622E5,8.689399E2,8.811592E3,1.3068359E4,2.0422404E4,1.9938803E5,2.0827262E4,8.774732E1,9.847855E0,2.6437943E1,3.251382E2,1.0015619E2,3.345137E1,1.1076912E3,4.039585E2,1.4120818E2,3.7369512E3,3.9605774E2,4.2479478E3,1.9076569E2,1.8218488E2,1.2451135E2,7.433978E1,3.0736508E2,2.9816872E1,1.743701E2,5.402644E2,1.1424212E2,3.475183E0,1.485641E3,1.074483E3,1.9375415E3,2.3264047E2],"tree_param":{"num_deleted":"0","num_feature":"87","num_nodes":"121","size_leaf_vector":"0"}},{"base_weights":[-5.245741E-3,5.199667E-3,-8.801905E-1,1.6967569E-2,-7.1340704E-1,5.999979E-1,-1.2420546E0,2.7354864E-2,-7.5727427E-1,-1.0981182E0,-5.162101E-1,-1.1172928E0,1.2834041E0,-2.4955814E0,-1.0913131E0,-6.78739E-1,3.8571276E-2,-1.1517425E0,-3.3132002E-1,-2.620996E-1,-1.2077779E0,-8.5883355E-1,-2.1231699E-1,-1.093559E0,-4.9354467E-1,1.1392558E1,9.813033E-1,-2.5867198E0,6.752339E-1,-1.114319E0,6.9999495E0,-7.313184E-1,1.8969859E0,-5.234769E-1,5.2213274E-2,3.615167E-2,-1.246403E0,-8.7727815E-1,2.2613165E-1,-1.3419735E0,8.850084E-1,-1.2247192E0,1.7343956E0,-1.0234313E0,1.3910747E-1,7.130481E-2,-1.0459495E0,-3.1486893E-1,-3.7495965E-1,-3.045835E-1,3.9083695E0,-2.1181753E0,1.2316638E0,-2.2673004E0,-2.8558233E0,-4.465578E-1,4.2132393E-1,-2.7217734E-1,-1.3200123E0,2.9095807E0,-2.7451476E-1,-2.4988712E-1,1.4714159E-1,-3.57629E-1,7.1372676E-1,-2.4930866E-1,-4.608683E-2,2.0229273E-2,-1.4382009E-1,-4.2253664E-1,2.22317E-1,-4.0344962E-1,-3.6685E-2,-2.8212762E-1,3.7563338E0,1.9931875E-1,-4.14053E-1,-2.041688E-1,-5.283676E-1,3.844102E-1,-3.4553343E-1,-4.4627222E-1,-3.3467054E-1,5.6942886E-1,-2.3215882E-1,-3.4815994E-1,1.0741974E-1,1.7733945E0,-2.5007138E-2,-3.2134125E-1,9.811877E-2,3.2317072E-1,-3.5414973E-1,-5.541985E-1,-1.2128999E0,3.532638E-1,2.9201584E0,-7.6181555E-1,-6.199073E-1,-8.777192E-1,-6.0885316E-1,-4.972727E-1,2.3959105E-1,-4.2120877E-1,2.1011148E-1],"categories":[],"categories_nodes":[],"categories_segments":[],"categories_sizes":[],"default_left":[0,0,0,0,0,0,0,0,0,0,0,0,0,0,0,0,0,0,0,0,0,0,0,0,0,0,0,0,0,0,0,0,0,0,0,0,0,0,0,0,0,0,0,0,0,0,0,0,0,0,0,0,0,0,0,0,0,0,0,0,0,0,0,0,0,0,0,0,0,0,0,0,0,0,0,0,0,0,0,0,0,0,0,0,0,0,0,0,0,0,0,0,0,0,0,0,0,0,0,0,0,0,0,0,0],"id":12,"left_children":[1,3,5,7,9,11,13,15,17,19,21,23,25,27,29,31,33,35,37,39,41,43,45,47,-1,49,51,53,55,57,59,61,63,65,67,69,71,73,75,77,79,81,83,85,87,89,91,-1,-1,-1,-1,93,95,97,99,-1,-1,101,103,-1,-1,-1,-1,-1,-1,-1,-1,-1,-1,-1,-1,-1,-1,-1,-1,-1,-1,-1,-1,-1,-1,-1,-1,-1,-1,-1,-1,-1,-1,-1,-1,-1,-1,-1,-1,-1,-1,-1,-1,-1,-1,-1,-1,-1,-1],"loss_changes":[8.137396E3,7.440749E3,5.627171E3,6.9622896E3,1.0749434E3,2.4240146E3,1.5923037E3,6.76554E3,1.9253062E3,4.4004395E2,9.7589746E2,5.569336E0,4.499745E3,2.6337402E2,1.4107471E3,1.8104282E3,6.4475337E3,6.690884E2,1.6776987E3,6.9273346E2,2.1376807E2,7.238865E2,1.1750133E3,2.5793457E0,0E0,8.809795E2,1.1163812E3,6.918848E1,4.3251324E1,1.3016377E3,4.6823682E2,1.6260923E3,4.0121362E2,2.2665015E3,6.6415684E3,4.4921143E2,6.095781E2,2.367941E3,1.9213978E3,7.8651794E1,2.2050392E2,1.1948389E2,1.1620346E1,7.16824E2,8.027025E2,1.0840183E3,3.616687E2,0E0,0E0,0E0,0E0,4.8647034E1,5.9988196E2,1.7023926E1,2.14375E1,0E0,0E0,2.1920674E3,1.0263486E3,0E0,0E0,0E0,0E0,0E0,0E0,0E0,0E0,0E0,0E0,0E0,0E0,0E0,0E0,0E0,0E0,0E0,0E0,0E0,0E0,0E0,0E0,0E0,0E0,0E0,0E0,0E0,0E0,0E0,0E0,0E0,0E0,0E0,0E0,0E0,0E0,0E0,0E0,0E0,0E0,0E0,0E0,0E0,0E0,0E0,0E0],"parents":[2147483647,0,0,1,1,2,2,3,3,4,4,5,5,6,6,7,7,8,8,9,9,10,10,11,11,12,12,13,13,14,14,15,15,16,16,17,17,18,18,19,19,20,20,21,21,22,22,23,23,25,25,26,26,27,27,28,28,29,29,30,30,31,31,32,32,33,33,34,34,35,35,36,36,37,37,38,38,39,39,40,40,41,41,42,42,43,43,44,44,45,45,46,46,51,51,52,52,53,53,54,54,57,57,58,58],"right_children":[2,4,6,8,10,12,14,16,18,20,22,24,26,28,30,32,34,36,38,40,42,44,46,48,-1,50,52,54,56,58,60,62,64,66,68,70,72,74,76,78,80,82,84,86,88,90,92,-1,-1,-1,-1,94,96,98,100,-1,-1,102,104,-1,-1,-1,-1,-1,-1,-1,-1,-1,-1,-1,-1,-1,-1,-1,-1,-1,-1,-1,-1,-1,-1,-1,-1,-1,-1,-1,-1,-1,-1,-1,-1,-1,-1,-1,-1,-1,-1,-1,-1,-1,-1,-1,-1,-1,-1],"split_conditions":[1.0722248E1,1E0,1.2014316E1,